
#include <eml_net.h>
static const float rede_neural_layer_0_biases[30] = { -0.410785f, -0.092424f, 0.163602f, 0.282358f, 0.022171f, 0.348183f, -0.175203f, 0.133108f, -0.222233f, -0.033601f, -0.032035f, 0.059676f, -0.557403f, 0.476590f, 0.014324f, 0.126049f, -0.005299f, 0.737988f, 0.639627f, -0.071377f, 0.315181f, 0.135980f, 0.193715f, -0.002635f, 0.005720f, 0.222362f, 0.166417f, -0.036863f, 0.257518f, 0.399137f };
static const float rede_neural_layer_0_weights[1920] = { -0.032337f, -0.239514f, 0.025091f, -0.032677f, -0.040232f, -0.085719f, -0.149219f, 0.060259f, -0.101220f, -0.117805f, 0.061200f, 0.014723f, -0.184620f, 0.006860f, -0.159429f, 0.144159f, 0.178837f, -0.002912f, 0.175092f, -0.212374f, 0.002650f, -0.219628f, -0.036314f, -0.203843f, -0.188368f, 0.048878f, -0.138426f, -0.198581f, -0.141308f, -0.075872f, 0.067549f, 0.040171f, 0.086892f, -0.158286f, -0.096601f, -0.061138f, 0.195994f, -0.107359f, -0.047757f, -0.191396f, 0.416823f, -0.154125f, 0.061473f, -0.224162f, -0.027139f, -0.123620f, -0.132681f, 0.085764f, -0.252811f, 0.087222f, 0.424258f, -0.468288f, -0.186005f, -0.031419f, -0.135095f, -0.172434f, -0.264245f, -0.195852f, 0.376672f, 0.550613f, 0.104499f, 0.317397f, 0.306002f, -0.173720f, -0.496180f, 0.064039f, -0.247341f, -0.611425f, 0.442298f, -0.383419f, 0.537329f, -0.073818f, -0.306621f, -0.238237f, -0.027212f, -0.017435f, -0.495835f, -0.376489f, -0.159527f, -0.077094f, 0.464783f, -0.650345f, 0.349033f, -0.191297f, 0.298188f, -0.085565f, -0.282544f, 0.310985f, 0.167553f, 0.215709f, -0.323982f, -0.089662f, 0.260596f, 0.064300f, -0.600450f, -0.398182f, 0.097575f, 0.239335f, 0.549536f, -0.054441f, 0.033290f, -0.502052f, -0.024513f, 0.985374f, 0.274335f, 0.548803f, -0.524143f, 0.012448f, 0.142876f, 0.125019f, -0.159000f, -0.134355f, -0.287235f, 0.098971f, 0.504270f, 0.024789f, 0.189523f, -0.566224f, -0.201529f, 0.363667f, 0.118816f, 0.308296f, 0.273114f, 0.227135f, -0.495496f, -0.223222f, -0.061762f, 0.258196f, 0.224100f, -0.202589f, -0.564341f, -0.941922f, -0.332068f, 0.937208f, -0.049747f, -0.252724f, -0.088126f, 0.233492f, 0.441305f, -0.134634f, 0.533061f, -0.201611f, -0.428438f, -0.260523f, 0.009134f, 0.235226f, 0.479980f, -0.186237f, 0.070513f, 0.609168f, 0.330292f, -0.139925f, -0.054764f, 0.216760f, -0.470677f, -0.365698f, -0.247087f, -0.334973f, 0.008442f, -0.016271f, 0.134728f, -0.870226f, -0.060288f, -0.099097f, -0.092363f, -0.691483f, -0.350368f, -0.252322f, 0.183304f, -0.371716f, 0.418696f, 0.645823f, -0.619625f, -0.299851f, -0.046875f, 0.157187f, 0.392272f, 0.821600f, 0.129832f, 0.883752f, 0.163083f, 0.013163f, -0.057156f, 0.227839f, -0.291158f, 0.141744f, -0.053193f, -0.289160f, -0.224581f, -0.158783f, 0.348651f, -0.664368f, 0.029987f, -0.534708f, -0.213953f, -0.446679f, -0.029612f, -0.225958f, -0.102833f, -0.197103f, 0.155738f, 0.585157f, -0.156306f, -0.423265f, 0.222430f, -0.044515f, 0.257748f, 0.342020f, 0.512827f, 0.625531f, 0.103096f, 0.179069f, -0.223562f, -0.259999f, -0.182903f, -0.088896f, 0.149027f, -0.144016f, 0.034506f, 0.072272f, 0.053072f, -0.133187f, -0.193365f, 0.304170f, -0.245718f, 0.065719f, 0.229629f, -0.237354f, 0.317537f, -0.000454f, -0.228984f, 0.112330f, -0.147096f, -0.128408f, 0.173177f, -0.191234f, 0.426664f, -0.266632f, 0.084337f, -0.211770f, -0.051597f, -0.164835f, 0.397913f, -0.015037f, -0.135092f, -0.135699f, 0.023038f, -0.141623f, 0.190009f, 0.244147f, -0.196120f, 0.117850f, -0.102406f, -0.220695f, -0.047917f, -0.107516f, -0.170121f, -0.239061f, -0.195866f, -0.040975f, 0.203276f, -0.210697f, 0.293700f, -0.191298f, -0.153933f, 0.159148f, 0.141477f, 0.009162f, 0.021029f, 0.083110f, -0.116119f, 0.173388f, -0.208235f, -0.369474f, -0.035836f, 0.042094f, -0.089928f, 0.105026f, 0.418564f, -0.411039f, 0.363948f, -0.044368f, -0.283762f, 0.073289f, -0.211526f, 0.023233f, -0.331970f, 0.297112f, -0.374864f, 0.325526f, 0.546827f, -0.403902f, -0.264683f, -0.467975f, 0.425488f, -0.015607f, 0.360485f, -0.047657f, -0.233788f, 0.133535f, -0.328617f, 0.007987f, 0.086192f, -0.233055f, -0.115322f, -0.055697f, -0.055135f, -0.044096f, -0.200688f, -0.112421f, 0.396429f, 0.019362f, -0.363812f, 0.588127f, -0.264616f, 0.042864f, -0.256152f, 0.558882f, 0.300109f, 0.235096f, 0.096672f, -0.765629f, 0.381803f, -0.331613f, 0.219948f, -0.362244f, 0.134350f, -0.182082f, -0.339955f, 0.267136f, -0.240872f, -0.219322f, 0.007115f, 0.336065f, -0.125390f, 0.005196f, -0.110133f, 0.189161f, -0.018187f, 0.331877f, 0.052653f, -0.568372f, -0.393424f, -0.215056f, 0.281701f, -0.167108f, 0.136349f, -0.084637f, -0.066683f, -0.079120f, -0.008233f, -0.138221f, 0.153735f, -0.394021f, 0.166072f, 0.218761f, -0.377134f, -0.498428f, 0.359228f, 0.735862f, 0.546574f, 0.246983f, -0.005251f, -0.385792f, -0.432627f, 0.342906f, -0.070350f, 0.351883f, 0.737957f, -0.260486f, 0.075212f, -0.913651f, 0.598743f, 0.131330f, -0.084592f, -0.188800f, -0.562968f, -0.365080f, -0.218256f, 0.334781f, -0.177090f, 0.079429f, -0.892991f, 0.310122f, 0.880962f, -0.463865f, 0.294265f, 0.127081f, -0.410806f, 0.523065f, 0.364883f, 0.001770f, 0.471136f, -0.241790f, -0.393295f, -0.048809f, -0.101858f, -0.195042f, -0.151354f, -0.274249f, -0.450590f, -0.344105f, -0.149446f, 0.242083f, -0.187060f, 0.260035f, -0.114957f, 0.392786f, 0.353492f, -0.021162f, -0.336038f, -0.152409f, -0.009140f, 0.115678f, -0.104372f, -0.183538f, 0.145778f, 0.297165f, -0.466958f, -0.057343f, 0.049741f, 0.305725f, -0.016013f, 0.137900f, -0.119533f, -0.081386f, -0.084792f, 0.027212f, -0.163252f, 0.060293f, -0.159639f, -0.358372f, -0.445325f, 0.112327f, 0.008616f, -0.171990f, 0.081528f, 0.187324f, 0.144516f, -0.281007f, 0.191722f, 0.314444f, -0.200830f, -0.226687f, -0.034948f, -0.181588f, -0.054279f, -0.100818f, 0.029006f, 0.124518f, -0.392646f, -0.033526f, -0.085905f, 0.082582f, 0.157717f, -0.012807f, -0.177231f, -0.082291f, -0.070837f, 0.052084f, -0.059747f, 0.288107f, -0.118995f, 0.233382f, -0.265661f, 0.293795f, 0.333881f, -0.247212f, -0.194875f, -0.138395f, -0.181265f, -0.046723f, -0.079885f, 0.244362f, 0.072491f, 0.107274f, 0.191270f, -0.407399f, 0.331559f, 0.052237f, -0.003534f, 0.125369f, 0.035841f, -0.176598f, 0.018531f, 0.074224f, 0.054491f, 0.007532f, 0.087652f, 0.043792f, 0.144150f, -0.210239f, 0.206013f, -0.033863f, 0.110644f, -0.062341f, -0.233106f, 0.079811f, -0.111613f, 0.060934f, -0.165814f, -0.142096f, -0.123051f, 0.140556f, 0.256114f, 0.260408f, -0.054783f, 0.129479f, -0.184577f, 0.041238f, 0.434160f, 0.056014f, -0.218608f, -0.103123f, -0.571548f, -0.375859f, -0.277869f, -0.221568f, -0.025523f, -0.008018f, 0.142781f, -0.379617f, -0.241656f, -0.327986f, -0.405428f, 0.198512f, 0.108129f, 0.149756f, 0.338016f, 0.048507f, 0.619515f, 0.065768f, -0.175925f, -0.443730f, -0.141060f, 0.027020f, 0.620863f, -0.072613f, -0.268943f, -0.495068f, -0.094291f, -0.478147f, 0.102604f, 0.713419f, -0.013136f, -0.354595f, 0.014829f, -0.089781f, -0.131639f, 0.659924f, 0.399376f, 0.379390f, -0.223552f, -1.178166f, 0.296882f, 0.344574f, 0.049148f, 0.254034f, 0.725998f, -0.383658f, 0.222250f, 0.051074f, 0.341015f, -0.655372f, -0.431708f, -0.360440f, 0.146441f, -0.506534f, -0.058228f, -0.459983f, 0.120539f, 0.086848f, -0.231815f, -0.031038f, 0.247608f, -0.405283f, -0.088969f, -0.044655f, 0.504715f, 0.153211f, 0.006326f, 0.215491f, 0.678891f, -1.259118f, 0.113177f, -0.036397f, -0.142595f, -0.459100f, 0.099537f, -0.610727f, 0.136801f, 0.688505f, 0.560954f, 0.665144f, -0.298014f, -0.262214f, 0.452364f, -0.111611f, -0.186831f, -0.644362f, 0.516779f, 0.004679f, -0.116699f, -0.933891f, 0.024571f, -0.168349f, -0.302601f, 0.201218f, 0.487692f, -0.803177f, -0.271739f, 0.083293f, 0.707098f, 0.349759f, -1.013474f, -0.877636f, -0.235863f, -0.215207f, -0.286767f, 0.000704f, 0.031178f, 0.544299f, -0.163708f, 0.511439f, 0.533067f, -0.030765f, 0.979282f, 0.668964f, -0.672444f, -0.514553f, 0.008405f, -0.301713f, 0.278085f, -0.407124f, -0.350342f, 0.343341f, -0.458453f, 0.327526f, 0.082128f, -0.482076f, -0.319369f, 0.231339f, -0.070299f, 0.246493f, -0.429189f, 1.466876f, -0.005095f, 0.623022f, 1.130986f, -0.207385f, -0.342368f, -0.626880f, 0.117606f, 0.080904f, -0.143631f, -0.296032f, 0.196739f, -0.871056f, -0.339917f, -1.203824f, -0.128603f, -0.179143f, -0.047663f, -0.260309f, -0.269876f, 0.363253f, -0.268008f, -0.034264f, -0.182404f, -0.339879f, 0.224310f, 0.046963f, 0.141248f, -0.120404f, -0.149813f, 0.331716f, 0.208673f, 0.502927f, 0.291215f, -0.130071f, -0.521696f, -0.211493f, -0.036955f, 0.263210f, 0.411999f, -0.242548f, -0.297955f, -0.327170f, -0.264718f, -0.721812f, 0.014563f, 0.199657f, -0.142010f, -0.266303f, 0.262800f, 0.155662f, -0.162841f, 0.038447f, -0.195679f, -0.337385f, -0.256648f, 0.075071f, -0.021626f, -0.200531f, -0.248081f, -0.130811f, 0.205502f, -0.272111f, -0.198950f, 0.187582f, -0.022256f, -0.000450f, 0.174579f, -0.128518f, 0.113596f, -0.154418f, 0.312424f, 0.068715f, -0.166995f, 0.212970f, -0.210730f, 0.049102f, -0.026547f, 0.037348f, 0.112368f, 0.167751f, -0.003239f, -0.225397f, 0.215091f, -0.221680f, 0.142726f, -0.193309f, 0.229211f, 0.044359f, -0.104480f, 0.180007f, -0.166159f, -0.163414f, -0.120549f, -0.047476f, -0.157784f, 0.221275f, -0.045070f, 0.240484f, -0.121126f, -0.017825f, 0.143727f, 0.253277f, -0.037958f, -0.027141f, 0.222915f, -0.046426f, -0.095296f, 0.521199f, -0.345588f, -0.218340f, 0.029004f, 0.060963f, -0.484868f, 0.785595f, 0.103911f, 0.253938f, 0.136371f, -0.620135f, 0.069684f, 0.205080f, -0.092112f, -0.117367f, -0.144891f, -0.094364f, 0.478896f, 0.136798f, -0.152648f, 0.090056f, -0.071693f, 0.033564f, 0.153385f, 0.388801f, 0.340274f, 0.205985f, -0.124862f, -0.131315f, -0.066459f, 0.688272f, -0.215364f, 0.019860f, -0.431859f, -0.310398f, -0.347535f, 0.858953f, 0.695694f, 0.506145f, 0.635033f, -1.174046f, 0.095809f, 0.338643f, 0.365532f, -0.585124f, 0.264630f, -0.658381f, 0.360438f, 0.132154f, -0.151792f, 0.042939f, -0.268607f, -0.496461f, 0.374727f, -0.349630f, 0.311308f, -0.394782f, -0.205125f, -0.107961f, -0.115224f, 0.195216f, -0.013644f, -1.138592f, -0.542778f, 0.093056f, -0.014140f, 0.139922f, 0.144645f, -0.263472f, 0.295701f, -0.155529f, -0.483378f, 0.149124f, 0.132667f, 0.441844f, 1.574282f, -0.847395f, 0.463640f, 0.031745f, 0.355230f, 0.334626f, -0.638166f, -0.063234f, 0.887311f, -0.182173f, 0.126988f, -0.002651f, 0.073081f, 0.259291f, -0.376871f, -0.594214f, 0.176754f, -0.604883f, -0.177619f, -0.647246f, -0.186559f, -0.973219f, 0.135619f, -0.002312f, 0.290540f, 0.333470f, -1.412983f, -0.570095f, 0.164307f, -0.413256f, 0.582515f, -0.036282f, 0.284245f, -0.105147f, 0.124808f, 0.287312f, 0.392835f, 0.417321f, 0.786072f, 0.498157f, -0.277691f, 0.289393f, -0.308205f, -0.102407f, -0.267317f, -0.407379f, -0.128608f, 0.398346f, -0.472997f, -0.346017f, 0.392756f, -0.214368f, 0.472051f, -0.159855f, 0.089171f, -0.832732f, -0.495222f, 1.147032f, 0.076695f, 0.061266f, 0.983565f, -0.462055f, -0.913264f, -0.358433f, -0.281845f, 0.012443f, 0.941075f, -0.789356f, 0.375791f, -0.473885f, -0.192815f, -0.238527f, -0.209040f, 0.160536f, 0.172182f, -0.288829f, 0.060910f, 0.684644f, -0.508893f, 0.064836f, -0.032684f, 0.053359f, 0.007337f, 0.477357f, 0.533740f, -0.198265f, 0.321323f, 1.166288f, -0.008218f, -0.529333f, -0.103469f, -0.143009f, -0.625994f, -0.233256f, -0.163588f, 0.245108f, 0.701985f, -0.508462f, 0.184282f, -0.585609f, 0.176553f, -0.026650f, -0.191215f, 0.182162f, 0.003107f, -0.100019f, -0.079007f, 0.181347f, -0.175892f, 0.232154f, -0.002528f, 0.067404f, -0.095383f, 0.196100f, -0.037804f, 0.205219f, -0.193720f, -0.142779f, -0.210325f, 0.233548f, 0.097296f, -0.055819f, 0.061538f, -0.127268f, 0.029965f, 0.168626f, 0.203982f, -0.219559f, 0.111258f, 0.073991f, -0.069771f, -0.091498f, -0.186336f, 0.063265f, -0.146000f, -0.061467f, -0.049892f, 0.062874f, 0.230012f, 0.246839f, -0.101584f, -0.118973f, 0.111280f, 0.095791f, -0.115517f, 0.225319f, 0.152262f, -0.152262f, -0.001743f, -0.205983f, 0.012606f, 0.035068f, -0.160997f, -0.214934f, -0.161632f, -0.006161f, -0.224354f, -0.164685f, -0.154544f, -0.035819f, 0.018297f, -0.066934f, -0.252112f, 0.171135f, 0.070601f, 0.456707f, -0.076343f, 0.465573f, -0.066142f, 0.192946f, 0.039123f, 0.425700f, -0.053723f, 0.507033f, 0.449175f, -0.212145f, 0.315303f, -0.264787f, 0.102658f, -0.660643f, -0.654166f, -0.280646f, -0.425054f, 0.486363f, 0.292066f, 0.315698f, -0.398565f, 0.063677f, -0.408488f, 0.060585f, -0.027603f, 0.120747f, -0.292744f, -0.273046f, 0.521910f, 0.376627f, 0.248852f, -0.089433f, -0.003634f, 0.113441f, 0.095022f, 0.503594f, 0.081859f, -0.108481f, 0.472836f, -0.423390f, 0.691781f, 0.527325f, 0.245283f, -1.044038f, 0.197070f, -0.652150f, -0.365942f, 0.120991f, 0.228332f, 0.343039f, -0.368148f, 0.082493f, 0.009314f, -0.378392f, 0.651495f, 0.534687f, 0.156467f, -0.145572f, 0.236502f, -0.254047f, 0.410614f, -0.335305f, -0.102051f, -0.227109f, 0.266371f, -0.093316f, -0.370616f, -0.506205f, 0.165301f, -0.148793f, -0.130699f, -0.498866f, 0.484753f, 0.487087f, 0.948536f, -0.171433f, -0.133997f, 0.132339f, 0.430110f, 0.710041f, -0.112334f, 0.523149f, -0.093549f, -0.705021f, 0.356968f, -0.113741f, 0.338870f, 0.134462f, -0.650789f, -0.688058f, 0.671529f, 0.343671f, 0.039837f, -0.120220f, -0.366251f, -0.398886f, -0.912341f, -0.241749f, 0.261223f, 0.179034f, -0.562670f, -1.671190f, 0.352205f, -0.171613f, 0.052541f, 0.238412f, 0.025505f, 0.402164f, -0.121741f, 0.686551f, 0.336874f, 0.530138f, -0.158303f, -0.031666f, 0.039814f, 0.720958f, 0.009237f, -0.195856f, -0.240784f, -0.211015f, 0.445242f, 0.347487f, 0.116839f, -0.414007f, -0.422846f, 0.220191f, -0.005572f, 0.343976f, 0.345277f, -0.633873f, 0.050292f, -0.150062f, 0.362529f, -0.786726f, -0.056155f, -0.314131f, -0.612385f, 0.208645f, -0.344800f, -0.136879f, -0.055592f, -0.486674f, 0.558085f, 0.359744f, 0.564890f, 0.734670f, -0.228212f, -0.087774f, -0.095667f, 0.013423f, -0.131990f, 0.499761f, -0.304401f, 0.120928f, -0.052855f, -0.064667f, 0.395913f, 0.548215f, 0.341656f, -0.393380f, 0.190186f, 0.763695f, 0.130761f, -0.695722f, -0.657259f, -0.386427f, -0.790978f, -0.028783f, -0.384021f, 0.127315f, -0.000164f, -0.401888f, 0.206140f, 0.064355f, 0.107990f, 0.305364f, -0.240498f, -0.212947f, 0.208469f, -0.143964f, -0.004889f, 0.011678f, -0.158960f, 0.045216f, -0.120608f, 0.078676f, -0.122650f, -0.034102f, 0.000384f, -0.242819f, -0.197718f, -0.207930f, -0.025074f, 0.018958f, 0.240878f, -0.078338f, -0.162251f, 0.236038f, 0.017987f, 0.233746f, -0.074920f, -0.214992f, -0.023236f, 0.241956f, -0.216468f, -0.012216f, 0.192061f, -0.147737f, 0.135947f, -0.225506f, -0.103722f, -0.175542f, 0.161138f, 0.059071f, -0.111669f, 0.258343f, -0.161741f, 0.154052f, 0.200391f, 0.064847f, 0.229857f, -0.225192f, 0.131109f, 0.015373f, -0.207623f, -0.050624f, -0.305783f, 0.173485f, -0.213292f, -0.134445f, 0.020012f, 0.266169f, -0.151364f, -0.176974f, -0.252460f, -0.219992f, -0.172730f, -0.340284f, 0.138623f, -0.001849f, 0.330627f, 0.639938f, 0.124122f, 0.268629f, -0.067062f, 0.037387f, -0.245399f, 0.854677f, 0.616625f, 0.123875f, -0.064300f, -0.048598f, 0.313382f, -0.186839f, -0.007501f, 0.033425f, -0.268741f, -0.313970f, 0.375684f, 0.254879f, -0.035885f, -0.131686f, 0.166898f, -0.370477f, 0.034571f, -0.077531f, -0.389483f, -0.554399f, 1.049650f, 0.535106f, 0.008785f, 0.121574f, -0.048471f, -0.091000f, 0.339808f, 0.589147f, -0.503484f, 0.116199f, 0.216424f, -0.470346f, 0.971533f, -0.155239f, 0.094431f, 0.494919f, 0.620343f, 0.190499f, -0.153820f, -0.579538f, 0.693737f, 0.615798f, 0.015392f, 0.288344f, -0.559147f, -0.627153f, -0.217472f, -0.640292f, 0.255657f, -0.190276f, -0.487296f, -0.475768f, -0.061241f, 0.193159f, 0.184267f, -0.807585f, 0.596104f, -0.446951f, -0.101702f, 0.565854f, 0.712325f, -1.402533f, -0.085523f, -0.801088f, 0.429045f, -0.084304f, -0.111603f, 0.682739f, -0.212281f, 0.042889f, 0.126958f, 0.970363f, 1.010724f, 0.651812f, -0.206482f, -0.769143f, 0.020586f, -0.617892f, 0.143062f, 0.072932f, -0.389229f, -0.551014f, 0.140647f, 0.613795f, -0.073739f, -0.127992f, -0.109994f, -0.251610f, -0.500550f, 0.418081f, 0.324700f, -0.012442f, -0.184164f, -0.611735f, 0.421263f, -0.281002f, -0.318890f, -0.419778f, -0.324323f, 0.401250f, 0.310993f, 0.535940f, -0.112791f, 0.647854f, 0.039448f, -0.126954f, -0.038580f, 0.126841f, -0.045391f, -0.130012f, -0.298126f, 0.338229f, 0.269227f, -0.297012f, 0.172283f, 0.185500f, -0.601088f, 0.197982f, -0.105224f, 0.280816f, -0.069136f, 0.319470f, 0.133301f, -0.245953f, -0.059409f, -0.138020f, 0.460017f, -0.350687f, 0.185547f, 0.135245f, -0.261573f, -0.152089f, -1.354151f, -0.381829f, -0.290444f, 0.650449f, 0.274404f, 0.419980f, -0.077555f, -0.105514f, -0.151750f, -0.149372f, 0.728804f, -0.602209f, 0.205582f, 0.341784f, -0.694389f, 0.154253f, -0.110597f, -0.019781f, -0.208015f, 0.579269f, 0.112418f, 0.015923f, 0.007124f, 0.162112f, -0.155199f, 0.210026f, -0.169245f, 0.102119f, -0.008711f, -0.031264f, -0.430130f, -0.178703f, -0.618453f, 0.460234f, 0.121782f, -0.061769f, -0.079327f, -0.051375f, 0.122185f, 0.307745f, 0.242732f, -0.195546f, -0.226807f, -0.197508f, 0.133280f, -0.256035f, 0.144496f, -0.039355f, -0.129053f, 0.104515f, 0.284502f, -0.234955f, 0.102000f, -0.230930f, -0.195629f, 0.179341f, 0.000638f, 0.101863f, 0.170555f, 0.001098f, 0.033796f, -0.082622f, 0.117375f, -0.163364f, -0.161518f, -0.170045f, -0.177129f, 0.061706f, -0.261985f, 0.149837f, 0.039925f, -0.108755f, 0.118957f, 0.178290f, 0.066575f, -0.169498f, 0.045889f, 0.286707f, 0.293991f, -0.193831f, -0.242565f, -0.104953f, 0.083847f, 0.102035f, 0.164173f, -0.078431f, 0.078814f, -0.187999f, 0.013734f, -0.219644f, 0.025736f, 0.064608f, -0.206512f, 0.080525f, -0.049951f, -0.099044f, -0.252096f, 0.214854f, 0.153847f, -0.176125f, -0.274772f, -0.006158f, 0.064813f, 0.225281f, 0.250279f, -0.174682f, -0.266139f, 0.224805f, 0.110756f, 0.319288f, -0.221947f, 0.344066f, -0.211485f, -0.054829f, 0.250881f, 0.050261f, 0.146249f, -0.364803f, -0.208113f, -0.139225f, 0.023398f, -0.285583f, 0.489594f, -0.276582f, -0.266616f, -0.134572f, -0.232753f, -0.333561f, 0.383699f, 0.098355f, -0.109768f, -0.343395f, 0.053503f, 0.314105f, 0.138550f, -0.043344f, 0.164532f, -0.274337f, 0.022389f, 0.072908f, 0.700042f, 0.158568f, -0.767825f, 0.231489f, 0.260368f, 0.260076f, -0.006424f, -0.146408f, 0.381250f, -0.185175f, -0.110322f, 0.241485f, -0.197644f, -0.321087f, -0.504069f, -0.598109f, 0.466676f, -0.400243f, -0.252149f, 0.029885f, -0.243759f, 0.215523f, 0.409719f, -0.053810f, 0.743773f, 0.088577f, -0.200292f, -0.177730f, 0.331799f, -0.273873f, 0.673783f, -0.599977f, 0.046779f, -0.089782f, -1.335382f, 0.728539f, -0.186810f, 0.206991f, -0.667691f, 0.455113f, 1.113391f, 0.483583f, -0.155935f, -0.777842f, -0.366133f, -0.480831f, 0.021700f, 0.149855f, 0.173458f, 0.300368f, -0.465767f, 0.296062f, -0.286816f, -0.335873f, 0.987682f, 0.232840f, 0.006716f, 0.115201f, 0.295624f, -0.250896f, -0.095355f, -0.525831f, -0.758661f, -0.157593f, -0.888930f, 0.226843f, 0.129114f, 0.148393f, 0.375414f, 0.246696f, -0.026832f, 0.118431f, -0.104786f, 0.448302f, -0.610945f, -0.289293f, 0.499128f, 0.210636f, -0.438380f, 0.506656f, -0.029679f, -0.698529f, -0.004184f, 0.399832f, 0.045817f, 0.324589f, 0.168230f, -0.506137f, -0.444989f, 0.068404f, 0.336964f, -0.178518f, -0.586825f, 0.536332f, -0.104843f, 0.706488f, 0.105889f, 0.298550f, -0.198351f, 0.023196f, -0.377330f, -0.097512f, -0.600368f, 1.366460f, -0.132260f, -0.482065f, 0.417938f, -0.024584f, -0.236084f, -0.181784f, 0.714287f, -0.420313f, 0.461573f, 0.226639f, 0.034844f, -0.068097f, -0.228729f, -0.478051f, -0.538468f, 0.741487f, 0.034468f, -0.332836f, 0.358887f, 0.059765f, 0.419877f, 0.398112f, 0.036943f, 0.161155f, -0.662965f, -0.303640f, -0.126857f, 0.401779f, -0.639737f, 0.352734f, 0.237403f, -0.164458f, 0.007105f, 0.022262f, -0.188992f, -0.175249f, -0.019728f, 0.198041f, -0.302505f, 0.080874f, 0.393930f, 0.262781f, 0.054898f, -0.081972f, -0.102002f, 0.043726f, -0.094719f, -0.046318f, -0.149400f, -0.422179f, -0.036526f, 0.013039f, -0.163097f, 0.122145f, 0.083711f, 0.124164f, 0.243047f, -0.146204f, 0.037990f, 0.245115f, -0.210884f, -0.358803f, -0.045338f, 0.037779f, 0.010879f, 0.183222f, -0.250020f, -0.191817f, -0.090313f, 0.176783f, -0.250598f, 0.016845f, -0.252157f, 0.020511f, -0.010451f, -0.186263f, 0.042694f, 0.060696f, -0.023886f, 0.150425f, -0.222273f, -0.087571f, -0.009993f, -0.086216f, -0.191506f, -0.194696f, 0.138360f, -0.117675f, 0.082570f, 0.175144f, -0.105176f, -0.158260f, 0.136302f, 0.233364f, 0.098934f, -0.024789f, 0.187201f, 0.069301f, 0.194177f, -0.214095f, 0.068733f, -0.056057f, 0.018584f, -0.305962f, -0.247230f, -0.023850f, -0.054736f, 0.060470f, -0.073503f, -0.130692f, 0.152686f, 0.084799f, 0.256645f, -0.121032f, 0.058775f, -0.191906f, 0.105893f, -0.222365f, -0.159729f, -0.222294f, -0.008948f, 0.080546f, -0.285831f, 0.432928f, 0.013529f, 0.179386f, -0.078069f, -0.065568f, 0.089116f, -0.140074f, 0.237249f, -0.473054f, 0.649648f, -0.101644f, -0.029098f, 0.375728f, -0.211307f, -0.248821f, -0.547218f, -0.411678f, -0.577039f, 0.041089f, 0.343527f, -0.377921f, 0.326480f, -0.056710f, 0.337842f, -0.071948f, -0.178089f, 0.212941f, 0.179744f, 0.768223f, -0.301596f, 0.367628f, -0.264096f, 0.277479f, -0.322981f, -0.240807f, -0.154075f, 0.135313f, 0.861755f, -0.123536f, 0.331437f, -0.272231f, -0.470815f, 0.496204f, -0.088499f, 0.092557f, -0.309586f, -0.271222f, 0.310073f, 0.114769f, 0.619658f, -0.286098f, 0.238179f, -0.185436f, -0.261316f, -0.363253f, -0.040065f, -0.127075f, -0.584057f, 0.026522f, -0.178905f, 0.297607f, -0.697262f, -0.042569f, 0.072905f, -0.462767f, 0.045843f, 0.442198f, 0.447125f, -0.206559f, 0.247832f, -0.244611f, 0.016290f, 0.146219f, -0.234688f, -0.153544f, -0.149877f, 0.309846f, 0.591240f, 0.212061f, 0.307196f, 0.150027f, -0.428159f, -0.105120f, -0.785126f, 0.304619f, -0.711743f, 0.330605f, -0.010062f, -0.609746f, 0.406074f, 0.209359f, -0.494766f, -0.284141f, -0.015486f, -0.375576f, 0.755504f, 0.042059f, 0.498188f, 0.053327f, 0.046230f, -0.633282f, -0.066710f, 0.001979f, 0.285738f, -0.398434f, 0.049448f, 0.172610f, -0.118491f, 0.596208f, -0.477760f, 0.618983f, -0.621753f, -0.104065f, -0.319587f, 0.243677f, -0.191440f, 0.619067f, -0.211612f, -0.641183f, 0.075939f, -0.009374f, -0.497833f, -0.125651f, -0.143919f, -0.144467f, 0.156412f, -0.105184f, 0.863881f, -0.303117f, 0.011030f, -0.230687f, -0.158268f, 0.370804f, -0.085404f, 0.082079f, -0.287706f, 0.259426f, -0.314656f, 0.583235f, -0.605852f, 0.131634f, -0.481567f, -0.254354f, 0.069941f, 0.283356f, -0.304585f, 0.505077f, -0.000257f, -0.743922f, -0.059210f, -0.211071f, -0.185162f, -0.214289f, -0.333485f, 0.115814f, -0.382456f, -0.208604f, 0.404012f, 0.313947f, -0.075554f, -0.286830f, -0.135373f, -0.206988f, -0.176165f, 0.064157f, -0.152489f, -0.014021f, -0.014396f, -0.008901f, -0.470510f, 0.086502f, -0.178468f, 0.509031f, -0.073381f, 0.170442f, -0.172368f, 0.310568f, -0.273709f, -0.404054f };
static const float rede_neural_layer_1_biases[10] = { -0.048155f, -0.542636f, -0.090187f, 0.343424f, -0.443761f, 0.526774f, -0.177769f, -0.462378f, 0.647960f, 0.787700f };
static const float rede_neural_layer_1_weights[300] = { -0.136393f, 0.429895f, -0.398329f, 0.284521f, 0.286009f, -0.288921f, -0.178846f, -0.438709f, 0.436922f, -0.141115f, -0.604226f, -0.222448f, 0.209140f, 0.285821f, -0.081315f, 0.058749f, -0.298315f, -0.627042f, -0.735061f, 0.230717f, 0.297798f, -0.428366f, -0.300983f, -0.125621f, -0.530181f, -0.337892f, -0.073967f, 0.551175f, 1.145350f, -0.580979f, 0.639360f, -0.851670f, -0.429094f, -0.243889f, -0.072371f, 1.439377f, 0.637807f, -0.642767f, 0.389052f, -0.159436f, -0.510755f, -0.873067f, -0.450304f, 0.151085f, 0.578189f, 0.226066f, 0.224202f, 0.144370f, 0.072513f, 0.635116f, 0.524480f, -0.659882f, 0.322599f, -0.238733f, 0.750606f, -0.490297f, -0.151522f, 1.507271f, -0.460992f, -0.447780f, -0.408700f, -0.700492f, 0.315517f, 0.265403f, 0.174247f, 0.114288f, 0.551104f, -0.260266f, -0.081594f, -0.323084f, 0.121247f, -0.477394f, -0.570329f, 1.176290f, 0.050093f, -0.402137f, -0.101124f, -0.515298f, 0.094648f, 0.384700f, -0.256027f, 0.769474f, 1.338036f, -0.678083f, -0.440431f, -0.751561f, -0.024949f, -0.576581f, -0.343172f, 0.283401f, 1.396043f, -0.618021f, -0.485980f, -0.261798f, 0.000072f, 0.146095f, 0.569161f, -0.443568f, 0.226467f, -0.159765f, -0.428989f, -0.553653f, 0.329016f, -0.006276f, -0.396716f, 1.101707f, 0.021825f, 0.747554f, -0.568558f, 0.682134f, -0.044670f, -0.476627f, -0.691497f, -0.217618f, 2.017134f, -0.106514f, -0.390333f, -0.543252f, 0.136257f, -0.074947f, -0.668378f, 0.730425f, -0.168135f, 0.226716f, 0.427990f, -0.930799f, -1.052586f, 1.217719f, -0.570583f, -0.090766f, 0.048510f, -1.381136f, 0.943073f, 2.076246f, -0.735542f, -1.322674f, -0.897301f, -0.111277f, -0.345016f, 0.553155f, 0.907037f, -0.804400f, -0.285190f, -0.605605f, -0.121223f, -0.096396f, 2.155978f, 0.108925f, -0.411984f, -0.259695f, 1.665245f, 0.174957f, -0.256708f, -0.670714f, 0.233334f, 0.080497f, -0.934950f, 0.110262f, -0.781191f, 0.874331f, -0.904207f, 0.231278f, -0.170755f, -0.548336f, 0.658588f, -0.708995f, 0.090488f, 0.009715f, 0.707004f, 0.258237f, -0.779426f, -0.448142f, 1.016688f, 0.474630f, -0.155226f, -0.241832f, -0.491981f, -0.693813f, 2.008388f, 0.318230f, -0.567040f, 0.000670f, -0.844935f, -0.728800f, -0.191017f, -0.225204f, -0.642785f, -0.199138f, 1.769628f, 1.393650f, -0.432060f, 0.053803f, 1.597999f, 0.199509f, 0.002282f, -0.348328f, 0.071631f, -0.224291f, -0.107662f, -0.878056f, -0.840144f, -0.341283f, 0.112287f, -0.273288f, -0.174871f, 1.098252f, -0.777597f, -0.547465f, 0.467828f, 0.756203f, -0.492781f, 0.872871f, -0.224653f, 0.369924f, -0.288166f, -0.075327f, 0.719410f, -1.044346f, 0.599834f, -0.280178f, 0.443588f, 0.349336f, -0.495444f, -0.812900f, 0.250043f, 0.307921f, -0.045062f, -0.298533f, 1.209179f, -0.493706f, 0.228029f, 1.249728f, -0.594661f, -0.280731f, 0.293083f, -0.300828f, 0.270316f, -0.130720f, 0.198976f, -0.680027f, -0.708567f, 0.472426f, 0.714482f, -0.669930f, 0.427606f, 0.039485f, -0.380621f, 1.190359f, -0.842416f, -0.200320f, -0.313537f, 0.764147f, 0.018262f, 0.485396f, -0.232102f, -0.017474f, 0.871784f, -0.506374f, 0.560468f, -0.702897f, -0.582673f, 0.818714f, -0.724275f, -0.243027f, 0.023734f, 0.022692f, -0.171466f, 0.086661f, -0.826958f, 1.088172f, -0.759682f, 1.275129f, -0.315585f, 0.598765f, -0.167616f, 1.271968f, -0.671414f, -0.453043f, -0.782226f, -0.226429f, -0.662966f, -0.965965f, -0.514534f, -0.034613f, 0.329166f, 0.856314f, 0.516141f, 0.311147f, -0.354595f, 0.642803f, -0.706426f, -0.759511f, -0.811446f, 1.640913f, -0.790596f, 1.343750f, -0.875266f, 1.565360f, -0.180361f, -0.503212f };
static float rede_neural_buf1[64];
static float rede_neural_buf2[64];
static const EmlNetLayer rede_neural_layers[2] = { 
{ 30, 64, rede_neural_layer_0_weights, rede_neural_layer_0_biases, EmlNetActivationRelu }, 
{ 10, 30, rede_neural_layer_1_weights, rede_neural_layer_1_biases, EmlNetActivationSoftmax } };
static EmlNet rede_neural = { 2, rede_neural_layers, rede_neural_buf1, rede_neural_buf2, 64 };

    int32_t
    rede_neural_predict(const float *features, int32_t n_features)
    {
        return eml_net_predict(&rede_neural, features, n_features);
    }
    

    int32_t
    rede_neural_regress(const float *features, int32_t n_features, float *out, int32_t out_length)
    {
        return eml_net_regress(&rede_neural, features, n_features, out, out_length);
    }
    

    float
    rede_neural_regress1(const float *features, int32_t n_features)
    {
        return eml_net_regress1(&rede_neural, features, n_features);
    }
    