
#include <eml_net.h>
static const float rede_neural_layer_0_biases[200] = { -0.138906f, 0.126537f, 0.127809f, -0.026752f, 0.143151f, -0.044742f, 0.166761f, 0.014361f, 0.246855f, 0.196473f, 0.126281f, -0.074171f, 0.005169f, -0.122129f, 0.117206f, 0.292631f, 0.141195f, -0.028336f, -0.022692f, -0.091304f, -0.118376f, 0.071861f, -0.015063f, 0.084636f, 0.192242f, 0.334405f, -0.004115f, 0.165881f, 0.264873f, -0.123570f, -0.038892f, 0.074676f, 0.122202f, 0.038070f, 0.129739f, 0.093311f, 0.135871f, -0.044246f, -0.072452f, 0.018356f, -0.071192f, 0.125418f, -0.056276f, 0.077230f, 0.119395f, 0.079508f, 0.070187f, 0.085253f, -0.006152f, 0.068513f, 0.113902f, 0.068258f, 0.048805f, -0.135227f, 0.065737f, 0.203673f, 0.220761f, 0.000714f, -0.031239f, 0.093264f, 0.127697f, -0.123644f, -0.144470f, -0.115287f, 0.007780f, -0.126511f, 0.066428f, 0.214322f, -0.089058f, 0.266406f, 0.162411f, 0.044401f, 0.064413f, 0.095386f, -0.023378f, -0.030458f, 0.099174f, 0.144559f, -0.077180f, -0.071851f, 0.008399f, -0.065719f, 0.167406f, 0.152154f, -0.032441f, 0.092611f, 0.054833f, 0.031860f, 0.190595f, -0.001338f, 0.071456f, 0.075134f, -0.107208f, -0.114435f, 0.016906f, -0.079767f, 0.185698f, -0.016602f, 0.005527f, 0.112575f, 0.079949f, -0.060407f, 0.158349f, 0.154219f, 0.016364f, -0.039421f, 0.167068f, 0.198494f, 0.087855f, 0.222003f, 0.096832f, -0.049419f, -0.045639f, -0.055332f, 0.115034f, 0.265961f, 0.124115f, 0.053277f, 0.056389f, -0.008461f, 0.045305f, -0.031417f, 0.147309f, 0.014049f, -0.061500f, 0.069123f, -0.071936f, 0.012331f, 0.078639f, 0.025799f, -0.018513f, -0.083234f, -0.015096f, -0.099614f, 0.062142f, 0.138125f, -0.111477f, 0.032820f, 0.106161f, -0.071340f, 0.086485f, -0.033023f, -0.062776f, -0.041000f, -0.032729f, 0.066313f, 0.016389f, 0.138344f, 0.184045f, 0.228210f, 0.072714f, 0.010685f, 0.025338f, -0.016179f, 0.027776f, 0.206872f, 0.095817f, -0.052545f, -0.069189f, 0.073395f, -0.025263f, 0.132604f, 0.096601f, 0.086840f, -0.019830f, -0.099063f, 0.161925f, 0.127540f, 0.027030f, 0.160627f, -0.033595f, -0.136601f, 0.054708f, 0.144217f, 0.149499f, 0.093780f, -0.037970f, 0.081669f, -0.140922f, 0.263257f, 0.093170f, -0.007605f, -0.169719f, -0.134881f, -0.023454f, 0.034661f, 0.143932f, -0.023179f, 0.155396f, -0.039137f, -0.190116f, -0.157157f, 0.122995f, 0.296506f, -0.098513f, -0.135619f, 0.079039f, -0.096973f, -0.030776f, 0.046952f };
static const float rede_neural_layer_0_weights[12800] = { -0.019296f, -0.142925f, 0.014972f, -0.019499f, -0.024008f, -0.051151f, -0.089043f, 0.035958f, -0.060401f, -0.070298f, 0.036520f, 0.008786f, -0.110168f, 0.004094f, -0.095136f, 0.086024f, 0.106718f, -0.001737f, 0.104482f, -0.126730f, 0.001582f, -0.131059f, -0.021670f, -0.121639f, -0.112405f, 0.029167f, -0.082603f, -0.118499f, -0.084323f, -0.045275f, -0.009712f, -0.089919f, 0.042330f, -0.005104f, 0.001579f, -0.034100f, 0.088527f, 0.024120f, -0.101811f, 0.060523f, 0.140054f, 0.000003f, 0.117434f, -0.047751f, 0.020243f, -0.021844f, -0.019070f, 0.083378f, 0.010734f, 0.136796f, 0.013328f, -0.125991f, -0.040296f, 0.105776f, -0.028257f, -0.142541f, -0.076222f, -0.130499f, 0.148888f, 0.141872f, 0.090523f, 0.030696f, 0.079881f, -0.099723f, -0.062400f, 0.007256f, -0.043225f, -0.136970f, 0.145663f, -0.017681f, 0.001206f, -0.053199f, -0.072433f, -0.034101f, 0.100098f, 0.071375f, -0.036416f, -0.146817f, 0.089663f, -0.069525f, 0.024928f, -0.143038f, 0.048901f, -0.033910f, -0.000882f, -0.025654f, -0.044960f, 0.015369f, 0.142575f, -0.116741f, -0.056299f, -0.138140f, 0.071874f, 0.047487f, -0.086033f, -0.025097f, 0.043366f, 0.048684f, -0.099346f, 0.115062f, 0.083815f, -0.110357f, 0.111222f, 0.075002f, 0.090019f, 0.013068f, -0.084163f, 0.126158f, 0.027762f, -0.046357f, -0.071217f, 0.124789f, -0.024198f, 0.012117f, 0.032693f, 0.098359f, 0.037252f, -0.097466f, 0.027513f, -0.003236f, 0.014443f, 0.060152f, -0.076634f, -0.094477f, -0.117403f, -0.068117f, -0.147651f, 0.039000f, -0.061752f, -0.094278f, -0.122014f, -0.065194f, -0.085946f, -0.064637f, -0.008619f, 0.014922f, 0.104046f, 0.147277f, -0.136009f, -0.080762f, 0.043206f, -0.102062f, 0.111593f, -0.085198f, 0.072885f, 0.046133f, 0.090109f, -0.141321f, -0.081529f, 0.061692f, -0.124343f, -0.141519f, -0.043071f, 0.027068f, -0.134997f, -0.130945f, -0.137627f, -0.031610f, 0.050778f, -0.091040f, 0.113438f, -0.020384f, 0.036070f, -0.063183f, 0.034747f, 0.136771f, -0.015673f, -0.088320f, -0.022501f, -0.016710f, 0.002297f, 0.007758f, -0.137950f, -0.101172f, -0.015006f, 0.062700f, 0.083688f, 0.083542f, 0.000838f, 0.137702f, -0.050687f, -0.005590f, 0.074881f, 0.107883f, -0.025789f, 0.105123f, -0.016711f, 0.065044f, -0.148195f, -0.143144f, 0.132788f, -0.119949f, 0.048831f, -0.065344f, -0.090191f, -0.033665f, 0.128402f, 0.021186f, 0.125632f, 0.060979f, 0.045788f, 0.057591f, -0.116828f, -0.104158f, 0.041519f, 0.076620f, 0.081850f, 0.157850f, 0.119500f, 0.245021f, 0.032958f, 0.076644f, -0.037571f, -0.081324f, -0.175717f, 0.078595f, 0.025649f, -0.015792f, 0.067950f, 0.078730f, 0.125761f, -0.116667f, -0.017773f, 0.126903f, -0.084007f, -0.225675f, -0.098659f, -0.054928f, -0.019195f, 0.066317f, 0.115228f, 0.127988f, -0.038831f, -0.068756f, -0.005364f, 0.038447f, 0.166673f, 0.003534f, -0.052733f, 0.070972f, -0.069638f, -0.115902f, 0.120705f, 0.062590f, -0.056691f, 0.100234f, 0.142144f, -0.025559f, 0.085668f, 0.033961f, -0.131391f, 0.138019f, 0.064208f, -0.116030f, 0.004220f, -0.079292f, -0.108513f, -0.136608f, -0.108108f, -0.082059f, -0.066930f, -0.132507f, 0.038011f, -0.146838f, -0.081329f, 0.098359f, 0.105562f, 0.190241f, -0.006723f, 0.043073f, -0.161617f, 0.014915f, -0.112501f, -0.054803f, -0.021065f, 0.045237f, -0.059236f, 0.066493f, 0.194389f, 0.063918f, 0.175946f, -0.003529f, 0.083701f, 0.082077f, 0.082418f, 0.145336f, -0.143077f, 0.087324f, 0.013840f, -0.178166f, 0.046076f, 0.080225f, 0.075746f, -0.007135f, 0.009964f, -0.112191f, -0.009368f, 0.014581f, -0.168874f, 0.124266f, -0.123722f, 0.053557f, -0.100072f, -0.121016f, 0.117881f, -0.066768f, -0.039558f, -0.069932f, -0.101466f, 0.003620f, 0.116717f, -0.080789f, 0.116725f, 0.107211f, -0.030754f, -0.034612f, 0.000444f, 0.098264f, 0.069124f, 0.076754f, -0.169566f, -0.084142f, 0.174916f, -0.002328f, -0.017469f, -0.209574f, -0.081366f, -0.051042f, -0.048427f, -0.118708f, -0.012661f, -0.127080f, -0.056915f, 0.047911f, -0.141562f, 0.190252f, -0.083079f, 0.059126f, 0.030948f, -0.050446f, -0.075031f, -0.090251f, -0.056087f, -0.090510f, 0.079166f, 0.061671f, -0.030791f, 0.134592f, -0.000840f, 0.060232f, 0.025824f, -0.078476f, 0.073654f, 0.109978f, 0.016751f, 0.124528f, -0.184162f, -0.064053f, 0.034703f, -0.159251f, -0.109777f, -0.001956f, 0.026605f, -0.030163f, -0.037841f, 0.031357f, -0.181017f, 0.073873f, -0.036146f, 0.020404f, 0.075045f, -0.151015f, 0.071179f, 0.114425f, -0.145882f, -0.108920f, -0.191367f, -0.081422f, 0.073324f, 0.015544f, -0.072697f, -0.069595f, -0.060032f, 0.111651f, -0.110086f, -0.141704f, 0.144010f, -0.043427f, -0.026464f, 0.074133f, -0.055899f, -0.017983f, 0.041271f, 0.034179f, -0.128059f, -0.057054f, 0.137993f, -0.116923f, -0.140759f, -0.017335f, -0.062458f, 0.047921f, -0.160237f, 0.074844f, 0.157090f, 0.041303f, 0.075926f, 0.283197f, 0.016207f, 0.251402f, -0.183573f, -0.032376f, 0.176957f, -0.047071f, -0.111435f, 0.119227f, -0.063992f, 0.177030f, -0.033021f, 0.097289f, 0.045964f, -0.035640f, -0.209344f, 0.258114f, 0.202604f, -0.301757f, -0.053019f, 0.176259f, -0.135468f, 0.026096f, 0.059817f, 0.153717f, -0.130293f, 0.226981f, 0.000288f, 0.072934f, 0.241796f, -0.073437f, -0.061487f, -0.210466f, -0.009020f, 0.091739f, -0.003739f, 0.130347f, 0.075492f, -0.057112f, 0.108588f, 0.086818f, -0.041157f, -0.028385f, -0.199637f, -0.070855f, 0.137676f, 0.064223f, 0.033620f, 0.093516f, -0.137604f, 0.002267f, -0.104014f, 0.057842f, -0.116666f, 0.088496f, 0.044096f, 0.048177f, -0.199498f, 0.182180f, 0.163537f, -0.108730f, -0.178618f, 0.003920f, -0.022308f, -0.033084f, -0.119582f, 0.011386f, 0.090711f, 0.016949f, 0.050515f, 0.035455f, 0.144432f, 0.190940f, 0.169234f, -0.059180f, -0.000295f, -0.084651f, -0.028421f, 0.099572f, -0.041274f, 0.125662f, 0.203778f, 0.047719f, -0.038170f, -0.072975f, 0.168345f, -0.079416f, 0.117934f, -0.114366f, -0.014852f, 0.091678f, -0.077842f, 0.050220f, 0.068006f, 0.011619f, -0.008470f, 0.072230f, 0.109920f, 0.050301f, -0.121022f, 0.140651f, -0.154949f, -0.014084f, -0.025559f, 0.047260f, -0.099942f, 0.209290f, -0.074209f, 0.088218f, -0.070438f, -0.224986f, -0.059767f, 0.120561f, -0.128338f, -0.148873f, -0.110053f, 0.005872f, 0.096766f, -0.171196f, 0.034111f, -0.107759f, -0.076005f, -0.270070f, 0.130502f, 0.169400f, 0.163391f, 0.059270f, -0.134210f, 0.025997f, -0.023367f, -0.009859f, 0.070236f, 0.202724f, -0.111577f, -0.200477f, 0.047057f, 0.108192f, 0.048874f, 0.143552f, 0.144564f, -0.020633f, 0.109428f, -0.002981f, -0.160429f, -0.030256f, -0.234708f, 0.010738f, 0.007636f, -0.014709f, -0.094211f, -0.065821f, 0.102751f, -0.106918f, -0.072955f, 0.192136f, -0.048640f, -0.108029f, -0.036433f, -0.102745f, -0.092118f, -0.104926f, -0.079332f, 0.014634f, -0.020361f, -0.034321f, -0.172175f, -0.067421f, -0.102496f, -0.205332f, 0.042606f, 0.041782f, 0.005966f, -0.256036f, -0.211329f, 0.075923f, -0.153785f, -0.096559f, 0.229243f, 0.112780f, 0.279095f, 0.081813f, 0.131966f, -0.005502f, 0.009923f, 0.020490f, 0.063477f, 0.364574f, -0.132195f, 0.114744f, 0.057013f, 0.011214f, 0.036579f, -0.050382f, -0.002501f, 0.040396f, -0.055337f, -0.062751f, 0.017476f, 0.030280f, -0.013253f, 0.188587f, 0.068324f, 0.005634f, -0.016675f, 0.037966f, 0.107329f, -0.013727f, -0.105368f, -0.155330f, 0.056039f, 0.148186f, -0.147767f, 0.016588f, -0.116860f, 0.032711f, -0.209043f, -0.109510f, 0.003482f, -0.187563f, 0.133117f, -0.055474f, 0.295781f, -0.105690f, 0.109971f, -0.132600f, -0.165063f, 0.032032f, -0.105405f, 0.057859f, 0.130187f, 0.089780f, 0.019953f, -0.159158f, -0.108662f, 0.050268f, 0.219688f, 0.104227f, 0.084878f, 0.021076f, -0.024200f, 0.072098f, 0.080218f, -0.060733f, -0.034875f, 0.012111f, 0.072760f, -0.025920f, 0.036325f, 0.087980f, -0.221088f, 0.126095f, -0.137703f, -0.224192f, 0.218435f, -0.080226f, -0.007532f, 0.020359f, 0.014106f, 0.026360f, 0.210319f, -0.036451f, -0.084273f, -0.126321f, -0.004197f, -0.161278f, 0.078461f, 0.028567f, -0.059487f, -0.085305f, 0.093378f, 0.088790f, 0.194110f, -0.107586f, 0.018332f, -0.221395f, 0.071818f, 0.000418f, 0.024355f, 0.083520f, -0.229202f, -0.017170f, -0.105232f, 0.020794f, 0.092042f, 0.065720f, -0.056727f, -0.095089f, 0.094914f, 0.058619f, -0.126480f, 0.163659f, -0.120196f, -0.199343f, -0.304693f, -0.167156f, -0.041368f, -0.026787f, -0.236018f, -0.065699f, 0.081472f, -0.161858f, -0.117401f, 0.139576f, 0.184612f, 0.107574f, 0.324710f, -0.052666f, 0.077606f, 0.072359f, 0.095722f, 0.044830f, -0.191233f, 0.207602f, -0.113366f, 0.041358f, 0.211276f, 0.070920f, 0.105183f, 0.247251f, -0.007417f, 0.001668f, 0.163336f, -0.255581f, 0.114843f, 0.021210f, 0.130365f, 0.130227f, -0.000297f, 0.227292f, -0.097205f, -0.102173f, -0.060458f, -0.084165f, -0.160421f, 0.095087f, -0.066498f, 0.080720f, -0.064777f, -0.052416f, 0.076407f, 0.122172f, 0.060204f, 0.060167f, 0.239405f, -0.053203f, -0.087256f, 0.296812f, -0.045042f, -0.154118f, 0.101143f, -0.138935f, -0.056714f, 0.157892f, -0.172684f, 0.103173f, 0.012277f, 0.046313f, 0.151734f, -0.120950f, -0.145054f, 0.083070f, -0.028911f, 0.156870f, 0.023426f, -0.018098f, -0.066317f, 0.054198f, 0.124321f, -0.072983f, -0.003657f, 0.207261f, 0.181125f, 0.103907f, 0.004336f, 0.233680f, -0.082087f, 0.067483f, 0.058747f, -0.011399f, 0.023287f, -0.022882f, -0.078032f, 0.128115f, -0.074808f, 0.033400f, -0.069958f, -0.008245f, -0.052591f, 0.022468f, 0.126632f, -0.110399f, -0.000425f, 0.112342f, 0.085672f, -0.043466f, -0.055141f, 0.112413f, 0.093808f, -0.057757f, 0.079627f, 0.116262f, 0.127567f, 0.003796f, -0.247989f, -0.058327f, 0.027943f, 0.039979f, -0.116993f, -0.114580f, -0.221181f, 0.227620f, 0.158038f, 0.008007f, -0.143079f, 0.022708f, -0.077486f, -0.225700f, 0.144825f, 0.076016f, 0.043076f, 0.195283f, 0.326971f, -0.068456f, -0.152385f, -0.037982f, 0.103780f, 0.143181f, -0.068907f, 0.107444f, 0.084666f, -0.048105f, 0.070814f, -0.119076f, -0.178668f, -0.019396f, 0.088839f, 0.097835f, 0.106146f, -0.088766f, 0.019431f, -0.106218f, -0.003337f, 0.034091f, 0.005329f, 0.148544f, 0.198571f, -0.060503f, 0.153918f, -0.134916f, 0.033069f, -0.024400f, 0.064688f, 0.082886f, -0.037688f, 0.045565f, -0.096111f, 0.064051f, 0.187742f, 0.054086f, 0.057493f, 0.250905f, -0.102687f, -0.054573f, -0.170685f, -0.120135f, -0.028133f, 0.042393f, -0.251601f, -0.012365f, -0.098449f, -0.482399f, 0.154870f, -0.042495f, 0.136587f, -0.106170f, -0.256076f, 0.024777f, -0.095472f, -0.007270f, -0.038277f, -0.137549f, 0.019943f, -0.150762f, -0.029855f, -0.192444f, -0.117893f, -0.048124f, 0.044172f, -0.134642f, 0.063751f, 0.212390f, -0.011791f, 0.138940f, -0.102564f, 0.197093f, -0.139523f, -0.094634f, 0.088654f, 0.048531f, -0.092404f, 0.037191f, -0.206133f, 0.141930f, -0.056182f, 0.030357f, 0.171448f, 0.209832f, 0.109977f, 0.049116f, -0.016150f, -0.119470f, 0.058797f, 0.274209f, 0.042501f, -0.150779f, 0.356697f, -0.045545f, -0.105151f, 0.172037f, -0.034319f, -0.022559f, 0.029329f, -0.076203f, -0.005073f, 0.186206f, 0.030859f, -0.033198f, -0.090952f, 0.026918f, -0.185409f, 0.159984f, 0.075380f, 0.065207f, -0.111937f, -0.077012f, -0.127623f, 0.114697f, -0.087911f, -0.072302f, -0.172429f, 0.092421f, 0.080185f, 0.100610f, 0.159177f, -0.112678f, -0.094502f, 0.075668f, 0.200428f, -0.227158f, 0.144742f, 0.086803f, -0.201981f, -0.126282f, -0.178205f, 0.031932f, -0.021301f, 0.146308f, -0.104601f, -0.017461f, 0.138385f, 0.202785f, -0.068514f, -0.106682f, 0.064596f, 0.159463f, -0.098614f, 0.130098f, 0.055483f, -0.155015f, -0.038141f, -0.073685f, 0.107012f, 0.149993f, -0.077488f, -0.052370f, -0.134497f, -0.104040f, -0.009614f, -0.119188f, -0.050309f, 0.039242f, -0.051548f, -0.030695f, -0.021255f, 0.116597f, -0.036220f, 0.103653f, -0.093503f, -0.000831f, 0.239816f, -0.006374f, 0.074445f, 0.083529f, 0.045324f, -0.070741f, -0.197439f, 0.165230f, 0.277086f, 0.052451f, 0.072592f, 0.043155f, 0.088051f, 0.146959f, -0.023233f, 0.207855f, 0.290288f, -0.167850f, -0.239008f, 0.137190f, -0.320227f, -0.020209f, 0.109613f, -0.013584f, 0.116636f, -0.073340f, -0.060173f, -0.026250f, 0.250103f, -0.109769f, 0.032649f, 0.183601f, -0.012739f, -0.195615f, 0.081679f, -0.050955f, -0.041032f, 0.006863f, -0.060908f, 0.149448f, 0.172978f, 0.015208f, 0.044526f, -0.185788f, -0.242192f, -0.133327f, 0.133534f, 0.182408f, -0.210621f, 0.157574f, 0.038386f, -0.142282f, 0.016615f, 0.102300f, -0.242169f, 0.069791f, 0.199984f, 0.059395f, 0.044953f, 0.157919f, -0.016758f, 0.025450f, 0.225783f, -0.096381f, -0.149801f, -0.037779f, 0.118128f, -0.108148f, 0.002232f, -0.085468f, -0.074304f, 0.143040f, 0.039419f, 0.059194f, -0.079893f, -0.020065f, -0.020141f, 0.190979f, -0.211477f, -0.176108f, -0.092124f, -0.242038f, 0.104095f, -0.068977f, 0.076269f, -0.117183f, -0.097717f, -0.001216f, -0.022009f, 0.203890f, -0.194369f, 0.214281f, 0.113696f, -0.107597f, -0.112179f, -0.088100f, 0.091709f, 0.180510f, 0.139575f, -0.184287f, 0.152232f, 0.173434f, -0.108404f, 0.205094f, 0.423678f, 0.161329f, 0.042901f, -0.120825f, -0.062089f, -0.167413f, -0.127138f, 0.010955f, -0.201867f, 0.005243f, 0.103838f, -0.135567f, -0.139960f, 0.072612f, -0.079746f, -0.080706f, 0.094833f, -0.088618f, 0.231318f, 0.217564f, 0.074060f, 0.039747f, -0.023419f, -0.168019f, 0.144737f, -0.045357f, 0.030269f, -0.267662f, -0.212703f, 0.062585f, -0.050231f, -0.011535f, 0.057934f, -0.078905f, -0.000381f, 0.016202f, 0.037643f, 0.144138f, 0.285899f, 0.078122f, -0.192459f, -0.049979f, -0.035095f, -0.069131f, -0.021158f, 0.253547f, -0.068891f, 0.155783f, 0.156705f, -0.085376f, 0.214104f, -0.219834f, -0.121305f, -0.107998f, -0.051395f, 0.102538f, -0.024018f, -0.187365f, -0.228103f, 0.001751f, -0.212983f, 0.065505f, -0.194310f, 0.114421f, -0.111864f, 0.133845f, -0.029195f, 0.080668f, -0.111978f, 0.013373f, -0.158243f, -0.141968f, 0.009727f, -0.143454f, -0.171931f, -0.043959f, -0.132006f, -0.004963f, -0.037050f, -0.030261f, -0.052144f, -0.017839f, 0.040870f, -0.246329f, -0.049644f, -0.043968f, -0.025559f, 0.075111f, 0.100054f, -0.222421f, -0.058634f, 0.070752f, -0.071952f, 0.311774f, -0.119752f, -0.189240f, 0.090900f, 0.026544f, -0.223802f, -0.074979f, 0.115239f, -0.128161f, -0.037247f, -0.116648f, -0.013300f, -0.023948f, 0.152231f, 0.081756f, 0.019972f, 0.335678f, 0.033201f, -0.047104f, 0.218788f, -0.109167f, -0.036858f, -0.073112f, -0.096463f, 0.020102f, 0.038890f, 0.115845f, -0.067435f, 0.067848f, -0.208231f, -0.047290f, 0.214074f, -0.045283f, -0.103089f, 0.007910f, -0.328951f, -0.158535f, 0.031337f, -0.073285f, 0.025244f, 0.141925f, 0.049335f, 0.065339f, 0.279220f, 0.127593f, -0.035958f, 0.010020f, 0.015881f, -0.075806f, 0.066347f, 0.265558f, -0.191202f, 0.236715f, 0.098211f, -0.007080f, 0.083066f, 0.118296f, 0.045593f, -0.079649f, 0.245793f, -0.082078f, 0.015767f, -0.064705f, -0.042288f, -0.112914f, 0.066914f, 0.088463f, -0.271892f, -0.121671f, 0.140600f, 0.115227f, -0.130953f, 0.032533f, -0.115869f, -0.139366f, 0.135521f, 0.091032f, -0.139839f, -0.086893f, -0.058434f, 0.069780f, -0.114654f, -0.092864f, 0.087430f, -0.068333f, -0.008044f, 0.005589f, 0.113238f, -0.209175f, 0.180449f, 0.132789f, 0.152569f, 0.085820f, -0.201367f, 0.159471f, 0.138216f, -0.214997f, -0.136639f, 0.068433f, 0.005551f, 0.076743f, -0.137497f, -0.153552f, 0.266266f, -0.066056f, -0.070245f, -0.150354f, 0.258847f, 0.247507f, -0.018955f, -0.143166f, -0.067958f, -0.121268f, -0.048035f, -0.078497f, 0.016598f, -0.016973f, 0.099484f, -0.029079f, 0.067741f, 0.133140f, -0.065553f, -0.197007f, -0.145122f, 0.053560f, 0.180041f, 0.193044f, -0.027833f, -0.033090f, -0.286691f, -0.165618f, -0.073758f, -0.086997f, -0.123708f, -0.027919f, -0.119583f, -0.121713f, 0.023496f, -0.002767f, 0.253946f, -0.129954f, -0.055501f, 0.255253f, 0.057634f, 0.234782f, 0.026948f, -0.048705f, -0.131441f, 0.114622f, 0.085096f, 0.096593f, 0.071633f, 0.202127f, -0.103423f, 0.079841f, 0.037316f, 0.102649f, 0.047234f, -0.191736f, -0.240087f, -0.106764f, -0.137832f, -0.059567f, 0.038010f, -0.060829f, -0.076916f, -0.002643f, 0.052946f, 0.100671f, 0.017637f, 0.048104f, 0.066984f, -0.016066f, 0.047018f, -0.166422f, 0.093151f, -0.178161f, -0.058908f, -0.033657f, -0.113225f, -0.183405f, -0.179582f, -0.096772f, 0.023358f, -0.172825f, -0.012891f, -0.044977f, -0.032951f, 0.083518f, 0.019586f, -0.160786f, 0.171559f, -0.146243f, -0.067577f, 0.243610f, -0.074247f, -0.013179f, 0.105382f, -0.120619f, -0.200576f, 0.268177f, -0.094498f, 0.023426f, -0.173127f, -0.070833f, -0.106264f, 0.027346f, -0.117183f, -0.156348f, 0.063251f, 0.049403f, 0.058787f, 0.006367f, -0.125217f, -0.022595f, -0.078479f, -0.118224f, -0.075137f, 0.046165f, -0.004021f, 0.073267f, -0.076236f, -0.127535f, -0.142528f, -0.093366f, 0.132681f, -0.120669f, 0.017345f, -0.026749f, -0.098103f, 0.060174f, 0.030231f, -0.159125f, 0.041043f, -0.152309f, -0.128389f, -0.003942f, -0.005505f, 0.064838f, 0.099264f, 0.094345f, 0.165056f, -0.107344f, 0.220853f, -0.110363f, -0.083226f, -0.103571f, -0.132080f, 0.104257f, -0.107276f, 0.055100f, 0.043057f, -0.020197f, 0.047491f, 0.047922f, -0.009239f, -0.112397f, 0.180014f, 0.042466f, 0.088373f, -0.104851f, -0.181554f, -0.073323f, 0.060016f, 0.065685f, 0.083505f, -0.061290f, 0.081623f, -0.107010f, -0.019426f, -0.133976f, 0.096592f, -0.027700f, -0.121749f, 0.041592f, 0.038152f, -0.075615f, -0.076572f, 0.074974f, -0.027884f, 0.124267f, -0.154073f, 0.010651f, 0.084852f, -0.054471f, 0.110042f, 0.089017f, -0.032529f, -0.134969f, 0.002028f, -0.006239f, -0.095781f, 0.024680f, -0.101947f, 0.072943f, -0.008834f, 0.033432f, 0.095952f, -0.003733f, 0.084483f, 0.079871f, 0.008945f, 0.011356f, -0.034857f, -0.044116f, -0.034188f, -0.039029f, -0.052061f, -0.108593f, -0.080257f, -0.119874f, -0.134805f, -0.116882f, 0.001709f, -0.018155f, -0.140024f, -0.090296f, -0.026133f, -0.060196f, 0.068854f, 0.070082f, 0.086025f, -0.102839f, -0.119998f, 0.006192f, -0.020364f, -0.148863f, -0.041534f, 0.117274f, 0.168369f, -0.049269f, -0.182255f, 0.121100f, -0.063027f, -0.117384f, -0.086585f, -0.114898f, 0.121774f, -0.092759f, 0.062295f, -0.098476f, -0.148810f, -0.012427f, 0.023855f, 0.005843f, 0.073234f, -0.014880f, 0.018293f, -0.114052f, 0.055200f, 0.092203f, 0.135230f, -0.124653f, -0.020145f, 0.028854f, -0.157707f, 0.090328f, 0.080866f, -0.009260f, -0.055890f, 0.072888f, 0.088691f, -0.031013f, 0.142725f, -0.107516f, -0.071934f, 0.085344f, -0.050900f, 0.012022f, 0.023599f, 0.066571f, -0.032839f, -0.134628f, -0.045498f, -0.093284f, 0.082956f, 0.120543f, -0.081248f, 0.079573f, 0.112242f, -0.030235f, -0.128402f, 0.034782f, -0.126374f, -0.005691f, -0.112900f, 0.053466f, -0.063459f, -0.007839f, 0.199038f, 0.143402f, 0.008063f, 0.033289f, 0.060321f, 0.053262f, -0.123492f, -0.052851f, 0.067743f, 0.051070f, -0.097180f, 0.035254f, 0.016693f, -0.070561f, -0.154299f, 0.038763f, -0.012586f, 0.151474f, -0.071259f, -0.129716f, -0.076308f, -0.027859f, -0.138518f, -0.027796f, -0.086598f, 0.122369f, -0.104672f, 0.129607f, -0.101511f, 0.090845f, 0.010760f, 0.025838f, 0.154485f, 0.045403f, 0.059312f, 0.152796f, -0.078433f, 0.005894f, 0.133491f, 0.046781f, 0.082277f, -0.039269f, 0.154003f, 0.120245f, -0.022570f, 0.017595f, 0.090541f, 0.011699f, -0.011228f, 0.021991f, -0.108879f, 0.071085f, 0.119277f, -0.096316f, 0.146562f, -0.103636f, 0.044172f, -0.122644f, 0.018567f, 0.003900f, -0.105990f, 0.077346f, 0.107311f, 0.125100f, -0.007089f, 0.005675f, 0.040182f, 0.108118f, -0.035732f, 0.122281f, 0.038427f, -0.094917f, 0.046972f, 0.121597f, 0.079553f, 0.151685f, 0.012677f, 0.139135f, 0.084481f, -0.027671f, -0.057916f, -0.060382f, -0.049730f, -0.136780f, -0.145572f, -0.038730f, -0.095083f, 0.128596f, 0.128301f, -0.071392f, 0.027653f, -0.041393f, 0.165101f, -0.050468f, 0.113231f, 0.043726f, -0.119713f, -0.112301f, 0.008187f, 0.020042f, -0.032141f, 0.141662f, -0.147707f, -0.113129f, -0.052657f, 0.057954f, -0.156451f, 0.026677f, -0.151930f, -0.029493f, -0.077829f, -0.112919f, 0.020649f, -0.023803f, 0.034204f, 0.056638f, -0.137383f, -0.060605f, 0.015824f, -0.038261f, -0.116633f, -0.121751f, 0.089512f, -0.069675f, 0.028130f, 0.151244f, -0.064608f, -0.101323f, 0.055715f, 0.080517f, -0.049357f, 0.153423f, 0.224609f, 0.001748f, 0.031478f, -0.126039f, -0.039374f, 0.171089f, -0.014230f, -0.124900f, -0.084707f, -0.053052f, 0.045502f, 0.032651f, -0.009426f, -0.140597f, 0.083256f, 0.067666f, -0.024727f, 0.061056f, -0.024425f, 0.022407f, 0.033287f, -0.148525f, -0.022943f, -0.078810f, 0.056334f, -0.004405f, -0.095211f, -0.025079f, -0.026427f, 0.202793f, 0.080443f, -0.025086f, 0.131952f, 0.068424f, -0.044831f, -0.077768f, 0.046332f, -0.094545f, 0.015513f, 0.100487f, -0.088617f, -0.012302f, -0.018767f, -0.022226f, 0.084894f, -0.052484f, 0.007672f, 0.005874f, 0.032063f, -0.007664f, 0.013746f, -0.014172f, -0.125300f, -0.074401f, -0.049728f, 0.092082f, -0.060596f, 0.133768f, -0.043687f, 0.010540f, 0.134233f, 0.162386f, 0.007675f, 0.051745f, 0.093880f, -0.111927f, 0.068416f, -0.068887f, -0.056909f, -0.024966f, -0.019594f, -0.115478f, 0.025967f, -0.145662f, 0.167801f, -0.072727f, 0.012928f, -0.027197f, 0.158998f, -0.099151f, -0.143024f, -0.097087f, 0.074251f, 0.034950f, -0.102354f, -0.014894f, -0.104692f, 0.230100f, -0.196945f, -0.108989f, 0.122855f, -0.021745f, -0.064382f, 0.199378f, 0.050140f, -0.038430f, -0.161194f, -0.015511f, -0.045685f, -0.153647f, -0.158962f, -0.094857f, 0.028079f, 0.144515f, 0.077356f, -0.050187f, 0.024736f, 0.051941f, -0.177292f, 0.150090f, -0.014593f, -0.006559f, -0.278962f, -0.092155f, 0.314342f, -0.152297f, 0.022037f, 0.191927f, 0.098464f, -0.046172f, -0.111541f, 0.210564f, 0.153145f, -0.147713f, 0.088244f, -0.001901f, -0.148748f, -0.096715f, -0.020246f, -0.174841f, 0.135938f, -0.087381f, 0.121331f, 0.162104f, 0.030552f, 0.017616f, -0.139456f, 0.088351f, -0.111323f, -0.104621f, -0.051428f, -0.055426f, 0.104941f, -0.160735f, -0.121093f, 0.054486f, -0.156924f, -0.003452f, -0.090387f, 0.043388f, 0.043201f, -0.056636f, 0.032484f, 0.038982f, 0.111286f, -0.124583f, -0.269260f, 0.025474f, -0.071021f, 0.104960f, -0.084192f, 0.088853f, -0.166874f, -0.124280f, 0.119410f, -0.034730f, -0.044816f, -0.056562f, -0.177205f, -0.112868f, -0.113668f, 0.069174f, -0.027240f, 0.113572f, 0.027467f, 0.044082f, -0.141292f, -0.222921f, 0.113823f, -0.050215f, -0.087691f, -0.066911f, -0.003517f, -0.110843f, -0.141314f, 0.128164f, 0.040950f, -0.154824f, -0.053261f, -0.039457f, -0.073730f, -0.110625f, -0.212144f, 0.170891f, -0.042082f, -0.015505f, 0.171398f, -0.072386f, -0.140094f, 0.089777f, -0.203996f, 0.102259f, 0.043509f, 0.024324f, -0.086544f, 0.090549f, 0.113500f, -0.128439f, 0.056666f, -0.003115f, -0.137499f, 0.179530f, -0.141788f, -0.025443f, -0.065780f, -0.173447f, -0.034470f, 0.103614f, -0.012699f, -0.028704f, -0.084153f, 0.118406f, -0.072170f, 0.094804f, 0.025422f, -0.111687f, -0.078508f, 0.056894f, -0.110622f, 0.074099f, 0.045048f, -0.019909f, -0.056306f, -0.046247f, 0.049282f, 0.151424f, 0.008855f, 0.106615f, -0.127500f, -0.124244f, -0.177291f, 0.073572f, -0.023911f, -0.023099f, 0.057867f, -0.173851f, -0.107244f, -0.129814f, 0.065918f, 0.122902f, 0.007518f, -0.060203f, -0.192765f, -0.056417f, -0.182046f, -0.059110f, -0.020489f, -0.193515f, -0.141551f, 0.064313f, -0.157539f, -0.051636f, -0.068574f, 0.042156f, 0.170835f, -0.064806f, 0.032066f, 0.014548f, -0.064450f, 0.021077f, 0.152933f, 0.023118f, 0.281479f, 0.030415f, 0.016170f, -0.008468f, -0.128988f, -0.200679f, -0.105422f, 0.155880f, 0.040106f, -0.153227f, 0.312248f, 0.125571f, 0.060250f, -0.065152f, 0.032395f, -0.109122f, 0.031565f, 0.136154f, 0.354652f, 0.044861f, 0.010293f, 0.129731f, -0.003613f, -0.024251f, -0.212924f, -0.026614f, -0.026021f, 0.094561f, 0.020374f, 0.147952f, 0.116694f, 0.115504f, -0.129875f, 0.037445f, 0.047467f, -0.106163f, -0.080047f, 0.044327f, 0.161396f, -0.127964f, -0.022001f, -0.006068f, 0.359016f, -0.118105f, 0.088508f, 0.188514f, -0.096991f, -0.009200f, 0.015902f, -0.117665f, 0.154486f, -0.178105f, -0.113593f, 0.097725f, -0.081793f, 0.138585f, -0.067543f, -0.097240f, 0.124472f, 0.163322f, 0.176518f, 0.078781f, 0.127889f, -0.131050f, 0.040705f, 0.187446f, 0.182794f, -0.277809f, -0.064876f, 0.170248f, 0.262851f, 0.094490f, -0.134827f, 0.168749f, 0.182259f, -0.140173f, -0.159050f, 0.025824f, 0.126086f, -0.008234f, 0.007529f, 0.074081f, -0.027004f, 0.001774f, -0.025634f, 0.101565f, -0.072599f, -0.235805f, 0.085410f, -0.119602f, -0.073106f, -0.179360f, -0.118425f, -0.069701f, -0.068618f, -0.262666f, -0.101819f, 0.199636f, -0.121473f, -0.154918f, -0.127384f, -0.146656f, 0.139265f, 0.011950f, 0.064295f, -0.064308f, -0.002140f, -0.171828f, 0.009150f, 0.012011f, 0.198591f, 0.104027f, -0.185581f, 0.108485f, 0.190289f, 0.049184f, 0.147987f, -0.077673f, -0.145391f, -0.263104f, -0.091849f, 0.191234f, -0.043657f, 0.125898f, -0.033827f, 0.000148f, 0.091278f, 0.027777f, 0.170926f, -0.079108f, -0.118997f, 0.180049f, -0.014009f, 0.213899f, 0.025353f, -0.077853f, 0.210098f, -0.067401f, 0.107651f, 0.184299f, -0.075694f, -0.008410f, 0.070975f, -0.031425f, -0.035919f, 0.188574f, -0.100065f, 0.022498f, -0.300134f, -0.078940f, 0.101602f, 0.144565f, 0.418274f, 0.109886f, -0.055354f, -0.108808f, -0.027907f, 0.101561f, -0.144559f, 0.002623f, 0.120058f, -0.087411f, 0.184477f, 0.142895f, -0.170591f, -0.049522f, -0.199074f, 0.181625f, -0.046826f, 0.206246f, -0.117142f, -0.234380f, 0.155403f, 0.047796f, 0.143753f, 0.204028f, -0.228742f, 0.150270f, 0.001298f, -0.007138f, 0.204069f, -0.066801f, -0.178215f, -0.074872f, 0.069885f, 0.068595f, -0.206990f, -0.108680f, 0.019733f, -0.014698f, 0.054215f, 0.035433f, 0.145661f, -0.060971f, -0.039752f, 0.090156f, -0.231170f, -0.050161f, 0.187764f, 0.174955f, 0.058777f, 0.232182f, 0.069501f, -0.123688f, 0.000861f, -0.060623f, 0.047029f, 0.036501f, -0.000060f, -0.063855f, -0.001784f, 0.056480f, -0.135681f, 0.011693f, -0.096126f, -0.119856f, 0.191639f, 0.058183f, -0.003225f, 0.141920f, -0.034961f, -0.070299f, 0.089974f, -0.029808f, -0.143026f, -0.150247f, 0.017663f, -0.126223f, 0.074067f, -0.157003f, -0.088752f, 0.001090f, -0.030750f, 0.218322f, -0.133075f, 0.103862f, 0.131749f, 0.066720f, -0.080605f, 0.104627f, 0.001348f, -0.094458f, -0.231291f, -0.034268f, 0.067141f, -0.101125f, -0.090173f, 0.040698f, 0.103956f, -0.019870f, 0.091633f, 0.047683f, 0.010557f, 0.081489f, 0.105416f, -0.021556f, -0.188455f, 0.130205f, -0.065481f, 0.086990f, -0.140381f, 0.074178f, -0.011598f, -0.134081f, 0.080004f, 0.067875f, 0.194977f, 0.047273f, -0.056913f, 0.265546f, 0.097965f, -0.142260f, -0.136917f, -0.026609f, -0.047912f, -0.125866f, 0.014445f, -0.069605f, -0.044184f, 0.050828f, 0.088185f, -0.169898f, 0.069985f, 0.182203f, 0.273333f, -0.071147f, -0.058220f, 0.041363f, 0.007184f, 0.096716f, -0.054990f, -0.106845f, -0.132107f, 0.056986f, 0.162970f, 0.070817f, 0.081523f, -0.000019f, -0.025666f, 0.174602f, -0.154597f, 0.003958f, 0.165571f, -0.115802f, 0.023368f, 0.038015f, -0.233820f, -0.179315f, 0.063367f, -0.114879f, 0.001631f, 0.118168f, 0.150039f, -0.082074f, -0.164907f, -0.055532f, -0.071388f, 0.010151f, -0.091959f, 0.131250f, -0.018985f, 0.068024f, 0.105858f, 0.175318f, 0.046567f, -0.078808f, -0.115504f, 0.041707f, 0.028799f, -0.096375f, -0.140272f, -0.132553f, -0.123284f, -0.075629f, -0.064149f, 0.062431f, -0.012930f, 0.135194f, 0.067178f, -0.201487f, 0.069491f, -0.313956f, 0.145843f, -0.078644f, 0.120239f, -0.237599f, -0.025386f, -0.023489f, -0.105345f, 0.147392f, -0.152787f, 0.108695f, -0.088661f, 0.001101f, -0.233593f, -0.053513f, -0.157568f, -0.044594f, 0.055949f, 0.039231f, -0.027610f, 0.127177f, -0.157546f, 0.116462f, -0.081963f, -0.205205f, 0.165469f, 0.083853f, 0.075528f, -0.072300f, -0.195592f, 0.088764f, -0.108786f, -0.070805f, -0.055053f, 0.018050f, -0.054183f, -0.263391f, 0.130820f, -0.116269f, 0.206165f, -0.103470f, 0.093627f, -0.153297f, -0.050316f, 0.185311f, 0.006656f, 0.005769f, 0.075007f, 0.010424f, -0.033078f, 0.143905f, 0.124352f, -0.101653f, 0.005910f, 0.152289f, -0.202917f, -0.065066f, 0.065955f, -0.082459f, 0.003595f, 0.144474f, -0.163747f, 0.212135f, 0.060067f, 0.152800f, 0.212482f, 0.022868f, -0.085620f, 0.030089f, -0.078411f, 0.006257f, 0.077341f, -0.044967f, 0.054685f, -0.164613f, 0.041577f, 0.017541f, -0.247838f, 0.015962f, 0.208461f, -0.191054f, -0.069543f, 0.207494f, 0.063243f, -0.255843f, 0.113465f, 0.168271f, -0.221641f, -0.170402f, 0.063472f, 0.144478f, 0.100970f, 0.254117f, 0.202775f, -0.162665f, -0.278335f, 0.081404f, -0.167113f, -0.365029f, -0.089307f, -0.229006f, -0.002751f, 0.032980f, -0.060402f, -0.098921f, 0.314618f, -0.150154f, -0.316536f, 0.065170f, 0.009096f, 0.146433f, 0.020692f, -0.017852f, -0.167063f, -0.186113f, 0.190747f, 0.096297f, -0.047721f, 0.052377f, 0.202636f, 0.093937f, 0.082234f, 0.089174f, 0.006035f, -0.232907f, 0.044607f, 0.185805f, 0.003160f, 0.178057f, -0.284545f, 0.035139f, -0.109832f, 0.144142f, 0.229962f, 0.151657f, 0.041023f, 0.017614f, 0.297856f, -0.117817f, -0.058814f, 0.121064f, -0.055740f, 0.409366f, -0.296612f, 0.105901f, 0.001765f, 0.253129f, -0.211941f, -0.052879f, 0.166921f, -0.072544f, 0.099402f, -0.075698f, 0.090156f, -0.039381f, -0.169362f, -0.024263f, -0.056018f, 0.098727f, -0.232333f, -0.048468f, -0.174980f, 0.039396f, -0.125793f, -0.215355f, 0.087515f, 0.221451f, -0.027772f, -0.222086f, -0.228298f, 0.251691f, 0.121449f, -0.106108f, -0.179114f, 0.004684f, -0.190983f, -0.086926f, 0.016685f, 0.055958f, -0.134550f, -0.055685f, -0.101503f, -0.031868f, 0.054916f, 0.127046f, -0.180794f, -0.118198f, -0.186087f, 0.156638f, -0.085773f, 0.090132f, -0.230512f, 0.003445f, -0.038426f, -0.062074f, 0.057447f, 0.083539f, -0.048484f, 0.181819f, -0.034139f, 0.024777f, 0.186591f, -0.019424f, 0.154989f, 0.085868f, -0.114002f, -0.094409f, 0.119614f, 0.186789f, -0.132031f, 0.113017f, -0.040916f, -0.030785f, -0.000098f, 0.083464f, -0.012993f, -0.093942f, 0.014919f, -0.036486f, 0.083398f, 0.097637f, 0.140830f, 0.106745f, 0.445453f, -0.246877f, 0.041686f, 0.058840f, 0.135628f, -0.064666f, 0.008214f, -0.045190f, 0.117765f, 0.144713f, -0.085802f, 0.088413f, 0.378173f, 0.155451f, -0.231499f, 0.020897f, -0.112111f, 0.179229f, -0.051357f, 0.025372f, -0.129724f, -0.038763f, -0.199212f, -0.080127f, 0.126529f, -0.048690f, 0.024741f, -0.004179f, 0.185806f, -0.221672f, -0.116678f, 0.191406f, 0.169659f, -0.028014f, 0.216849f, -0.229875f, 0.291800f, 0.168413f, -0.107970f, 0.230204f, 0.021896f, -0.004274f, -0.108019f, 0.138993f, -0.132927f, 0.149674f, 0.009271f, 0.042911f, 0.022074f, 0.262791f, 0.121203f, -0.072264f, -0.137190f, -0.097292f, -0.045617f, -0.023355f, 0.325226f, -0.168968f, -0.038399f, -0.125823f, 0.181937f, 0.110854f, -0.341409f, -0.015541f, 0.020876f, 0.157277f, -0.202298f, 0.081840f, 0.108153f, 0.197695f, -0.080124f, -0.068321f, -0.096742f, 0.035582f, -0.075519f, 0.132743f, 0.130682f, -0.137712f, 0.272558f, 0.011741f, -0.169953f, 0.040800f, -0.026538f, -0.044064f, -0.191016f, 0.188783f, 0.003031f, 0.073923f, -0.098772f, 0.055064f, -0.079051f, -0.026762f, 0.036515f, -0.112528f, -0.098598f, 0.193549f, -0.101148f, -0.039910f, 0.079091f, 0.262649f, -0.107629f, -0.010335f, -0.197322f, -0.020470f, 0.175013f, 0.222715f, 0.073223f, 0.279920f, -0.213786f, 0.093533f, 0.266077f, -0.026122f, -0.020165f, 0.172312f, -0.080129f, 0.033684f, -0.037996f, 0.257356f, -0.093961f, 0.339242f, -0.010378f, -0.078896f, -0.069834f, 0.075413f, 0.177909f, -0.127174f, 0.165669f, -0.009549f, 0.129103f, -0.022524f, -0.244067f, -0.242595f, -0.032294f, 0.196299f, 0.007085f, -0.333247f, -0.178909f, -0.050630f, -0.024437f, 0.185046f, -0.069777f, -0.294693f, -0.032365f, 0.164405f, 0.154767f, 0.077395f, -0.120160f, -0.017011f, 0.018440f, 0.286715f, 0.080587f, -0.255868f, -0.033622f, -0.034212f, -0.235157f, -0.181208f, -0.102997f, -0.128338f, -0.101774f, 0.230442f, -0.014235f, 0.035153f, -0.034367f, 0.299981f, 0.305112f, -0.172298f, 0.195102f, -0.008435f, -0.011854f, -0.069704f, 0.103175f, -0.214817f, 0.024660f, -0.027718f, 0.006620f, 0.165711f, -0.047623f, -0.189602f, -0.230412f, 0.094783f, -0.120120f, 0.100161f, -0.127561f, 0.046024f, 0.089200f, -0.077471f, -0.071780f, -0.166298f, 0.213755f, 0.033924f, 0.034113f, -0.063895f, -0.045810f, -0.014096f, -0.062387f, -0.011345f, -0.063869f, -0.016437f, -0.151804f, 0.045410f, 0.178397f, -0.054022f, -0.223938f, 0.195461f, 0.091092f, -0.156404f, 0.166370f, -0.189263f, -0.061200f, 0.235944f, -0.030884f, 0.161507f, -0.061835f, 0.090506f, -0.235175f, -0.019627f, 0.013415f, 0.158649f, -0.120002f, 0.070211f, -0.051832f, 0.067181f, -0.265813f, -0.120040f, 0.022454f, -0.067699f, -0.065746f, 0.123387f, 0.030238f, 0.235510f, -0.044786f, -0.170262f, 0.027261f, -0.112771f, -0.066864f, 0.125602f, -0.178439f, 0.164987f, -0.124938f, 0.043786f, 0.050830f, -0.063871f, 0.153044f, -0.041366f, -0.010805f, 0.018156f, 0.205941f, -0.130921f, -0.185175f, -0.107869f, 0.149083f, 0.110226f, 0.079049f, 0.137029f, 0.091947f, 0.126981f, -0.068546f, -0.000814f, 0.161473f, 0.146992f, -0.071181f, 0.120803f, 0.102640f, -0.168729f, -0.256626f, 0.032812f, -0.160700f, -0.143677f, 0.148847f, 0.028012f, 0.011446f, -0.112385f, 0.091575f, -0.061940f, -0.009078f, 0.003934f, -0.012335f, 0.079537f, 0.148780f, -0.025472f, -0.198587f, -0.070412f, -0.069672f, -0.041573f, 0.195989f, 0.065243f, 0.018154f, 0.026841f, -0.006519f, 0.093154f, -0.063164f, -0.000544f, -0.057599f, 0.007137f, -0.037287f, 0.088244f, 0.153849f, -0.120548f, -0.140815f, -0.065128f, -0.063814f, 0.119068f, -0.094664f, 0.048806f, -0.043311f, 0.095728f, 0.003540f, 0.013826f, -0.189476f, -0.104981f, -0.138628f, -0.147340f, 0.022287f, -0.074142f, -0.049368f, 0.031873f, -0.077922f, -0.010882f, 0.081790f, -0.118207f, -0.044072f, -0.138566f, -0.134770f, 0.060563f, -0.082695f, 0.021642f, -0.100396f, -0.144407f, 0.121930f, -0.036677f, 0.120921f, -0.029813f, -0.077165f, 0.137954f, 0.099310f, -0.065932f, -0.042004f, -0.084894f, 0.202483f, -0.076506f, -0.093081f, -0.046470f, -0.079184f, 0.133150f, 0.168021f, 0.144642f, 0.032498f, 0.034482f, 0.021133f, 0.064728f, -0.147721f, -0.055188f, 0.056862f, -0.116862f, -0.059443f, -0.012408f, -0.011144f, 0.165157f, -0.094775f, -0.158580f, -0.030207f, 0.077446f, 0.110475f, 0.193379f, -0.127240f, -0.133550f, 0.020680f, -0.058264f, 0.245208f, 0.156137f, 0.082693f, 0.049391f, 0.069491f, -0.090308f, 0.115939f, 0.006642f, 0.082420f, -0.017121f, -0.036030f, -0.006291f, 0.025386f, -0.142985f, -0.104754f, -0.113731f, -0.049394f, 0.161050f, -0.190189f, 0.099573f, 0.013956f, -0.078762f, 0.061254f, -0.087846f, 0.066785f, -0.141132f, -0.013209f, -0.135111f, 0.146423f, 0.083528f, -0.138360f, 0.087624f, -0.001147f, -0.058037f, -0.003298f, -0.139980f, 0.176550f, -0.183516f, 0.225531f, -0.153283f, -0.045346f, -0.005132f, -0.201442f, 0.072351f, 0.043344f, -0.009569f, -0.120123f, 0.053086f, 0.125328f, -0.068415f, 0.091274f, -0.064143f, -0.090049f, 0.058163f, 0.011869f, 0.192243f, -0.073955f, -0.096702f, -0.036485f, 0.037093f, 0.146787f, 0.158644f, -0.033471f, -0.060213f, -0.139229f, 0.071799f, -0.052979f, 0.238945f, -0.050548f, 0.103065f, -0.045426f, -0.089196f, 0.022024f, -0.019984f, -0.072543f, 0.011365f, 0.026047f, -0.027388f, -0.035577f, -0.100929f, 0.117400f, 0.039077f, 0.015621f, -0.038740f, 0.053278f, -0.184973f, 0.067304f, 0.018473f, -0.106288f, 0.013952f, -0.077547f, -0.131866f, -0.003575f, -0.021081f, -0.089627f, -0.096852f, -0.050396f, -0.073845f, 0.055707f, -0.020437f, -0.059176f, 0.156395f, 0.042646f, 0.013798f, -0.056273f, -0.111441f, -0.136119f, -0.095496f, -0.085710f, 0.030683f, -0.149042f, 0.033769f, 0.027181f, 0.117889f, -0.099971f, -0.005875f, 0.059893f, 0.133485f, 0.088000f, -0.124893f, 0.151331f, -0.140677f, 0.086381f, 0.007617f, 0.036888f, 0.070470f, 0.088070f, -0.115554f, -0.101315f, -0.008747f, 0.057746f, -0.003340f, 0.011125f, -0.042808f, -0.013330f, 0.069859f, -0.039821f, 0.026024f, -0.006928f, -0.065541f, 0.030683f, -0.140268f, -0.096126f, 0.128752f, -0.154597f, 0.030614f, -0.120487f, -0.029391f, -0.043474f, 0.009514f, 0.119966f, -0.079922f, -0.000223f, -0.139901f, -0.009464f, -0.146611f, -0.115126f, 0.113677f, -0.029100f, -0.093151f, 0.095806f, 0.089125f, 0.032078f, 0.055960f, -0.078449f, -0.026638f, -0.104336f, -0.104037f, 0.142407f, -0.111483f, 0.031433f, 0.057048f, -0.096578f, 0.092565f, -0.082759f, 0.102419f, 0.079041f, 0.088700f, 0.054530f, -0.134162f, 0.008787f, -0.044265f, -0.136277f, 0.081577f, 0.011950f, 0.001579f, 0.078656f, 0.036092f, 0.192774f, -0.116119f, -0.067050f, -0.113349f, -0.064348f, -0.142423f, 0.049690f, -0.048803f, -0.130938f, -0.010755f, -0.073195f, 0.140343f, -0.033009f, 0.075643f, 0.119778f, 0.078559f, 0.155770f, -0.019312f, 0.120498f, 0.133271f, -0.074876f, 0.123964f, 0.025936f, -0.134241f, -0.105146f, -0.141245f, -0.029290f, 0.003679f, 0.082141f, -0.046798f, -0.017724f, 0.092646f, 0.040232f, 0.070617f, -0.121332f, 0.039697f, -0.037557f, -0.087930f, 0.052714f, -0.096505f, -0.086324f, 0.081081f, -0.078793f, 0.111572f, 0.127109f, 0.018076f, -0.153397f, -0.093919f, -0.033090f, -0.061380f, 0.014826f, 0.100890f, -0.053910f, 0.089060f, -0.089449f, -0.006614f, -0.022448f, 0.129247f, -0.103148f, -0.168710f, -0.082505f, 0.016910f, -0.143882f, 0.104154f, 0.012240f, 0.105873f, 0.136016f, -0.070440f, -0.000270f, 0.023023f, -0.078323f, -0.051903f, 0.147593f, -0.036157f, -0.068524f, 0.140726f, 0.103166f, -0.016866f, 0.042998f, -0.119038f, -0.161770f, 0.095683f, -0.038957f, -0.055639f, -0.121368f, 0.061987f, -0.120735f, -0.095589f, -0.047392f, -0.058773f, -0.087907f, 0.067487f, 0.047727f, -0.110186f, 0.062520f, 0.074858f, -0.133624f, -0.084601f, -0.120538f, -0.043337f, -0.149691f, 0.042686f, 0.070918f, -0.029332f, 0.133900f, -0.061344f, -0.065142f, -0.117891f, 0.095145f, -0.051170f, -0.047741f, -0.058433f, 0.009410f, 0.096794f, -0.067635f, -0.021512f, 0.000500f, -0.070114f, -0.072188f, -0.151612f, -0.049162f, 0.058289f, -0.053333f, 0.211772f, 0.170455f, 0.033323f, 0.058617f, 0.055564f, 0.067781f, -0.011363f, 0.041348f, -0.119497f, -0.051860f, 0.067169f, 0.013523f, 0.048340f, -0.086585f, -0.093870f, 0.135161f, 0.067857f, 0.083346f, 0.148908f, 0.061776f, -0.008869f, 0.014523f, 0.070138f, 0.102773f, 0.099167f, 0.046587f, 0.079014f, -0.105176f, 0.019437f, -0.123552f, -0.130104f, 0.053307f, 0.139722f, -0.084396f, -0.118721f, -0.000855f, -0.074919f, -0.095212f, -0.068285f, -0.150868f, -0.117077f, 0.033855f, -0.126014f, 0.015597f, -0.022512f, 0.014388f, -0.115971f, -0.007678f, -0.029075f, -0.075156f, 0.118429f, 0.020639f, 0.024833f, -0.148220f, -0.081391f, 0.061010f, -0.147294f, 0.084299f, 0.135499f, 0.092799f, -0.061760f, 0.117125f, -0.014470f, 0.145235f, -0.038713f, -0.145685f, -0.117861f, -0.178891f, 0.105993f, -0.091478f, 0.110208f, -0.079308f, -0.061635f, -0.130376f, 0.115316f, -0.120816f, -0.095908f, -0.074797f, 0.082959f, 0.068125f, 0.010849f, -0.119707f, 0.025877f, -0.130470f, -0.097443f, -0.153585f, 0.068990f, 0.163935f, -0.041596f, 0.100243f, -0.055820f, 0.009141f, 0.008101f, -0.153558f, -0.108982f, 0.085044f, 0.111400f, -0.125001f, -0.036918f, -0.031908f, -0.002465f, -0.126010f, 0.097331f, 0.083211f, -0.050849f, -0.015147f, -0.099428f, 0.070845f, 0.056805f, -0.122428f, -0.000687f, -0.008048f, 0.018825f, 0.080891f, 0.053948f, -0.087294f, -0.053436f, 0.048210f, -0.036406f, -0.070322f, -0.031208f, 0.160609f, -0.111032f, -0.116348f, -0.119531f, -0.090250f, 0.113991f, -0.002636f, -0.107797f, -0.130047f, 0.128764f, 0.002389f, -0.105143f, 0.233464f, 0.081729f, 0.071192f, 0.047340f, 0.097048f, 0.022642f, -0.087432f, -0.140788f, 0.016684f, 0.072652f, 0.108623f, 0.073258f, -0.052925f, 0.061831f, -0.127039f, 0.165681f, -0.019512f, 0.060407f, 0.091555f, -0.112650f, 0.078365f, -0.079713f, 0.015077f, -0.063297f, 0.131507f, 0.051481f, 0.089634f, -0.045062f, 0.149027f, -0.036670f, -0.067643f, -0.157749f, 0.076916f, -0.029866f, -0.006671f, -0.095271f, 0.141833f, -0.026708f, -0.153411f, -0.182664f, 0.127826f, -0.017979f, 0.174080f, -0.074075f, 0.257727f, 0.217432f, -0.128520f, 0.182380f, 0.056039f, 0.082824f, -0.191157f, -0.145830f, -0.021036f, 0.201727f, -0.039322f, 0.119816f, -0.045509f, -0.060677f, 0.139362f, -0.128746f, 0.090431f, -0.027858f, -0.031700f, 0.171745f, 0.076178f, 0.035137f, 0.289601f, 0.036244f, -0.019355f, 0.097126f, 0.070376f, -0.078702f, -0.031547f, -0.204966f, -0.043318f, 0.158829f, -0.166965f, 0.155675f, -0.031100f, -0.041934f, -0.112205f, -0.022347f, -0.034052f, 0.018865f, 0.092056f, 0.049314f, 0.036391f, 0.217470f, -0.010441f, 0.203281f, -0.082450f, -0.054553f, -0.059444f, -0.051085f, 0.072792f, -0.061501f, -0.092426f, -0.075513f, 0.010530f, -0.067492f, -0.090678f, 0.084734f, 0.057957f, -0.027319f, 0.038334f, -0.030140f, -0.244987f, 0.073093f, -0.174390f, -0.135225f, 0.050032f, 0.128149f, -0.150652f, -0.149404f, 0.086574f, -0.202689f, -0.078797f, -0.130821f, -0.020773f, -0.024936f, -0.034189f, -0.052528f, -0.021668f, -0.012815f, 0.007533f, 0.004397f, -0.100269f, 0.158185f, -0.014202f, -0.076573f, -0.170499f, 0.276141f, -0.216836f, 0.186503f, -0.014230f, -0.009809f, 0.184289f, -0.051069f, 0.093916f, 0.027097f, 0.025417f, 0.199809f, -0.039486f, 0.021547f, 0.085615f, -0.045996f, -0.003385f, -0.020496f, -0.037100f, 0.051198f, 0.049936f, -0.098994f, 0.079857f, 0.030852f, -0.004412f, -0.034356f, 0.186110f, 0.164915f, 0.285194f, -0.113753f, -0.135864f, 0.037489f, 0.023814f, 0.058404f, -0.008041f, -0.060006f, 0.064038f, 0.016291f, 0.158215f, -0.057532f, -0.043885f, 0.057924f, 0.087925f, -0.034457f, 0.046988f, 0.129714f, 0.159332f, -0.155173f, 0.213539f, 0.058526f, 0.044468f, -0.079491f, -0.200618f, -0.098165f, -0.134936f, 0.207812f, 0.003342f, 0.052808f, 0.018923f, -0.079531f, -0.061214f, -0.014087f, -0.034284f, 0.219742f, -0.006155f, -0.121281f, -0.049061f, -0.029807f, 0.157015f, -0.135873f, -0.166359f, 0.288336f, -0.078457f, 0.063587f, -0.131006f, 0.253448f, -0.256995f, 0.036106f, -0.157766f, -0.100669f, -0.088002f, 0.078349f, 0.153650f, -0.156969f, -0.108209f, -0.097841f, -0.094694f, -0.004536f, -0.006060f, -0.051677f, 0.005485f, -0.166691f, 0.173029f, 0.271589f, 0.025969f, -0.045647f, 0.054830f, 0.010396f, 0.014310f, 0.037684f, 0.015223f, -0.200759f, -0.006657f, -0.048935f, -0.036876f, -0.017729f, -0.141922f, -0.023609f, -0.134221f, -0.100673f, 0.110420f, -0.002892f, 0.197228f, -0.022305f, 0.119905f, 0.103847f, -0.158425f, 0.026896f, 0.155208f, 0.165717f, -0.098993f, 0.013103f, 0.112166f, 0.330127f, -0.123186f, -0.077600f, -0.108165f, 0.061787f, -0.131501f, -0.023440f, 0.027646f, 0.055375f, -0.020835f, 0.066934f, 0.352336f, 0.122561f, -0.138844f, -0.196701f, -0.082887f, 0.016467f, -0.078030f, -0.015142f, 0.307486f, -0.289224f, 0.355893f, -0.050461f, -0.061980f, 0.163949f, 0.115145f, 0.227827f, -0.119350f, 0.033997f, -0.003877f, -0.155065f, -0.234551f, -0.007629f, 0.113974f, 0.286045f, -0.065203f, 0.210818f, 0.196837f, 0.086865f, 0.078929f, 0.016098f, 0.098915f, 0.049173f, 0.204706f, -0.239453f, 0.046880f, -0.130889f, -0.023858f, -0.063983f, -0.171118f, 0.071952f, -0.128946f, -0.379512f, -0.100334f, -0.011467f, 0.377903f, 0.007803f, -0.113569f, 0.003565f, -0.056364f, 0.087528f, 0.242167f, -0.096741f, -0.068236f, 0.071107f, 0.113417f, -0.043424f, 0.065959f, 0.193778f, -0.089277f, -0.142562f, -0.015049f, -0.100922f, 0.210667f, 0.076015f, -0.080572f, 0.144134f, -0.274173f, 0.035597f, -0.215510f, 0.112635f, 0.192299f, -0.113366f, -0.176357f, -0.228241f, -0.009569f, 0.009643f, 0.191620f, 0.158992f, -0.175532f, 0.033453f, -0.040718f, 0.129497f, 0.102512f, 0.110253f, 0.080771f, -0.182068f, -0.109923f, -0.217932f, 0.082098f, -0.180825f, -0.227582f, 0.180915f, 0.044124f, -0.122741f, 0.099926f, 0.017484f, -0.226278f, 0.069852f, -0.081083f, 0.179216f, 0.171878f, -0.123754f, -0.088577f, 0.007984f, 0.034405f, -0.019450f, -0.110305f, -0.031663f, -0.014883f, -0.059060f, -0.068858f, 0.290274f, -0.286724f, 0.098797f, 0.014126f, 0.068206f, 0.029095f, 0.206565f, -0.004645f, 0.132330f, -0.076572f, -0.083180f, -0.131241f, -0.200544f, -0.205252f, 0.149482f, 0.088232f, 0.156551f, 0.048614f, 0.156729f, -0.226674f, -0.108025f, 0.159820f, 0.117155f, -0.038027f, 0.112037f, -0.148462f, -0.144862f, 0.119240f, 0.041589f, 0.122674f, 0.065373f, -0.032099f, -0.009597f, 0.083451f, 0.073150f, -0.022906f, -0.026076f, 0.016795f, -0.022224f, -0.111559f, -0.136661f, -0.037626f, -0.029357f, 0.071315f, 0.005910f, -0.019063f, 0.019632f, -0.102700f, 0.228445f, 0.080085f, -0.047999f, -0.093267f, -0.042386f, 0.055799f, -0.029403f, -0.227839f, -0.245147f, 0.230915f, -0.180711f, -0.129657f, 0.070742f, -0.069255f, -0.176276f, -0.070389f, -0.087569f, 0.062089f, 0.146396f, -0.180921f, -0.057837f, 0.008759f, -0.160743f, -0.268968f, -0.054559f, 0.332316f, 0.023622f, 0.149461f, -0.032667f, -0.001106f, -0.080648f, -0.128924f, -0.204965f, -0.146742f, -0.043793f, 0.049322f, 0.073460f, -0.136381f, -0.303667f, -0.126579f, 0.019706f, 0.007987f, -0.008782f, -0.162395f, 0.111606f, 0.019538f, -0.262536f, 0.017088f, -0.019961f, -0.046179f, -0.251561f, 0.054695f, 0.086705f, 0.141924f, -0.089559f, 0.203954f, 0.182953f, -0.073032f, -0.265170f, 0.032427f, -0.031493f, -0.320911f, -0.168419f, 0.139624f, 0.377837f, 0.025821f, -0.129648f, -0.068256f, 0.272174f, 0.068761f, 0.033391f, -0.074850f, -0.071324f, -0.010103f, -0.277204f, -0.050102f, -0.047275f, 0.191905f, 0.025285f, -0.105412f, 0.118850f, -0.164942f, -0.299845f, 0.173178f, 0.255715f, 0.072475f, -0.059748f, -0.308166f, 0.324359f, -0.074650f, -0.053579f, 0.007567f, 0.409050f, 0.039081f, 0.233230f, -0.113736f, 0.028109f, -0.069744f, -0.085714f, 0.058878f, -0.066632f, 0.043265f, 0.144578f, -0.185521f, 0.096979f, -0.041991f, 0.210417f, -0.147260f, -0.133114f, -0.044242f, -0.032726f, 0.111723f, 0.063276f, 0.065780f, -0.380810f, 0.044227f, 0.027256f, -0.066888f, -0.051578f, 0.270028f, -0.017597f, 0.093094f, -0.122369f, 0.040335f, -0.008375f, 0.050349f, -0.039063f, -0.055132f, -0.213443f, -0.012733f, -0.037248f, 0.341692f, -0.082673f, 0.205005f, -0.251678f, 0.121292f, -0.161133f, -0.367813f, 0.063337f, -0.025823f, -0.156883f, -0.050480f, -0.212026f, 0.023215f, 0.312830f, 0.043666f, 0.059073f, -0.178585f, -0.015606f, 0.233697f, -0.086464f, 0.040771f, 0.031970f, -0.211072f, -0.053897f, 0.005542f, 0.060037f, 0.072091f, 0.066758f, -0.133090f, 0.075125f, -0.057608f, 0.086038f, -0.284973f, -0.342453f, -0.157179f, -0.044799f, 0.036496f, 0.098139f, -0.101059f, -0.075219f, -0.168697f, 0.166355f, 0.070848f, -0.016981f, -0.129374f, 0.020046f, -0.011582f, 0.000068f, -0.099921f, 0.212288f, -0.021119f, 0.035004f, 0.024381f, 0.126015f, -0.083271f, 0.344651f, 0.096286f, -0.038134f, -0.166968f, -0.013233f, 0.054904f, -0.082705f, -0.185169f, -0.201691f, 0.134215f, -0.037775f, 0.096034f, -0.038734f, -0.142408f, -0.327074f, -0.119679f, -0.203530f, 0.031955f, 0.082691f, 0.120676f, 0.054014f, -0.072262f, -0.406491f, -0.171904f, 0.266337f, -0.030695f, 0.222028f, 0.042962f, -0.088742f, 0.149578f, 0.179187f, 0.005604f, -0.183036f, -0.242180f, -0.178479f, 0.030662f, -0.251835f, 0.062226f, 0.098758f, 0.326557f, 0.080382f, -0.099564f, 0.039443f, -0.023416f, -0.332346f, 0.231176f, -0.052338f, 0.119502f, 0.039128f, 0.169457f, -0.353116f, -0.153943f, -0.018579f, -0.064756f, -0.018942f, -0.009464f, -0.217495f, 0.186758f, -0.024020f, -0.070741f, -0.203984f, 0.160243f, 0.199744f, -0.408580f, 0.232913f, -0.161610f, 0.008632f, 0.026324f, -0.262510f, -0.235426f, 0.026030f, 0.249945f, -0.076458f, -0.134114f, 0.251504f, 0.143221f, 0.197872f, -0.125674f, 0.244981f, -0.179150f, -0.150640f, 0.006669f, -0.136002f, 0.034688f, -0.146495f, -0.188142f, -0.145455f, -0.034118f, -0.011272f, -0.003446f, 0.028447f, 0.001784f, 0.051040f, 0.102155f, 0.130226f, -0.114217f, 0.173046f, 0.085861f, 0.426687f, -0.368835f, -0.122501f, 0.083221f, 0.332945f, -0.015461f, 0.013459f, -0.270540f, 0.358869f, -0.054399f, -0.004485f, -0.061452f, -0.190430f, -0.229091f, -0.438376f, 0.140524f, -0.177548f, -0.004625f, 0.129597f, -0.205884f, 0.251239f, -0.017609f, -0.210800f, 0.274272f, 0.203845f, 0.231596f, -0.069158f, -0.150150f, 0.282052f, -0.059023f, -0.165290f, 0.079515f, -0.124380f, -0.252109f, -0.019310f, 0.248477f, -0.090545f, -0.021084f, -0.064917f, 0.038413f, -0.169019f, -0.095349f, -0.024838f, 0.064853f, -0.126067f, -0.144699f, -0.067533f, 0.407546f, -0.140091f, -0.017558f, 0.157548f, 0.084886f, -0.196901f, 0.249078f, -0.174017f, 0.014443f, -0.072194f, -0.157729f, 0.082414f, 0.154639f, -0.124324f, -0.007556f, -0.050983f, -0.123982f, -0.014086f, 0.273974f, 0.034323f, 0.082696f, -0.036446f, -0.073348f, 0.009610f, -0.080205f, -0.053538f, 0.094876f, -0.179128f, -0.090140f, 0.043377f, -0.026328f, 0.077104f, 0.300035f, 0.029548f, 0.316397f, -0.101299f, 0.019533f, -0.298717f, -0.167468f, -0.241588f, 0.028576f, -0.014409f, 0.152770f, -0.232863f, 0.083064f, -0.201802f, 0.086275f, 0.188527f, -0.176533f, 0.268239f, -0.363377f, 0.095285f, -0.121043f, 0.193944f, 0.002776f, -0.116171f, -0.035710f, -0.177385f, -0.180548f, -0.069922f, -0.102308f, -0.187930f, -0.076660f, 0.101864f, -0.188114f, 0.070137f, 0.125927f, 0.043735f, -0.099264f, 0.007130f, -0.064940f, 0.043710f, 0.050800f, -0.016116f, 0.082583f, 0.055925f, 0.033576f, -0.085426f, 0.028347f, -0.037018f, 0.250212f, -0.051103f, -0.205417f, 0.044773f, -0.103375f, 0.100006f, -0.001342f, 0.001113f, -0.064855f, -0.133503f, 0.303090f, -0.407653f, -0.274081f, -0.221604f, 0.053561f, 0.109915f, -0.366829f, 0.052290f, 0.013037f, 0.144272f, 0.213446f, 0.192993f, -0.085704f, 0.051987f, -0.084503f, -0.166024f, -0.199634f, -0.062658f, -0.125198f, 0.231335f, 0.065624f, -0.330905f, 0.588514f, -0.080571f, -0.137171f, -0.046536f, -0.067043f, -0.089245f, 0.231377f, 0.153834f, -0.002889f, 0.165921f, -0.103914f, 0.083895f, -0.078777f, 0.222118f, 0.004665f, -0.213763f, 0.260065f, -0.056970f, -0.059064f, -0.135596f, -0.122937f, 0.295449f, 0.108608f, -0.017659f, -0.211464f, -0.171117f, 0.299355f, 0.151348f, 0.344960f, 0.077176f, -0.356530f, -0.295987f, 0.277739f, -0.116616f, 0.130835f, 0.098774f, 0.015779f, 0.076379f, 0.060087f, -0.140931f, 0.048527f, 0.065790f, -0.415917f, -0.046940f, 0.021482f, 0.126410f, 0.067951f, -0.077472f, -0.089693f, -0.016600f, -0.002589f, -0.035297f, -0.415629f, -0.232361f, 0.041356f, 0.048940f, -0.042879f, -0.392263f, -0.202747f, 0.023192f, -0.308588f, 0.047187f, -0.286946f, -0.294218f, -0.267107f, 0.227766f, 0.015136f, 0.166608f, -0.220670f, -0.110712f, 0.062374f, -0.049672f, -0.343385f, -0.316036f, 0.001714f, 0.374625f, -0.084644f, -0.094504f, 0.425717f, -0.012731f, 0.155114f, 0.199112f, 0.224993f, -0.029325f, 0.247862f, -0.056492f, 0.372247f, 0.095125f, 0.150120f, 0.059758f, -0.024633f, 0.020177f, 0.166156f, -0.354112f, 0.183870f, 0.143302f, -0.079277f, 0.413310f, -0.164032f, 0.229465f, -0.102951f, -0.014210f, -0.264772f, 0.101376f, -0.188342f, 0.081026f, 0.023770f, 0.057579f, 0.105906f, 0.007654f, -0.073117f, 0.084319f, 0.217286f, -0.050008f, 0.051158f, -0.024604f, -0.354984f, 0.070697f, 0.068338f, -0.191862f, -0.170568f, -0.150692f, 0.007327f, -0.014097f, 0.148086f, 0.061484f, 0.269340f, -0.122496f, 0.218285f, -0.077534f, 0.147987f, 0.170897f, -0.131570f, -0.133138f, -0.209339f, 0.239911f, -0.079206f, 0.127504f, 0.109282f, 0.252075f, -0.160699f, 0.134841f, -0.053835f, 0.075515f, -0.095676f, 0.095835f, 0.205881f, -0.085859f, 0.228844f, -0.103123f, 0.121622f, 0.276962f, -0.180377f, 0.046438f, 0.097584f, -0.019242f, -0.074174f, 0.396070f, 0.000414f, -0.084217f, -0.159016f, 0.266194f, -0.110666f, -0.022211f, 0.128327f, -0.421782f, -0.028087f, -0.387392f, 0.064655f, -0.096591f, -0.090766f, -0.161489f, -0.019780f, -0.035203f, -0.100360f, -0.121476f, -0.099177f, -0.042322f, -0.001641f, -0.123145f, -0.097043f, -0.030068f, 0.096835f, 0.078031f, -0.263613f, -0.026429f, -0.128682f, 0.083559f, -0.132414f, -0.085753f, 0.030036f, -0.011905f, 0.209744f, -0.163262f, 0.061415f, -0.082972f, -0.212023f, -0.034392f, 0.014815f, -0.144529f, 0.051469f, 0.121561f, -0.062431f, 0.025722f, 0.011359f, 0.025284f, -0.011347f, 0.056410f, -0.095891f, -0.014256f, -0.096445f, 0.034926f, -0.159236f, 0.152465f, 0.104714f, -0.122427f, 0.106095f, -0.048790f, -0.058964f, 0.073581f, -0.104929f, 0.015484f, 0.016756f, 0.015424f, -0.214336f, -0.019815f, 0.191193f, -0.034476f, 0.167094f, 0.197758f, -0.019439f, 0.087780f, -0.024423f, -0.094643f, 0.183040f, 0.022202f, 0.094102f, 0.053859f, -0.126724f, -0.099385f, -0.120650f, -0.003044f, -0.147177f, 0.146194f, -0.078299f, 0.179207f, 0.184704f, -0.055455f, 0.084954f, -0.085041f, 0.028336f, -0.064786f, -0.215490f, 0.145630f, -0.006210f, 0.060527f, -0.062672f, -0.211909f, 0.097938f, 0.053660f, 0.025124f, -0.131623f, -0.187204f, -0.110969f, 0.109133f, 0.072817f, -0.040955f, 0.037326f, -0.030167f, -0.116403f, 0.106749f, -0.101698f, -0.177449f, -0.136035f, -0.216843f, 0.168151f, -0.113878f, -0.084254f, 0.023211f, -0.082012f, 0.066921f, -0.130908f, -0.025327f, 0.045898f, 0.144974f, 0.075504f, -0.015072f, -0.070215f, -0.001329f, 0.029824f, -0.093831f, -0.036764f, 0.076797f, -0.007821f, -0.152869f, 0.014860f, -0.200020f, 0.215503f, -0.071402f, -0.049798f, -0.115298f, -0.090469f, -0.136800f, 0.136821f, -0.160677f, 0.048799f, 0.082758f, 0.100042f, 0.047628f, -0.034798f, 0.021574f, -0.149957f, 0.030526f, 0.014723f, -0.006970f, 0.000012f, -0.010533f, -0.139695f, -0.029434f, -0.160811f, -0.141921f, 0.059472f, 0.042257f, -0.056328f, -0.076108f, 0.034063f, -0.022458f, -0.093555f, 0.127742f, 0.038669f, 0.012281f, 0.007822f, -0.107739f, -0.114754f, -0.049558f, -0.200857f, -0.080059f, 0.057894f, -0.158084f, 0.048371f, -0.053773f, -0.108760f, -0.144474f, -0.105599f, 0.106035f, 0.135159f, 0.161322f, -0.058121f, -0.038285f, 0.004239f, 0.072814f, 0.203262f, -0.174250f, -0.006588f, 0.114504f, 0.069696f, 0.123586f, 0.028074f, -0.047653f, -0.210568f, 0.139297f, -0.143776f, -0.136266f, -0.136622f, -0.010290f, -0.219576f, -0.030596f, -0.039703f, -0.065575f, -0.109435f, -0.037895f, 0.148862f, 0.079530f, 0.099506f, -0.113022f, 0.025934f, -0.054746f, -0.043267f, -0.047761f, -0.131476f, 0.040496f, 0.034056f, -0.077996f, 0.015165f, -0.000797f, 0.156943f, 0.060779f, 0.115533f, -0.140001f, -0.042751f, -0.009395f, -0.055925f, 0.163758f, -0.148122f, 0.143102f, 0.067238f, 0.050563f, -0.108820f, -0.050062f, -0.059804f, -0.150346f, -0.081343f, -0.097157f, -0.076071f, -0.019172f, -0.132819f, 0.027755f, -0.060291f, 0.110048f, -0.030420f, -0.066929f, -0.118009f, 0.121782f, -0.046496f, 0.069826f, 0.003639f, -0.043183f, -0.042367f, -0.056448f, 0.001539f, 0.060854f, 0.007402f, 0.125875f, 0.004337f, -0.121374f, -0.098234f, -0.131340f, 0.071283f, -0.013292f, -0.124783f, 0.112840f, 0.091507f, -0.101740f, 0.009811f, -0.116178f, -0.114943f, 0.079956f, 0.048001f, 0.081824f, 0.098896f, -0.074350f, -0.117341f, 0.109923f, -0.097091f, 0.061550f, -0.090111f, -0.095999f, 0.190704f, -0.087367f, 0.035453f, 0.063317f, -0.012227f, 0.071126f, 0.114822f, -0.084969f, 0.079003f, 0.026399f, 0.019930f, 0.099907f, 0.000341f, 0.075804f, -0.149513f, -0.041299f, 0.056593f, 0.060884f, 0.000686f, -0.025511f, 0.040536f, -0.160187f, -0.091057f, -0.125261f, -0.139633f, -0.069447f, -0.018491f, 0.135243f, -0.100088f, -0.148084f, 0.084106f, 0.172370f, 0.014176f, 0.151947f, -0.129523f, -0.102209f, -0.008706f, -0.136125f, -0.024586f, -0.123191f, -0.078776f, 0.103537f, 0.187146f, -0.025226f, -0.030309f, -0.084467f, -0.078171f, -0.014417f, 0.005834f, -0.115991f, -0.136316f, 0.010259f, -0.118867f, -0.031372f, -0.071081f, -0.000889f, -0.016927f, -0.011894f, -0.106694f, -0.088897f, 0.078444f, 0.026388f, 0.030796f, 0.041289f, -0.022420f, 0.121838f, -0.138312f, -0.121038f, -0.016300f, 0.129464f, 0.091957f, -0.130094f, -0.104429f, 0.055758f, -0.026405f, -0.107205f, 0.130889f, -0.153689f, 0.044172f, 0.044264f, 0.154544f, -0.007037f, 0.004458f, 0.108770f, -0.105243f, 0.039322f, 0.039612f, -0.140490f, 0.067762f, -0.132535f, 0.025848f, -0.147093f, -0.075861f, -0.109192f, 0.003194f, 0.038804f, -0.010313f, 0.043209f, 0.086874f, -0.120375f, 0.033099f, -0.059822f, -0.154379f, -0.019111f, -0.081539f, -0.117449f, -0.130773f, 0.100427f, 0.107505f, 0.035681f, -0.012397f, -0.118154f, 0.133396f, 0.143616f, 0.033684f, -0.124222f, 0.127616f, -0.118166f, -0.160076f, 0.063548f, 0.123179f, -0.073607f, 0.127680f, -0.034453f, 0.094351f, -0.104294f, 0.067295f, -0.014196f, -0.096592f, 0.000824f, 0.034269f, -0.072769f, -0.134468f, -0.087923f, 0.096320f, 0.119414f, -0.012596f, 0.000396f, -0.103385f, 0.047617f, -0.008132f, 0.088276f, -0.102671f, -0.051845f, -0.100997f, -0.049620f, -0.032281f, 0.030474f, -0.077295f, 0.005733f, -0.059510f, 0.037639f, -0.034761f, -0.160372f, -0.069167f, -0.146440f, -0.102816f, 0.060943f, 0.049871f, -0.155846f, 0.002823f, -0.144615f, 0.005923f, -0.099957f, 0.104788f, 0.100939f, -0.113830f, 0.024698f, -0.031665f, -0.100545f, 0.088462f, -0.096784f, 0.021775f, 0.171383f, -0.139188f, -0.081554f, -0.125519f, 0.145746f, -0.056289f, -0.037767f, 0.168893f, 0.018267f, -0.132114f, 0.127089f, -0.101845f, 0.027503f, 0.103342f, 0.060619f, 0.113919f, 0.006493f, 0.001978f, -0.019709f, 0.038035f, 0.077978f, -0.051905f, -0.075731f, 0.071642f, -0.062091f, 0.184233f, -0.144821f, 0.059688f, 0.042404f, -0.123560f, 0.090126f, 0.008211f, -0.073033f, 0.100613f, 0.070542f, -0.043917f, -0.064200f, 0.067033f, -0.076178f, 0.171836f, -0.133224f, 0.111796f, -0.084982f, 0.119398f, 0.188871f, -0.127017f, -0.018804f, 0.097488f, 0.068615f, -0.040901f, -0.050466f, -0.113046f, -0.041947f, 0.110178f, 0.015582f, -0.023152f, -0.129558f, 0.064327f, -0.047213f, -0.134480f, -0.086753f, -0.120609f, 0.020639f, 0.037310f, -0.052057f, 0.024794f, -0.057136f, -0.049734f, 0.002183f, -0.075395f, 0.034025f, -0.050633f, -0.022601f, -0.140968f, 0.079285f, -0.067783f, 0.068601f, -0.073136f, 0.089644f, 0.009839f, -0.125100f, 0.174172f, -0.020051f, 0.024887f, 0.074097f, 0.035141f, -0.114658f, 0.047477f, 0.084423f, 0.039607f, 0.095281f, -0.033367f, -0.129143f, 0.090747f, -0.092644f, -0.100886f, -0.086674f, 0.012246f, -0.145082f, -0.103757f, -0.026751f, 0.057361f, 0.098535f, 0.068771f, 0.017695f, 0.063868f, -0.090550f, 0.003326f, 0.078523f, -0.082581f, -0.013179f, 0.001808f, -0.033754f, 0.003952f, 0.162393f, 0.146005f, 0.009022f, 0.082195f, -0.141148f, 0.025149f, -0.001470f, -0.032345f, -0.129413f, -0.106641f, -0.021978f, -0.124007f, -0.139628f, -0.077339f, 0.112429f, -0.014917f, 0.114387f, -0.069116f, 0.094701f, 0.011388f, -0.124768f, 0.140773f, 0.154184f, -0.053653f, 0.146194f, 0.137708f, -0.119776f, -0.004136f, 0.206903f, -0.127112f, 0.099336f, 0.029910f, -0.133696f, -0.119226f, 0.066360f, 0.050829f, -0.108856f, -0.030918f, -0.030095f, -0.018146f, -0.105623f, 0.060812f, 0.201279f, 0.081892f, 0.057919f, 0.295165f, 0.054488f, -0.016970f, 0.072190f, -0.019404f, 0.268928f, 0.083974f, 0.045492f, 0.026772f, -0.146997f, -0.096261f, -0.056011f, 0.070072f, -0.104100f, -0.055133f, -0.046153f, -0.112380f, 0.186448f, -0.085654f, -0.003328f, 0.237944f, -0.173730f, 0.053179f, 0.086223f, -0.107787f, -0.093203f, -0.155183f, -0.052840f, 0.040424f, 0.149193f, 0.025849f, 0.000513f, 0.143637f, 0.106521f, 0.012261f, -0.205686f, 0.035758f, -0.150443f, -0.008047f, -0.042560f, -0.069357f, -0.099691f, 0.258159f, -0.002795f, -0.038524f, 0.202252f, -0.042606f, -0.022414f, 0.029677f, 0.016276f, -0.181420f, 0.155243f, 0.053710f, -0.072059f, 0.003793f, 0.033838f, 0.119430f, -0.138394f, -0.106192f, -0.196003f, -0.217330f, -0.127424f, -0.032019f, 0.186752f, -0.020602f, -0.067031f, 0.053828f, -0.026769f, 0.230677f, 0.206515f, 0.071630f, -0.140008f, 0.099688f, 0.101740f, 0.082790f, 0.043965f, -0.096060f, -0.048665f, 0.040610f, 0.229459f, -0.055733f, 0.226460f, 0.009446f, -0.092830f, -0.072526f, -0.092444f, 0.059570f, -0.202858f, -0.005965f, -0.003015f, -0.004744f, 0.012361f, -0.317239f, 0.242711f, 0.076290f, 0.210017f, 0.104789f, 0.192456f, 0.104206f, 0.050367f, 0.117050f, 0.007814f, -0.100960f, 0.029822f, -0.018441f, -0.066937f, -0.139344f, -0.041008f, -0.029057f, 0.103856f, -0.074947f, 0.108718f, 0.099457f, 0.090099f, -0.098170f, -0.107650f, 0.062578f, -0.198038f, -0.037313f, 0.024565f, -0.056569f, -0.065959f, 0.198316f, -0.090444f, -0.147562f, -0.080160f, 0.015869f, 0.188685f, -0.093681f, 0.011652f, -0.051983f, -0.206701f, -0.090965f, 0.043391f, -0.076970f, 0.171882f, 0.021595f, -0.140291f, 0.101853f, 0.039187f, -0.038460f, -0.011698f, -0.093939f, -0.223051f, 0.068547f, 0.198322f, 0.247364f, -0.072947f, 0.202589f, -0.209923f, 0.136731f, -0.149966f, 0.153698f, -0.119763f, 0.102320f, -0.093597f, -0.061903f, 0.070848f, 0.125089f, 0.018742f, -0.046282f, 0.069510f, 0.094544f, -0.104954f, 0.000370f, 0.116315f, 0.027464f, -0.053720f, -0.074561f, 0.042629f, -0.080656f, -0.080824f, -0.093804f, 0.000191f, -0.157100f, -0.012127f, -0.033465f, 0.009245f, -0.108740f, 0.032402f, -0.085751f, -0.166634f, 0.047064f, 0.021384f, 0.053334f, -0.124695f, -0.221738f, -0.120694f, -0.167956f, -0.177141f, 0.057804f, 0.098033f, -0.245513f, -0.176182f, 0.088647f, -0.088288f, 0.302947f, 0.152757f, -0.077815f, -0.044770f, 0.210144f, -0.115375f, 0.026661f, 0.115198f, 0.056511f, 0.126240f, -0.109524f, 0.214181f, 0.189704f, -0.131715f, -0.097554f, -0.109999f, -0.192833f, -0.208093f, 0.208092f, -0.071547f, -0.299316f, 0.053213f, 0.289793f, 0.275774f, 0.336859f, -0.306248f, 0.151523f, -0.174982f, -0.004325f, -0.169462f, -0.147837f, 0.172416f, -0.146072f, 0.352322f, 0.168207f, 0.034917f, 0.213640f, 0.112109f, 0.035772f, -0.324792f, -0.041335f, -0.174350f, -0.031870f, -0.413822f, -0.311384f, -0.056869f, 0.061241f, 0.068818f, 0.097886f, 0.035104f, 0.122705f, 0.000735f, 0.209705f, -0.072397f, -0.253399f, 0.158288f, -0.269212f, -0.157163f, 0.088976f, 0.049946f, -0.017423f, -0.232979f, 0.100526f, -0.122391f, -0.405896f, -0.127016f, -0.082864f, 0.300148f, 0.061758f, -0.214595f, -0.112869f, -0.197342f, -0.026959f, 0.037619f, 0.271132f, -0.150960f, 0.200965f, -0.031594f, 0.207425f, 0.147692f, 0.231709f, 0.001218f, -0.089575f, 0.144396f, 0.146408f, 0.366976f, 0.012077f, -0.048480f, 0.128824f, -0.255078f, -0.145427f, -0.370830f, 0.028132f, -0.003746f, 0.101038f, -0.118803f, -0.453211f, -0.133959f, 0.229606f, 0.093118f, 0.157141f, -0.034994f, 0.142919f, -0.068271f, 0.008208f, 0.134390f, 0.024980f, 0.083737f, -0.257028f, 0.080425f, -0.310228f, -0.130273f, -0.000109f, 0.152020f, 0.051242f, 0.134805f, -0.290716f, 0.261972f, 0.160378f, -0.235882f, 0.092930f, -0.272378f, -0.069663f, -0.065033f, -0.207193f, -0.255427f, 0.149820f, -0.079499f, 0.029483f, 0.088398f, -0.023433f, 0.021615f, 0.041742f, -0.043299f, 0.275312f, -0.435940f, 0.033922f, 0.173831f, -0.020203f, -0.072293f, -0.068639f, 0.123502f, -0.147872f, -0.179044f, 0.055257f, -0.087584f, -0.217677f, -0.254448f, 0.252675f, 0.122756f, 0.299302f, 0.031801f, 0.239867f, -0.185829f, -0.010848f, -0.114155f, 0.235183f, -0.145465f, 0.279810f, -0.278591f, 0.024058f, 0.103590f, 0.157040f, -0.079288f, 0.091865f, 0.270468f, 0.170666f, -0.057020f, -0.079208f, 0.128181f, -0.240345f, 0.148940f, 0.013150f, 0.025464f, 0.063307f, -0.004220f, -0.310367f, 0.159120f, 0.128505f, -0.069542f, 0.040349f, -0.200313f, -0.092304f, 0.108165f, -0.037574f, -0.032976f, -0.147483f, 0.035498f, -0.009926f, 0.035509f, -0.233314f, 0.076486f, 0.144903f, -0.473469f, -0.003132f, 0.208978f, -0.120673f, -0.103179f, 0.300311f, -0.046616f, 0.078255f, -0.004198f, -0.096673f, 0.177219f, -0.050321f, 0.064712f, 0.045260f, 0.388057f, 0.280800f, 0.104598f, -0.042628f, 0.215594f, 0.367067f, -0.118023f, -0.084181f, -0.221849f, -0.362352f, -0.105227f, -0.078561f, 0.086671f, -0.330500f, 0.209703f, 0.302743f, -0.092622f, 0.060591f, 0.175988f, -0.254857f, -0.183331f, -0.071208f, -0.152599f, -0.026243f, 0.470404f, -0.243666f, 0.457489f, 0.257565f, 0.000006f, 0.234171f, 0.150893f, 0.103814f, 0.113063f, -0.366250f, 0.059803f, -0.085391f, -0.173539f, -0.083904f, -0.038930f, 0.426480f, 0.115965f, -0.149062f, -0.107572f, -0.089134f, 0.270598f, -0.200823f, 0.248171f, -0.234376f, 0.000958f, -0.212966f, -0.018763f, -0.154173f, -0.113927f, 0.024863f, -0.100807f, 0.046010f, 0.021075f, 0.008596f, 0.221654f, -0.026605f, -0.049496f, -0.050648f, 0.026294f, 0.070178f, -0.211888f, -0.104121f, 0.154655f, 0.182202f, -0.102729f, 0.097126f, 0.127087f, -0.254101f, -0.330642f, -0.268732f, -0.115990f, -0.015986f, 0.039183f, 0.111226f, 0.067807f, 0.016594f, -0.153628f, -0.009544f, -0.059374f, 0.047120f, 0.197386f, -0.006242f, 0.230998f, 0.079562f, -0.047589f, -0.240003f, 0.121374f, 0.056039f, -0.017389f, 0.076705f, 0.021559f, -0.076741f, 0.368124f, -0.062229f, -0.315818f, -0.224764f, 0.100687f, -0.014920f, 0.124121f, -0.066449f, 0.244173f, -0.137621f, 0.088241f, 0.037921f, 0.194668f, -0.134151f, 0.177598f, 0.100942f, -0.082542f, -0.339553f, -0.243947f, 0.080128f, -0.064455f, -0.087745f, -0.202608f, -0.071193f, -0.049449f, 0.007412f, -0.143212f, 0.066322f, 0.093142f, -0.131711f, 0.078596f, 0.053535f, -0.080804f, -0.166528f, 0.017765f, 0.095037f, 0.139379f, -0.167638f, -0.158159f, -0.023307f, 0.085652f, 0.080979f, -0.088171f, 0.029552f, -0.216063f, 0.043805f, -0.112329f, -0.101853f, -0.174190f, 0.385218f, 0.143829f, -0.203593f, -0.019573f, -0.167502f, -0.015915f, -0.021787f, -0.288288f, 0.142878f, -0.066804f, 0.260805f, 0.077951f, 0.242921f, 0.003637f, 0.123785f, -0.101990f, 0.255356f, -0.020299f, -0.098265f, 0.036156f, -0.096518f, 0.238000f, -0.252010f, -0.254990f, 0.302793f, 0.001876f, -0.052785f, 0.261105f, -0.202501f, -0.225160f, 0.154077f, -0.047318f, -0.254463f, -0.243116f, -0.101576f, 0.148319f, 0.052640f, -0.056854f, -0.225356f, -0.070890f, 0.267196f, -0.120524f, -0.156826f, -0.135471f, -0.117744f, 0.021819f, 0.129207f, -0.227861f, 0.142567f, 0.115598f, -0.217222f, -0.050588f, 0.099823f, 0.165591f, 0.253541f, 0.061125f, 0.208824f, 0.134974f, 0.127000f, -0.011571f, 0.222968f, 0.219806f, 0.087515f, -0.191351f, -0.071279f, -0.046929f, -0.368851f, -0.093438f, -0.030975f, 0.148139f, -0.091112f, -0.342649f, -0.035612f, 0.061863f, -0.273511f, -0.020557f, 0.152277f, -0.147088f, 0.004277f, 0.162760f, 0.055584f, 0.434566f, -0.007050f, -0.261962f, 0.211627f, -0.193993f, 0.041289f, 0.080799f, -0.048698f, -0.013684f, 0.124529f, 0.049588f, 0.077220f, -0.045588f, 0.052738f, 0.013243f, 0.109075f, 0.135212f, -0.107257f, 0.005851f, -0.285808f, 0.181192f, 0.013661f, 0.006481f, -0.143558f, -0.076946f, 0.022276f, -0.132081f, -0.257826f, 0.071023f, -0.079963f, -0.010051f, 0.215178f, 0.115791f, 0.063429f, -0.340945f, -0.030316f, 0.080173f, 0.351466f, -0.071663f, -0.040797f, -0.174898f, 0.306051f, -0.093010f, 0.200425f, 0.193627f, -0.080578f, -0.294359f, -0.355616f, 0.148478f, -0.090744f, -0.062408f, 0.251081f, -0.106154f, -0.021229f, -0.014835f, 0.152920f, -0.018473f, 0.128284f, 0.114520f, 0.097568f, 0.177949f, 0.178627f, 0.130338f, 0.068310f, 0.124933f, 0.180091f, 0.056638f, -0.041086f, 0.016613f, 0.005319f, 0.010480f, 0.087838f, -0.132046f, -0.284928f, -0.026478f, 0.093944f, 0.353920f, -0.197878f, -0.116575f, -0.148278f, 0.093931f, -0.008669f, 0.088608f, 0.262837f, 0.111994f, -0.011915f, 0.373683f, -0.365314f, 0.158245f, -0.014323f, 0.000088f, 0.208828f, 0.090869f, -0.264209f, 0.103680f, -0.158507f, 0.003721f, -0.035181f, -0.041030f, -0.076452f, 0.160224f, 0.078301f, 0.181883f, -0.188023f, 0.074549f, 0.024568f, 0.130998f, -0.162623f, -0.049112f, -0.096587f, 0.197121f, 0.196389f, 0.365689f, 0.147536f, 0.140006f, 0.172309f, -0.322660f, -0.159683f, -0.250995f, 0.216488f, 0.172863f, 0.140385f, -0.210090f, -0.420703f, 0.006869f, -0.181335f, 0.007877f, 0.155879f, 0.097716f, 0.021107f, -0.322803f, 0.228336f, -0.360182f, 0.165398f, 0.079945f, 0.044022f, 0.040969f, -0.164515f, -0.144192f, -0.062544f, 0.104666f, -0.271072f, -0.004384f, 0.373294f, -0.049822f, -0.056808f, 0.416303f, -0.099047f, 0.108060f, 0.141444f, -0.037908f, -0.127198f, -0.130085f, -0.059851f, 0.013672f, 0.081286f, -0.094421f, 0.055262f, -0.054386f, 0.247131f, -0.093909f, -0.120096f, 0.101807f, -0.158554f, 0.145258f, 0.089161f, -0.146865f, -0.152072f, -0.104912f, -0.091139f, 0.382040f, -0.018280f, -0.157760f, -0.030518f, -0.024044f, -0.239369f, -0.189639f, 0.190862f, -0.282688f, 0.217712f, 0.102236f, 0.263833f, -0.189670f, 0.136775f, 0.029236f, -0.237531f, -0.003921f, 0.102917f, -0.035466f, -0.229044f, -0.076934f, -0.177164f, 0.136023f, 0.050712f, -0.082694f, -0.157102f, -0.078180f, -0.189501f, 0.254017f, -0.157513f, 0.353719f, 0.020899f, -0.024482f, 0.068718f, -0.033394f, 0.172141f, 0.054247f, -0.095290f, 0.163392f, 0.040824f, -0.316040f, -0.164361f, -0.236097f, 0.248516f, 0.012887f, -0.086434f, 0.092269f, -0.129017f, 0.384857f, -0.031161f, 0.150005f, -0.067175f, -0.150781f, -0.262155f, 0.021802f, -0.160866f, -0.010059f, -0.136617f, 0.014137f, 0.187385f, -0.164157f, -0.202693f, -0.214267f, 0.184629f, -0.178111f, 0.145981f, 0.119416f, 0.250087f, 0.048210f, 0.033694f, -0.124943f, 0.017426f, -0.116752f, 0.128018f, -0.075443f, 0.085000f, 0.124471f, -0.175296f, -0.030485f, -0.284803f, -0.039419f, -0.052817f, 0.062247f, -0.141800f, -0.162606f, -0.154021f, -0.114607f, 0.032258f, -0.291705f, 0.298767f, -0.311552f, -0.059700f, 0.049230f, 0.098847f, -0.264353f, -0.143627f, 0.067781f, 0.293555f, 0.098498f, 0.008511f, 0.185481f, -0.110932f, 0.081192f, -0.083556f, 0.221924f, 0.106144f, 0.295735f, -0.085028f, -0.214243f, 0.091868f, -0.127718f, 0.099131f, -0.034490f, -0.107468f, 0.121688f, -0.241033f, -0.045678f, 0.241984f, -0.157379f, 0.113618f, -0.069789f, 0.146778f, -0.143582f, -0.065372f, -0.169763f, -0.091164f, 0.146404f, -0.049903f, -0.123775f, 0.199264f, -0.062465f, 0.145348f, -0.476428f, -0.206926f, 0.244276f, 0.211705f, 0.257952f, 0.045984f, -0.182534f, 0.046963f, -0.248733f, -0.045059f, -0.068157f, -0.090541f, 0.227974f, 0.092561f, -0.051312f, 0.068546f, -0.040130f, -0.082736f, 0.298194f, -0.038712f, -0.111921f, 0.077728f, -0.079915f, 0.053766f, 0.146525f, 0.091656f, 0.081166f, 0.033173f, -0.065637f, 0.028368f, -0.191616f, 0.302220f, 0.052519f, 0.001709f, -0.058954f, -0.027238f, 0.169494f, 0.123995f, 0.102700f, -0.038597f, -0.117360f, 0.137946f, 0.057103f, -0.000918f, -0.018525f, 0.033161f, 0.063895f, 0.052292f, -0.012059f, 0.182911f, -0.093548f, 0.191831f, -0.056546f, 0.080906f, 0.067804f, -0.100147f, -0.080594f, -0.239915f, -0.090511f, 0.029281f, 0.187248f, -0.001152f, 0.199379f, -0.019730f, -0.065555f, -0.052844f, -0.075307f, 0.200686f, 0.242552f, -0.071367f, -0.135880f, -0.060896f, -0.142006f, -0.059008f, -0.194967f, 0.004593f, -0.152789f, -0.142445f, 0.242147f, 0.234146f, -0.274434f, -0.083022f, -0.032571f, -0.161282f, -0.187546f, -0.146203f, -0.140441f, -0.337023f, 0.054661f, -0.145297f, 0.065352f, 0.071774f, -0.129188f, -0.129616f, -0.060569f, -0.082235f, 0.029312f, 0.066798f, 0.193989f, -0.219460f, -0.096426f, -0.166504f, 0.032706f, 0.250108f, 0.139713f, -0.004891f, 0.040805f, 0.101465f, -0.183990f, -0.090903f, -0.092973f, -0.007971f, 0.326187f, -0.254305f, -0.188923f, -0.075338f, -0.065818f, 0.094301f, -0.008266f, -0.145963f, -0.129487f, -0.086681f, 0.147368f, 0.124825f, 0.146943f, 0.101476f, -0.018504f, 0.036817f, 0.009597f, 0.061664f, -0.125587f, 0.100156f, 0.076817f, 0.291216f, 0.013247f, -0.023782f, -0.053410f, 0.172029f, -0.000277f, 0.191821f, -0.003235f, 0.168066f, -0.130903f, 0.062364f, 0.164117f, -0.154048f, 0.135691f, -0.015922f, -0.058702f, -0.126822f, 0.154582f, -0.254792f, -0.105996f, -0.030226f, -0.145221f, -0.180960f, -0.310121f, 0.215813f, -0.097570f, 0.071117f, -0.184229f, -0.189251f, -0.031522f, -0.072001f, -0.156639f, 0.193216f, 0.031004f, -0.064728f, 0.000920f, -0.264269f, 0.147520f, -0.110242f, 0.170365f, -0.001436f, 0.239660f, -0.200008f, 0.113643f, 0.221732f, -0.202366f, -0.119355f, -0.098511f, -0.003587f, 0.149628f, -0.114336f, -0.080836f, 0.298116f, 0.001016f, 0.158942f, 0.172050f, -0.045298f, -0.196635f, -0.039575f, -0.116484f, -0.003876f, 0.099126f, -0.050705f, 0.149760f, 0.024896f, -0.107177f, -0.121167f, -0.351151f, -0.007574f, 0.203250f, 0.049310f, 0.094974f, 0.023082f, -0.071097f, -0.018442f, -0.154930f, -0.052251f, -0.060537f, 0.114300f, 0.064361f, 0.119248f, 0.174421f, 0.052411f, 0.014160f, -0.088393f, -0.185596f, 0.120063f, -0.259730f, 0.299892f, 0.000320f, -0.028438f, 0.065998f, 0.044644f, 0.113501f, 0.049658f, -0.095703f, -0.111527f, 0.063586f, 0.060651f, -0.009368f, 0.081971f, 0.186009f, -0.044239f, -0.092910f, -0.091047f, -0.027296f, -0.114283f, 0.023062f, -0.209877f, 0.050641f, -0.167204f, -0.050308f, 0.135780f, 0.101080f, -0.209470f, 0.025478f, 0.176481f, 0.191344f, 0.005759f, -0.043802f, -0.046627f, 0.134189f, -0.225560f, -0.127288f, -0.047823f, -0.268188f, 0.188614f, 0.088688f, 0.222205f, 0.059976f, 0.085867f, -0.102733f, -0.151753f, 0.026242f, 0.086752f, -0.120096f, 0.057068f, -0.120262f, 0.072508f, 0.085843f, -0.113492f, -0.111268f, -0.126501f, -0.021624f, 0.123937f, -0.020825f, 0.017143f, 0.053434f, -0.005933f, 0.116754f, 0.107950f, -0.081391f, -0.035223f, -0.079441f, -0.131871f, 0.062042f, -0.083026f, -0.162763f, 0.010592f, -0.015560f, 0.136654f, -0.072681f, 0.004390f, 0.125483f, -0.120752f, -0.045212f, -0.012225f, -0.125431f, 0.137792f, 0.019058f, -0.070372f, 0.101413f, -0.113839f, 0.179497f, -0.111349f, 0.056049f, -0.111955f, 0.073407f, -0.150580f, 0.174935f, -0.117775f, 0.048037f, -0.072337f, 0.053228f, 0.053962f, 0.052606f, -0.154764f, -0.059759f, 0.112769f, -0.136236f, 0.027905f, 0.001547f, -0.044769f, -0.091854f, -0.032251f, -0.110380f, 0.056658f, -0.047151f, -0.061571f, 0.121024f, -0.047273f, -0.027469f, -0.122545f, -0.049299f, 0.128029f, -0.023984f, 0.021677f, -0.143566f, -0.113442f, -0.107447f, 0.068329f, -0.052616f, -0.023513f, -0.096190f, 0.018266f, -0.060860f, 0.051191f, -0.082977f, -0.049184f, -0.115668f, 0.141916f, -0.029979f, -0.101436f, 0.042692f, -0.125355f, -0.107344f, 0.025000f, -0.155057f, 0.060950f, 0.023296f, -0.018720f, 0.108820f, 0.032008f, -0.070686f, 0.128806f, -0.036084f, -0.124881f, 0.054794f, 0.038358f, 0.132248f, -0.006584f, -0.067847f, 0.060133f, 0.008365f, -0.109498f, 0.007000f, 0.073237f, 0.065102f, -0.092351f, 0.000910f, -0.107427f, 0.061761f, 0.012188f, -0.068152f, 0.056964f, 0.148314f, 0.103607f, 0.116927f, 0.150828f, -0.065946f, 0.005021f, 0.026364f, -0.006468f, -0.075748f, -0.073786f, -0.041821f, 0.038633f, 0.001743f, -0.118124f, 0.010917f, 0.028248f, 0.021863f, 0.081623f, -0.079282f, -0.021404f, 0.039531f, -0.059578f, -0.150952f, 0.080710f, -0.123629f, 0.050850f, -0.028412f, -0.134936f, -0.144912f, -0.105606f, 0.040376f, 0.130570f, -0.087777f, 0.149454f, 0.004714f, -0.012154f, 0.003562f, -0.068561f, -0.143187f, 0.001654f, 0.027872f, -0.050707f, 0.106762f, 0.138979f, 0.004869f, -0.106103f, 0.167564f, -0.137546f, -0.037733f, -0.006676f, -0.014710f, 0.097097f, 0.093184f, 0.093722f, -0.019694f, -0.137021f, 0.118677f, 0.061419f, 0.027968f, -0.137171f, 0.100942f, 0.007601f, 0.077467f, -0.060116f, -0.134598f, -0.126044f, 0.165397f, 0.067794f, 0.158797f, 0.119940f, 0.071200f, 0.003613f, 0.129124f, -0.004364f, -0.117623f, -0.128961f, 0.061109f, -0.068731f, 0.144915f, -0.105598f, 0.067127f, -0.074351f, -0.044219f, 0.097602f, -0.062578f, 0.099153f, 0.082136f, 0.037524f, -0.069554f, -0.064445f, -0.143220f, 0.037027f, 0.098187f, 0.018186f, 0.076078f, -0.087651f, 0.036123f, 0.015692f, -0.128060f, 0.055316f, 0.105829f, -0.119536f, -0.122639f, -0.140580f, -0.126852f, 0.031220f, -0.000436f, -0.141118f, 0.096545f, -0.032723f, -0.032083f, 0.032471f, -0.005224f, -0.143912f, -0.032286f, 0.044298f, 0.116180f, -0.037858f, -0.103784f, -0.093859f, -0.101416f, 0.139712f, 0.147165f, -0.036511f, -0.058026f, 0.082516f, -0.057385f, 0.091342f, 0.083278f, 0.049998f, -0.016244f, 0.105457f, 0.147981f, -0.076708f, -0.125899f, 0.088775f, -0.139965f, 0.055056f, 0.000943f, 0.134547f, 0.076699f, 0.059939f, 0.038436f, 0.097668f, -0.145406f, 0.049857f, 0.114913f, -0.103423f, 0.113791f, -0.115779f, 0.081427f, 0.009859f, 0.144002f, -0.011010f, 0.042014f, -0.100017f, -0.084522f, 0.085143f, -0.035319f, 0.014996f, -0.009480f, -0.072856f, 0.057545f, 0.014912f, 0.149765f, -0.068576f, 0.037761f, -0.037516f, 0.038340f, 0.016960f, -0.017941f, -0.025446f, 0.034369f, -0.056839f, -0.084210f, 0.057178f, 0.104154f, 0.088334f, -0.140914f, -0.096851f, 0.106665f, 0.105806f, -0.089683f, -0.143165f, -0.093840f, -0.040887f, 0.032098f, -0.010082f, 0.038740f, 0.122312f, 0.061767f, 0.064662f, -0.095137f, -0.062030f, -0.090388f, 0.062160f, 0.065309f, -0.055688f, -0.000653f, -0.119104f, 0.109479f, 0.050396f, -0.143105f, 0.091522f, 0.130886f, 0.145205f, -0.138663f, -0.071602f, -0.144609f, -0.094650f, -0.092832f, -0.127214f, -0.088781f, -0.102675f, -0.094903f, 0.083321f, -0.125516f, -0.010642f, 0.118838f, -0.078286f, -0.041005f, 0.081556f, -0.002995f, 0.070044f, 0.122129f, -0.014952f, 0.124830f, 0.069309f, -0.042799f, -0.095261f, -0.085709f, -0.119255f, 0.026505f, 0.127593f, -0.031193f, -0.027858f, -0.060164f, -0.120905f, 0.119208f, 0.121615f, -0.134307f, -0.027340f, 0.089885f, 0.121491f, -0.012479f, 0.093102f, 0.054354f, 0.042306f, -0.120825f, 0.084873f, -0.133425f, -0.067240f, -0.128034f, 0.069798f, -0.028754f, 0.098040f, 0.086488f, -0.042325f, -0.057640f, -0.061761f, -0.115554f, 0.081604f, 0.088491f, 0.016513f, -0.035807f, 0.087906f, 0.065378f, -0.113425f, -0.026670f, 0.075372f, -0.093330f, -0.048049f, 0.121082f, -0.082384f, 0.003451f, -0.092920f, 0.150757f, -0.100291f, -0.132148f, 0.071649f, -0.004734f, -0.122474f, -0.119697f, -0.004280f, 0.091958f, 0.061928f, -0.001142f, -0.046654f, 0.083904f, -0.245295f, 0.048907f, -0.118348f, -0.019849f, -0.151928f, -0.016824f, 0.186490f, 0.028159f, -0.119107f, -0.047225f, -0.154405f, 0.079407f, -0.011464f, -0.360102f, 0.117924f, -0.018376f, -0.146452f, 0.135278f, 0.146601f, -0.105563f, 0.068535f, -0.120332f, 0.042309f, -0.078260f, -0.011362f, 0.071869f, -0.074176f, -0.070266f, -0.001367f, -0.002995f, 0.004730f, -0.015218f, 0.031862f, -0.111284f, -0.208541f, 0.083224f, -0.026045f, 0.153472f, 0.009752f, -0.141892f, 0.049852f, 0.023416f, -0.007800f, -0.022838f, 0.109146f, -0.026270f, -0.015195f, 0.193223f, -0.116767f, -0.182012f, 0.051449f, 0.139435f, 0.010978f, -0.178993f, -0.173599f, 0.245898f, 0.046461f, 0.068707f, -0.038814f, 0.093757f, 0.278781f, 0.081697f, 0.159378f, 0.003498f, -0.029075f, 0.079154f, 0.312604f, 0.200353f, -0.016341f, -0.102883f, 0.022989f, 0.252602f, 0.059522f, 0.140240f, -0.158669f, 0.055807f, 0.290969f, -0.091404f, -0.099230f, -0.050351f, 0.167734f, -0.124637f, 0.028467f, -0.129469f, -0.064899f, 0.062297f, 0.160591f, 0.108236f, -0.008442f, 0.216149f, 0.021751f, -0.141010f, -0.171997f, 0.073447f, 0.037675f, -0.132455f, -0.073013f, -0.227946f, -0.158493f, 0.083439f, 0.150640f, -0.214496f, -0.141841f, -0.232410f, -0.051888f, 0.068634f, -0.054720f, -0.028657f, 0.058299f, -0.022216f, -0.113180f, 0.205386f, 0.015628f, -0.148577f, 0.250351f, -0.081507f, -0.068643f, 0.134637f, 0.009599f, -0.094493f, -0.077820f, -0.022622f, 0.177487f, -0.204644f, 0.015614f, 0.085775f, 0.023208f, 0.046600f, -0.009227f, 0.092195f, 0.087559f, -0.183608f, -0.038792f, -0.068829f, -0.056706f, -0.145152f, 0.095518f, 0.168055f, -0.027543f, -0.060294f, 0.026246f, -0.083583f, 0.199012f, -0.100213f, 0.188406f, 0.108145f, -0.111939f, -0.167708f, -0.193060f, 0.082300f, -0.050121f, -0.010521f, -0.191368f, 0.344182f, -0.136064f, 0.077263f, -0.039870f, 0.321373f, 0.084332f, -0.127379f, -0.043679f, -0.150894f, 0.124635f, -0.097491f, -0.127123f, 0.241557f, 0.042050f, 0.091260f, 0.159392f, -0.074316f, -0.118222f, 0.162219f, 0.186144f, -0.026006f, -0.074405f, 0.037123f, 0.190464f, 0.128095f, -0.179322f, -0.054807f, -0.053164f, -0.302482f, 0.217938f, -0.082023f, -0.032504f, 0.136623f, 0.024140f, -0.019539f, 0.185527f, 0.015552f, 0.164998f, 0.075109f, -0.008291f, -0.088497f, 0.090756f, 0.050154f, 0.031483f, -0.009070f, 0.013622f, 0.117346f, -0.202610f, -0.045405f, 0.132483f, -0.051733f, -0.073830f, -0.168510f, 0.084882f, 0.026614f, -0.371043f, 0.017610f, 0.162088f, 0.135056f, 0.101970f, -0.326600f, -0.038409f, 0.059725f, 0.116765f, 0.147477f, -0.024323f, 0.090030f, -0.146612f, -0.074908f, 0.158272f, 0.109650f, 0.058038f, 0.192054f, 0.030114f, 0.017778f, 0.086666f, -0.204626f, -0.075608f, -0.190250f, 0.031346f, 0.135896f, -0.106275f, 0.132251f, 0.142337f, 0.265574f, -0.006964f, -0.007403f, 0.273024f, -0.301620f, 0.030873f, 0.228217f, -0.171794f, -0.035526f, -0.089648f, -0.104225f, 0.078529f, -0.184381f, -0.020155f, -0.030519f, -0.079881f, -0.044558f, 0.118689f, 0.184660f, 0.075089f, -0.002327f, 0.037544f, 0.073316f, -0.004499f, 0.184745f, 0.055312f, -0.205753f, -0.033897f, -0.097966f, 0.082655f, 0.087494f, 0.033619f, -0.166757f, 0.040381f, 0.028817f, 0.036764f, 0.097747f, 0.094337f, 0.068785f, 0.187708f, -0.244915f, 0.056739f, -0.039009f, 0.077593f, 0.039190f, 0.141308f, 0.034526f, -0.221486f, -0.147803f, 0.038506f, 0.156863f, 0.087712f, 0.138649f, 0.025690f, 0.048998f, -0.155066f, -0.004311f, 0.071948f, -0.114797f, -0.108767f, -0.002125f, -0.051018f, 0.097904f, -0.012566f, -0.007361f, -0.233622f, -0.185882f, -0.280908f, 0.031583f, 0.049068f, -0.404096f, -0.060080f, -0.084737f, -0.291870f, 0.182561f, 0.056478f, -0.155284f, 0.130250f, -0.130591f, -0.193127f, 0.330927f, 0.128180f, 0.131375f, 0.088529f, -0.066958f, -0.058456f, 0.006450f, 0.092190f, 0.059679f, -0.129193f, -0.063077f, 0.128578f, 0.311032f, 0.128521f, 0.005428f, 0.040842f, -0.298721f, 0.094503f, 0.064789f, -0.112921f, 0.089781f, 0.031334f, -0.070477f, -0.104878f, -0.055097f, 0.166900f, 0.138002f, -0.044690f, -0.220322f, 0.079277f, -0.134151f, -0.082976f, -0.093198f, -0.056327f, 0.113378f, -0.029341f, 0.157758f, 0.001788f, 0.168676f, -0.133864f, 0.044661f, -0.086827f, 0.058281f, -0.081551f, 0.174687f, 0.027742f, -0.043408f, -0.302317f, 0.272898f, 0.176961f, -0.119224f, 0.102177f, -0.208896f, -0.172390f, -0.129689f, 0.071223f, -0.087789f, -0.094131f, -0.104818f, 0.097861f, 0.142560f, -0.132754f, 0.031171f, 0.230427f, -0.301691f, 0.033211f, 0.142296f, 0.136242f, -0.094163f, -0.107816f, 0.177559f, 0.193107f, 0.008363f, -0.051657f, -0.029605f, -0.109815f, -0.077400f, -0.038284f, 0.261241f, 0.055772f, 0.055098f, 0.134095f, 0.171179f, 0.311549f, 0.148550f, 0.031608f, -0.115587f, -0.064440f, -0.135004f, 0.067113f, 0.145205f, -0.071356f, 0.052624f, 0.341074f, -0.054013f, -0.167007f, 0.038539f, -0.101728f, -0.138099f, 0.240051f, -0.178506f, 0.118084f, 0.335935f, 0.172153f, -0.171307f, 0.008278f, 0.110249f, 0.072481f, 0.109180f, 0.024122f, 0.009810f, 0.006761f, -0.190325f, -0.135317f, -0.113611f, 0.147940f, 0.120706f, -0.097926f, -0.164988f, 0.228510f, 0.131002f, 0.205008f, -0.045519f, 0.013207f, 0.371619f, 0.107573f, 0.081872f, -0.147787f, -0.105005f, -0.082910f, -0.212337f, 0.108798f, -0.007745f, 0.066848f, -0.132291f, 0.192469f, 0.094701f, 0.216152f, 0.148172f, 0.049607f, 0.006397f, 0.185174f, -0.029887f, -0.029927f, -0.235251f, 0.025365f, -0.077082f, -0.131193f, -0.030490f, -0.097017f, -0.018724f, 0.099078f, -0.078327f, -0.053568f, 0.050271f, -0.051375f, -0.234321f, 0.243031f, -0.105348f, -0.079482f, -0.021831f, 0.024230f, 0.043877f, -0.168358f, 0.000316f, 0.243485f, 0.057894f, 0.081189f, -0.209164f, -0.075621f, 0.099792f, 0.063939f, -0.154031f, 0.026746f, 0.185400f, 0.193204f, -0.042996f, -0.055942f, -0.026164f, 0.021816f, -0.267538f, 0.063457f, -0.064560f, 0.184744f, 0.046858f, 0.339540f, 0.154658f, -0.099308f, 0.160040f, 0.181889f, -0.331957f, -0.202245f, -0.016138f, -0.182508f, -0.142889f, -0.152149f, 0.013758f, 0.006376f, 0.112439f, -0.154479f, 0.230957f, 0.046364f, -0.057897f, -0.016722f, -0.003772f, -0.155105f, 0.113407f, 0.025906f, 0.047220f, -0.173316f, -0.171994f, 0.026091f, 0.097958f, -0.012755f, 0.148110f, -0.059178f, -0.188727f, 0.046084f, 0.101178f, -0.103026f, -0.144384f, -0.160870f, -0.023428f, -0.046519f, 0.110118f, 0.031738f, 0.193551f, -0.047010f, -0.205427f, -0.037686f, -0.126337f, 0.034353f, 0.149898f, 0.009210f, 0.150771f, 0.318315f, -0.023720f, 0.030453f, 0.067942f, -0.020954f, 0.177614f, 0.083584f, 0.189938f, 0.070004f, 0.011055f, -0.084402f, -0.195545f, 0.052151f, 0.068602f, -0.044978f, -0.000723f, 0.123882f, -0.137612f, 0.355097f, -0.180646f, 0.074728f, -0.261998f, -0.068917f, -0.113477f, 0.125336f, 0.013874f, -0.264558f, 0.141717f, 0.031885f, -0.088196f, -0.118058f, 0.000775f, -0.052693f, 0.084183f, -0.043075f, -0.124066f, 0.060047f, -0.213029f, 0.102805f, -0.340099f, -0.052177f, 0.098915f, -0.072950f, 0.347116f, -0.099455f, -0.066208f, -0.013356f, 0.018984f, 0.097064f, 0.113960f, -0.141122f, 0.293933f, 0.195259f, 0.122034f, -0.155540f, 0.000589f, -0.052416f, -0.075010f, 0.017297f, -0.073376f, -0.120452f, -0.063046f, -0.176562f, 0.039236f, 0.042664f, 0.049715f, 0.157803f, -0.054177f, 0.270657f, -0.262435f, 0.009026f, 0.050017f, 0.127485f, -0.015630f, -0.464126f, 0.131722f, -0.170783f, -0.035007f, 0.073878f, 0.084349f, -0.078780f, 0.038612f, 0.014142f, -0.202313f, 0.062839f, 0.171042f, 0.006938f, -0.158987f, -0.374482f, 0.180566f, 0.090734f, 0.013384f, 0.028618f, -0.304292f, 0.032589f, -0.078275f, -0.076061f, -0.047907f, 0.073163f, -0.098972f, 0.021152f, -0.098295f, 0.332513f, -0.035310f, -0.070414f, 0.010417f, 0.001367f, -0.258265f, 0.040707f, -0.410248f, 0.269529f, -0.181357f, 0.010254f, -0.038361f, 0.134841f, 0.016382f, -0.218509f, -0.050754f, -0.024031f, 0.159251f, -0.160126f, -0.261097f, -0.122036f, 0.047638f, 0.265838f, 0.027111f, 0.100172f, -0.059742f, -0.337553f, -0.020292f, 0.096690f, 0.056054f, 0.129375f, 0.017920f, 0.090515f, -0.082944f, -0.170377f, -0.001992f, -0.126383f, 0.120961f, -0.001012f, -0.171584f, -0.274088f, -0.205136f, 0.041651f, -0.023486f, 0.119931f, -0.298750f, -0.152183f, 0.032287f, 0.297245f, -0.069361f, 0.078124f, -0.151322f, 0.196062f, -0.073267f, -0.281265f, 0.202799f, 0.050372f, 0.023322f, 0.027664f, 0.083697f, -0.149330f, -0.036687f, 0.038944f, 0.093404f, -0.117684f, -0.117409f, -0.297320f, 0.080184f, -0.126257f, 0.016010f, 0.092958f, 0.019534f, -0.069857f, -0.155655f, -0.091742f, 0.068162f, 0.104956f, 0.201689f, 0.099988f, -0.075793f, 0.245941f, 0.146964f, 0.103525f, -0.316478f, -0.485167f, -0.090636f, 0.110271f, -0.048012f, 0.093733f, 0.010117f, -0.357828f, 0.051249f, -0.128064f, 0.153689f, -0.104159f, 0.162139f, 0.112526f, 0.115375f, 0.288810f, -0.143627f, 0.159779f, 0.127621f, 0.045322f, 0.115469f, -0.196520f, -0.109563f, 0.313282f, 0.111788f, -0.272281f, 0.119890f, 0.113893f, 0.061724f, -0.030800f, 0.116245f, 0.097950f, 0.122240f, 0.241093f, -0.350331f, 0.247331f, -0.162904f, -0.170637f, -0.142797f, 0.054929f, 0.184879f, 0.127126f, -0.040462f, 0.108649f, 0.007874f, -0.053306f, 0.125412f, 0.004787f, -0.021402f, 0.034013f, -0.120829f, -0.075678f, 0.092565f, 0.088015f, 0.143576f, -0.030916f, 0.201760f, 0.213425f, -0.108235f, -0.227427f, 0.057707f, 0.035571f, -0.291453f, -0.068296f, -0.112244f, -0.119642f, -0.083051f, 0.117766f, 0.015613f, 0.139490f, -0.035464f, -0.134547f, 0.030651f, -0.327568f, 0.005407f, -0.007907f, -0.289295f, 0.150784f, 0.045252f, -0.150871f, -0.005011f, 0.139073f, -0.081986f, -0.160368f, 0.167888f, 0.049199f, 0.078971f, -0.146946f, -0.067403f, 0.206444f, 0.057903f, 0.040710f, -0.073680f, 0.037909f, -0.058523f, -0.201381f, -0.106423f, 0.086331f, 0.079781f, 0.098362f, 0.066337f, 0.077737f, 0.115842f, 0.238243f, -0.055646f, -0.051782f, -0.045248f, 0.198473f, -0.101614f, -0.182273f, -0.082952f, -0.171047f, -0.077590f, -0.178086f, 0.056822f, -0.011012f, -0.114116f, 0.193092f, 0.184009f, 0.000031f, 0.281559f, 0.003661f, -0.064886f, -0.069387f, 0.000982f, 0.180635f, -0.156569f, 0.184368f, 0.039520f, 0.240235f, 0.266958f, 0.145973f, -0.071251f, -0.190586f, 0.221149f, -0.031809f, 0.141292f, -0.276952f, 0.019796f, -0.019930f, -0.098562f, 0.134955f, -0.148449f, 0.007966f, -0.086631f, 0.115701f, -0.096611f, 0.049765f, 0.208943f, -0.004372f, 0.036513f, 0.004559f, -0.020212f, -0.110851f, -0.175826f, -0.288636f, 0.024589f, -0.414584f, -0.006034f, 0.106561f, 0.279788f, -0.125264f, -0.101701f, 0.148967f, -0.072106f, 0.109910f, 0.175126f, -0.085167f, -0.051407f, 0.091840f, 0.051128f, 0.022497f, 0.102777f, 0.033448f, 0.068807f, 0.012381f, 0.004543f, 0.188620f, 0.034666f, -0.178876f, 0.278239f, -0.162944f, -0.059121f, 0.012305f, -0.018529f, 0.124567f, -0.292047f, 0.059375f, -0.064472f, 0.053883f, -0.097193f, -0.153492f, -0.118793f, 0.173394f, 0.011351f, -0.027479f, 0.083546f, 0.094430f, 0.137079f, 0.014882f, 0.027878f, 0.032769f, -0.144719f, -0.142989f, -0.125758f, 0.090269f, -0.323617f, 0.026991f, 0.203270f, 0.183971f, -0.236408f, 0.319165f, 0.028575f, 0.041450f, 0.049397f, -0.220590f, 0.075960f, 0.110386f, 0.263683f, -0.100006f, 0.168328f, -0.255624f, 0.126336f, -0.074293f, -0.052142f, -0.156172f, 0.121138f, 0.016375f, 0.235135f, -0.137972f, 0.003531f, -0.092989f, -0.156895f, -0.212286f, -0.081315f, 0.243040f, -0.103344f, -0.205754f, 0.136659f, -0.025279f, 0.060502f, -0.111819f, 0.065398f, 0.075575f, -0.253802f, 0.246218f, 0.106955f, -0.054558f, -0.080442f, -0.053998f, -0.116334f, -0.102701f, -0.023555f, 0.269043f, -0.060834f, -0.003301f, 0.088201f, 0.037711f, -0.056298f, -0.167264f, 0.114924f, -0.090477f, -0.220151f, -0.198211f, 0.003617f, 0.171411f, -0.168710f, 0.042910f, -0.172241f, -0.113987f, -0.024299f, -0.074253f, -0.026850f, -0.300034f, -0.083657f, -0.027203f, -0.098675f, 0.096588f, 0.044820f, 0.028101f, 0.196816f, -0.062077f, 0.044353f, -0.107872f, 0.185024f, -0.240048f, 0.048556f, -0.274375f, 0.075577f, 0.024564f, 0.044961f, -0.104331f, 0.089912f, 0.006646f, -0.150766f, -0.187610f, -0.165730f, -0.102033f, 0.246082f, -0.016303f, -0.074867f, -0.117802f, -0.259823f, 0.190074f, -0.109401f, 0.082908f, -0.147969f, 0.167359f, -0.038584f, -0.003746f, 0.165361f, -0.066874f, 0.060591f, -0.113549f, 0.080280f, -0.050811f, -0.236236f, -0.087536f, 0.012810f, 0.218752f, -0.034451f, -0.053796f, -0.024699f, 0.071516f, 0.173395f, 0.169266f, 0.186676f, 0.009715f, -0.120730f, 0.189956f, 0.188115f, 0.076709f, -0.106649f, -0.109253f, 0.146348f, 0.104206f, 0.183197f, -0.299416f, -0.065783f, -0.041351f, -0.079864f, 0.056103f, -0.078445f, 0.036180f, 0.015070f, -0.107663f, 0.032532f, -0.243709f, 0.060371f, 0.034838f, -0.121090f, 0.007190f, 0.224253f, -0.019681f, -0.157727f, -0.308908f, 0.195426f, -0.156559f, -0.008865f, -0.110475f, 0.117964f, 0.063765f, -0.102296f, 0.062966f, -0.151714f, -0.053310f, -0.125583f, -0.061363f, -0.102426f, 0.027160f, 0.079146f, 0.194185f, 0.124114f, -0.092079f, -0.109726f, -0.087047f, -0.062918f, -0.007068f, -0.143614f, -0.141778f, 0.117895f, -0.004125f, 0.049270f, 0.237955f, -0.126442f, -0.019829f, -0.099189f, 0.063980f, 0.013527f, 0.085231f, 0.229787f, -0.014115f, -0.042139f, 0.175711f, -0.157854f, -0.092341f, 0.064188f, -0.092517f, 0.055996f, 0.112660f, 0.208359f, 0.207802f, -0.013119f, -0.127048f, -0.181195f, 0.047453f, -0.122008f, 0.093435f, 0.088230f, 0.244995f, -0.126956f, -0.035145f, -0.066096f, -0.045111f, -0.092971f, -0.279337f, 0.240354f, 0.156630f, 0.069990f, -0.078017f, 0.241682f, -0.083264f, -0.153027f, -0.089226f, -0.012785f, -0.092476f, -0.103247f, -0.375873f, 0.084894f, -0.200502f, -0.170459f, 0.017860f, 0.028461f, -0.194893f, 0.090094f, 0.199881f, -0.011698f, -0.028320f, -0.019393f, 0.059608f, 0.168813f, -0.061524f, -0.199145f, -0.107584f, -0.345022f, 0.038813f, -0.000664f, -0.041420f, 0.111144f, -0.108825f, -0.115759f, 0.103751f, -0.127915f, -0.135025f, -0.065782f, -0.007721f, 0.042008f, -0.010251f, -0.150709f, 0.036918f, 0.083771f, 0.070180f, 0.078987f, 0.109510f, -0.101745f, -0.046861f, 0.025692f, 0.134095f, -0.135330f, 0.089978f, -0.097952f, 0.017430f, -0.064671f, 0.105060f, -0.083998f, -0.096156f, 0.118420f, -0.143031f, 0.116206f, -0.145175f, -0.119655f, 0.081430f, -0.063715f, 0.075117f, 0.089384f, 0.124725f, -0.108695f, 0.036750f, 0.058449f, -0.053371f, -0.016677f, -0.113466f, -0.058261f, -0.028444f, 0.105504f, 0.049833f, -0.066037f, -0.023743f, -0.041629f, -0.082655f, 0.017177f, 0.136676f, -0.013662f, 0.127978f, -0.149061f, 0.007038f, 0.045903f, -0.016623f, 0.150176f, 0.032820f, -0.018836f, 0.039478f, 0.090224f, -0.125382f, 0.101656f, 0.146455f, 0.090552f, -0.045910f, 0.035117f, 0.071810f, -0.054108f, -0.025334f, 0.076949f, -0.095099f, 0.122393f, -0.088332f, 0.037048f, -0.137838f, 0.015833f, -0.120526f, -0.101715f, -0.000345f, 0.145543f, -0.040476f, 0.124184f, -0.112758f, 0.023160f, 0.112449f, -0.044021f, 0.001313f, 0.049017f, 0.011088f, -0.089539f, -0.070872f, -0.060698f, -0.022604f, 0.142796f, 0.043212f, 0.071142f, 0.051859f, 0.076979f, 0.076791f, -0.019012f, -0.051007f, -0.095436f, 0.084556f, -0.054655f, 0.136112f, 0.028405f, -0.022212f, 0.136735f, 0.067863f, -0.144137f, -0.036549f, 0.042181f, -0.036827f, -0.145732f, -0.134700f, 0.040635f, -0.001440f, 0.107967f, -0.009598f, 0.118169f, -0.022989f, 0.132461f, -0.137843f, 0.150021f, 0.142519f, -0.123391f, -0.009866f, -0.070652f, 0.055808f, -0.025152f, 0.106950f, -0.084273f, 0.029639f, -0.135440f, -0.117065f, 0.075835f, -0.118646f, 0.069046f, 0.114747f, -0.041940f, -0.083221f, 0.025167f, 0.141844f, -0.138634f, 0.114361f, 0.146382f, 0.074925f, 0.120913f, 0.002808f, -0.048152f, 0.029424f, 0.040964f, 0.132007f, -0.116649f, 0.134895f, -0.106504f, 0.110919f, -0.038704f, 0.053313f, -0.065580f, 0.119677f, -0.120750f, 0.009378f, -0.000477f, -0.067937f, -0.027286f, 0.100387f, 0.073930f, 0.089815f, -0.007879f, -0.126818f, 0.054558f, 0.033783f, 0.143658f, 0.072374f, 0.091597f, 0.036087f, -0.051797f, -0.124027f, 0.125787f, -0.135059f, -0.109467f, 0.002512f, -0.002654f, -0.109121f, 0.118401f, -0.039643f, 0.019343f, -0.138275f, -0.035792f, 0.123295f, -0.112602f, -0.126169f, 0.082704f, -0.068607f, 0.142057f, 0.092048f, -0.142959f, -0.012807f, 0.123355f, -0.055591f, -0.107510f, -0.095351f, -0.117984f, -0.087585f, 0.051042f, -0.069018f, -0.088732f, -0.015196f, -0.033937f, -0.032812f, -0.022338f, -0.022951f, -0.121720f, 0.120827f, -0.061759f, 0.076507f, 0.099457f, 0.020169f, -0.149118f, 0.113469f, 0.018398f, -0.063599f, -0.165160f, -0.008699f, -0.074853f, 0.152517f, -0.027652f, 0.103668f, -0.141242f, -0.143062f, 0.086528f, -0.098983f, 0.038640f, -0.017208f, 0.142218f, -0.089418f, -0.025487f, 0.104707f, 0.099387f, -0.141087f, 0.016195f, -0.124692f, 0.032810f, -0.148457f, 0.169354f, 0.113280f, -0.133102f, -0.002303f, -0.099855f, -0.049899f, -0.101789f, -0.137044f, 0.135822f, -0.149633f, 0.072901f, -0.095588f, -0.022821f, -0.032470f, 0.086535f, -0.043050f, 0.004412f, -0.046280f, 0.006235f, 0.017587f, 0.028693f, 0.146973f, 0.085656f, 0.038449f, 0.119913f, -0.056095f, 0.077084f, -0.144226f, 0.101550f, -0.087155f, 0.059514f, 0.139587f, -0.081483f, -0.142600f, -0.134983f, 0.092175f, -0.105960f, -0.006162f, 0.078871f, 0.131154f, 0.059444f, 0.070698f, -0.026938f, -0.009162f, -0.066305f, -0.084359f, -0.056624f, -0.128698f, -0.063310f, -0.070087f, 0.040015f, 0.129432f, 0.118070f, 0.085115f, -0.122779f, -0.012172f, -0.030389f, -0.126777f, -0.003801f, 0.052590f, 0.008740f, -0.043134f, -0.005195f, -0.034178f, -0.093280f, -0.130336f, -0.117559f, 0.010720f, -0.139914f, 0.087232f, 0.107936f, -0.005642f, -0.041600f, -0.072908f, 0.040930f, -0.020451f, -0.038849f, 0.022270f, -0.054361f, -0.091988f, 0.067556f, -0.126547f, -0.077109f, -0.015468f, 0.144439f, -0.068213f, -0.016930f, -0.036091f, 0.134896f, 0.171668f, -0.010268f, 0.130583f, 0.161800f, 0.114664f, 0.003456f, 0.025183f, 0.039267f, 0.065765f, -0.070229f, -0.112323f, 0.080764f, 0.137245f, 0.044886f, -0.027613f, -0.086601f, -0.069649f, 0.079122f, -0.045469f, 0.179073f, 0.018478f, -0.071329f, 0.126581f, 0.002264f, 0.112148f, -0.024459f, 0.057331f, -0.082552f, -0.021879f, 0.073555f, 0.139064f, 0.018151f, 0.012651f, 0.010607f, -0.053743f, -0.028351f, 0.043345f, -0.016135f, -0.036642f, -0.084685f, -0.010630f, -0.075850f, 0.088282f, 0.139863f, -0.096978f, -0.122932f, 0.103855f, 0.126964f, -0.018430f, -0.074779f, 0.018889f, -0.028612f, -0.018834f, -0.060488f, 0.089982f, 0.012689f, -0.129418f, 0.095069f, 0.134934f, 0.038848f, -0.078664f, 0.047687f, 0.084337f, -0.104884f, -0.122467f, -0.009125f, 0.028442f, 0.048457f, -0.044982f, 0.054446f, -0.267620f, 0.001736f, 0.108788f, -0.192483f, 0.075294f, 0.099027f, -0.132356f, 0.166175f, 0.088450f, -0.100653f, 0.040890f, 0.001978f, 0.134503f, 0.120153f, -0.084915f, -0.050208f, -0.065176f, 0.084132f, -0.228221f, -0.117211f, 0.183076f, -0.016023f, -0.063030f, -0.050922f, 0.054763f, -0.097481f, 0.009106f, -0.195961f, -0.148791f, 0.180913f, -0.177064f, -0.010998f, -0.024356f, 0.062691f, 0.061682f, -0.048773f, -0.164834f, -0.024079f, 0.082370f, -0.114964f, -0.165799f, 0.067959f, 0.129441f, -0.050128f, 0.133456f, -0.121960f, 0.116200f, -0.149695f, 0.089741f, 0.171625f, 0.102981f, 0.083758f, -0.027022f, 0.006116f, 0.034370f, -0.169879f, -0.118710f, -0.100819f, -0.022429f, 0.017711f, 0.064343f, -0.081999f, 0.276956f, 0.144743f, -0.123540f, 0.133667f, 0.134716f, -0.128278f, 0.173118f, -0.105928f, 0.141329f, -0.080379f, 0.038200f, 0.176787f, 0.170722f, -0.033443f, -0.229881f, 0.254091f, -0.173283f, -0.147782f, 0.122245f, -0.000695f, -0.000084f, -0.165321f, -0.130307f, -0.062927f, 0.036047f, -0.041641f, -0.076942f, -0.178116f, 0.077125f, -0.079710f, 0.121214f, 0.104850f, -0.022052f, 0.217525f, -0.083608f, -0.029021f, -0.044090f, 0.069780f, 0.087488f, 0.049048f, -0.007003f, -0.133056f, -0.000727f, -0.029932f, 0.153899f, -0.021540f, -0.059270f, -0.136110f, -0.266059f, -0.046908f, -0.054224f, -0.013351f, 0.109702f, -0.057053f, -0.088540f, 0.107826f, -0.033442f, -0.092847f, 0.033774f, -0.045726f, 0.150270f, -0.082208f, 0.084968f, -0.040453f, -0.109003f, 0.138132f, 0.026333f, -0.070901f, -0.019656f, 0.084876f, 0.108627f, -0.015426f, 0.089833f, 0.011594f, -0.144176f, -0.009821f, 0.100647f, -0.198446f, 0.014875f, -0.114202f, 0.023070f, 0.229438f, 0.071753f, 0.028764f, 0.042821f, 0.057690f, 0.290934f, 0.019068f, -0.092459f, 0.005800f, -0.168376f, -0.071621f, -0.232484f, 0.093249f, 0.120784f, -0.012594f, -0.052248f, 0.125293f, -0.028934f, 0.079760f, 0.021310f, 0.103391f, -0.008012f, 0.020403f, -0.084062f, 0.131539f, 0.042062f, -0.114454f, -0.156415f, 0.159625f, -0.049267f, 0.170089f, -0.108644f, -0.137752f, -0.218746f, -0.128034f, 0.018370f, 0.093803f, 0.156303f, -0.089076f, -0.041054f, 0.025942f, -0.231832f, 0.012224f, 0.149517f, -0.011663f, 0.261409f, 0.067453f, 0.031411f, 0.093038f, -0.278285f, 0.233406f, -0.273737f, -0.027696f, 0.139813f, 0.106967f, -0.076833f, -0.378873f, -0.299923f, -0.077073f, 0.179630f, -0.287775f, 0.187105f, 0.196495f, 0.067998f, 0.281395f, -0.013243f, -0.202433f, 0.095980f, -0.023808f, 0.233764f, 0.273137f, 0.114695f, -0.195864f, -0.019339f, 0.317180f, 0.061020f, -0.143447f, 0.181877f, 0.012288f, 0.031799f, 0.075060f, -0.186630f, -0.015716f, -0.087886f, -0.284880f, -0.085279f, 0.029182f, 0.083201f, 0.083221f, -0.048639f, -0.062725f, 0.117460f, 0.025393f, -0.183434f, -0.185689f, 0.054439f, 0.113816f, -0.025428f, 0.096783f, 0.037427f, 0.082837f, 0.094068f, 0.196932f, -0.008885f, 0.184758f, 0.189904f, 0.011017f, -0.072505f, 0.162376f, 0.229699f, -0.081042f, -0.090491f, -0.184002f, 0.174109f, -0.085211f, -0.056629f, 0.048127f, -0.018214f, 0.217830f, 0.161471f, 