
#include <eml_net.h>
static const float rede_neural_layer_0_biases[91] = { 0.294682f, 0.036290f, 0.052308f, -0.026801f, 0.023116f, -0.080388f, 0.422577f, -0.065572f, 0.094275f, -0.073880f, 0.039755f, -0.276417f, 0.377411f, 0.221555f, -0.069008f, 0.197543f, -0.107781f, 0.225246f, -0.053404f, 0.115056f, 0.175953f, -0.075355f, 0.080592f, -0.033550f, -0.202354f, 0.121987f, 0.205785f, 0.145386f, -0.041926f, 0.028629f, 0.027696f, -0.120163f, 0.059861f, 0.072735f, 0.048886f, -0.159958f, 0.043538f, -0.130363f, -0.077649f, -0.132859f, -0.117245f, 0.298870f, 0.229447f, -0.146270f, -0.279700f, 0.000666f, 0.116111f, 0.272408f, -0.048601f, 0.030934f, 0.053472f, 0.216520f, -0.038131f, 0.208735f, 0.085937f, 0.132802f, 0.349218f, 0.293703f, 0.183223f, -0.176989f, -0.101974f, -0.032662f, 0.059098f, -0.105096f, 0.008921f, 0.291344f, -0.025752f, 0.000868f, -0.108050f, -0.182478f, -0.098026f, 0.343298f, 0.032442f, -0.157272f, -0.059268f, 0.339663f, -0.052446f, -0.086181f, 0.534448f, 0.072304f, 0.389236f, 0.037162f, -0.033624f, -0.075913f, 0.083266f, 0.277911f, 0.419635f, 0.070749f, 0.432843f, 0.028076f, -0.065466f };
static const float rede_neural_layer_0_weights[5824] = { -0.025183f, -0.186528f, 0.019540f, -0.025448f, -0.031332f, -0.066756f, -0.116208f, 0.046928f, -0.078827f, -0.091744f, 0.047661f, 0.011466f, -0.143777f, 0.005342f, -0.124160f, 0.112267f, 0.139274f, -0.002268f, 0.136357f, -0.165392f, 0.002064f, -0.171041f, -0.028281f, -0.158748f, -0.146697f, 0.038065f, -0.107803f, -0.154650f, -0.110048f, -0.059087f, -0.012674f, -0.117351f, 0.055244f, -0.006661f, 0.002060f, -0.044503f, 0.115534f, 0.031478f, -0.132871f, 0.078988f, 0.182781f, 0.000003f, 0.153260f, -0.062318f, 0.026418f, -0.028508f, -0.024887f, 0.108814f, 0.014009f, 0.178528f, 0.017394f, -0.164428f, -0.052589f, 0.138045f, -0.036877f, -0.186026f, -0.099475f, -0.170310f, 0.194310f, 0.185153f, 0.118139f, 0.040061f, 0.104251f, -0.130146f, -0.081437f, 0.009469f, -0.056412f, -0.178756f, 0.190100f, -0.023074f, 0.001574f, -0.069429f, -0.094530f, -0.044504f, 0.130635f, 0.093150f, -0.047526f, -0.191607f, 0.117016f, -0.090736f, 0.032533f, -0.186676f, 0.063820f, -0.044255f, -0.001151f, -0.033481f, -0.058676f, 0.020058f, 0.186070f, -0.152356f, -0.073475f, -0.197729f, 0.164102f, 0.149884f, -0.062268f, -0.032544f, 0.040833f, 0.146494f, -0.199903f, 0.296276f, 0.105406f, -0.150097f, 0.211627f, -0.063675f, 0.258259f, -0.003990f, -0.075564f, 0.091743f, -0.073257f, -0.067451f, 0.153929f, 0.042012f, -0.039872f, 0.026464f, 0.012704f, 0.113501f, -0.006433f, -0.138619f, 0.163798f, -0.059905f, 0.022967f, 0.222630f, -0.128823f, -0.115052f, -0.179340f, -0.272119f, -0.153928f, 0.050192f, -0.130935f, -0.103885f, -0.110038f, 0.054470f, -0.013463f, -0.083216f, -0.080320f, 0.011772f, 0.166262f, 0.115605f, -0.231795f, -0.084466f, -0.037986f, -0.084104f, 0.056903f, -0.098510f, 0.070315f, -0.003449f, 0.154797f, -0.219743f, -0.047709f, 0.019504f, -0.129296f, -0.180888f, -0.063112f, -0.023172f, -0.157709f, -0.189914f, -0.312722f, -0.159060f, 0.024626f, -0.105758f, 0.243414f, -0.035430f, -0.089917f, -0.134265f, -0.013230f, 0.165591f, 0.096139f, -0.125663f, -0.034656f, -0.016472f, -0.083976f, 0.135464f, -0.239377f, -0.050558f, -0.034906f, 0.009447f, 0.038038f, 0.051812f, 0.137682f, 0.102872f, -0.068740f, -0.027438f, 0.228963f, 0.194381f, 0.122478f, 0.369794f, -0.097518f, 0.127142f, -0.027725f, -0.236958f, 0.329614f, -0.157859f, 0.004280f, 0.000112f, -0.231356f, 0.312346f, 0.281121f, -0.058421f, 0.269560f, -0.002059f, 0.029384f, 0.182237f, -0.258284f, -0.241225f, -0.012750f, -0.135710f, 0.128186f, -0.151701f, 0.132382f, 0.350121f, 0.040117f, 0.205132f, -0.052186f, -0.120948f, -0.004911f, 0.076614f, -0.043705f, 0.137818f, 0.096266f, 0.065905f, 0.199926f, 0.012483f, 0.287318f, 0.080102f, -0.293024f, -0.287087f, -0.059470f, -0.075126f, 0.147583f, 0.032746f, 0.096385f, -0.064654f, 0.099257f, -0.239423f, 0.113845f, -0.146256f, -0.099568f, -0.078273f, 0.088906f, 0.352026f, -0.177678f, -0.059111f, 0.082099f, 0.188225f, -0.177352f, 0.192847f, 0.113376f, -0.398944f, -0.102499f, 0.119521f, -0.087716f, 0.080044f, 0.044773f, -0.381234f, -0.050766f, -0.174309f, -0.084101f, -0.146826f, -0.244324f, 0.000877f, 0.158744f, -0.284776f, 0.322300f, -0.153481f, -0.001761f, -0.028751f, 0.247291f, 0.105759f, -0.056419f, 0.042473f, -0.170298f, 0.059677f, -0.195249f, -0.050147f, 0.134630f, 0.079412f, -0.056663f, 0.270863f, 0.167007f, 0.089555f, 0.042220f, -0.020845f, 0.308535f, 0.075133f, 0.225236f, -0.170102f, -0.165023f, -0.040204f, -0.328413f, -0.073003f, 0.379238f, 0.076887f, 0.175584f, -0.157900f, -0.037290f, -0.204963f, -0.173853f, 0.069978f, -0.124288f, 0.096398f, -0.035966f, -0.257295f, -0.099574f, -0.036725f, -0.009232f, -0.047963f, 0.106952f, -0.307620f, 0.066016f, 0.221313f, 0.375409f, 0.002417f, 0.325035f, 0.149645f, -0.049241f, -0.182485f, -0.143740f, 0.103577f, 0.298109f, 0.096802f, -0.183882f, 0.024389f, 0.052033f, 0.150801f, 0.121820f, -0.220214f, 0.208840f, -0.111691f, -0.095896f, -0.195865f, -0.064817f, -0.093921f, -0.102998f, 0.146773f, -0.029469f, 0.363118f, -0.166414f, 0.233609f, -0.273814f, -0.045478f, 0.002113f, 0.053024f, -0.177548f, -0.166480f, 0.015406f, 0.056835f, -0.075757f, 0.219740f, -0.049362f, 0.170940f, 0.106676f, -0.157783f, 0.275064f, 0.059275f, 0.122637f, 0.247360f, -0.031702f, -0.282494f, 0.120738f, -0.311410f, 0.062310f, -0.115232f, -0.051230f, 0.040431f, -0.098052f, 0.098849f, -0.031741f, 0.116267f, 0.072669f, -0.133230f, 0.229176f, -0.270150f, 0.253974f, -0.066223f, -0.094255f, -0.088311f, -0.404762f, -0.179377f, 0.050181f, 0.113312f, -0.106930f, 0.086281f, -0.111698f, 0.315797f, -0.279878f, -0.013217f, 0.081169f, -0.255991f, -0.005221f, 0.099237f, 0.202395f, 0.129281f, 0.052406f, -0.294639f, 0.012237f, -0.290442f, -0.141390f, 0.068241f, -0.331476f, -0.048661f, -0.054469f, 0.131981f, 0.017559f, 0.079549f, 0.079101f, -0.043394f, 0.068803f, 0.080570f, 0.010815f, 0.103620f, -0.159112f, 0.044068f, -0.002569f, -0.183519f, -0.063121f, 0.128764f, -0.138843f, 0.404040f, 0.108498f, 0.136159f, -0.027508f, 0.257706f, 0.106373f, 0.275828f, 0.003142f, -0.449927f, 0.235461f, 0.123496f, -0.100178f, 0.174700f, 0.009654f, 0.086363f, 0.088844f, 0.215673f, 0.025416f, 0.225203f, 0.067976f, -0.091491f, 0.034585f, 0.074324f, 0.130278f, 0.092404f, -0.082931f, 0.065456f, 0.020804f, -0.326515f, 0.100923f, 0.129069f, -0.243355f, 0.426702f, -0.422358f, 0.110558f, 0.040240f, 0.017806f, 0.223503f, -0.015530f, -0.287180f, 0.122525f, 0.141286f, 0.297220f, -0.066747f, 0.251951f, -0.126235f, 0.564901f, -0.379428f, 0.258558f, 0.194732f, -0.222514f, 0.034429f, -0.107414f, 0.244181f, -0.119197f, -0.099570f, 0.196926f, 0.233377f, 0.029264f, 0.151404f, -0.108238f, 0.082525f, 0.011665f, -0.244319f, 0.230428f, 0.216691f, -0.180331f, -0.164749f, 0.113562f, -0.007105f, -0.246729f, 0.257554f, -0.066158f, 0.122818f, -0.210760f, -0.052771f, 0.035500f, 0.011026f, 0.261519f, -0.130540f, 0.047748f, -0.154503f, 0.036484f, -0.046873f, -0.207177f, 0.112832f, 0.156255f, 0.076980f, 0.158329f, 0.099403f, 0.106194f, -0.250591f, 0.129946f, -0.199789f, 0.331669f, 0.070177f, 0.142040f, -0.172277f, 0.072073f, -0.132671f, -0.318800f, 0.008255f, -0.035606f, -0.288639f, -0.300242f, -0.043347f, 0.069149f, 0.180469f, -0.086897f, 0.076967f, -0.406337f, -0.172575f, -0.178219f, 0.090788f, 0.100007f, 0.088464f, 0.129243f, -0.491404f, 0.406390f, -0.273073f, 0.061828f, -0.087415f, 0.311132f, 0.286269f, -0.539167f, 0.001905f, 0.144215f, 0.020340f, 0.164858f, -0.152500f, -0.089037f, -0.006181f, 0.127936f, -0.079575f, 0.055761f, -0.152037f, -0.293348f, 0.438454f, -0.289107f, 0.113518f, 0.083564f, 0.083919f, 0.076238f, -0.085268f, 0.289660f, -0.116273f, -0.221085f, -0.126585f, 0.340073f, -0.151577f, -0.031322f, -0.089169f, 0.016158f, -0.130006f, -0.071081f, -0.152907f, -0.012330f, 0.174004f, -0.175369f, 0.115567f, 0.124115f, -0.049598f, -0.133401f, -0.314211f, 0.127600f, -0.232931f, -0.307390f, 0.301781f, 0.052030f, 0.314981f, 0.056706f, -0.096330f, -0.056348f, 0.001085f, 0.336046f, 0.006800f, 0.268843f, -0.017943f, -0.043438f, 0.072539f, 0.030071f, 0.076710f, -0.352038f, -0.172169f, -0.181626f, 0.008946f, 0.016843f, -0.056991f, -0.070140f, -0.140587f, 0.093592f, -0.011737f, -0.069959f, 0.120166f, -0.111265f, 0.101966f, 0.096807f, -0.158901f, -0.014810f, 0.228309f, -0.103599f, -0.256946f, 0.007352f, 0.050980f, 0.142263f, -0.187600f, -0.245590f, 0.067129f, -0.258131f, 0.569395f, -0.197964f, 0.178403f, 0.023522f, 0.145841f, -0.080459f, -0.201896f, 0.058602f, -0.210982f, 0.001607f, 0.025560f, 0.018748f, 0.038774f, -0.099420f, -0.182716f, -0.119881f, 0.165940f, 0.009455f, -0.075144f, -0.029868f, -0.210686f, -0.005241f, 0.072189f, -0.139550f, -0.123583f, 0.045263f, -0.037873f, 0.034266f, -0.156406f, 0.064699f, 0.009139f, -0.026982f, 0.049625f, -0.188127f, 0.112645f, -0.091130f, -0.019292f, 0.081959f, -0.092854f, -0.048538f, -0.021378f, -0.092114f, -0.060636f, -0.072725f, 0.228086f, 0.001228f, 0.078629f, -0.008546f, 0.025268f, 0.046587f, 0.051723f, 0.159943f, 0.157787f, -0.141760f, -0.016912f, -0.132934f, 0.175281f, 0.139876f, 0.148530f, 0.063241f, -0.117395f, -0.008279f, -0.109471f, -0.000979f, 0.216604f, 0.083111f, -0.080920f, -0.188067f, 0.095476f, -0.006988f, -0.134268f, 0.050188f, -0.285026f, -0.189222f, -0.175766f, -0.143729f, -0.067637f, -0.134033f, -0.152700f, -0.000304f, 0.191032f, -0.192848f, -0.064438f, 0.150642f, 0.078633f, 0.094189f, 0.152478f, -0.121383f, 0.087052f, -0.056095f, 0.292807f, 0.180636f, -0.144958f, 0.158263f, -0.173002f, -0.094163f, 0.005056f, 0.055085f, 0.097138f, 0.072970f, -0.059694f, -0.165521f, 0.205680f, -0.175989f, 0.142706f, -0.154089f, 0.140724f, 0.031135f, -0.079360f, 0.162418f, -0.135478f, -0.108371f, -0.067447f, -0.028969f, -0.138661f, 0.152189f, -0.021082f, 0.160381f, -0.088506f, -0.026323f, 0.140284f, 0.160963f, -0.027145f, -0.024330f, 0.181770f, -0.026369f, -0.022889f, 0.136887f, 0.040750f, -0.154058f, 0.123917f, -0.017404f, -0.045008f, 0.164524f, -0.193342f, 0.167336f, -0.162090f, -0.166965f, 0.172206f, -0.023266f, -0.124072f, 0.229734f, -0.062726f, 0.134614f, -0.031406f, -0.063744f, 0.011316f, 0.098724f, 0.176897f, 0.104036f, -0.050054f, 0.141030f, 0.166428f, 0.004941f, 0.068546f, 0.155417f, 0.123271f, -0.003882f, -0.059775f, 0.004696f, -0.100722f, -0.149327f, -0.097090f, -0.025955f, -0.069336f, 0.084905f, -0.049115f, -0.019887f, -0.082680f, -0.170076f, 0.059949f, -0.094995f, -0.018237f, 0.092734f, 0.006317f, -0.039034f, -0.082767f, 0.165296f, -0.006186f, -0.094136f, 0.094827f, 0.016873f, 0.003294f, -0.155964f, -0.106274f, -0.156005f, 0.023018f, 0.112371f, -0.060351f, -0.172523f, -0.144660f, 0.193845f, 0.093191f, -0.116505f, 0.072020f, -0.030676f, -0.022679f, -0.266820f, -0.033745f, -0.006488f, -0.096460f, 0.171531f, 0.133970f, -0.145220f, -0.129066f, -0.360133f, -0.001313f, 0.039591f, -0.203073f, 0.298064f, -0.065573f, -0.133139f, 0.119756f, -0.191374f, 0.032432f, -0.155177f, -0.047298f, 0.000971f, 0.004677f, -0.150581f, 0.081792f, -0.168327f, 0.055067f, -0.084878f, -0.059127f, 0.304297f, 0.077521f, -0.291776f, -0.076133f, -0.088994f, 0.236987f, 0.040333f, -0.032874f, 0.210698f, -0.039512f, 0.151960f, -0.187655f, -0.092834f, 0.041443f, 0.327186f, 0.026977f, 0.355686f, -0.293235f, -0.064054f, -0.234624f, -0.002729f, 0.129750f, -0.179074f, 0.009023f, 0.037804f, -0.059033f, -0.219967f, 0.149806f, -0.005970f, -0.064465f, -0.192795f, -0.080942f, 0.033152f, -0.344219f, -0.352805f, 0.044003f, -0.022174f, -0.036814f, -0.195686f, -0.149288f, -0.131889f, -0.098844f, -0.202845f, 0.217492f, -0.293778f, -0.025232f, -0.079549f, -0.198474f, -0.001607f, -0.146437f, 0.345473f, -0.051667f, -0.196903f, 0.306666f, 0.079814f, -0.123911f, 0.023243f, -0.147245f, 0.220597f, 0.106118f, 0.124694f, 0.448299f, 0.338689f, -0.123343f, -0.121644f, 0.013178f, -0.226166f, 0.007719f, 0.006221f, -0.120026f, -0.204832f, -0.009740f, 0.187238f, -0.051853f, -0.212506f, -0.036812f, -0.029729f, -0.046260f, -0.015568f, -0.105958f, -0.121922f, 0.024107f, -0.256127f, -0.070150f, -0.093576f, 0.026214f, 0.331429f, -0.162941f, 0.230020f, -0.014420f, -0.179912f, 0.005687f, 0.221059f, -0.426863f, 0.137825f, -0.179067f, 0.258591f, 0.216943f, 0.104969f, 0.204690f, -0.147781f, 0.266889f, -0.013051f, 0.091300f, -0.180668f, 0.281953f, 0.200262f, -0.068600f, -0.255820f, 0.084116f, -0.235870f, -0.042175f, 0.324908f, -0.104868f, -0.060756f, 0.439956f, 0.329920f, -0.126044f, -0.179125f, 0.018776f, -0.000216f, -0.022123f, 0.439279f, 0.112072f, -0.309439f, -0.169723f, -0.016613f, 0.143416f, -0.132166f, -0.121295f, -0.076412f, -0.179616f, -0.102150f, -0.306326f, -0.090911f, -0.259614f, -0.009216f, -0.036945f, 0.024137f, 0.264410f, 0.068405f, -0.157516f, 0.211316f, -0.250569f, 0.278515f, -0.033824f, -0.138723f, 0.372701f, 0.170536f, 0.118104f, 0.002723f, -0.029756f, 0.179137f, 0.139686f, -0.021656f, 0.157002f, -0.117912f, -0.042503f, 0.003394f, -0.141696f, 0.185149f, 0.199488f, -0.111187f, 0.075493f, -0.020240f, -0.188771f, -0.085622f, -0.054230f, -0.186040f, 0.233017f, 0.027330f, -0.364364f, -0.058206f, -0.036102f, -0.007258f, 0.078500f, -0.105281f, 0.106674f, -0.231527f, 0.194140f, 0.038804f, -0.280785f, -0.351319f, 0.057323f, -0.032496f, 0.165894f, -0.020588f, -0.001816f, -0.071852f, -0.107063f, -0.174953f, -0.160210f, 0.153326f, -0.053822f, 0.165962f, 0.101821f, -0.389200f, 0.047299f, -0.331365f, -0.192018f, 0.126700f, -0.000148f, 0.118741f, -0.042433f, 0.188066f, -0.038827f, -0.068227f, 0.216112f, -0.181872f, 0.068018f, -0.012789f, 0.298383f, -0.199055f, 0.011107f, -0.089279f, 0.156719f, 0.245343f, -0.071979f, 0.004030f, -0.106428f, 0.086596f, 0.130516f, 0.262661f, 0.037642f, -0.018479f, -0.039524f, 0.133902f, -0.013984f, 0.191572f, -0.016763f, 0.324320f, -0.081578f, -0.100784f, 0.003081f, 0.092899f, -0.170390f, 0.096845f, 0.109867f, 0.057140f, -0.102478f, -0.019089f, -0.063965f, 0.328996f, 0.104128f, -0.214579f, 0.133121f, 0.073808f, -0.279615f, -0.003587f, 0.102157f, -0.050669f, 0.405822f, 0.012976f, 0.019336f, -0.403859f, -0.250466f, 0.095417f, 0.330552f, 0.247904f, 0.321736f, -0.106388f, -0.436939f, 0.038111f, -0.273322f, -0.197056f, -0.019732f, -0.116253f, 0.015791f, 0.280210f, 0.061243f, 0.182472f, 0.102393f, -0.349042f, -0.042241f, -0.103295f, 0.128633f, -0.222280f, -0.009118f, 0.303694f, -0.172692f, -0.076955f, -0.009514f, -0.146564f, -0.076134f, 0.103625f, 0.009273f, 0.260775f, 0.145967f, 0.318367f, 0.032295f, -0.100690f, -0.120785f, 0.166462f, 0.135841f, 0.318069f, -0.199065f, 0.398471f, 0.070134f, -0.144811f, 0.280094f, 0.178283f, 0.453316f, -0.224239f, -0.298931f, -0.097430f, -0.213537f, -0.114505f, -0.144637f, 0.147909f, -0.006205f, -0.395038f, -0.258757f, 0.020700f, -0.082224f, 0.269384f, 0.170879f, 0.519223f, -0.088810f, 0.120142f, -0.299078f, -0.392222f, 0.146082f, -0.145690f, 0.303885f, 0.058422f, -0.025569f, -0.040607f, -0.475125f, 0.235929f, -0.408962f, -0.147141f, 0.038343f, -0.078764f, -0.304393f, 0.073347f, -0.027140f, 0.092860f, 0.081215f, -0.086923f, -0.115962f, 0.031171f, -0.011689f, 0.268914f, -0.122369f, 0.024381f, -0.278543f, 0.239149f, -0.195091f, -0.023181f, 0.270571f, 0.130679f, -0.180401f, -0.381473f, 0.232721f, -0.208312f, -0.143105f, -0.076259f, -0.112694f, 0.416802f, -0.038833f, -0.257963f, 0.059118f, -0.048336f, 0.012158f, -0.349320f, 0.159100f, 0.059887f, -0.203857f, 0.043994f, -0.036025f, 0.021460f, -0.241468f, -0.034511f, 0.167903f, 0.185585f, -0.148793f, -0.307967f, -0.127161f, -0.168712f, 0.289844f, 0.071912f, -0.180952f, -0.089204f, 0.246153f, 0.230062f, 0.258841f, 0.354745f, -0.095798f, 0.389666f, 0.104396f, 0.118751f, 0.040426f, 0.281820f, -0.200295f, 0.214018f, 0.214371f, -0.016844f, 0.079039f, -0.040648f, 0.190754f, -0.118081f, -0.291872f, -0.209734f, 0.282582f, -0.054808f, 0.289282f, -0.236508f, 0.223796f, 0.024163f, -0.083755f, -0.078060f, -0.092263f, 0.116248f, -0.118900f, -0.024557f, -0.039019f, -0.214689f, 0.578514f, -0.140958f, -0.357208f, 0.014055f, -0.247405f, 0.252067f, 0.050999f, -0.166852f, 0.200224f, 0.173844f, 0.017989f, 0.013121f, -0.069664f, -0.273892f, 0.300526f, -0.013071f, 0.223512f, 0.023033f, -0.219061f, 0.053952f, -0.189952f, -0.116250f, -0.135722f, 0.002799f, 0.057463f, 0.264797f, -0.155834f, -0.115653f, 0.180292f, -0.236030f, -0.130738f, -0.235190f, 0.136193f, 0.148120f, -0.018413f, -0.235721f, 0.050020f, -0.137315f, -0.093496f, -0.019661f, 0.076571f, 0.112513f, 0.096713f, 0.000741f, 0.045646f, -0.126490f, 0.171758f, -0.038897f, -0.063176f, 0.040928f, 0.173117f, 0.244907f, 0.149075f, 0.022255f, -0.067804f, -0.194610f, -0.208901f, 0.084499f, -0.053893f, -0.020448f, -0.047188f, -0.077939f, 0.034108f, 0.048855f, 0.220375f, -0.210776f, -0.056180f, 0.081565f, 0.292381f, 0.167457f, 0.014274f, -0.264292f, -0.183362f, 0.265583f, 0.109489f, -0.031954f, 0.136935f, 0.091656f, -0.118787f, 0.013561f, -0.105075f, 0.138802f, -0.128485f, -0.161914f, -0.163906f, -0.114299f, -0.035463f, -0.085781f, 0.144457f, 0.135789f, -0.095167f, 0.278220f, 0.047938f, -0.079064f, 0.153021f, -0.091128f, 0.145130f, -0.006401f, 0.187683f, -0.179865f, -0.022540f, -0.228933f, -0.030591f, -0.021155f, -0.172426f, -0.172199f, -0.227719f, -0.052466f, 0.078107f, -0.152682f, -0.076644f, 0.144838f, -0.049510f, 0.154584f, -0.006659f, -0.208559f, 0.267460f, -0.175249f, -0.024893f, 0.142018f, -0.089689f, 0.236257f, 0.040521f, -0.146819f, -0.157134f, 0.208926f, -0.022549f, 0.056921f, -0.124902f, 0.050963f, -0.107665f, -0.001785f, -0.193627f, -0.219492f, 0.217231f, 0.200932f, 0.037642f, 0.012862f, -0.130259f, 0.045395f, -0.015263f, -0.091885f, -0.000752f, 0.075447f, 0.083738f, 0.211471f, -0.021744f, -0.061686f, -0.212643f, -0.149779f, 0.233492f, -0.227188f, 0.083388f, -0.071210f, -0.124626f, 0.062157f, -0.006026f, -0.191983f, -0.022087f, -0.205252f, -0.075797f, -0.008282f, 0.104712f, 0.036221f, 0.199377f, 0.062497f, 0.194650f, -0.119547f, 0.204272f, -0.129546f, -0.133998f, -0.179252f, -0.148635f, 0.037834f, -0.200937f, 0.125897f, 0.156480f, -0.073101f, 0.176778f, 0.151729f, 0.044607f, -0.258031f, 0.181230f, 0.043031f, 0.111697f, -0.214543f, -0.202399f, -0.060912f, 0.033221f, 0.234268f, 0.016612f, -0.260772f, 0.235501f, -0.132526f, -0.098474f, -0.028607f, 0.057674f, -0.079427f, -0.153225f, 0.170222f, -0.038961f, -0.256739f, -0.050967f, 0.145245f, 0.036869f, 0.086652f, -0.176457f, -0.244325f, -0.119143f, 0.204706f, -0.128562f, 0.096775f, -0.117250f, -0.154753f, -0.084133f, -0.099445f, -0.127728f, 0.079272f, -0.148307f, 0.189565f, -0.021028f, 0.073364f, 0.275160f, -0.059117f, 0.216391f, 0.095123f, -0.075849f, -0.222152f, -0.032410f, 0.137716f, -0.000682f, -0.045822f, -0.059347f, -0.152568f, 0.052828f, -0.154975f, -0.047313f, -0.072546f, -0.046001f, 0.225754f, -0.164526f, -0.102226f, -0.042757f, -0.089471f, 0.100554f, -0.017504f, 0.098756f, -0.114085f, 0.002330f, 0.020005f, -0.060614f, -0.174093f, -0.108485f, 0.140208f, 0.040976f, -0.077845f, -0.226574f, -0.011504f, -0.090941f, -0.184409f, -0.046898f, -0.135255f, 0.169577f, -0.128984f, 0.096433f, -0.141030f, -0.436419f, -0.049229f, -0.002318f, 0.177398f, 0.169504f, -0.022897f, 0.092244f, -0.181511f, -0.111994f, 0.156479f, -0.092301f, -0.159463f, -0.019930f, 0.230394f, -0.182260f, 0.381879f, 0.097963f, -0.109353f, -0.107020f, 0.198197f, 0.023140f, -0.040282f, 0.211600f, -0.138072f, -0.033146f, -0.061390f, -0.216853f, -0.052016f, 0.194341f, 0.007622f, -0.049965f, -0.174312f, -0.162748f, -0.174184f, 0.417642f, 0.054911f, -0.361195f, -0.001974f, -0.114187f, 0.274800f, -0.226009f, 0.116283f, -0.001216f, 0.142124f, -0.313660f, -0.083885f, -0.125266f, -0.126601f, 0.107443f, 0.198180f, 0.114608f, -0.008388f, 0.141962f, 0.109196f, -0.171488f, 0.206222f, -0.060199f, 0.049510f, -0.375249f, 0.443815f, 0.255451f, 0.060488f, -0.173182f, 0.012807f, -0.008371f, 0.143380f, 0.101123f, -0.241396f, -0.127489f, 0.195844f, -0.227168f, 0.002604f, -0.013330f, 0.133725f, -0.297411f, 0.088169f, -0.041087f, -0.087179f, 0.008000f, -0.168737f, 0.058161f, -0.022168f, 0.013185f, 0.082336f, 0.078368f, -0.005883f, 0.225939f, -0.019277f, 0.346316f, -0.229828f, 0.149263f, -0.052765f, -0.177795f, -0.006414f, -0.104245f, 0.044172f, -0.102911f, -0.036428f, -0.095321f, 0.125128f, -0.015833f, 0.154245f, 0.336410f, -0.215509f, 0.333308f, -0.341954f, 0.176178f, 0.020673f, -0.463178f, 0.153710f, 0.361546f, 0.117696f, -0.277161f, 0.162365f, -0.056633f, -0.024574f, 0.043931f, 0.260590f, 0.115591f, -0.123035f, -0.047706f, -0.057390f, 0.012098f, 0.309282f, 0.324886f, 0.118332f, 0.285269f, -0.060533f, 0.036123f, 0.020205f, 0.116753f, -0.428420f, -0.184977f, 0.128362f, -0.089468f, 0.127667f, 0.232538f, -0.248839f, 0.051894f, 0.004445f, 0.118547f, -0.001998f, 0.239033f, 0.162775f, -0.390852f, -0.511384f, -0.000619f, -0.058583f, 0.009121f, 0.025133f, -0.209594f, -0.302122f, -0.266761f, 0.208987f, -0.172602f, -0.047714f, -0.369932f, -0.106401f, 0.054461f, -0.259608f, 0.106554f, 0.125987f, -0.216135f, -0.014650f, -0.299373f, 0.041779f, 0.203228f, 0.020634f, -0.157368f, 0.086810f, 0.213596f, -0.237082f, -0.038545f, 0.352817f, -0.068911f, -0.050534f, 0.090480f, 0.217621f, -0.247331f, 0.114492f, 0.213439f, 0.022211f, 0.484357f, -0.023945f, 0.196065f, 0.090651f, -0.122091f, -0.265093f, -0.080385f, -0.421089f, 0.146593f, -0.070480f, 0.403977f, 0.147837f, -0.045195f, 0.122960f, -0.298068f, -0.085268f, -0.246464f, 0.254371f, 0.471965f, -0.173159f, 0.100975f, -0.450763f, 0.221911f, 0.146216f, -0.011456f, 0.267055f, -0.037504f, 0.366641f, 0.414592f, -0.109197f, -0.203015f, 0.221993f, 0.046664f, -0.214991f, 0.551148f, -0.169411f, 0.161793f, 0.011300f, -0.210108f, 0.017689f, -0.272115f, 0.212682f, -0.054814f, -0.064294f, 0.312611f, -0.021221f, 0.061321f, 0.452333f, -0.113028f, 0.132975f, -0.321961f, -0.141560f, 0.022003f, -0.012826f, -0.242786f, -0.113406f, 0.101181f, 0.074067f, 0.024375f, -0.126914f, -0.090657f, 0.229259f, 0.319355f, -0.297006f, 0.560166f, -0.252779f, -0.431575f, -0.060280f, -0.038704f, -0.248669f, 0.062650f, -0.326633f, 0.369987f, -0.094229f, 0.373835f, 0.088128f, -0.050242f, -0.186575f, -0.121299f, -0.102733f, -0.371389f, -0.040748f, 0.018957f, -0.016072f, -0.334979f, 0.163237f, -0.077913f, 0.072414f, 0.112614f, 0.069073f, -0.068483f, 0.244351f, 0.060552f, -0.252702f, 0.130399f, 0.074821f, -0.279814f, 0.292331f, -0.661521f, -0.210867f, 0.035001f, -0.034404f, 0.166994f, -0.430775f, -0.127298f, 0.250710f, -0.279488f, -0.189890f, 0.351486f, 0.133966f, -0.443655f, 0.046077f, 0.113722f, -0.438189f, 0.147145f, 0.293054f, 0.109676f, -0.317866f, -0.121129f, 0.313128f, 0.372206f, -0.230936f, 0.150950f, -0.117902f, -0.393377f, 0.207363f, -0.326417f, -0.264485f, -0.161573f, -0.247376f, 0.092690f, 0.088230f, 0.016501f, -0.072210f, -0.269543f, 0.227868f, 0.018636f, 0.098806f, 0.152043f, -0.001173f, 0.164270f, -0.005584f, -0.152550f, -0.009951f, -0.006807f, 0.396023f, -0.136652f, 0.039040f, -0.117467f, 0.041400f, 0.128147f, 0.259811f, 0.672463f, -0.031428f, -0.196650f, 0.219370f, 0.053175f, 0.455813f, -0.102904f, 0.358250f, 0.009911f, -0.056413f, 0.212409f, 0.330105f, 0.076851f, -0.090518f, -0.285997f, -0.259653f, -0.009035f, -0.347969f, -0.298427f, 0.155999f, 0.166658f, -0.222188f, -0.165309f, -0.064348f, -0.136156f, -0.179129f, 0.078047f, 0.028469f, -0.238739f, 0.022283f, -0.610170f, 0.007368f, -0.582393f, -0.040232f, 0.087807f, -0.143955f, 0.196445f, -0.021832f, -0.267917f, 0.151230f, -0.316823f, 0.066701f, 0.161830f, 0.003423f, -0.252319f, 0.132282f, -0.404971f, -0.027487f, -0.226519f, 0.000151f, -0.032364f, -0.638774f, 0.312018f, -0.051026f, -0.261375f, 0.161627f, -0.809370f, 0.083296f, -0.528272f, -0.031180f, -0.186129f, 0.181833f, -0.265114f, 0.061599f, 0.669885f, -0.096164f, -0.372591f, 0.068019f, -0.156773f, 0.488225f, -0.444019f, -0.247547f, -0.046533f, -0.209956f, -0.398692f, 0.441475f, 0.058191f, 0.240643f, -0.244397f, -0.009172f, 0.311367f, 0.074436f, -0.131610f, -0.012104f, -0.018225f, -0.163029f, -0.213987f, -0.134940f, -0.052646f, 0.300514f, 0.393793f, 0.048129f, -0.306158f, -0.209747f, -0.094654f, 0.002877f, 0.194844f, 0.089739f, -0.137644f, 0.080585f, -0.247012f, -0.090851f, 0.040889f, 0.004526f, -0.588602f, 0.619154f, -0.096450f, 0.189023f, 0.065184f, -0.037019f, 0.257840f, -0.203524f, -0.093969f, -0.069726f, 0.362622f, 0.423181f, 0.249531f, -0.233532f, 0.236706f, -0.341323f, 0.043718f, -0.011002f, -0.176516f, -0.405478f, -0.057769f, -0.061881f, 0.262552f, -0.143096f, 0.253931f, 0.495407f, -0.328846f, 0.052827f, -0.057285f, 0.051103f, 0.093078f, 0.284727f, 0.080884f, 0.029838f, -0.210746f, 0.018946f, -0.203425f, -0.087953f, -0.293133f, -0.034163f, 0.152964f, 0.092925f, 0.024906f, -0.385358f, 0.042505f, 0.039538f, -0.081567f, 0.050905f, 0.252186f, -0.118825f, 0.038560f, 0.145402f, 0.078594f, -0.201928f, 0.008855f, -0.175707f, 0.006258f, -0.053936f, 0.028849f, 0.087059f, -0.184260f, -0.093315f, -0.015996f, -0.211820f, 0.063540f, -0.199771f, -0.110086f, 0.313847f, -0.046335f, 0.049786f, -0.180278f, -0.071002f, -0.055675f, 0.156753f, 0.104593f, 0.018830f, 0.369032f, -0.028368f, 0.201568f, 0.222658f, 0.045820f, -0.078180f, -0.067487f, 0.094340f, 0.249734f, 0.152114f, -0.010584f, -0.027573f, 0.265688f, -0.153542f, -0.097471f, -0.192903f, 0.269580f, -0.077978f, -0.133551f, -0.023235f, -0.066543f, 0.118831f, 0.010375f, 0.075227f, -0.148347f, -0.110021f, 0.169652f, 0.078255f, -0.287026f, -0.125594f, -0.218744f, -0.101689f, -0.273284f, -0.161650f, -0.088433f, 0.211035f, -0.043314f, -0.098278f, -0.128230f, 0.028937f, 0.068598f, -0.225020f, 0.130131f, 0.014737f, 0.103859f, -0.221754f, -0.101033f, -0.077014f, 0.118273f, 0.114455f, -0.184989f, 0.024965f, 0.214128f, 0.051102f, 0.062619f, -0.115057f, -0.055536f, -0.184163f, -0.032279f, 0.142193f, 0.089729f, 0.253484f, -0.214310f, -0.013084f, -0.014069f, -0.210530f, -0.033760f, -0.186157f, 0.105923f, 0.188729f, -0.028743f, 0.062215f, 0.030698f, 0.038124f, 0.187242f, -0.017365f, 0.157268f, 0.175932f, -0.019244f, 0.035221f, 0.039385f, 0.104635f, -0.116924f, 0.244315f, -0.181291f, -0.144589f, -0.206881f, -0.159291f, 0.188100f, 0.215735f, 0.258932f, 0.101356f, 0.033856f, -0.076194f, 0.177988f, 0.179135f, -0.066502f, -0.063823f, -0.007203f, -0.209285f, 0.147008f, -0.017575f, -0.203722f, -0.107323f, -0.089512f, 0.068144f, -0.128384f, 0.062222f, -0.156197f, -0.173394f, 0.225703f, 0.081131f, 0.110496f, 0.118394f, -0.110067f, 0.051014f, -0.041904f, 0.110361f, 0.039427f, -0.177066f, -0.130842f, -0.065213f, 0.005210f, 0.090708f, -0.042274f, -0.210972f, 0.199257f, 0.077872f, 0.062194f, -0.058799f, 0.135262f, -0.138094f, 0.004722f, 0.092182f, -0.201695f, 0.002073f, 0.032859f, -0.018928f, -0.183339f, -0.060871f, 0.245871f, -0.170308f, -0.117336f, 0.231680f, 0.055956f, -0.181760f, -0.014131f, 0.107565f, -0.120626f, -0.024714f, -0.174262f, 0.197623f, -0.089687f, -0.033400f, 0.127240f, -0.123419f, -0.108777f, 0.328167f, -0.149426f, -0.020736f, -0.048568f, -0.166397f, -0.118891f, -0.054828f, -0.171097f, -0.137006f, 0.046089f, 0.047218f, -0.049324f, 0.078830f, 0.176632f, -0.006551f, -0.008262f, 0.030032f, -0.053423f, -0.000161f, -0.094678f, 0.426242f, -0.065879f, -0.194395f, -0.076265f, -0.127993f, 0.055711f, -0.194995f, -0.130929f, 0.270703f, 0.034886f, 0.321308f, 0.027651f, 0.075326f, -0.095263f, 0.087548f, 0.224783f, -0.105103f, -0.145655f, 0.090697f, 0.214897f, 0.161688f, -0.173619f, 0.075456f, -0.165771f, -0.148027f, 0.036054f, 0.083960f, 0.134983f, -0.149631f, -0.033379f, 0.164307f, 0.234480f, -0.157063f, -0.180099f, -0.129490f, -0.006029f, -0.172895f, -0.193851f, 0.046221f, -0.067704f, 0.221310f, 0.162458f, -0.162798f, 0.122009f, 0.109488f, -0.070781f, -0.050355f, -0.121693f, 0.034565f, 0.027329f, 0.104770f, -0.308653f, -0.074089f, -0.212649f, 0.093240f, 0.242283f, 0.205224f, -0.001577f, -0.052556f, 0.193565f, 0.089092f, -0.167018f, 0.179997f, 0.235785f, -0.233993f, 0.277699f, -0.088598f, -0.055415f, -0.172119f, 0.215446f, -0.049199f, 0.084887f, 0.045449f, 0.060044f, -0.077870f, -0.192054f, -0.096137f, -0.293084f, 0.336299f, 0.200649f, 0.230600f, 0.109673f, -0.099745f, 0.095973f, 0.103967f, 0.062801f, -0.042892f, -0.196415f, -0.007765f, 0.276529f, -0.229100f, -0.007912f, -0.194546f, -0.116919f, -0.002855f, -0.106408f, -0.114351f, -0.076210f, 0.060441f, 0.161281f, -0.135185f, 0.057438f, -0.320833f, -0.154382f, -0.140922f, -0.085435f, -0.309008f, -0.147355f, -0.102440f, -0.086501f, 0.056263f, -0.082050f, -0.107758f, -0.147331f, -0.144375f, 0.101381f, 0.122441f, -0.152064f, -0.153011f, 0.314542f, 0.041252f, -0.084016f, 0.184563f, -0.024418f, 0.129098f, -0.231692f, -0.214116f, 0.000684f, 0.249179f, 0.013465f, 0.039830f, -0.204580f, -0.087230f, -0.232548f, 0.006546f, -0.124282f, -0.040969f, -0.203179f, -0.157457f, 0.316507f, -0.300923f, 0.130761f, -0.468182f, 0.038218f, -0.221169f, -0.006034f, 0.238307f, 0.264048f, 0.014883f, -0.127034f, 0.280324f, -0.059297f, 0.141210f, 0.185402f, 0.214425f, -0.072651f, 0.099676f, -0.469455f, -0.441274f, -0.038151f, 0.293698f, 0.310392f, 0.229228f, 0.056666f, 0.334669f, 0.220718f, -0.168489f, 0.234117f, -0.136349f, 0.040087f, 0.079003f, 0.017713f, 0.269081f, 0.174060f, -0.358329f, 0.055507f, 0.059325f, 0.067293f, 0.036173f, -0.103472f, 0.057974f, -0.065910f, -0.267357f, -0.319837f, 0.097253f, 0.023297f, -0.045439f, -0.189988f, 0.132135f, -0.170353f, 0.250128f, 0.158669f, 0.373846f, -0.338593f, -0.487643f, 0.042423f, -0.073893f, -0.365888f, 0.215227f, -0.422167f, -0.284932f, -0.123256f, 0.213660f, 0.107262f, -0.207671f, -0.083856f, 0.200291f, 0.362351f, -0.483273f, -0.165287f, 0.276779f, 0.293525f, 0.080426f, 0.151029f, 0.228138f, 0.056495f, -0.167490f, 0.037219f, -0.139192f, 0.467930f, -0.072675f, 0.501404f, -0.062326f, -0.375382f, -0.172493f, 0.513466f, -0.657386f, 0.276943f, 0.116264f, 0.124591f, 0.357739f, -0.398010f, 0.216665f, -0.408254f, 0.027490f, -0.010264f, 0.499776f, 0.188850f, 0.492499f, 0.260845f, -0.085557f, 0.160893f, -0.223920f, 0.221906f, 0.297991f, 0.052754f, 0.414724f, -0.080207f, -0.403171f, -0.712579f, 0.090819f, 0.715540f, 0.115722f, 0.642037f, 0.377892f, -0.085459f, -0.074441f, -0.387233f, 0.599559f, -0.035007f, -0.013321f, -0.494062f, -0.098437f, 0.195891f, 0.129133f, 0.191035f, 0.174010f, -0.141005f, 0.023790f, -0.259096f, -0.016320f, -0.119366f, 0.147811f, -0.084291f, -0.199699f, -0.420497f, 0.108804f, -0.165500f, -0.045540f, 0.100885f, 0.307351f, 0.136516f, -0.264557f, 0.199037f, -0.315931f, 0.085283f, 0.142292f, -0.272774f, 0.058819f, 0.209229f, -0.025096f, -0.150625f, 0.005196f, 0.041743f, 0.440029f, -0.140840f, 0.554042f, -0.382340f, -0.032279f, -0.657211f, -0.020809f, 0.320626f, 0.275812f, 0.231673f, -0.268054f, -0.128507f, 0.039490f, -0.082621f, -0.251946f, -0.093949f, 0.122508f, -0.037125f, -0.091073f, 0.015991f, -0.058461f, -0.062488f, 0.358772f, -0.144099f, 0.443606f, -0.073414f, 0.417721f, 0.350429f, -0.209567f, 0.220728f, 0.068882f, 0.342797f, -0.070229f, 0.246793f, 0.371257f, 0.024665f, 0.369022f, 0.095348f, -0.298488f, 0.125105f, 0.139008f, -0.175941f, 0.427030f, 0.119260f, -0.041342f, -0.115025f, -0.297213f, -0.087536f, 0.506160f, 0.011037f, 0.287699f, -0.069571f, -0.147205f, -0.249478f, -0.327674f, 0.364325f, 0.085916f, 0.216021f, -0.276943f, 0.064974f, 0.054504f, 0.286206f, 0.426604f, 0.177041f, -0.077158f, -0.425699f, -0.132242f, 0.302006f, -0.121679f, 0.072662f, 0.218271f, 0.262914f, -0.253939f, -0.058970f, 0.165839f, 0.170911f, 0.400643f, 0.045025f, 0.035462f, 0.071195f, -0.204954f, 0.182778f, 0.281781f, -0.463455f, -0.104126f, 0.214394f, 0.245319f, 0.158259f, 0.115764f, -0.159328f, -0.154007f, 0.483199f, -0.027056f, 0.315951f, -0.635865f, -0.401478f, -0.013414f, -0.262443f, 0.098951f, 0.136571f, 0.384295f, -0.475549f, -0.301115f, -0.001066f, 0.054683f, -0.362056f, 0.145920f, -0.092803f, 0.003145f, -0.194369f, -0.002943f, 0.042716f, 0.316311f, 0.322704f, -0.153246f, 0.217249f, 0.067763f, 0.064483f, 0.155461f, 0.103223f, -0.011357f, 0.307153f, -0.221937f, -0.268961f, -0.119326f, -0.139659f, -0.167151f, -0.236989f, -0.428648f, 0.426721f, 0.362276f, -0.000852f, 0.191081f, -0.585810f, 0.034907f, -0.023241f, 0.290294f, -0.305196f, 0.291945f, 0.081711f, 0.084987f, 0.497671f, -0.101383f, -0.194378f, 0.218860f, -0.155607f, 0.078668f, -0.114896f, 0.181116f, 0.013065f, -0.085182f, 0.010145f, 0.471254f, -0.066574f, 0.076594f, 0.023551f, 0.012061f, 0.408667f, 0.169772f, -0.017994f, -0.084976f, -0.229338f, -0.326435f, 0.140284f, 0.026122f, 0.252653f, -0.056650f, 0.300571f, 0.066845f, -0.087587f, 0.121236f, 0.089404f, -0.128829f, -0.159705f, -0.056736f, 0.178511f, 0.106631f, -0.212192f, -0.109533f, 0.051763f, 0.324646f, -0.419232f, 0.391918f, 0.219302f, -0.042965f, -0.145660f, -0.188945f, 0.028311f, -0.341369f, -0.053418f, 0.093399f, 0.166118f, 0.363540f, 0.333249f, 0.024347f, 0.415491f, -0.372107f, 0.103067f, -0.179957f, 0.019392f, 0.073120f, -0.003215f, 0.131272f, -0.028179f, 0.125116f, -0.276503f, 0.181180f, -0.142115f, -0.329709f, -0.330838f, 0.285794f, -0.255603f, 0.358118f, -0.127324f, -0.202307f, -0.107781f, -0.136559f, -0.358771f, -0.179037f, -0.412351f, 0.349710f, 0.164778f, -0.101511f, -0.038877f, -0.169093f, 0.045873f, 0.010545f, 0.004218f, 0.087217f, -0.203011f, 0.143126f, -0.063419f, 0.211049f, -0.297286f, 0.270751f, -0.009264f, -0.072434f, -0.257168f, -0.190675f, 0.141555f, 0.315013f, -0.126203f, 0.051628f, 0.325361f, -0.103162f, -0.151015f, -0.071067f, -0.101768f, 0.190822f, 0.003217f, 0.070737f, -0.206851f, -0.060618f, -0.359025f, -0.006440f, -0.062795f, 0.109911f, -0.134998f, 0.216547f, 0.204247f, 0.212745f, 0.131751f, -0.060660f, 0.021344f, -0.389926f, -0.269316f, 0.079869f, -0.507717f, 0.086708f, -0.041116f, -0.091534f, 0.378427f, -0.259534f, 0.076910f, -0.024644f, -0.038370f, 0.307924f, 0.261004f, 0.146593f, -0.165630f, -0.122721f, 0.132196f, 0.157193f, 0.500934f, 0.349484f, 0.280097f, 0.230548f, -0.275290f, -0.081474f, 0.128357f, 0.151422f, 0.083231f, 0.181375f, 0.048683f, -0.020009f, -0.067752f, -0.308854f, -0.069355f, -0.192473f, -0.346006f, -0.216181f, -0.000106f, -0.115748f, 0.066830f, -0.071373f, -0.072878f, -0.018275f, -0.034697f, 0.057295f, 0.177822f, 0.023773f, -0.179837f, -0.117791f, -0.117999f, -0.106068f, 0.215060f, 0.129235f, -0.050135f, 0.000152f, -0.003070f, 0.024923f, -0.083703f, 0.026180f, -0.100240f, -0.048468f, 0.118754f, 0.054600f, 0.144265f, -0.136110f, -0.119538f, -0.056893f, -0.012758f, 0.076612f, -0.113574f, 0.140695f, -0.100649f, 0.152155f, 0.009950f, -0.109788f, -0.191091f, -0.145351f, -0.155554f, -0.182872f, 0.019046f, -0.115477f, 0.047763f, 0.093295f, -0.026985f, -0.039307f, -0.044223f, -0.016914f, -0.029434f, -0.059474f, -0.155011f, 0.117842f, -0.002654f, 0.057924f, -0.170637f, 0.010010f, 0.174659f, 0.005237f, 0.118302f, 0.023202f, -0.087057f, 0.099956f, 0.077570f, -0.063372f, 0.024757f, -0.111438f, 0.079157f, -0.023967f, -0.082768f, -0.067415f, -0.132270f, 0.183840f, 0.101710f, 0.188050f, -0.054810f, 0.073919f, -0.016575f, -0.048182f, -0.177267f, -0.101037f, 0.166478f, -0.183588f, 0.126995f, -0.009625f, -0.085345f, 0.165410f, -0.019892f, -0.181220f, -0.121796f, 0.072675f, 0.090346f, 0.011885f, -0.160174f, -0.104756f, 0.124655f, -0.145522f, 0.186496f, 0.124157f, 0.067597f, 0.196047f, 0.117564f, -0.085471f, 0.139331f, 0.086623f, 0.142074f, -0.066764f, -0.012195f, 0.097262f, -0.035536f, -0.188906f, -0.068469f, -0.158423f, 0.033957f, 0.132260f, -0.193299f, 0.148304f, -0.145556f, -0.110525f, 0.091233f, -0.096143f, 0.193343f, -0.182685f, 0.003068f, -0.162333f, 0.178976f, 0.094784f, -0.177151f, 0.122723f, -0.095080f, 0.003934f, 0.153769f, -0.103190f, 0.169446f, -0.194754f, 0.118470f, -0.171678f, -0.018656f, -0.030618f, -0.190638f, -0.007680f, 0.136708f, 0.041208f, -0.078621f, 0.186692f, 0.186962f, -0.085080f, 0.188688f, -0.040733f, -0.055567f, 0.005019f, 0.076137f, 0.187750f, -0.086275f, -0.159994f, -0.081553f, 0.127756f, 0.127348f, 0.115776f, -0.045783f, -0.033850f, -0.153958f, 0.126321f, -0.075497f, 0.096962f, 0.008294f, 0.152563f, -0.063684f, 0.021581f, -0.007179f, 0.005402f, 0.022055f, -0.116638f, 0.067933f, 0.111673f, -0.095364f, 0.073867f, 0.116616f, 0.032241f, -0.041319f, -0.058840f, 0.141516f, -0.203330f, 0.167402f, -0.115839f, -0.203956f, 0.031477f, -0.047587f, -0.127219f, 0.088332f, -0.243432f, -0.089349f, -0.087533f, -0.043072f, 0.027296f, 0.182667f, 0.051746f, 0.240372f, 0.143865f, 0.202366f, -0.100979f, -0.210101f, -0.011932f, -0.457811f, -0.046419f, 0.221561f, 0.259107f, -0.024479f, -0.228981f, 0.042046f, 0.326377f, 0.048426f, 0.051942f, 0.120841f, 0.126091f, -0.271747f, 0.045429f, 0.223804f, -0.137488f, 0.059320f, -0.166840f, 0.212960f, -0.019292f, 0.152146f, -0.283670f, 0.141520f, 0.096192f, 0.348822f, -0.177818f, -0.391121f, -0.181840f, 0.216575f, 0.219966f, 0.019218f, -0.057559f, -0.434402f, -0.008499f, 0.227686f, -0.419589f, -0.160718f, 0.166465f, -0.188157f, 0.116312f, 0.041444f, -0.311936f, -0.114261f, -0.184058f, 0.526402f, 0.204853f, -0.061587f, -0.182155f, 0.064611f, -0.194574f, -0.234452f, 0.154418f, -0.011593f, 0.153516f, -0.089272f, 0.212598f, -0.025275f, 0.153995f, -0.061359f, -0.120524f, -0.036343f, -0.301312f, 0.095848f, 0.067729f, -0.120216f, -0.005472f, 0.051031f, -0.131735f, -0.131388f, 0.009581f, 0.227702f, 0.145735f, 0.040591f, -0.406297f, 0.097141f, -0.087790f, -0.030490f, 0.159369f, -0.187538f, 0.232423f, 0.157634f, 0.060906f, 0.282684f, -0.150525f, 0.127688f, -0.093534f, -0.390068f, -0.112105f, -0.062354f, -0.097565f, 0.028926f, -0.120011f, 0.039943f, 0.317677f, 0.073303f, 0.044666f, 0.107289f, 0.064350f, 0.227345f, -0.055023f, 0.219388f, 0.317087f, -0.206330f, -0.110336f, 0.240190f, -0.056927f, 0.067869f, -0.321750f, 0.091009f, 0.162601f, 0.026150f, -0.194793f, -0.074211f, 0.309276f, 0.073817f, 0.141834f, -0.368876f, 0.099493f, -0.266594f, -0.068213f, 0.060882f, 0.167249f, -0.281367f, -0.329343f, -0.070192f, 0.068462f, -0.253917f, -0.028391f, -0.252649f, -0.063298f, 0.160952f, 0.092204f, 0.165099f, -0.084312f, -0.189139f, 0.358287f, 0.236209f, -0.320306f, -0.049147f, 0.330871f, -0.046772f, -0.111040f, 0.046030f, 0.214891f, 0.059356f, 0.222740f, 0.243624f, -0.025661f, 0.201121f, 0.022850f, 0.223559f, 0.210225f, -0.390525f, -0.022136f, 0.256992f, -0.102483f, -0.106914f, 0.294215f, -0.036398f, 0.047503f, -0.073201f, 0.145876f, -0.059587f, 0.294983f, -0.181429f, 0.035854f, -0.238637f, 0.369635f, 0.198787f, -0.183413f, -0.167575f, -0.269414f, 0.029434f, 0.152477f, -0.048275f, 0.298671f, -0.014285f, -0.113911f, -0.602371f, -0.074213f, -0.435895f, -0.005491f, -0.296985f, 0.213631f, 0.264472f, -0.086523f, 0.065807f, 0.172447f, -0.031343f, -0.240481f, -0.100719f, -0.125458f, 0.190945f, -0.075699f, -0.127687f, 0.189306f, -0.163680f, 0.102999f, -0.131191f, 0.260945f, -0.125674f, -0.162982f, 0.009302f, 0.313874f, -0.126838f, 0.317935f, 0.214761f, 0.128937f, 0.465468f, 0.093552f, 0.382164f, 0.077639f, 0.158571f, -0.202877f, -0.039273f, 0.191875f, -0.147002f, 0.258066f, -0.168305f, 0.036596f, 0.349360f, 0.194840f, 0.206900f, 0.256090f, 0.330543f, -0.112408f, -0.253399f, 0.093036f, -0.122388f, 0.101146f, 0.124207f, 0.080456f, 0.301286f, -0.189719f, -0.311684f, 0.109646f, 0.260036f, 0.248817f, -0.244761f, -0.323072f, -0.059403f, -0.119878f, 0.026978f, -0.141991f, -0.266039f, -0.279973f, 0.469523f, 0.384123f, 0.185548f, 0.242697f, 0.128154f, -0.226873f, 0.012070f, 0.056526f, 0.081961f, 0.138889f, 0.071147f, 0.124319f, -0.305599f, 0.141467f, 0.169708f, -0.672256f, 0.065121f, 0.218049f, 0.215413f, -0.018459f, 0.248905f, 0.133283f, -0.003116f, -0.349241f, -0.182296f, -0.436214f, -0.116334f, -0.237775f, -0.042020f, 0.423835f, -0.109339f, -0.118106f, -0.277980f, 0.275430f, -0.006255f, -0.590231f, -0.145658f, 0.446717f, 0.113421f, 0.215391f, 0.033385f, -0.111650f, -0.388566f, -0.386629f, 0.058121f, 0.015697f, 0.338634f, 0.083702f, 0.323015f, -0.012068f, 0.254824f, 0.310137f, -0.183501f, 0.080574f, 0.032374f, 0.421341f, 0.072491f, -0.180244f, -0.035375f, 0.049162f, -0.159876f, 0.036287f, 0.346710f, -0.096060f, 0.242790f, -0.101322f, 0.040403f, 0.303464f, -0.277979f, 0.341536f, -0.101346f, -0.198629f, 0.034477f, 0.228829f, -0.147620f, -0.075794f, -0.013880f, 0.105364f, -0.500703f, -0.446360f, 0.519104f, -0.309581f, -0.184312f, -0.242881f, -0.449179f, 0.059924f, -0.111205f, -0.089513f, 0.128176f, 0.187523f, 0.036990f, 0.161739f, 0.509824f, 0.246001f, 0.206218f, -0.035994f, 0.346761f, -0.127123f, -0.262003f, -0.129135f, -0.171972f, 0.101405f, 0.137709f, -0.402498f, -0.169435f, 0.091062f, -0.160227f, 0.163177f, -0.158540f, -0.011020f, 0.142031f, -0.221156f, 0.250074f, -0.219490f, -0.121316f, -0.185095f, 0.293774f, 0.070173f, 0.311907f, -0.257420f, 0.287546f, 0.040973f, -0.164800f, -0.239856f, 0.341887f, 0.279017f, -0.003522f, -0.105949f, 0.189102f, 0.122303f, 0.121997f, -0.016167f, 0.044788f, -0.336066f, -0.202058f, 0.012511f, 0.125542f, 0.125392f, -0.387226f, 0.140604f, 0.184335f, 0.007421f, 0.126841f, -0.313862f, 0.141650f, 0.078706f, 0.038903f, 0.173732f, -0.084352f, -0.091767f, -0.134069f, -0.351111f, 0.384090f, -0.145311f, -0.089038f, 0.289699f, -0.070304f, -0.041011f, -0.112609f, 0.047405f, 0.010862f, 0.082968f, 0.262519f, -0.036779f, -0.081221f, -0.246447f, -0.017485f, 0.221240f, -0.085397f, 0.181639f, 0.209759f, 0.117653f, 0.073811f, 0.158715f, -0.292090f, -0.062467f, 0.138202f, 0.351171f, -0.210610f, -0.056002f, 0.015737f, 0.439891f, -0.075181f, -0.009470f, -0.171934f, -0.283856f, -0.321021f, 0.038054f, -0.281826f, -0.084658f, -0.058379f, -0.107675f, -0.357843f, 0.009316f, -0.341079f, -0.055536f, -0.107478f, 0.132849f, -0.145368f, -0.143940f, -0.010745f, -0.028261f, 0.011227f, 0.024157f, -0.018296f, 0.003332f, -0.139488f, 0.118136f, -0.084922f, -0.271864f, -0.012916f, 0.148174f, 0.422262f, -0.243860f, -0.284448f, 0.132251f, 0.275189f, 0.244705f, -0.156017f, -0.007493f, 0.310178f, 0.007162f, -0.045090f, 0.199498f, -0.272206f, 0.187448f, -0.120599f, 0.072162f, 0.012910f, -0.064667f, -0.014610f, 0.276771f, -0.192481f, 0.497063f, -0.271470f, 0.176497f, 0.224227f, -0.254355f, 0.080355f, 0.118003f, -0.023501f, -0.354964f, -0.099605f, 0.095293f, -0.184013f, 0.158465f, -0.145510f, -0.277105f, 0.331194f, 0.040492f, -0.259555f, -0.015952f, -0.199424f, 0.265199f, 0.206707f, -0.016014f, 0.023771f, 0.101735f, 0.033237f, -0.070567f, 0.413033f, 0.036760f, 0.375277f, 0.029729f, 0.036996f, -0.117586f, 0.258604f, 0.124916f, 0.562058f, -0.107180f, 0.043363f, 0.030372f, 0.184692f, -0.107656f, -0.317624f, -0.051969f, -0.573086f, 0.015870f, 0.104428f, 0.167059f, 0.045145f, -0.102207f, -0.029409f, 0.000556f, -0.018057f, 0.090026f, -0.128869f, -0.110234f, -0.039115f, -0.074690f, 0.179945f, -0.122284f, -0.089320f, 0.107254f, -0.070955f, 0.003017f, -0.151862f, 0.107771f, -0.194328f, -0.000005f, -0.152918f, -0.107488f, 0.069136f, 0.066629f, 0.150014f, -0.105891f, -0.172227f, -0.145924f, -0.101222f, -0.091835f, 0.125686f, -0.054861f, -0.006641f, -0.020802f, 0.140871f, 0.112641f, -0.152632f, -0.011194f, 0.148783f, 0.060070f, 0.045064f, 0.135445f, 0.141282f, -0.113123f, -0.003583f, 0.151227f, -0.122112f, 0.001494f, -0.158837f, 0.125923f, 0.001463f, 0.127487f, 0.011470f, -0.056332f, -0.019124f, 0.011710f, -0.004191f, 0.098681f, -0.107914f, 0.060632f, -0.058634f, 0.179711f, -0.116775f, 0.031795f, -0.153561f, 0.186001f, -0.065731f, -0.040125f, 0.022047f, 0.064471f, -0.030942f, -0.187983f, -0.124798f, 0.184048f, -0.057506f, -0.125100f, 0.172861f, -0.150360f, -0.179537f, -0.152630f, -0.078663f, 0.010491f, 0.130423f, 0.154090f, -0.026188f, -0.035419f, 0.082096f, -0.070233f, -0.189179f, -0.022991f, 0.073593f, 0.125195f, 0.014253f, 0.115642f, -0.077106f, 0.039353f, 0.020824f, 0.094239f, -0.006399f, 0.075086f, -0.233764f, 0.103779f, 0.184668f, 0.038989f, 0.102844f, -0.054538f, 0.033093f, 0.084022f, 0.076327f, -0.145627f, 0.109625f, -0.146518f, -0.026184f, -0.073023f, -0.000626f, 0.020949f, -0.003195f, -0.184942f, -0.041467f, -0.030485f, 0.196728f, -0.117874f, -0.080576f, -0.008973f, -0.134653f, 0.074031f, 0.107323f, -0.130212f, 0.094500f, -0.018866f, 0.159252f, -0.012221f, -0.018148f, 0.061996f, -0.091807f, -0.167151f, -0.080799f, -0.003035f, 0.025064f, -0.017886f, -0.121116f, 0.122269f, -0.044406f, 0.035695f, -0.023264f, 0.197543f, 0.120178f, -0.029011f, -0.193999f, -0.050730f, -0.047976f, -0.032233f, 0.048940f, 0.172627f, -0.181213f, 0.040434f, -0.088459f, 0.048427f, 0.080740f, 0.220520f, 0.020176f, -0.168423f, -0.025338f, -0.171744f, -0.019978f, -0.087139f, -0.170287f, 0.063296f, 0.029423f, 0.088687f, -0.093704f, -0.086320f, 0.075296f, 0.139802f, 0.135196f, 0.142459f, 0.158869f, -0.001494f, -0.229369f, -0.181427f, 0.066041f, -0.033397f, -0.033389f, -0.101670f, -0.099250f, -0.180736f, -0.132355f, 0.096522f, -0.082688f, -0.199068f, 0.041653f, 0.013817f, 0.071378f, 0.291793f, -0.273815f, 0.262590f, 0.083047f, -0.003563f, 0.001228f, -0.187701f, -0.289236f, 0.245879f, -0.104928f, 0.092085f, 0.324585f, 0.054994f, -0.043836f, -0.206099f, 0.052618f, 0.230984f, -0.067583f, 0.000329f, 0.247042f, 0.012789f, -0.204518f, 0.024869f, -0.073168f, 0.189192f, -0.116205f, -0.112189f, 0.166646f, -0.090404f, 0.031579f, -0.131856f, 0.079049f, 0.050486f, -0.116253f, -0.279608f, 0.103389f, 0.014495f, 0.162504f, 0.100866f, -0.187102f, 0.013510f, -0.229561f, 0.149016f, 0.307108f, 0.003462f, -0.201760f, -0.048158f, 0.050446f, -0.014462f, -0.049538f, -0.166229f, 0.253378f, -0.334868f, 0.432368f, 0.232073f, -0.095356f, -0.057011f, -0.137019f, -0.120969f, 0.069626f, 0.160350f, 0.002035f, 0.232463f, -0.071939f, -0.089736f, -0.130404f, -0.101844f, 0.114523f, -0.191172f, 0.342609f, -0.166498f, -0.108862f, 0.127888f, -0.036248f, -0.013137f, -0.035556f, -0.010157f, 0.022702f, 0.135874f, 0.137149f, 0.138532f, 0.299738f, -0.190572f, -0.307136f, -0.011688f, 0.104043f, 0.351874f, -0.410945f, -0.110738f, -0.025612f, -0.014298f, 0.310250f, -0.580870f, 0.560511f, -0.038837f, 0.009300f, 0.006714f, 0.284127f, -0.442774f, 0.144374f, -0.276013f, 0.392026f, 0.240569f, 0.033993f, 0.445329f, 0.174862f, -0.085454f, 0.019708f, 0.158379f, -0.069971f, 0.086019f, -0.286681f, -0.641581f, 0.318432f, 0.098468f, 0.450528f, -0.062698f, 0.030092f, 0.059723f, -0.131214f, -0.259647f, -0.018184f, 0.214487f, 0.019591f, -0.292227f, 0.154938f, -0.015572f, -0.668952f, 0.115720f, -0.154109f, 0.181892f, -0.283160f, -0.363153f, 0.195674f, 0.089866f, 0.065549f, -0.110832f, -0.125396f, 0.154230f, 0.193792f, 0.147994f, 0.113064f, 0.078458f, -0.632892f, 0.392782f, 0.323185f, -0.308948f, -0.172379f, -0.087725f, -0.229520f, -0.003035f, 0.081454f, 0.308455f, 0.093893f, 0.013092f, 0.346360f, -0.186592f, 0.187474f, 0.286474f, -0.217726f, 0.288829f, -0.083533f, -0.429721f, -0.194435f, 0.125486f, 0.114929f, 0.269485f, 0.508354f, -0.005245f, -0.146363f, 0.034474f, 0.537628f, 0.304721f, 0.194540f, -0.042834f, 0.409952f, -0.006469f, 0.446001f, -0.600440f, -0.464188f, 0.251497f, 0.339630f, 0.104894f, -0.326363f, -0.099078f, 0.370363f, 0.495766f, -0.441549f, 0.013355f, -0.557293f, 0.214656f, -0.311009f, 0.019914f, 0.370162f, 0.079131f, 0.461964f, -0.253068f, -0.144161f, 0.373592f, -0.140466f, -0.108709f, 0.113166f, 0.301367f, -0.682403f, 0.196533f, -0.348989f, -0.123598f, -0.063815f, 0.241839f, -0.320673f, -0.158795f, 0.121110f, 0.001183f, 0.068868f, 0.344191f, 0.127899f, 0.082498f, 0.040490f, -0.081702f, 0.121906f, 0.182347f, -0.126965f, 0.008560f, -0.299703f, 0.007541f, 0.165602f, 0.057738f, -0.220627f, 0.244266f, 0.392668f, 0.285989f, 0.203698f, -0.372158f, 0.087640f, -0.712086f, -0.237054f, 0.091250f, 0.184471f, -0.342444f, -0.180944f, -0.322214f, -0.185184f, -0.179916f, -0.253634f, 0.641997f, 0.115576f, 0.110040f, -0.201279f, -0.351903f, -0.149047f, -0.260756f, 0.105115f, 0.465419f, -0.160433f, 0.161925f, 0.012520f, 0.053793f, 0.636357f, 0.087392f, 0.101728f, 0.018768f, -0.073099f, -0.120693f, -0.234720f, -0.274774f, 0.168210f, 0.033120f, 0.053222f, 0.207690f, -0.000592f, -0.263718f, 0.152464f, -0.064344f, 0.424228f, -0.099631f, 0.130449f, 0.303522f, -0.070674f, -0.410660f, 0.140336f, -0.272107f, 0.069372f, -0.336943f, 0.286470f, 0.301152f, -0.015601f, 0.125444f, -0.122706f, -0.134437f, 0.249957f, -0.134377f, -0.182304f, 0.409624f, 0.145578f, -0.202300f, 0.355883f, -0.308628f, -0.082836f, -0.021900f, 0.198135f, -0.123299f, 0.007386f, 0.386313f, 0.055881f, 0.346799f, 0.085762f, 0.346398f, -0.154105f, 0.248107f, 0.281342f, 0.043628f, 0.218535f, -0.100396f, -0.080520f, -0.153740f, 0.248564f, 0.163848f, 0.042581f, -0.014647f, 0.038157f, 0.076120f, -0.155437f, 0.261068f, -0.265236f, 0.135206f, -0.052395f, 0.282121f, 0.025203f, -0.066063f, 0.177013f, -0.155524f, -0.126883f, 0.202993f, -0.175010f, 0.016942f, 0.265027f, -0.107325f, -0.066357f, -0.246897f, -0.287940f, -0.208217f, -0.172718f, 0.003737f, 0.139365f, -0.115738f, 0.063303f, 0.471691f, 0.184270f, -0.295242f, 0.061622f, -0.009649f, 0.179831f, 0.342567f, -0.528840f, 0.479717f, -0.179421f, -0.099538f, -0.134267f, 0.051597f, -0.108904f, 0.335839f, 0.015180f, -0.271902f, -0.082027f, 0.057034f, 0.179073f, -0.021751f, 0.066188f, -0.509696f, 0.200830f, -0.123158f, -0.049767f, 0.107348f, 0.192017f, -0.200603f, 0.045037f, 0.057936f, -0.025194f, 0.175294f, 0.171582f, 0.166840f, -0.030306f, -0.047944f, -0.074055f, -0.310149f, 0.562267f, 0.075130f, -0.080506f, -0.209920f, -0.292636f, -0.279453f, 0.181891f, 0.237867f, -0.132972f, 0.268574f, 0.018503f, -0.029493f, -0.244660f, -0.149229f, -0.203174f, -0.072299f, 0.224738f, 0.132403f, -0.224894f, -0.089921f, 0.271801f, 0.021184f, 0.187072f, 0.169819f, 0.110439f, 0.037169f, -0.596400f, -0.266067f, -0.315931f, -0.093371f, 0.133473f, -0.177955f, 0.343808f, 0.015911f, -0.311203f, 0.033851f, -0.117357f, 0.090920f, 0.064592f, -0.086276f, 0.042961f, -0.021961f, 0.089767f, -0.145439f, -0.030483f, -0.000999f, -0.048608f, -0.014267f, -0.307696f, -0.539299f, -0.156785f, 0.398921f, 0.281549f, 0.174791f, -0.419636f, 0.131456f, -0.189592f, -0.074541f, -0.058641f, -0.222522f, 0.309844f, -0.001334f, 0.015386f, -0.100859f, -0.054326f, -0.186189f, 0.267806f, -0.102607f, -0.089707f, -0.216775f, -0.183333f, 0.001741f, -0.202393f, 0.016155f, -0.209116f, 0.244305f, -0.209878f, -0.080348f, 0.122266f, -0.234640f, -0.145910f, 0.021180f, 0.153607f, -0.001739f, 0.101057f, 0.086055f, 0.066129f, -0.020568f, 0.236125f, 0.157669f, 0.073714f, 0.185245f, 0.011250f, -0.002839f, -0.246202f, -0.105428f, -0.157852f, 0.221546f, 0.017974f, -0.076884f, 0.369665f, -0.056765f, -0.131926f, -0.074453f, 0.049678f, -0.167832f, -0.038222f, 0.174919f, -0.197700f, 0.013291f, 0.004577f, 0.051027f, 0.073301f, -0.071244f, 0.030783f, 0.028988f, 0.190903f, -0.331487f, -0.024658f, -0.005585f, -0.154905f, 0.131427f, 0.089340f, 0.251292f, 0.144346f, -0.086687f, 0.043336f, 0.076426f, 0.194844f, -0.074063f, -0.217116f, -0.207754f, -0.209772f, -0.080511f, 0.099984f, -0.005717f, -0.006163f, 0.130325f, 0.072212f, -0.317852f, -0.241314f, 0.004765f, -0.242311f, -0.124098f, -0.072576f, -0.154313f, 0.067986f, 0.123862f, -0.208546f, 0.043920f, -0.006237f, 0.073905f, -0.017864f, -0.180315f, 0.128035f, 0.050552f, -0.112295f, -0.111050f, -0.160947f, 0.082995f, -0.185383f, -0.062224f, -0.129383f, -0.139021f, -0.133571f, 0.040457f, -0.089962f, -0.013295f, 0.046951f, -0.084245f, 0.015514f, -0.180391f, -0.056037f, 0.017404f, 0.341588f, 0.062826f, -0.061769f, 0.005076f, 0.096164f, 0.009219f, 0.099776f, -0.018924f, -0.116073f, -0.128557f, 0.161446f, -0.158085f, 0.172175f, 0.017386f, 0.182819f, -0.084998f, 0.012449f, 0.233163f, -0.005729f, 0.045049f, 0.000023f, -0.037463f, -0.128671f, 0.023794f, -0.175072f, 0.137495f, -0.021195f, 0.159814f, -0.102891f, 0.163970f, 0.022295f, 0.031390f, 0.019098f, -0.029435f, 0.062644f, 0.158195f, 0.191604f, 0.184723f, 0.039733f, -0.168646f, -0.077810f, 0.180939f, -0.165063f, 0.148193f, 0.179399f, -0.068186f, -0.098731f, -0.092730f, -0.157409f, -0.095267f, 0.080313f, -0.080597f, 0.190611f, -0.045974f, -0.106259f, -0.098140f, 0.147313f, 0.013327f, -0.119408f, -0.095327f, -0.117237f, 0.183294f, 0.075457f, 0.222504f, 0.054872f, 0.028722f, 0.072451f, -0.075255f, -0.086004f, -0.202642f, 0.006812f, 0.058767f, -0.066067f, -0.167993f, 0.073155f, -0.075962f, 0.139583f, -0.122641f, 0.044845f, 0.102650f, 0.011548f, -0.031922f, -0.092461f, 0.070201f, 0.082542f, -0.111917f, -0.134892f, 0.093358f, -0.021757f, 0.003434f, -0.033217f, -0.054153f, -0.058265f, -0.187189f, 0.204641f, 0.111746f, -0.156648f, -0.178685f, -0.049797f, -0.078433f, -0.160011f, -0.160763f, -0.133153f, 0.006244f, -0.088812f, -0.058936f, -0.038536f, 0.246120f, 0.072884f, 0.169116f, -0.187479f, -0.051187f, -0.054780f, 0.065918f, -0.175233f, -0.184416f, 0.180128f, -0.124704f, 0.107172f, -0.194441f, -0.006928f, -0.016848f, -0.195830f, -0.037933f, -0.023135f, -0.051768f, -0.095825f, 0.066155f, 0.011426f, 0.129955f, -0.014974f, 0.134173f, -0.104664f, 0.133682f, 0.001806f, -0.047958f, -0.156381f, -0.062701f, -0.188592f, 0.168356f, 0.136885f, 0.014950f, 0.095827f, -0.157963f, -0.064746f, 0.219996f, -0.017846f, 0.014664f, -0.066845f, 0.067525f, -0.083581f, -0.027213f, 0.127623f, -0.071362f, 0.125982f, 0.132291f, 0.070304f, 0.091999f, -0.018178f, 0.105594f, 0.075108f, 0.039227f, 0.091867f, -0.081931f, -0.048705f, -0.201799f, -0.063769f, 0.055574f, -0.095872f, 0.008939f, -0.393802f, 0.038972f, 0.094400f, -0.004663f, 0.076670f, -0.057371f, 0.127413f, -0.064769f, 0.183769f, 0.063831f, 0.014915f, 0.195504f, -0.215694f, 0.029870f, 0.011243f, 0.118069f, -0.015107f, -0.160705f, -0.128501f, -0.010095f, 0.158668f, -0.080252f, -0.020126f, 0.040592f, 0.292802f, -0.058689f, 0.218260f, -0.219073f, -0.026157f, 0.042738f, -0.149073f, 0.132642f, -0.155523f, -0.051468f, 0.015311f, 0.000508f, -0.051564f, -0.181049f, -0.035799f, 0.036917f, 0.228593f, 0.056583f, 0.075709f, -0.125981f, -0.018625f, -0.174944f, 0.013389f, 0.042965f, 0.029736f, 0.497297f, -0.233644f, 0.110486f, -0.189428f, -0.021656f, -0.182165f, -0.160646f, -0.272669f, -0.153321f, -0.057647f, 0.184717f, -0.040765f, 0.068632f, 0.264245f, -0.024922f, 0.233289f, -0.071021f, 0.184176f, -0.332353f, 0.079085f, 0.008596f, 0.019376f, 0.077945f, 0.078237f, -0.155711f, -0.037994f, -0.094025f, -0.008247f, 0.287548f, 0.174582f, 0.166887f, 0.297321f, 0.118328f, -0.161597f, 0.019856f, 0.272467f, 0.083654f, -0.257206f, -0.126874f, -0.189319f, -0.188951f, -0.111738f, -0.435227f, 0.047770f, 0.111555f, -0.039538f, 0.316809f, 0.121902f, -0.194084f, -0.227500f, -0.160555f, 0.151590f, -0.146540f, 0.189098f, 0.238074f, 0.099375f, -0.194351f, -0.023618f, 0.249830f, -0.157405f, 0.020339f, -0.242132f, -0.143270f, -0.026995f, -0.060143f, 0.272440f, 0.065114f, 0.081554f, 0.024191f, -0.290907f, -0.297821f, 0.133899f, -0.198590f, -0.078643f, -0.423579f, 0.068315f, -0.364546f, -0.433384f, 0.042584f, -0.078455f, 0.107719f, -0.111958f, 0.128336f, 0.209024f, -0.073747f, -0.006332f, -0.273351f, 0.056269f, 0.318086f, 0.026377f, 0.208634f, 0.205021f, 0.009206f, 0.016507f, 0.130759f, -0.024986f, -0.210815f, 0.103194f, -0.345543f, 0.167705f, -0.208286f, 0.218440f, 0.211921f, -0.174727f, 0.009402f, 0.200359f, 0.247651f, -0.131663f, 0.176522f, -0.329761f, 0.031925f, -0.062469f, -0.213618f, -0.043415f, -0.107205f, 0.021439f, 0.239655f, 0.151022f, -0.071952f, -0.010147f, -0.211191f, 0.569918f, -0.021914f, -0.012508f, -0.068105f, 0.212640f, -0.085793f, 0.290783f, -0.133874f, -0.016079f, 0.102428f, 0.006209f, -0.084657f, -0.085106f, -0.095685f, 0.116402f, 0.277029f, 0.206778f, 0.097162f, -0.334819f, -0.045240f, -0.514707f, -0.450448f, 0.171150f, 0.132383f, 0.554940f, -0.240469f, -0.132197f, -0.076944f, 0.303961f, -0.175001f, 0.083507f, -0.186857f, -0.502493f, 0.006631f, -0.117976f, -0.057745f, 0.217062f, 0.129869f, 0.104078f, -0.034008f, 0.078235f, 0.247504f, 0.173894f, 0.318442f, 0.197252f, 0.006556f, -0.056663f, -0.328258f, 0.062262f, -0.064645f, 0.321260f, 0.063541f, 0.027411f, 0.262148f, 0.037359f, -0.328915f, -0.287227f, -0.054999f, 0.173572f, 0.167522f, 0.568982f, -0.569318f, -0.272996f, -0.056292f, 0.030636f, 0.262110f, 0.205044f, -0.245849f, -0.211369f, -0.055837f, -0.461724f, 0.038851f, -0.118183f, 0.329985f, 0.023827f, 0.434022f, 0.070947f, -0.116102f, -0.020289f, -0.175109f, 0.156358f, 0.378982f, -0.176100f, -0.358857f, -0.180455f, -0.375841f, 0.531776f, -0.250736f, -0.118201f, 0.098246f, -0.060044f, -0.169041f, -0.266157f, 0.119162f, 0.136815f, 0.158763f, 0.104975f, -0.001773f, 0.276139f, -0.289045f, 0.077963f, 0.145843f, 0.300842f, 0.169689f, -0.235169f, 0.262319f, 0.420380f, 0.051808f, 0.028331f, 0.004996f, -0.392371f, -0.089173f, -0.094073f, 0.173668f, 0.061914f, -0.023046f, 0.092242f, -0.209842f, 0.227586f, 0.267896f, -0.135121f, 0.153307f, -0.425549f, -0.201457f, -0.072016f, -0.030747f, 0.061439f, 0.036099f, -0.056563f, 0.101481f, 0.070058f, 0.249424f, -0.326616f, 0.137528f, 0.114907f, -0.308409f, -0.224022f, -0.359057f, -0.050915f, -0.256044f, 0.068541f, 0.111569f, 0.187113f, -0.164139f, -0.143955f, 0.251437f, 0.256454f, 0.032930f, -0.212366f, 0.471054f, -0.214651f, 0.046505f, -0.107037f, 0.053544f, -0.355170f, 0.293394f, -0.064367f, 0.068219f, -0.054236f, -0.196582f, -0.108446f, -0.391240f, 0.267926f, 0.088311f, 0.088416f, -0.309989f, 0.040053f, 0.071058f, 0.091292f, -0.120384f, -0.294019f, 0.103714f, 0.236188f, -0.012801f, 0.384980f, -0.068014f, -0.403360f, 0.034625f, -0.410687f, -0.086860f, 0.069257f, 0.141309f, -0.110368f, 0.287415f, 0.316694f, 0.057567f, -0.236902f, 0.013961f, -0.144615f, 0.249812f, 0.005377f, -0.018535f, -0.081660f, 0.046018f, 0.043458f, -0.095691f, 0.149056f, 0.226017f, 0.249862f, 0.060696f, -0.124387f, -0.022942f, 0.032311f, 0.037126f, -0.204363f, -0.073759f, 0.414657f, -0.017066f, -0.070284f, -0.071441f, 0.210301f, 0.022337f, -0.024029f, -0.465703f, 0.333001f, 0.008316f, 0.276399f, -0.052576f, 0.138791f, -0.204026f, 0.205323f, 0.306658f, 0.017994f, 0.304992f, -0.089636f, -0.091399f, -0.363236f, 0.081879f, -0.513445f, 0.052679f, 0.027455f, -0.092583f, -0.157071f, 0.152148f, 0.201246f, -0.118487f, 0.124361f, 0.349556f, -0.167497f, 0.292115f, 0.158978f, -0.164242f, -0.066814f, -0.042132f, -0.211479f, -0.088604f, -0.291169f, 0.110474f, -0.217525f, 0.064606f, 0.130152f, -0.218812f, -0.067949f, 0.088147f, 0.106579f, -0.487720f, -0.058802f, 0.051179f, 0.076793f, 0.202037f, 0.013157f, -0.321351f, -0.346399f, 0.025396f, -0.181776f, 0.165220f, 0.123309f, -0.185025f, 0.175530f, 0.254234f, -0.040149f, -0.220579f, -0.044913f, 0.033152f, 0.174934f, -0.019710f, 0.052982f, -0.156389f, -0.092409f, -0.185229f, 0.253287f, -0.099922f, 0.016473f, -0.099404f, 0.090472f, -0.112430f, -0.273623f, 0.167267f, 0.013026f, 0.066520f, 0.133455f, -0.231879f, -0.105818f, -0.013198f, 0.132920f, -0.053235f, 0.041922f, 0.234005f, -0.217123f, 0.157040f, -0.104446f, -0.092127f, -0.089824f, 0.134517f, -0.378850f, 0.017276f, -0.079796f, 0.074037f, 0.053149f, 0.138488f, -0.122023f, 0.042094f, -0.154177f, -0.002244f, 0.416177f, -0.122893f, -0.061766f, -0.353664f, 0.160713f, -0.086237f, -0.036399f, 0.199802f, -0.113090f, -0.075140f, -0.051606f, 0.443675f, 0.223767f, -0.064097f, -0.037744f, -0.321149f, 0.056542f, -0.080602f, -0.358226f, -0.119507f, 0.062941f, -0.124393f, 0.059905f, -0.065576f, 0.123288f, 0.091888f, -0.117788f, 0.008150f, 0.167271f, 0.208399f, -0.090572f, 0.098285f, -0.292293f, 0.030967f, 0.138539f, -0.096248f, -0.059305f, 0.200419f, -0.505413f, -0.244292f, 0.202135f, 0.123920f, -0.357027f, 0.072595f, 0.108624f, 0.169717f, 0.030743f, -0.042671f, 0.112429f, 0.040253f, 0.111793f, 0.175671f, 0.010102f, 0.088374f, 0.068265f, -0.028220f, 0.183869f, 0.157751f, 0.187827f, 0.260079f, 0.002306f, 0.000596f, -0.160620f, 0.050020f, -0.153018f, -0.137047f, -0.065000f, 0.093007f, 0.023759f, -0.145605f, -0.107346f, -0.013072f, -0.112369f, -0.063385f, 0.047348f, -0.183832f, -0.204853f, -0.196950f, -0.207141f, 0.088486f, 0.100378f, -0.035072f, -0.087108f, 0.161256f, 0.130598f, -0.096941f, -0.041363f, 0.077841f, -0.240310f, 0.011821f, 0.037285f, -0.156587f, -0.185075f, 0.263859f, -0.211428f, -0.148463f, 0.164619f, 0.031375f, -0.034894f, -0.027402f, 0.131757f, -0.051294f, 0.042713f, 0.066622f, 0.041857f, -0.033413f, -0.058564f, -0.025104f, -0.021002f, -0.095512f, -0.141183f, 0.008055f, -0.059470f, 0.007843f, -0.094993f, -0.052226f, -0.028981f, -0.007557f, 0.025051f, 0.124712f, 0.147362f, 0.195763f, -0.149370f, 0.202976f, 0.036376f, -0.103098f, 0.074349f, -0.242636f, -0.059668f, -0.182501f, 0.296047f, 0.096293f, 0.057173f, 0.136843f, -0.242216f, -0.111259f, 0.048844f, -0.038222f, -0.091481f, -0.155806f, -0.112487f, 0.041299f, -0.000693f, -0.090311f, 0.193507f, -0.025593f, 0.125663f, 0.080947f, 0.152946f, 0.088926f, 0.057305f, 0.175371f, -0.096957f, -0.049166f, 0.143577f, 0.152895f, -0.113659f, -0.033310f, -0.002208f, 0.060900f, 0.148882f, -0.111077f, 0.127046f, 0.172367f, -0.043461f, -0.122833f, 0.012864f, -0.002375f, -0.110830f, -0.023908f, 0.015913f, 0.012194f, -0.056465f, 0.140183f, -0.094884f, -0.119432f, -0.131027f, 0.024319f, 0.192484f, -0.162956f, 0.053082f, -0.159709f, -0.100153f, -0.131312f, 0.036850f, -0.171540f, 0.158038f, -0.012785f, -0.124962f, 0.135287f, 0.178256f, -0.173945f, 0.084263f, -0.020832f, -0.132225f, 0.100428f, 0.139811f, 0.174853f, -0.047128f, 0.126775f, -0.127330f, 0.086665f, -0.182242f, 0.114976f, -0.110995f, 0.069463f, 0.077134f, -0.195946f, 0.013964f, 0.156483f, 0.058005f, 0.000677f, 0.055079f, 0.127700f, -0.152580f, 0.065883f, 0.126000f, 0.104392f, -0.014150f, 0.050262f, 0.096222f, -0.157603f, -0.113073f, 0.152562f, -0.059603f, -0.135026f, -0.006977f, 0.170582f, 0.079529f, -0.054125f, -0.146280f, -0.083935f, -0.063376f, 0.289233f, 0.039324f, 0.053252f, -0.073736f, -0.084382f, -0.195969f, -0.084550f, -0.029716f, -0.155586f, 0.096642f, -0.264496f, -0.084007f, 0.156861f, -0.162742f, 0.127134f, 0.017888f, -0.166464f, -0.063108f, 0.028353f, -0.021483f, 0.069860f, -0.137740f, 0.009737f, -0.128330f, 0.039786f, 0.271158f, 0.025307f, 0.006190f, 0.055086f, 0.018720f, -0.131329f, -0.180243f, -0.027809f, -0.001800f, -0.048271f, 0.007455f, 0.175592f, 0.109806f, 0.287997f, -0.127076f, 0.119869f, -0.242654f, 0.127210f, -0.193186f, -0.147636f, -0.127207f, -0.018598f, 0.065234f, 0.129275f, -0.114869f, 0.098975f, -0.060739f, -0.171473f, -0.163815f, 0.158862f, 0.003697f, 0.131358f, -0.009927f, -0.167435f, -0.126948f, -0.163199f, -0.075702f, -0.032908f, -0.207524f, -0.004536f, -0.041560f, 0.098866f, -0.029294f, -0.072603f, 0.015810f, -0.232163f, -0.018144f, 0.182848f, 0.181375f, -0.081850f, -0.140078f, 0.037999f, -0.018713f, -0.086788f, 0.030482f, -0.069586f, -0.113192f, -0.074941f, -0.208004f, -0.115661f, -0.015909f, -0.090778f, -0.084985f, 0.141284f, 0.014475f, 0.175363f, 0.038447f, 0.371743f, 0.062056f, 0.195368f, 0.058935f, -0.237369f, 0.250348f, 0.211338f, 0.095216f, 0.112117f, -0.246486f, 0.425863f, -0.057442f, -0.203048f, 0.007801f, -0.006905f, -0.204777f, 0.346729f, -0.276416f, -0.145914f, -0.198057f, 0.079650f, -0.135505f, -0.055767f, -0.206948f, 0.262464f, -0.245996f, 0.144838f, 0.202674f, 0.013723f, 0.159039f, -0.167773f, -0.043860f, 0.021334f, -0.197567f, 0.043533f, 0.264864f, 0.223177f, 0.383946f, -0.017973f, -0.036995f, 0.035480f, 0.123662f, 0.212656f, -0.126750f, -0.217665f, 0.031120f, -0.195474f, 0.002514f, -0.137757f, 0.051283f, 0.204612f, -0.249622f, -0.047665f, 0.009013f, 0.221825f, -0.099945f, 0.174126f, -0.134323f, 0.197860f, 0.073819f, -0.122297f, 0.031540f, -0.456134f, -0.035390f, -0.175872f, 0.100981f, 0.000863f, 0.261216f, -0.412048f, -0.205700f, 0.059453f, 0.004663f, 0.003267f, 0.117379f, 0.104162f, 0.048416f, -0.157829f, 0.057249f, 0.095291f, 0.037271f, 0.210516f, 0.058194f, 0.020945f, -0.172548f, 0.153673f, -0.272763f, 0.102788f, 0.025025f, 0.347243f, -0.247508f, -0.056523f, 0.316196f, -0.190992f, 0.220341f, 0.330703f, 0.023917f, 0.197333f, 0.260746f, -0.243735f, 0.235092f, 0.005119f, 0.336943f, 0.101280f, -0.283400f, 0.043805f, 0.259884f, 0.067658f, 0.306747f, -0.047546f, -0.189438f, -0.173082f, -0.032094f, 0.093429f, -0.031672f, 0.055217f, -0.050119f, -0.266155f, 0.322942f, 0.079812f, -0.117363f, 0.104891f, -0.078190f, -0.332372f, 0.253474f, 0.210031f, 0.220775f, -0.161441f, 0.286230f, -0.014212f, 0.021301f, 0.094018f, 0.014408f, 0.104194f, 0.118126f, 0.285787f, -0.131294f, -0.086518f, -0.275208f, -0.004595f, -0.043253f, 0.055415f, 0.412707f, -0.134513f, 0.050745f, 0.003910f, 0.004247f, -0.178189f, 0.130138f, -0.166045f, 0.128751f, 0.170363f, 0.094499f, 0.056308f, -0.065837f, -0.146714f, 0.081998f, 0.020108f, 0.000731f, 0.014927f, 0.031368f, -0.124248f, 0.058289f, -0.128362f, 0.019965f, 0.102467f, 0.080841f, 0.310668f, -0.010354f, 0.167359f, 0.154714f, -0.014919f, -0.175748f, -0.063092f, 0.152046f, -0.293054f, 0.234000f, -0.139438f, 0.000664f, -0.075267f, 0.229192f, -0.434898f, 0.083817f, 0.186718f, 0.203372f, -0.040332f, 0.248918f, 0.180399f, 0.189742f, -0.200544f, -0.271856f, 0.134374f, 0.223045f, 0.000215f, -0.306164f, 0.297968f, 0.165883f, 0.061839f, 0.230530f, -0.036815f, 0.279738f, -0.118233f, -0.132974f, -0.067581f, -0.157216f, 0.164210f, 0.332765f, -0.351267f, 0.340607f, -0.048031f, -0.041107f, 0.119317f, -0.282243f, 0.468635f, 0.125860f, -0.019819f, 0.101401f, -0.065362f, -0.429651f, -0.007885f, 0.025060f, 0.026501f, -0.173447f, 0.018159f, 0.056837f, -0.694013f, 0.256694f, -0.493215f, -0.379111f, -0.165569f, -0.158423f, -0.072967f, 0.012666f, 0.173720f, 0.337491f, -0.110865f, 0.125563f, -0.135727f, -0.115563f, 0.123639f, -0.335212f, 0.280135f, 0.202410f, -0.169218f, -0.150049f, 0.009828f, 0.101450f, -0.242844f, -0.201212f, -0.124677f, 0.051985f, 0.062077f, -0.146392f, 0.036078f, -0.158205f, -0.006749f, 0.225085f, 0.074790f, 0.015851f, 0.187617f, -0.432781f, -0.026793f, -0.109934f, -0.144219f, 0.160052f, -0.012458f, 0.039336f, 0.202868f, 0.093739f, 0.210951f, -0.255678f, -0.150105f, 0.077958f, -0.074949f, 0.067595f, 0.279423f, 0.111504f, -0.306936f, -0.128509f, 0.052417f, 0.021342f, -0.067868f, -0.090702f, 0.095012f, -0.347507f, -0.174735f, 0.276212f, 0.184740f, 0.153927f, 0.198160f, -0.272508f, 0.051680f, 0.251230f, -0.128191f, 0.103355f, -0.265475f, 0.443834f, -0.070750f, -0.285696f, 0.167508f, 0.066462f, -0.058013f, 0.262953f, -0.498026f, 0.055003f, 0.012561f, -0.061363f, 0.015533f, -0.044143f, -0.263854f, -0.118588f, -0.064849f, -0.041814f, -0.109220f, -0.146643f, 0.124408f, -0.438553f, -0.005820f, -0.300074f, 0.030414f, 0.190983f, -0.378528f, 0.025282f, 0.309012f, 0.246760f, 0.267387f, 0.013703f, 0.174511f, -0.107952f, 0.220141f, 0.044473f, 0.052489f, 0.191643f, 0.055293f, -0.184577f, -0.109386f, -0.101835f, 0.092014f, 0.038986f, -0.064067f, -0.133573f, -0.079605f, 0.122058f, -0.286907f, 0.013793f, -0.424367f, -0.111585f, 0.096997f, 0.182116f, -0.276007f, 0.157435f, -0.363124f, -0.232438f, 0.041698f, -0.076675f, 0.210353f, 0.119006f, -0.345336f, 0.096747f, 0.197331f, -0.194217f, -0.059045f, -0.337194f, 0.526592f, -0.149837f, 0.069410f, -0.026829f, 0.209813f, -0.262420f, -0.212213f, 0.200296f, 0.157550f, 0.237015f, 0.071309f, -0.104017f, -0.346960f, -0.189312f, 0.257475f, 0.464354f, -0.170915f, 0.149823f, -0.104216f, -0.295873f, -0.171895f, -0.079281f, -0.096235f, -0.188938f, 0.365476f, -0.119160f, -0.246059f, 0.006453f, 0.181056f, 0.044089f, 0.181774f, -0.008688f, 0.165762f, -0.133302f, 0.082649f, -0.013008f, 0.221963f, 0.114051f, -0.109908f, -0.081317f, -0.135671f, 0.120616f, -0.172300f, 0.194756f, -0.059065f, -0.020736f, -0.128616f, 0.087592f, 0.097007f, -0.182957f, 0.031228f, 0.204493f, 0.264789f, 0.217909f, 0.001182f, 0.120563f, -0.095055f, 0.156393f, 0.367295f, 0.076673f, -0.134317f, -0.241302f, 0.157724f, -0.125788f, -0.184911f, -0.091041f, 0.144769f, -0.162099f, -0.116228f, 0.183702f, -0.199479f, -0.145968f, -0.159117f, 0.051488f, -0.170911f, -0.072093f, 0.314231f, -0.052811f, 0.166075f, -0.318189f, -0.062806f, 0.444273f, -0.009169f, 0.139770f, 0.169270f, -0.143469f, 0.191859f, -0.092556f, -0.255990f, 0.173893f, 0.003794f, 0.134228f, -0.169680f, 0.004356f, 0.155892f, 0.278500f, -0.191276f, 0.007546f, 0.035698f, 0.148918f, 0.161371f, 0.304073f, -0.093868f, 0.085021f, 0.127856f, 0.156844f, 0.201129f, 0.036813f, 0.230362f, -0.250988f, -0.100246f, -0.165432f, -0.213688f, -0.058139f, 0.020095f, -0.290196f, -0.240799f, -0.074035f, -0.165090f, 0.010096f, 0.029038f, 0.065790f, -0.154503f, -0.082830f, 0.181332f, -0.173312f, -0.081219f, 0.065915f, 0.023993f, -0.049170f, -0.041033f, -0.099307f, -0.173372f, 0.112957f, -0.007173f, 0.020650f, 0.131676f, 0.177167f, 0.266636f, 0.206228f, -0.010931f, 0.239629f, 0.025051f, 0.008634f, -0.203700f, -0.166021f, -0.015982f, -0.138580f, 0.099570f, 0.001117f, -0.176247f, -0.009293f, 0.124308f, -0.138876f, -0.085031f, -0.066923f, -0.163233f, 0.296250f, -0.002860f, -0.124205f, 0.014262f, -0.194674f, -0.139415f, 0.189405f, 0.204408f, -0.094361f, -0.056240f, -0.047007f, -0.350172f, -0.155362f, -0.194452f, -0.053752f, 0.172552f, -0.051008f, 0.238811f, 0.043158f, -0.227417f, 0.036060f, -0.270798f, 0.171976f, 0.149526f };
static const float rede_neural_layer_1_biases[10] = { 0.231132f, -0.229023f, -0.033176f, 0.148311f, -0.387414f, -0.011649f, -0.137269f, -0.127339f, 0.657993f, -0.003650f };
static const float rede_neural_layer_1_weights[910] = { 0.079371f, 0.210533f, -0.342922f, -0.187839f, -0.150032f, 0.454332f, -0.187130f, -0.347986f, 0.322235f, 0.285939f, -0.443538f, -0.012060f, 0.874366f, -0.233967f, -0.079187f, -0.332781f, -0.545075f, 0.867956f, -0.525435f, -0.384912f, -0.089305f, -0.031732f, 0.064071f, -0.292901f, -0.168632f, 0.275190f, -0.046530f, 0.188902f, 0.746663f, -0.210289f, -0.208779f, -0.112038f, 0.692867f, 0.137768f, -0.177108f, 0.388946f, -0.162092f, -0.557415f, 0.159213f, -0.080877f, -0.271842f, 0.655170f, -0.354369f, 0.194518f, -0.332597f, -0.139549f, -0.071476f, -0.141976f, 0.186065f, 0.329613f, -0.218793f, 0.658174f, 0.094916f, -0.299427f, 0.054965f, 0.341213f, -0.389040f, -0.130538f, -0.393603f, 0.112313f, 0.261552f, -0.373054f, -0.174366f, -0.134994f, -0.195556f, 0.552699f, 0.043539f, -0.533653f, 0.915169f, 0.335472f, 0.004981f, 0.771854f, -0.194631f, -0.355383f, 0.334014f, -0.213385f, 0.327101f, -0.211188f, 0.285029f, -0.142163f, -0.107753f, -0.089144f, 0.097912f, 1.013378f, -0.241675f, 0.359310f, -0.362515f, -0.058824f, -0.214043f, -0.319883f, 0.609935f, 0.021567f, -0.008802f, -0.265459f, -0.297415f, -0.017309f, -0.363483f, -0.372957f, -0.383804f, 1.091583f, -0.172596f, 0.181389f, 0.307785f, -0.275714f, -0.398954f, -0.038207f, -0.272488f, 0.405937f, -0.299430f, -0.208316f, -0.303544f, 0.598949f, -0.301030f, 0.090583f, 0.041482f, -0.125968f, -0.371887f, -0.030393f, -0.249074f, -0.097414f, 0.107306f, 0.167337f, -0.597859f, -0.389992f, 0.475094f, 0.145243f, 0.303470f, -0.177460f, 0.571486f, -0.120029f, -0.147540f, -0.196089f, -0.341119f, 0.365265f, 0.517456f, 0.985128f, -0.485497f, -0.417820f, -0.391054f, -0.347470f, -0.165266f, 0.183567f, -0.186189f, -0.305469f, 0.223052f, -0.223914f, -0.014357f, 0.231240f, 0.664880f, 0.117102f, -0.396574f, 1.068885f, 0.048443f, 0.230692f, 0.268245f, -0.104013f, 0.281313f, -0.511022f, 0.090416f, -0.383287f, -0.184700f, 0.276891f, 1.133328f, -0.063494f, -0.055135f, -0.183095f, -0.230975f, -0.333073f, -0.219713f, 0.000774f, 0.497743f, -0.379663f, 0.402106f, 0.502553f, -0.515638f, -0.306310f, -0.202553f, -0.698914f, -0.569626f, 0.012236f, 0.210727f, 0.310376f, 0.220008f, -0.403178f, -0.204875f, -0.000790f, -0.026810f, -0.267124f, 0.203640f, 0.106631f, -0.235324f, -0.342895f, -0.465087f, 0.250541f, -0.272391f, 1.034426f, -0.079942f, -0.185317f, -0.412231f, 0.838298f, 0.003106f, -0.361154f, -0.076407f, -0.099320f, 0.364696f, 0.285952f, 0.277811f, -0.258165f, 0.417230f, 0.199165f, -0.156360f, 0.629914f, -0.529185f, -0.689356f, 0.115720f, -0.130239f, -0.383151f, -0.326371f, 0.156396f, 0.908990f, -0.381220f, -0.491377f, -0.078612f, -0.272335f, -0.194282f, -0.054789f, 0.349625f, -0.316296f, 0.700061f, -0.003620f, -0.124392f, 0.291407f, -0.256617f, 0.047128f, 0.612470f, 0.202519f, 0.474070f, 0.189516f, -0.766711f, -0.117436f, 0.264681f, -0.102081f, -0.071503f, -0.312829f, 0.229942f, 0.016072f, -0.069136f, 0.075829f, -0.070271f, -0.031076f, -0.076800f, -0.466647f, 0.510709f, -0.069784f, -0.366137f, 0.093863f, 1.013859f, -0.253225f, 0.032848f, -0.454044f, 0.046125f, 0.327405f, -0.486821f, -0.188168f, -0.152293f, -0.067819f, -0.268987f, -0.347401f, 0.482148f, 0.474316f, -0.215196f, -0.294616f, -0.355203f, 0.519853f, -0.035756f, 0.266456f, -0.204117f, 0.778854f, 0.115091f, -0.428326f, -0.129897f, 0.285623f, -0.176802f, -0.199150f, 0.943428f, -0.115353f, -0.166679f, -0.138297f, -0.271770f, -0.124508f, 0.693803f, -0.169336f, 0.365334f, -0.273047f, -0.000873f, 0.065341f, -0.252853f, -0.326811f, -0.170178f, -0.272910f, -0.014414f, -0.060636f, -0.116959f, 0.124195f, -0.048591f, 0.191239f, -0.117785f, 0.373840f, -0.220042f, 0.358817f, -0.166789f, 0.391770f, -0.201622f, -0.340414f, 0.580405f, -0.280763f, 0.395388f, -0.236759f, -0.204472f, -0.173438f, -0.168587f, -0.265737f, -0.055416f, -0.403985f, 0.624050f, -0.092272f, -0.229770f, 0.226941f, -0.030253f, 0.398507f, -0.268301f, 0.114801f, -0.298041f, 0.705470f, -0.343226f, 0.120869f, -0.479658f, -0.337972f, 0.146955f, 0.502586f, 0.021379f, 0.372973f, -0.294014f, -0.315117f, 0.056791f, -0.281266f, 0.014378f, -0.350662f, 0.516400f, -0.086554f, 0.093984f, 0.235888f, -0.045769f, 0.168640f, -0.177151f, 0.215170f, 0.012649f, -0.193397f, -0.393989f, -0.249723f, 0.203838f, -0.217074f, 0.083766f, -0.214008f, -0.284245f, -0.434611f, 0.021361f, -0.369598f, 0.370666f, 0.060789f, 0.056324f, -0.223403f, 0.509246f, -0.205115f, -0.295363f, -0.049559f, -0.076055f, 0.015252f, -0.264678f, 0.428632f, -0.136097f, -0.398950f, -0.047946f, -0.084535f, 0.219344f, 0.029241f, -0.314247f, 0.114467f, 0.124074f, 0.142051f, 0.216885f, 0.002430f, -0.276707f, 0.209009f, 0.157953f, 0.029824f, -0.000718f, 0.065796f, 0.008262f, -0.018949f, -0.191127f, 0.029726f, -0.332119f, 0.300062f, -0.000308f, 0.191813f, -0.148920f, -0.154223f, 0.097929f, 0.037147f, -0.016115f, 0.355101f, 0.223637f, 0.708776f, 0.349830f, -0.233013f, -0.175742f, -0.284512f, 0.109634f, -0.253801f, -0.372886f, -0.492350f, 0.033433f, 0.741851f, -0.371945f, -0.031815f, 0.095619f, 0.178099f, 0.533413f, -0.547134f, 0.111995f, -0.274598f, -0.121659f, -0.305575f, 0.204874f, -0.061577f, -0.017814f, 0.311156f, -0.335672f, -0.336477f, -0.138356f, 0.182224f, 0.147860f, -0.196888f, 0.068382f, 0.081482f, 0.074246f, -0.108130f, 0.088663f, -0.200195f, -0.239170f, 0.163755f, -0.166543f, 0.147696f, 0.107782f, 0.257713f, -0.117513f, 0.832654f, -0.714975f, -0.082906f, -0.225128f, 0.031151f, 0.788304f, 0.195200f, 0.107218f, -0.168007f, -0.507969f, -0.336344f, 0.528282f, 0.229166f, -0.151558f, 0.184843f, -0.224414f, -0.210215f, 0.311405f, -0.593384f, -0.493077f, 0.920852f, -0.041493f, 0.329615f, -0.208841f, 0.955422f, -0.451534f, 0.311532f, 0.356887f, -0.286753f, -0.063621f, -0.091979f, -0.226855f, 0.041274f, -0.491895f, 0.123251f, -0.468473f, -0.139048f, 0.205150f, 0.096323f, 0.458361f, 0.055170f, 0.217216f, -0.012012f, -0.047834f, -0.165110f, -0.130988f, -0.024931f, 0.294743f, -0.100101f, -0.298202f, 0.438891f, -0.109203f, -0.086977f, 0.318127f, 0.382331f, -0.193368f, -0.174611f, -0.324049f, -0.368934f, 0.037828f, -0.137017f, -0.055524f, -0.070449f, -0.143509f, 0.048118f, 0.489199f, 0.376491f, -0.280762f, 0.042979f, -0.044339f, -0.080590f, -0.235720f, -0.487004f, -0.311576f, -0.375699f, 0.323593f, 0.907386f, -0.199632f, -0.258500f, -0.149707f, -0.405120f, 0.055305f, 0.732150f, 0.033979f, -0.287126f, 0.045403f, 0.191824f, -0.249186f, -0.234168f, 0.528461f, -0.418348f, 0.396774f, 0.136913f, 0.103266f, 0.165183f, 0.003507f, 0.392315f, 0.537598f, -0.271485f, 0.084309f, 0.185824f, -0.309368f, -0.184594f, -0.402929f, 0.041484f, 0.377848f, 0.109862f, -0.231242f, -0.085310f, -0.392279f, 0.335342f, 0.695531f, -0.422765f, 0.080351f, -0.248505f, -0.472061f, 0.019484f, 0.139875f, 0.493901f, -0.176674f, -0.005472f, 0.173629f, 0.197388f, -0.353164f, 0.483106f, 0.412569f, 0.479584f, -0.384169f, -0.385038f, -0.232920f, -0.027444f, 0.239830f, -0.271731f, -0.217696f, 0.458203f, 0.671465f, -0.250968f, -0.319453f, -0.309236f, -0.221894f, -0.314560f, 0.234628f, -0.039608f, 0.198284f, 0.179284f, 0.020031f, -0.365396f, -0.210166f, -0.292098f, -0.035536f, 0.687785f, -0.180001f, 0.114726f, -0.286800f, 0.320819f, 0.084452f, -0.191336f, -0.066064f, 0.235084f, 0.690502f, -0.241362f, -0.284053f, -0.406095f, -0.040361f, -0.278362f, -0.334108f, -0.315450f, -0.272379f, -0.440563f, -0.055009f, -0.334183f, 0.206923f, 0.998450f, -0.029394f, -0.150508f, -0.011986f, 0.049821f, 0.218839f, 0.064914f, -0.169487f, 0.260062f, 0.496492f, -0.263405f, -0.421459f, -0.266655f, -0.223632f, 0.500256f, 0.248585f, 0.231581f, -0.175483f, -0.361826f, -0.233040f, 0.269942f, 0.625769f, -0.739171f, -0.085404f, 0.096623f, 0.540385f, -0.311583f, 0.525278f, 0.355153f, -0.094264f, -0.544493f, 0.116204f, -0.218203f, -0.254726f, -0.259945f, 0.051892f, -0.025927f, 0.472962f, -0.079921f, 0.060351f, -0.053818f, -0.302098f, 0.106937f, 0.732718f, 0.109887f, 0.056596f, -0.264062f, -0.090340f, 0.411816f, -0.469469f, -0.313529f, -0.037867f, -0.241115f, -0.304787f, 0.391612f, -0.053549f, -0.151141f, -0.071680f, -0.177052f, 0.294018f, -0.046224f, -0.008239f, -0.178373f, -0.276640f, 0.029146f, -0.097526f, 0.445005f, 0.115095f, -0.396202f, 0.129022f, 0.322987f, -0.351185f, -0.047732f, -0.449417f, 0.034648f, -0.161268f, 0.192164f, 0.035033f, -0.176105f, 0.054613f, 0.384258f, -0.521215f, -0.043700f, -0.274946f, 0.381827f, -0.239459f, -0.204182f, -0.661880f, 0.173715f, 0.329240f, 0.699810f, 1.089786f, -0.317173f, 0.093190f, -0.332933f, 0.605543f, -0.530568f, -0.304338f, -0.185595f, -0.053646f, 0.075316f, 0.650238f, 0.202186f, -0.146391f, -0.333904f, -0.214706f, -0.180861f, -0.249968f, -0.015858f, 0.087914f, 0.017853f, -0.032716f, 0.187159f, -0.013572f, -0.277695f, 0.564356f, -0.007825f, -0.158514f, 0.453430f, -0.382139f, -0.200873f, -0.019949f, 0.174951f, 0.052940f, -0.226053f, -0.118897f, -0.237445f, -0.295768f, 0.695770f, 0.214650f, 0.451923f, 0.158380f, -0.019033f, -0.054837f, 0.039306f, -0.401076f, 0.074573f, 0.782204f, 0.140487f, -0.349630f, -0.299620f, 0.402317f, -0.052490f, 0.294052f, 0.229115f, -0.287095f, 0.188802f, 0.070861f, -0.240398f, -0.208700f, 0.197926f, 0.718297f, -0.605988f, 0.007705f, -0.333463f, -0.002627f, 1.137371f, 0.253133f, -0.300794f, 0.090490f, -0.021028f, -0.206685f, -0.472179f, -0.170427f, 0.529661f, 0.041447f, -0.295702f, 0.122326f, -0.113843f, -0.160258f, 0.246137f, 0.102087f, -0.586119f, -0.400362f, 0.015988f, -0.164970f, 0.994498f, -0.360169f, 0.712409f, -0.181698f, 0.039346f, 0.218337f, 0.046165f, -0.091446f, -0.364058f, 0.408041f, -0.195875f, -0.103157f, -0.020554f, 0.235775f, -0.248785f, -0.122656f, 0.220376f, 0.633147f, -0.231470f, -0.087869f, -0.395977f, -0.186539f, -0.096619f, -0.260559f, 0.174106f, -0.148328f, -0.307306f, 0.036501f, 0.299948f, 0.256002f, -0.138160f, -0.079321f, 0.188510f, -0.505117f, 0.150711f, 0.036386f, 0.531997f, -0.199283f, -0.310845f, 0.613591f, 0.564808f, -0.249033f, -0.145748f, -0.413973f, -0.066281f, -0.476966f, -0.507928f, 0.609696f, 0.957102f, -0.270621f, -0.509853f, -0.407026f, 0.023809f, 0.557340f, 0.074154f, 0.157749f, -0.763340f, -0.178128f, -0.414909f, 0.742281f, -0.248169f, 0.144205f, 0.087751f, 0.778022f, 0.439395f, -0.208039f, 0.791047f, 0.478694f, -0.414259f, -0.189305f, 0.016602f, 0.138866f, -0.031379f, 0.235180f, -0.307776f, -0.452287f, -0.371594f, -0.178912f, -0.314452f, 0.055087f, 0.106668f, 0.569106f, -0.306980f, 0.731722f, -0.066179f, -0.204890f, 0.200544f, -0.167858f, 0.087554f, 0.088195f, 0.223422f, -0.315995f, -0.215710f, 0.459135f, 0.256089f, -0.163536f, 0.117877f, 0.274267f, 0.375599f, 0.003454f, -0.448961f, -0.257571f, 0.350095f, -0.183632f, -0.133422f };
static float rede_neural_buf1[91];
static float rede_neural_buf2[91];
static const EmlNetLayer rede_neural_layers[2] = { 
{ 91, 64, rede_neural_layer_0_weights, rede_neural_layer_0_biases, EmlNetActivationRelu }, 
{ 10, 91, rede_neural_layer_1_weights, rede_neural_layer_1_biases, EmlNetActivationSoftmax } };
static EmlNet rede_neural = { 2, rede_neural_layers, rede_neural_buf1, rede_neural_buf2, 91 };

    int32_t
    rede_neural_predict(const float *features, int32_t n_features)
    {
        return eml_net_predict(&rede_neural, features, n_features);
    }
    

    int32_t
    rede_neural_regress(const float *features, int32_t n_features, float *out, int32_t out_length)
    {
        return eml_net_regress(&rede_neural, features, n_features, out, out_length);
    }
    

    float
    rede_neural_regress1(const float *features, int32_t n_features)
    {
        return eml_net_regress1(&rede_neural, features, n_features);
    }
    