
#include <eml_net.h>
static const float rede_neural_layer_0_biases[106] = { 0.050773f, 0.014174f, 0.169412f, 0.149617f, -0.094801f, -0.028818f, 0.098229f, 0.159873f, 0.111719f, -0.162015f, -0.057821f, -0.149302f, -0.133691f, -0.005938f, -0.149593f, -0.116441f, 0.183747f, 0.080341f, -0.078493f, 0.136204f, 0.080914f, 0.018679f, 0.053763f, 0.030337f, -0.125892f, 0.148913f, 0.102918f, -0.066310f, -0.092801f, 0.125811f, 0.107536f, -0.109175f, -0.057245f, 0.159782f, 0.045810f, 0.006000f, -0.089377f, -0.060421f, 0.148980f, -0.157511f, 0.081559f, 0.167997f, -0.016654f, 0.025196f, -0.102408f, -0.166668f, 0.026586f, 0.082026f, 0.100206f, 0.023233f, -0.102491f, -0.122330f, -0.159723f, 0.128489f, 0.006930f, 0.153400f, 0.014060f, -0.070615f, 0.135508f, -0.006437f, -0.124621f, 0.011669f, -0.000940f, 0.151702f, 0.161710f, -0.100933f, -0.009189f, 0.134199f, 0.159784f, -0.153683f, 0.000089f, 0.170301f, -0.092253f, 0.148902f, 0.198066f, -0.184373f, 0.018122f, -0.110067f, -0.125467f, 0.047488f, -0.161187f, -0.114195f, -0.028619f, -0.020408f, 0.055647f, 0.094671f, -0.111499f, 0.020625f, 0.082906f, 0.032386f, 0.163777f, -0.149194f, 0.174563f, 0.004055f, -0.185212f, -0.164503f, -0.171097f, -0.053404f, -0.061931f, -0.032893f, -0.182667f, 0.143072f, -0.100791f, 0.044455f, 0.077822f, 0.167198f };
static const float rede_neural_layer_0_weights[6784] = { -0.024048f, -0.178122f, 0.018660f, -0.024301f, -0.029920f, -0.063748f, -0.110971f, 0.044813f, -0.075275f, -0.087609f, 0.045513f, 0.010949f, -0.137298f, 0.005102f, -0.118564f, 0.107208f, 0.132998f, -0.002165f, 0.130212f, -0.157938f, 0.001971f, -0.163333f, -0.027006f, -0.151594f, -0.140086f, 0.036350f, -0.102945f, -0.147681f, -0.105088f, -0.056424f, -0.012103f, -0.112063f, 0.052755f, -0.006361f, 0.001968f, -0.042497f, 0.110327f, 0.030060f, -0.126883f, 0.075428f, 0.174544f, 0.000003f, 0.146353f, -0.059510f, 0.025228f, -0.027223f, -0.023766f, 0.103911f, 0.013377f, 0.170483f, 0.016610f, -0.157018f, -0.050219f, 0.131824f, -0.035215f, -0.177643f, -0.094992f, -0.162635f, 0.185553f, 0.176810f, 0.112815f, 0.038255f, 0.099552f, -0.124281f, -0.077767f, 0.009043f, -0.053870f, -0.170700f, 0.181534f, -0.022035f, 0.001503f, -0.066300f, -0.090270f, -0.042498f, 0.124748f, 0.088952f, -0.045384f, -0.182972f, 0.111743f, -0.086647f, 0.031067f, -0.178263f, 0.060944f, -0.042260f, -0.001099f, -0.031972f, -0.056031f, 0.019154f, 0.177685f, -0.145490f, -0.070164f, -0.172159f, 0.089573f, 0.059182f, -0.107219f, -0.031278f, 0.054045f, 0.060673f, -0.123810f, 0.143397f, 0.104455f, -0.137533f, 0.138612f, 0.093472f, 0.112187f, 0.016286f, -0.115515f, 0.149809f, 0.033719f, -0.088217f, -0.090933f, 0.175933f, -0.044569f, 0.011097f, 0.040226f, 0.126159f, 0.046426f, -0.109164f, 0.056577f, 0.004870f, 0.021277f, 0.063356f, -0.050110f, -0.136095f, -0.139547f, -0.091510f, -0.184012f, 0.045694f, -0.080554f, -0.133771f, -0.128969f, -0.081632f, -0.107110f, -0.087815f, -0.019989f, 0.034821f, 0.130146f, 0.210841f, -0.179832f, -0.093584f, 0.079231f, -0.133410f, 0.133753f, -0.081037f, 0.090834f, 0.065214f, 0.068833f, -0.176394f, -0.107095f, 0.082930f, -0.161636f, -0.176370f, -0.060737f, 0.012051f, -0.138593f, -0.140047f, -0.171896f, -0.068903f, 0.063444f, -0.117214f, 0.104373f, -0.017576f, 0.082985f, -0.088518f, 0.041519f, 0.176503f, -0.031449f, -0.102649f, 0.009810f, -0.028639f, 0.010293f, -0.001117f, -0.190059f, -0.131714f, -0.043329f, 0.076027f, 0.103195f, 0.129617f, 0.000263f, 0.174021f, -0.080238f, -0.013788f, 0.100653f, 0.133543f, -0.040605f, 0.112129f, -0.018982f, 0.079976f, -0.189497f, -0.177423f, 0.157827f, -0.150086f, 0.059925f, -0.121725f, -0.093514f, -0.043125f, 0.141252f, 0.021236f, 0.185262f, 0.075580f, 0.000158f, 0.002219f, -0.104713f, -0.228597f, -0.033286f, 0.022991f, 0.135887f, 0.066325f, 0.157981f, 0.142762f, 0.164700f, 0.102217f, -0.229365f, -0.162822f, -0.319054f, 0.067049f, 0.076092f, 0.054422f, -0.118156f, 0.071571f, 0.100140f, -0.095594f, 0.086673f, 0.156348f, -0.030547f, -0.132364f, -0.040128f, -0.187092f, 0.290864f, -0.126319f, 0.066428f, 0.089557f, -0.063593f, -0.080531f, -0.007157f, -0.015155f, 0.289164f, 0.067098f, -0.067132f, 0.065339f, -0.009517f, -0.088381f, 0.196605f, 0.413629f, -0.142059f, 0.112694f, 0.341758f, -0.134349f, 0.149659f, 0.188595f, -0.142384f, 0.109261f, -0.279001f, -0.146565f, -0.049231f, -0.029037f, -0.216376f, -0.158091f, -0.116612f, -0.023413f, 0.212798f, -0.042453f, 0.044540f, -0.254629f, -0.116976f, 0.087798f, 0.133874f, 0.161243f, 0.204512f, -0.097639f, -0.169633f, 0.057069f, -0.190846f, 0.162058f, 0.056178f, 0.022028f, 0.043210f, 0.209871f, 0.034627f, 0.100951f, 0.033545f, 0.057463f, 0.298124f, 0.210314f, 0.168841f, 0.168239f, -0.047835f, -0.016451f, 0.014995f, -0.169357f, 0.069248f, 0.094976f, -0.042586f, -0.030374f, -0.015493f, -0.112094f, -0.109649f, -0.077828f, -0.229266f, 0.000571f, -0.160346f, -0.086056f, -0.233992f, -0.130220f, 0.193089f, -0.135089f, 0.043369f, -0.083124f, -0.064821f, 0.077500f, 0.090294f, -0.231067f, 0.102074f, 0.059649f, -0.166718f, -0.127979f, -0.070102f, 0.014219f, 0.051707f, -0.096845f, -0.347030f, -0.047565f, 0.106397f, 0.112559f, -0.293122f, -0.309715f, -0.127725f, -0.163008f, -0.123732f, 0.142103f, 0.085225f, -0.231463f, -0.192776f, 0.317372f, 0.097778f, 0.189924f, -0.066040f, 0.230534f, -0.032067f, 0.008923f, -0.194417f, -0.110230f, -0.082636f, -0.126355f, 0.014581f, -0.022701f, -0.093619f, 0.280996f, 0.083117f, 0.066650f, -0.111483f, -0.235233f, 0.010053f, -0.171138f, 0.160313f, 0.410955f, -0.207003f, -0.061241f, 0.294001f, -0.173542f, -0.163219f, -0.004815f, -0.148916f, -0.084752f, -0.053018f, 0.138447f, -0.078474f, 0.040028f, -0.133376f, -0.243320f, 0.101829f, -0.138684f, 0.232495f, 0.042196f, 0.021512f, -0.230522f, -0.142431f, -0.036886f, -0.038669f, 0.119722f, -0.183080f, -0.268349f, -0.005966f, 0.089847f, -0.346602f, -0.148457f, 0.035309f, 0.180358f, -0.019314f, 0.101322f, 0.005161f, 0.058425f, 0.100882f, -0.237873f, -0.044362f, -0.192182f, -0.151211f, -0.088972f, -0.327862f, -0.080898f, 0.175154f, -0.063901f, -0.164779f, -0.085826f, -0.150882f, 0.269138f, 0.096399f, 0.078554f, 0.156297f, 0.086727f, -0.186568f, -0.391420f, 0.009124f, -0.000417f, -0.001601f, -0.156323f, -0.161790f, 0.059779f, -0.170667f, 0.115958f, 0.095804f, 0.108364f, -0.044998f, 0.121400f, 0.039746f, -0.318571f, 0.006310f, 0.053936f, -0.208494f, 0.117547f, 0.192481f, 0.013224f, -0.109519f, -0.038595f, 0.053852f, 0.144243f, 0.405808f, 0.007394f, 0.022417f, 0.099215f, 0.084297f, 0.202345f, -0.005252f, 0.283957f, 0.024077f, -0.093189f, -0.089261f, -0.181025f, -0.178097f, 0.057575f, -0.164798f, -0.159993f, 0.056781f, 0.466387f, 0.031146f, 0.209642f, -0.266843f, 0.165995f, 0.200189f, 0.262250f, -0.082795f, 0.064409f, -0.005758f, 0.021040f, 0.009681f, 0.087107f, 0.091346f, -0.249413f, -0.449262f, -0.091334f, -0.228354f, 0.047413f, -0.079265f, 0.254831f, -0.047002f, 0.031803f, 0.045919f, -0.174446f, 0.338229f, 0.135230f, -0.121743f, 0.048398f, 0.091820f, -0.134446f, -0.085854f, 0.268781f, 0.168567f, -0.120355f, 0.058092f, 0.036406f, -0.114795f, -0.164435f, 0.187889f, 0.095890f, -0.065138f, -0.023003f, -0.051929f, 0.389365f, -0.156230f, -0.130020f, -0.098110f, -0.174397f, -0.064478f, 0.190475f, -0.077165f, 0.157350f, 0.216994f, 0.140269f, -0.331982f, 0.049909f, -0.062842f, -0.063523f, -0.150740f, 0.082155f, -0.352204f, 0.095407f, -0.008918f, -0.295786f, -0.088095f, 0.039839f, 0.033571f, -0.129911f, -0.188970f, -0.014293f, -0.075276f, -0.174971f, 0.429345f, -0.132726f, -0.038401f, -0.256662f, 0.044546f, -0.186085f, 0.082390f, -0.043581f, -0.164924f, 0.033097f, -0.248838f, 0.018116f, -0.096221f, 0.094394f, -0.038546f, -0.138524f, -0.068984f, 0.124888f, 0.110525f, 0.199409f, 0.442568f, -0.186482f, -0.094880f, -0.114948f, -0.136404f, -0.111803f, -0.158484f, -0.179320f, 0.027095f, -0.151060f, 0.008017f, -0.032393f, 0.261070f, 0.139984f, -0.193759f, 0.429881f, -0.124599f, -0.082355f, 0.057767f, -0.177967f, -0.212716f, 0.365942f, -0.066010f, -0.024530f, -0.143130f, 0.012066f, -0.084128f, -0.058332f, 0.042255f, -0.116575f, 0.142425f, 0.174092f, 0.210193f, 0.131600f, -0.222522f, -0.232674f, -0.163588f, 0.018513f, -0.080314f, 0.188234f, 0.577052f, -0.002255f, 0.037237f, -0.108852f, -0.082973f, 0.046009f, 0.277710f, 0.130369f, -0.072731f, -0.031586f, -0.160318f, -0.042134f, -0.123846f, -0.083627f, -0.147361f, -0.052344f, 0.000693f, -0.086179f, -0.411448f, -0.403979f, -0.177102f, 0.201814f, 0.163191f, -0.018307f, -0.175744f, 0.059319f, 0.195017f, -0.044332f, -0.302839f, -0.172786f, 0.088637f, 0.089878f, -0.128411f, 0.000850f, -0.041707f, 0.105788f, -0.099130f, 0.149352f, 0.008808f, -0.108776f, 0.226113f, -0.506388f, 0.075113f, -0.213787f, -0.000350f, -0.161656f, 0.031718f, -0.173220f, -0.091179f, -0.218015f, 0.000829f, -0.061931f, -0.136145f, -0.036895f, -0.069174f, 0.016078f, 0.096010f, 0.202070f, -0.058817f, -0.062478f, -0.149874f, 0.127441f, 0.051792f, -0.110224f, -0.089116f, 0.087481f, 0.222123f, -0.004857f, -0.118876f, 0.088660f, -0.146679f, -0.069608f, -0.078760f, -0.148266f, 0.083928f, -0.123463f, -0.014453f, 0.012254f, -0.036134f, 0.225732f, 0.046670f, 0.079812f, -0.046878f, -0.189425f, 0.210853f, -0.019915f, 0.070742f, 0.312016f, -0.070591f, -0.033424f, -0.088257f, 0.109828f, 0.191552f, -0.085160f, -0.094938f, -0.139373f, 0.172028f, 0.180160f, 0.076740f, 0.135315f, -0.105093f, -0.147100f, -0.080218f, 0.081819f, -0.011962f, 0.127572f, 0.158469f, -0.127974f, 0.159511f, -0.064437f, -0.118447f, -0.080528f, -0.075898f, -0.155582f, -0.200693f, -0.139715f, -0.109941f, -0.123631f, -0.302998f, 0.075236f, 0.221074f, -0.157196f, -0.042402f, 0.189762f, -0.192931f, -0.025528f, 0.150959f, -0.078305f, 0.133625f, 0.057836f, -0.025212f, 0.171747f, -0.122508f, 0.108586f, -0.210225f, 0.007079f, -0.046419f, -0.060338f, 0.049404f, 0.174843f, -0.080880f, -0.164799f, 0.203863f, -0.159451f, 0.142977f, -0.137995f, 0.198810f, -0.167076f, -0.049364f, 0.055981f, -0.154915f, -0.106487f, 0.007165f, -0.083915f, -0.105726f, 0.074081f, -0.022426f, 0.146733f, -0.118182f, 0.013800f, 0.113320f, 0.181783f, 0.017776f, 0.008923f, 0.165571f, -0.033101f, -0.022376f, 0.179590f, -0.002708f, -0.141032f, 0.178167f, 0.050956f, -0.022100f, 0.160581f, -0.181423f, 0.169911f, -0.154985f, -0.161179f, 0.166028f, -0.008279f, -0.141966f, 0.181200f, -0.061914f, 0.161060f, 0.008949f, -0.020946f, 0.041679f, 0.153008f, 0.180642f, 0.051509f, -0.056766f, 0.137267f, 0.175292f, 0.015361f, 0.083799f, 0.132978f, 0.033231f, 0.052218f, -0.042499f, 0.045840f, -0.097636f, -0.142821f, -0.092756f, 0.018344f, -0.126837f, 0.085477f, -0.044165f, 0.009902f, -0.078625f, -0.150339f, 0.126813f, -0.107152f, -0.016579f, 0.035196f, 0.084920f, -0.031930f, -0.081695f, 0.134255f, 0.078712f, -0.094673f, 0.100779f, 0.007583f, -0.041693f, -0.151271f, -0.117108f, -0.120300f, 0.091286f, 0.088720f, -0.004650f, -0.159315f, -0.124202f, 0.140957f, 0.144001f, -0.040818f, -0.121333f, 0.017499f, -0.054602f, -0.180522f, 0.085031f, 0.056998f, 0.030439f, 0.109022f, 0.113556f, -0.157618f, -0.185828f, -0.036731f, 0.127794f, 0.104074f, -0.093325f, 0.085357f, 0.026663f, -0.084021f, 0.075804f, -0.032183f, -0.059526f, -0.139556f, 0.017529f, -0.019409f, 0.051738f, -0.185041f, -0.035703f, -0.159594f, -0.072408f, -0.155457f, 0.014207f, 0.157469f, 0.133140f, -0.005702f, -0.056671f, -0.187117f, 0.054334f, -0.066802f, -0.040953f, 0.045765f, -0.120254f, 0.023325f, -0.018800f, -0.046104f, 0.122942f, 0.086949f, -0.128449f, 0.155183f, -0.187140f, -0.096065f, -0.136353f, -0.059603f, -0.132941f, -0.082239f, -0.037402f, -0.010000f, -0.086560f, -0.161576f, 0.015236f, 0.050475f, 0.058594f, -0.171002f, -0.146095f, 0.064896f, -0.150172f, -0.168234f, -0.018153f, -0.051311f, 0.068242f, -0.172717f, -0.103290f, -0.080616f, -0.065924f, -0.184882f, 0.020080f, -0.183083f, -0.074925f, 0.152469f, -0.128454f, 0.054147f, -0.016336f, 0.159660f, -0.016868f, -0.111722f, 0.182562f, 0.084330f, -0.139143f, 0.010429f, -0.073012f, 0.145195f, -0.125452f, 0.054039f, 0.169304f, 0.153468f, 0.150477f, 0.061465f, -0.073360f, -0.160970f, -0.123189f, 0.147907f, 0.077259f, -0.144494f, 0.176218f, 0.003326f, -0.123312f, -0.007663f, -0.033333f, -0.107824f, 0.050083f, 0.009804f, -0.085993f, 0.113760f, 0.014918f, -0.060328f, -0.128569f, -0.000938f, -0.131286f, 0.156143f, -0.002918f, 0.155074f, -0.067483f, -0.014884f, 0.007246f, 0.149675f, -0.140165f, -0.034643f, -0.156126f, 0.156024f, 0.118938f, -0.037759f, 0.060805f, 0.017770f, 0.042000f, 0.131292f, 0.101838f, -0.166855f, -0.031873f, 0.073292f, -0.053822f, -0.149013f, -0.176867f, 0.033691f, -0.111146f, -0.080807f, -0.037103f, 0.102541f, 0.179325f, 0.210910f, -0.056838f, -0.083357f, 0.014568f, 0.006463f, -0.090537f, 0.214722f, 0.113235f, -0.114110f, -0.022976f, -0.172368f, 0.070495f, 0.026025f, -0.117009f, -0.177908f, -0.109860f, -0.002755f, -0.129564f, -0.001159f, -0.139514f, -0.075195f, 0.094419f, -0.047620f, 0.078294f, 0.124044f, -0.100615f, 0.184966f, -0.127169f, 0.034727f, -0.067326f, -0.001467f, 0.094550f, 0.106214f, -0.063881f, -0.000256f, -0.111392f, 0.106592f, 0.177933f, 0.062129f, 0.029683f, -0.127715f, -0.019839f, -0.044388f, -0.180011f, 0.139136f, 0.127225f, 0.015312f, -0.176199f, 0.132936f, -0.120046f, -0.025353f, -0.049589f, -0.231069f, -0.019089f, -0.061847f, 0.132166f, -0.097363f, 0.161681f, -0.058887f, 0.120089f, 0.163099f, 0.136375f, -0.163729f, 0.193882f, -0.109338f, -0.243414f, -0.123189f, 0.081514f, 0.155239f, 0.194270f, -0.057277f, 0.104375f, -0.181814f, -0.154989f, -0.142701f, 0.131928f, 0.063613f, -0.167473f, 0.060680f, 0.178005f, -0.145072f, 0.027278f, -0.039441f, -0.138845f, -0.022678f, -0.026720f, 0.125384f, 0.005747f, 0.122321f, 0.046696f, 0.069836f, 0.163726f, -0.196376f, -0.101731f, -0.218321f, -0.257249f, -0.188396f, -0.018140f, 0.035249f, -0.058568f, -0.052861f, 0.027692f, -0.290879f, -0.110687f, 0.404819f, 0.126998f, 0.099511f, 0.100530f, -0.015932f, -0.044849f, -0.084390f, 0.104170f, 0.177745f, 0.025517f, 0.121741f, -0.187577f, -0.078233f, -0.120952f, 0.157936f, -0.192215f, 0.077306f, -0.150235f, 0.271631f, 0.065303f, 0.292454f, 0.033529f, 0.134097f, 0.258094f, -0.201410f, -0.174943f, 0.037465f, -0.146064f, 0.075857f, -0.019568f, -0.024611f, -0.008063f, -0.117122f, -0.148936f, -0.197853f, -0.251651f, 0.006034f, -0.055177f, 0.104947f, 0.092587f, -0.065872f, -0.078292f, -0.177768f, 0.327836f, 0.032583f, -0.088759f, -0.268252f, 0.050887f, 0.146089f, 0.086074f, 0.306383f, 0.106507f, -0.236141f, 0.277774f, -0.097976f, -0.071258f, -0.201708f, 0.014333f, 0.128223f, 0.039369f, -0.038084f, 0.109358f, 0.225668f, -0.065700f, -0.093422f, 0.157361f, -0.059065f, 0.035078f, 0.047586f, -0.269924f, -0.046124f, 0.151576f, -0.208320f, 0.001728f, 0.073577f, -0.170767f, 0.083256f, 0.207784f, -0.124781f, -0.035938f, -0.151824f, 0.147101f, -0.231080f, -0.099625f, 0.178609f, -0.028809f, -0.033129f, -0.188310f, 0.029923f, -0.281762f, -0.134584f, -0.266803f, 0.023694f, -0.211908f, 0.082978f, -0.003263f, -0.156785f, -0.326244f, 0.186971f, -0.210398f, 0.185444f, 0.318355f, -0.304497f, -0.046433f, -0.193048f, -0.118215f, 0.245241f, 0.150593f, 0.016966f, -0.086053f, 0.014489f, 0.105172f, -0.085946f, -0.166184f, 0.138129f, -0.018656f, 0.077877f, 0.003721f, 0.022076f, -0.224783f, 0.161268f, -0.016852f, 0.111995f, -0.103394f, 0.290173f, -0.055822f, 0.223166f, -0.220680f, 0.017126f, 0.187423f, -0.048861f, 0.052487f, 0.111519f, -0.120601f, -0.213271f, 0.217265f, -0.045454f, -0.182440f, 0.174135f, -0.269303f, -0.074484f, -0.050108f, 0.114373f, 0.186063f, 0.045078f, 0.024012f, -0.000520f, -0.085754f, -0.165837f, 0.000758f, 0.089013f, -0.033707f, -0.170491f, 0.143262f, 0.048456f, -0.224740f, -0.251084f, -0.265934f, -0.240121f, 0.146639f, -0.060046f, -0.222441f, 0.068262f, -0.009287f, 0.406755f, 0.192414f, 0.138887f, 0.076871f, 0.234655f, -0.192028f, -0.052299f, 0.035677f, 0.114044f, -0.145173f, 0.126289f, -0.001216f, 0.024784f, 0.346254f, 0.044624f, -0.032011f, -0.247140f, 0.035623f, -0.284096f, 0.055895f, -0.132585f, -0.081854f, -0.148376f, 0.154927f, -0.141904f, -0.243000f, -0.159993f, 0.230599f, 0.052557f, -0.204045f, 0.163613f, -0.143533f, -0.175737f, 0.183057f, 0.071768f, -0.206599f, -0.131102f, -0.116623f, 0.038605f, 0.167734f, -0.132772f, 0.046115f, -0.305516f, 0.060437f, -0.032836f, -0.050691f, -0.188624f, 0.095763f, 0.191560f, 0.187563f, -0.025156f, -0.204448f, 0.590396f, 0.123729f, -0.088057f, -0.023427f, 0.083690f, -0.041046f, 0.079230f, -0.286061f, -0.257113f, 0.048650f, -0.164950f, -0.119543f, -0.242239f, 0.228103f, 0.262054f, 0.062293f, 0.060977f, -0.005166f, -0.219952f, 0.176441f, -0.235336f, 0.287161f, 0.140085f, 0.063920f, -0.146057f, 0.145688f, -0.037390f, -0.043335f, -0.110718f, -0.334376f, 0.042265f, 0.118976f, 0.309946f, -0.033043f, 0.109093f, -0.195352f, -0.465198f, -0.099961f, 0.120935f, 0.021172f, -0.044271f, -0.141508f, -0.164585f, -0.043520f, 0.035175f, 0.090869f, 0.178225f, -0.383871f, 0.087140f, 0.119330f, 0.045039f, -0.128654f, -0.119166f, -0.492223f, 0.283022f, 0.171309f, -0.024092f, 0.180307f, 0.254989f, 0.001991f, -0.179042f, 0.063055f, 0.156252f, -0.018059f, 0.178406f, -0.359297f, -0.093756f, -0.034045f, -0.099878f, -0.267346f, -0.088361f, 0.058589f, -0.161148f, -0.053514f, 0.009492f, 0.210999f, -0.030689f, 0.077945f, 0.106039f, 0.032924f, -0.142440f, 0.044887f, -0.176753f, -0.032783f, -0.195086f, -0.265399f, -0.180296f, 0.330515f, -0.219254f, 0.084197f, -0.152521f, 0.066549f, 0.024523f, -0.183592f, 0.086538f, 0.001283f, -0.166656f, 0.055997f, -0.191281f, -0.060195f, 0.037028f, -0.096466f, 0.250186f, 0.047513f, -0.221526f, -0.201430f, 0.136112f, -0.044862f, 0.048812f, -0.218189f, 0.107204f, -0.152336f, -0.037202f, -0.199509f, -0.184883f, 0.015521f, 0.126212f, 0.127653f, -0.034151f, -0.033875f, -0.029658f, -0.118060f, 0.131148f, -0.062204f, 0.184550f, 0.239303f, 0.202670f, -0.097326f, -0.177463f, -0.175882f, -0.212163f, 0.249634f, -0.228318f, 0.012106f, 0.000955f, -0.263268f, 0.044721f, -0.052980f, -0.047843f, -0.036516f, -0.203608f, -0.140369f, -0.023082f, 0.094784f, 0.156768f, 0.227414f, -0.036554f, 0.196710f, -0.128884f, 0.214816f, -0.155708f, -0.117769f, -0.013439f, -0.350444f, -0.052149f, -0.157696f, 0.004975f, -0.052599f, -0.072523f, 0.296244f, 0.145658f, -0.115555f, -0.173316f, 0.100674f, 0.111393f, 0.102049f, -0.208559f, -0.174786f, -0.071772f, 0.182260f, 0.060942f, -0.100626f, -0.071764f, 0.155797f, -0.195471f, -0.096724f, -0.223610f, 0.093306f, -0.028759f, -0.298474f, -0.001182f, 0.045518f, -0.076060f, -0.093314f, 0.318251f, -0.079820f, 0.155978f, -0.226874f, 0.020082f, 0.125842f, -0.060308f, -0.025983f, 0.133162f, 0.030067f, -0.197212f, -0.053079f, -0.116384f, -0.123727f, -0.067564f, -0.200727f, 0.141178f, -0.017288f, 0.090714f, 0.146943f, 0.122153f, 0.119834f, -0.043085f, 0.029785f, 0.066684f, -0.049511f, -0.113466f, -0.011107f, -0.054078f, -0.125434f, -0.080825f, -0.055139f, -0.036364f, -0.051143f, -0.181989f, -0.046168f, 0.013908f, -0.239926f, -0.100281f, -0.030229f, -0.093798f, 0.139174f, 0.281653f, 0.030125f, -0.133209f, -0.110820f, 0.144457f, 0.030922f, -0.019749f, -0.102969f, 0.103729f, 0.171927f, -0.078398f, -0.118254f, 0.073415f, -0.050621f, -0.300251f, -0.127458f, -0.128528f, -0.001709f, 0.043280f, -0.061820f, -0.182125f, -0.162250f, 0.073691f, 0.035827f, -0.004014f, 0.205187f, 0.001161f, 0.036117f, -0.167588f, 0.181201f, 0.051918f, 0.110806f, -0.065025f, -0.047487f, 0.047767f, -0.222555f, 0.143573f, 0.054725f, 0.009208f, -0.009063f, 0.044126f, -0.011174f, 0.017171f, 0.147359f, 0.014786f, -0.167505f, 0.001017f, -0.056597f, 0.021448f, 0.180876f, 0.015071f, -0.193004f, -0.135254f, 0.123634f, -0.111810f, 0.092009f, 0.083341f, -0.115289f, -0.076761f, -0.026414f, 0.005165f, -0.202443f, 0.083980f, -0.141805f, 0.070579f, -0.153641f, 0.054762f, -0.054489f, -0.052031f, 0.187293f, 0.195152f, -0.004002f, 0.071213f, 0.193237f, 0.094994f, -0.131236f, -0.049223f, 0.125419f, 0.078946f, -0.106208f, 0.151423f, 0.042392f, -0.076879f, -0.132586f, 0.102692f, -0.024539f, 0.171076f, -0.088407f, -0.157955f, -0.097919f, -0.030381f, -0.138755f, -0.017183f, -0.069360f, 0.196598f, -0.123426f, 0.127180f, -0.124767f, 0.027742f, 0.059287f, 0.013119f, 0.155562f, -0.025511f, 0.056660f, 0.135545f, -0.059281f, 0.019251f, 0.191453f, 0.092456f, 0.073003f, -0.059617f, 0.132274f, 0.141888f, -0.014983f, 0.013683f, 0.059738f, 0.104075f, -0.051863f, -0.067452f, -0.133280f, 0.100056f, 0.091493f, -0.115485f, 0.128883f, -0.101477f, 0.054456f, -0.126213f, 0.053390f, 0.027464f, -0.137716f, 0.069274f, 0.129675f, 0.147238f, -0.004912f, 0.006702f, 0.070922f, 0.151689f, -0.044992f, 0.064018f, 0.062597f, -0.120165f, 0.069965f, 0.115375f, -0.019578f, 0.169329f, 0.011439f, 0.157592f, 0.104735f, -0.036089f, -0.058798f, -0.049439f, -0.039724f, -0.180523f, -0.179969f, -0.039683f, -0.110129f, 0.156330f, 0.160523f, -0.079937f, 0.070152f, -0.051546f, 0.135681f, -0.024234f, 0.163974f, 0.001449f, -0.162954f, -0.132564f, -0.041409f, 0.027805f, 0.007175f, 0.132088f, -0.185294f, -0.142950f, -0.070509f, 0.200060f, -0.186418f, -0.002169f, -0.188830f, 0.015254f, -0.005043f, -0.138125f, 0.035992f, 0.055635f, -0.017633f, 0.111870f, -0.155511f, -0.065177f, -0.007432f, -0.065409f, -0.158408f, -0.144854f, 0.102895f, -0.087228f, 0.061405f, 0.130363f, -0.088844f, -0.117640f, 0.027543f, 0.124577f, -0.035330f, 0.127020f, 0.180457f, 0.054505f, 0.148042f, -0.153371f, -0.045490f, 0.137415f, 0.086301f, -0.151095f, -0.100673f, -0.063245f, 0.047533f, 0.073978f, -0.006382f, -0.177645f, 0.139995f, 0.139626f, -0.063125f, 0.110676f, 0.008234f, 0.013696f, 0.163140f, -0.184801f, -0.034814f, -0.099283f, -0.011908f, 0.000482f, -0.115218f, 0.026298f, -0.027190f, 0.163813f, 0.164397f, -0.041203f, 0.094772f, 0.034132f, -0.048142f, -0.089186f, 0.160577f, -0.116736f, 0.107708f, 0.095462f, -0.109626f, -0.047730f, -0.019496f, -0.010389f, 0.035263f, -0.056430f, 0.031355f, -0.036562f, 0.169558f, 0.072228f, -0.009750f, 0.034484f, -0.149322f, -0.092215f, 0.076760f, 0.154005f, -0.069805f, 0.182808f, -0.055525f, -0.017350f, 0.175963f, 0.123419f, 0.010251f, 0.181336f, 0.174964f, -0.129056f, 0.107594f, -0.086031f, -0.073875f, -0.006596f, -0.005080f, -0.136992f, 0.111311f, -0.175507f, 0.173173f, -0.087868f, 0.077187f, 0.013162f, 0.127386f, -0.117897f, -0.176482f, -0.123722f, 0.067925f, 0.117779f, -0.128841f, 0.031027f, -0.167666f, 0.121272f, -0.204083f, -0.187700f, 0.089893f, -0.118475f, -0.087332f, 0.103018f, -0.012348f, -0.214077f, -0.030554f, 0.020539f, -0.016006f, -0.193752f, -0.263477f, -0.113382f, 0.088931f, 0.019837f, -0.055534f, -0.192882f, -0.052949f, 0.147837f, -0.096867f, 0.061514f, -0.060353f, 0.114506f, -0.133300f, -0.095648f, 0.092584f, -0.211325f, -0.088198f, -0.018753f, 0.033512f, -0.086863f, -0.154832f, 0.118331f, 0.199261f, -0.149835f, 0.073851f, 0.172288f, -0.044667f, -0.066676f, -0.111027f, -0.125430f, -0.011979f, -0.206081f, -0.011238f, 0.018423f, 0.071003f, -0.004394f, -0.061857f, 0.154761f, -0.033810f, -0.059036f, -0.120603f, 0.116501f, 0.046936f, -0.207321f, -0.144984f, 0.071711f, -0.182394f, 0.039822f, -0.152837f, 0.108509f, -0.061954f, -0.069253f, -0.009709f, -0.219086f, 0.102415f, -0.143375f, 0.046396f, -0.025777f, 0.000755f, 0.127760f, 0.003821f, 0.121017f, -0.001952f, 0.018002f, 0.004249f, 0.062854f, -0.074908f, -0.201624f, -0.096846f, -0.095353f, -0.176454f, -0.007606f, 0.010527f, 0.147920f, 0.134845f, 0.371328f, -0.013098f, -0.127660f, 0.205626f, -0.126613f, -0.089063f, 0.041085f, -0.040771f, -0.147372f, -0.175033f, 0.069127f, -0.006363f, -0.077198f, -0.106312f, -0.177089f, -0.103257f, -0.023523f, -0.141496f, 0.054653f, -0.065221f, -0.167265f, -0.069553f, -0.109780f, -0.157395f, 0.215375f, 0.047684f, -0.244693f, -0.083543f, -0.189259f, -0.115630f, -0.197610f, -0.081102f, -0.169944f, -0.006235f, -0.091604f, -0.285849f, -0.088216f, -0.253574f, -0.080823f, -0.164729f, 0.033725f, -0.165873f, -0.021815f, -0.056365f, -0.140533f, -0.087888f, -0.075047f, -0.251734f, -0.069044f, -0.098287f, -0.188443f, -0.070527f, 0.408855f, -0.281641f, 0.259527f, -0.123673f, 0.018014f, -0.068612f, -0.069583f, 0.031141f, 0.056003f, -0.092390f, 0.112748f, -0.251850f, -0.128446f, 0.016085f, -0.027551f, 0.260240f, -0.198666f, 0.004189f, -0.012001f, -0.150907f, -0.047273f, -0.147521f, -0.248448f, -0.207542f, -0.063230f, -0.072899f, -0.208440f, -0.229761f, -0.039275f, 0.086650f, -0.184046f, -0.009291f, 0.048666f, -0.264104f, -0.012761f, 0.454740f, 0.186259f, 0.308425f, -0.097419f, 0.190790f, 0.034930f, 0.296089f, 0.166819f, -0.088799f, 0.035732f, -0.017406f, -0.337519f, -0.120236f, -0.041844f, -0.169151f, -0.279161f, -0.031273f, 0.046865f, 0.112615f, 0.277734f, 0.113323f, 0.138361f, 0.089066f, -0.116277f, 0.081619f, -0.095765f, 0.073914f, 0.146878f, 0.141639f, 0.206898f, -0.111503f, 0.487155f, -0.148738f, -0.151929f, -0.471108f, -0.006837f, -0.031698f, -0.151081f, -0.028544f, -0.187248f, 0.268294f, 0.067340f, -0.175555f, 0.161855f, 0.156212f, -0.198998f, -0.097269f, -0.032984f, 0.015135f, -0.440153f, -0.135401f, -0.007045f, 0.081859f, 0.108551f, -0.110376f, -0.084498f, -0.103409f, -0.210994f, -0.147800f, -0.164045f, -0.201032f, 0.038841f, -0.163394f, 0.089679f, -0.015657f, 0.115158f, -0.083213f, -0.489474f, -0.032469f, 0.115900f, 0.044063f, -0.021986f, -0.041652f, 0.149521f, 0.042452f, 0.583191f, 0.078560f, -0.145797f, 0.187462f, 0.104783f, 0.032873f, 0.138047f, -0.303101f, 0.104214f, 0.621156f, -0.101462f, 0.263805f, 0.159619f, 0.068348f, -0.077043f, -0.051399f, -0.086928f, -0.181457f, -0.089706f, 0.170506f, 0.114481f, -0.079883f, -0.238502f, -0.028578f, -0.205705f, -0.164519f, -0.162894f, -0.221363f, -0.087836f, -0.137300f, -0.178500f, 0.059517f, 0.280850f, -0.053757f, -0.288320f, -0.155116f, -0.327501f, 0.215247f, -0.007096f, 0.164311f, 0.128106f, 0.110057f, -0.229532f, -0.156017f, -0.002947f, -0.057096f, 0.155646f, -0.333051f, -0.007452f, 0.168991f, 0.458826f, -0.093788f, -0.127132f, 0.062340f, -0.177406f, -0.107863f, 0.122934f, -0.133196f, 0.209891f, -0.204845f, 0.108291f, 0.103433f, -0.209232f, -0.029680f, -0.179334f, -0.402175f, 0.250690f, 0.002777f, -0.244173f, 0.033895f, -0.138407f, 0.108850f, -0.051846f, 0.050672f, -0.387197f, -0.234897f, 0.045222f, 0.025599f, 0.313696f, -0.122280f, 0.252244f, -0.363139f, -0.051986f, -0.064388f, 0.160756f, 0.090116f, 0.273774f, 0.147033f, -0.006147f, 0.008316f, -0.253359f, -0.020041f, 0.091052f, -0.207972f, -0.032735f, -0.073635f, -0.176627f, 0.114774f, -0.275962f, 0.079164f, 0.002409f, -0.188259f, -0.200232f, 0.060648f, -0.116146f, 0.053667f, 0.037284f, 0.141924f, -0.060393f, 0.170713f, 0.108972f, -0.152487f, 0.144831f, -0.134813f, 0.072902f, 0.414002f, -0.109582f, -0.204514f, -0.031902f, -0.018225f, 0.034442f, -0.043191f, -0.006856f, -0.206023f, 0.135899f, 0.168845f, -0.129226f, 0.146660f, -0.064556f, 0.019445f, 0.255427f, -0.310359f, -0.108416f, 0.159377f, -0.175890f, -0.054256f, 0.162622f, -0.032423f, -0.411312f, 0.035654f, -0.053789f, -0.068489f, -0.034872f, 0.024016f, -0.099343f, -0.062713f, 0.162624f, -0.175484f, 0.387095f, -0.212272f, 0.036817f, 0.243630f, 0.094170f, -0.142780f, -0.009756f, 0.092681f, 0.380983f, -0.066253f, -0.189785f, 0.196648f, -0.047981f, -0.280543f, 0.147049f, -0.132275f, -0.067841f, -0.139402f, 0.196097f, -0.033757f, -0.105640f, -0.156719f, 0.085371f, 0.277905f, 0.189046f, -0.039665f, 0.011169f, -0.054016f, -0.175252f, -0.334328f, -0.135721f, -0.016277f, -0.173073f, -0.161485f, 0.049261f, 0.029144f, -0.244610f, 0.031649f, 0.182992f, -0.242572f, -0.122279f, 0.081563f, 0.079605f, -0.741237f, 0.162783f, -0.076217f, 0.398256f, -0.159977f, 0.036516f, -0.186615f, -0.146597f, 0.036022f, 0.117235f, 0.188479f, -0.101496f, -0.003014f, -0.049560f, 0.226634f, -0.199753f, -0.086818f, -0.152220f, 0.129441f, 0.007400f, 0.116904f, 0.004813f, -0.065115f, -0.053250f, 0.499744f, -0.249146f, 0.019686f, -0.002833f, 0.003588f, -0.140082f, -0.009225f, 0.214839f, 0.051564f, 0.030688f, -0.236168f, 0.247660f, -0.144034f, 0.326215f, 0.363632f, -0.065127f, -0.056234f, -0.049006f, 0.065074f, -0.012702f, -0.140295f, 0.281770f, -0.331602f, -0.227145f, 0.005675f, -0.009846f, -0.140516f, -0.129937f, 0.498854f, -0.074076f, -0.208344f, 0.039529f, 0.121874f, 0.211601f, 0.047298f, 0.192909f, -0.116566f, 0.125829f, -0.202284f, 0.039422f, -0.136468f, 0.049078f, 0.231867f, -0.054939f, 0.000582f, -0.107659f, -0.102703f, 0.497399f, -0.267176f, -0.204188f, 0.180117f, -0.156012f, -0.211716f, 0.018889f, -0.230662f, -0.063388f, -0.070523f, 0.357641f, 0.089379f, 0.018682f, -0.104269f, -0.167055f, -0.010585f, -0.010606f, -0.041010f, -0.070112f, -0.141012f, -0.016307f, -0.143159f, 0.145370f, -0.087487f, -0.037220f, 0.054034f, -0.063759f, -0.160569f, -0.098727f, 0.033736f, -0.068627f, -0.016294f, -0.023403f, -0.016606f, 0.192706f, -0.238338f, 0.107198f, -0.147126f, -0.081790f, 0.136235f, 0.052345f, -0.000736f, -0.110364f, -0.200868f, 0.120101f, -0.158013f, -0.171228f, 0.122752f, -0.040439f, -0.237819f, -0.210883f, 0.130507f, -0.071544f, 0.055137f, -0.048136f, 0.094378f, -0.222318f, 0.039951f, 0.050350f, 0.129860f, -0.067144f, 0.145031f, -0.155869f, -0.090310f, 0.147881f, 0.004256f, 0.073578f, -0.121045f, -0.003604f, -0.166410f, 0.069730f, 0.014935f, 0.007815f, 0.089157f, 0.042727f, -0.209063f, 0.172483f, 0.250123f, 0.043845f, 0.178433f, 0.280493f, -0.289327f, -0.009093f, -0.088404f, 0.116018f, 0.078118f, -0.186743f, 0.125791f, -0.043684f, -0.007024f, 0.163787f, 0.002478f, 0.025667f, 0.305066f, -0.070126f, -0.165962f, 0.094085f, 0.004504f, -0.133229f, -0.058939f, 0.135951f, 0.147941f, 0.128338f, 0.179344f, 0.091149f, 0.067405f, 0.128089f, -0.000810f, -0.030303f, -0.130806f, 0.099259f, -0.098825f, -0.084326f, -0.044701f, -0.034026f, -0.118871f, 0.093990f, -0.079695f, -0.023138f, 0.163289f, -0.147252f, -0.045920f, -0.091219f, 0.154434f, 0.123848f, -0.020184f, 0.133051f, 0.005736f, -0.177351f, 0.053328f, 0.050203f, 0.107100f, -0.134681f, 0.166312f, -0.047544f, -0.006979f, -0.039945f, 0.183951f, -0.089287f, 0.129808f, 0.166224f, 0.000093f, 0.002256f, -0.135610f, 0.051646f, 0.055588f, 0.088735f, 0.127042f, 0.187552f, 0.055834f, 0.089140f, 0.109154f, -0.133178f, -0.025912f, -0.068013f, 0.096179f, 0.166108f, -0.140830f, 0.145371f, 0.079178f, 0.030554f, -0.133083f, 0.018563f, 0.161966f, -0.021996f, 0.009260f, 0.140175f, 0.035576f, 0.065789f, -0.113685f, 0.134091f, -0.009679f, 0.042796f, -0.166390f, -0.037718f, -0.085694f, 0.026950f, -0.085372f, 0.017521f, -0.088675f, 0.040792f, -0.054859f, -0.089768f, -0.158071f, 0.089060f, -0.030614f, -0.138931f, -0.151925f, 0.137413f, -0.072095f, 0.010538f, -0.007948f, 0.127866f, 0.001419f, -0.027992f, -0.154232f, -0.075153f, 0.127460f, 0.142843f, -0.117092f, -0.103263f, 0.036791f, 0.157959f, -0.152561f, 0.139095f, -0.175410f, -0.098507f, -0.073964f, 0.157865f, -0.014198f, 0.121933f, -0.165807f, 0.085169f, -0.050605f, 0.164960f, 0.148613f, -0.025343f, 0.011495f, 0.154623f, -0.149139f, -0.120370f, -0.148225f, 0.155651f, -0.169520f, 0.067726f, 0.079759f, 0.142448f, 0.038436f, 0.150228f, 0.159607f, 0.003284f, 0.159842f, -0.025808f, 0.074385f, 0.047613f, 0.151338f, 0.101292f, 0.146038f, -0.117683f, 0.027435f, 0.146824f, 0.054328f, 0.160683f, -0.174499f, 0.005547f, 0.158893f, 0.058062f, -0.066429f, 0.165056f, 0.095633f, 0.018304f, -0.172413f, 0.031140f, -0.017012f, 0.082041f, 0.034313f, 0.081545f, -0.004003f, -0.131090f, -0.140532f, -0.133037f, 0.158095f, -0.020377f, 0.093078f, 0.018188f, 0.168881f, -0.074104f, 0.020438f, 0.166357f, 0.160275f, -0.065258f, -0.103696f, -0.085404f, 0.152316f, -0.048052f, -0.075401f, 0.097724f, 0.148764f, -0.091885f, -0.134124f, 0.097486f, -0.015056f, 0.137229f, -0.175686f, 0.026709f, 0.061234f, 0.063553f, 0.117274f, -0.005961f, -0.183037f, -0.051019f, 0.066541f, 0.086235f, 0.144140f, 0.018728f, -0.100871f, -0.147452f, 0.163582f, -0.024415f, -0.189631f, -0.100088f, -0.042980f, 0.032485f, -0.170794f, -0.008607f, 0.071196f, 0.184017f, -0.109307f, 0.051850f, -0.020319f, 0.075296f, -0.047808f, 0.062761f, 0.074769f, 0.027650f, -0.055771f, 0.073162f, -0.133693f, 0.152112f, -0.065516f, -0.049256f, -0.094986f, 0.037806f, 0.026963f, 0.058344f, -0.026086f, 0.098489f, 0.122548f, -0.141873f, -0.056777f, -0.055242f, -0.153278f, 0.096103f, -0.137926f, -0.000293f, 0.176161f, 0.137418f, 0.073933f, -0.052991f, -0.152207f, 0.077650f, 0.091521f, 0.290891f, -0.084579f, -0.006444f, -0.143931f, 0.047414f, 0.022962f, -0.085957f, -0.118624f, 0.156686f, 0.068523f, -0.080145f, 0.024962f, 0.101275f, -0.063389f, 0.119443f, 0.173704f, -0.064685f, -0.065753f, -0.145018f, 0.215813f, 0.079753f, 0.086977f, 0.012748f, 0.045239f, 0.031821f, -0.066661f, -0.155952f, 0.076201f, 0.141482f, -0.019351f, -0.195855f, -0.152663f, 0.067978f, -0.010737f, 0.201078f, 0.038549f, -0.196871f, -0.017420f, -0.005800f, -0.117936f, 0.163171f, -0.080756f, -0.157833f, 0.091513f, 0.213202f, -0.029033f, -0.108431f, 0.116556f, -0.072529f, -0.381523f, -0.138449f, -0.179321f, -0.179555f, -0.130048f, 0.061736f, -0.063609f, -0.040943f, 0.200027f, 0.094425f, 0.095672f, -0.290667f, 0.096671f, -0.147216f, 0.022474f, -0.018799f, 0.067751f, 0.028783f, -0.027979f, -0.138243f, -0.073702f, 0.108885f, -0.047542f, -0.142317f, -0.283359f, -0.029671f, -0.143405f, 0.136999f, -0.022071f, -0.049819f, 0.057872f, -0.135178f, -0.164106f, -0.059269f, 0.110163f, 0.105803f, 0.019302f, -0.065045f, -0.018072f, 0.128876f, 0.082891f, -0.023978f, -0.136754f, -0.042001f, -0.109634f, 0.248381f, -0.049814f, -0.023076f, -0.172078f, 0.142018f, -0.147020f, -0.045600f, -0.068777f, -0.378004f, -0.028745f, 0.198025f, -0.037279f, 0.663515f, 0.182217f, -0.311522f, -0.198991f, -0.220512f, -0.027034f, -0.202315f, -0.092913f, 0.120446f, 0.170021f, -0.082339f, -0.184485f, -0.126133f, -0.085118f, -0.182477f, -0.119815f, 0.076214f, -0.115614f, 0.170474f, 0.033225f, -0.211867f, -0.001506f, -0.259499f, -0.125337f, -0.123043f, 0.016126f, -0.165979f, -0.093839f, -0.136365f, 0.037598f, 0.020529f, -0.169393f, 0.326084f, -0.028088f, 0.149649f, 0.195896f, -0.072329f, -0.178370f, -0.120277f, -0.093372f, 0.135819f, 0.329478f, 0.111776f, 0.337002f, 0.327575f, -0.280944f, 0.121683f, 0.184961f, 0.045887f, -0.300415f, -0.031663f, 0.231329f, -0.060708f, -0.117466f, -0.317581f, -0.014146f, -0.512173f, 0.015049f, -0.050983f, -0.120829f, -0.114414f, -0.102885f, -0.086667f, 0.198030f, 0.291450f, 0.073588f, 0.054516f, 0.034096f, -0.149117f, -0.122197f, 0.085465f, -0.170701f, -0.106234f, -0.023135f, -0.159516f, -0.155625f, -0.039265f, -0.152106f, -0.006139f, -0.029310f, -0.055883f, -0.119078f, 0.127392f, -0.100447f, 0.009966f, 0.034035f, -0.138557f, -0.047441f, -0.213308f, -0.060460f, 0.063842f, -0.006076f, 0.293841f, -0.052373f, 0.504237f, -0.043384f, -0.113952f, -0.393491f, -0.284015f, -0.140032f, -0.424365f, 0.136214f, -0.338463f, -0.068447f, 0.125246f, -0.079257f, -0.110934f, -0.061846f, -0.021167f, -0.080287f, -0.136735f, -0.146668f, 0.041530f, -0.236102f, 0.148163f, -0.145259f, 0.156503f, -0.096495f, 0.235721f, 0.110784f, 0.143137f, -0.078073f, 0.049735f, -0.047201f, 0.014663f, -0.229290f, -0.125457f, 0.033631f, -0.045469f, -0.202420f, -0.167727f, 0.065840f, 0.252278f, -0.013934f, 0.337002f, -0.140983f, 0.208915f, -0.076994f, 0.098124f, -0.232970f, -0.138859f, 0.575033f, -0.180942f, 0.011917f, -0.111487f, -0.160059f, 0.129027f, 0.344293f, -0.162046f, 0.139272f, -0.100018f, -0.005323f, 0.176674f, -0.133663f, -0.039364f, 0.106681f, -0.080451f, 0.145123f, 0.038685f, 0.080900f, 0.054031f, 0.070120f, -0.333039f, 0.170309f, 0.008876f, 0.031707f, 0.116974f, -0.198196f, 0.057800f, 0.196560f, -0.063310f, -0.173453f, -0.204264f, -0.297667f, 0.136883f, -0.191794f, -0.057599f, -0.083992f, -0.179590f, 0.192578f, -0.231801f, 0.061629f, -0.176624f, 0.133424f, -0.148673f, -0.051247f, 0.000763f, -0.179087f, 0.577710f, -0.292128f, -0.062394f, 0.219759f, -0.102166f, 0.162010f, -0.244650f, 0.062759f, -0.188685f, -0.018889f, 0.243864f, -0.227812f, -0.018200f, 0.036646f, 0.027588f, -0.460826f, 0.210019f, 0.224742f, -0.368571f, 0.187214f, -0.241009f, -0.088523f, -0.035594f, 0.013655f, 0.094880f, -0.224866f, -0.020312f, -0.110546f, 0.043241f, 0.121609f, 0.313365f, -0.352087f, -0.004312f, -0.031799f, 0.058305f, 0.028322f, 0.338702f, 0.045808f, 0.339260f, -0.060814f, -0.149256f, -0.141915f, -0.049188f, -0.213823f, -0.138577f, 0.028602f, 0.043357f, -0.100690f, 0.162326f, 0.331470f, 0.184652f, -0.103438f, -0.141387f, 0.330048f, -0.459663f, 0.243765f, 0.445759f, -0.152786f, -0.085029f, -0.159089f, -0.239988f, -0.046760f, -0.038296f, -0.267074f, -0.108968f, 0.100811f, -0.100595f, 0.017417f, -0.073203f, -0.088820f, 0.345370f, 0.099961f, 0.153432f, -0.355108f, -0.109210f, 0.188852f, -0.185992f, -0.125564f, 0.066981f, -0.150805f, -0.129539f, 0.314272f, -0.028787f, -0.127928f, 0.143872f, -0.138335f, 0.154129f, -0.249083f, -0.298101f, 0.007033f, -0.203835f, -0.157281f, 0.196541f, -0.380817f, -0.061638f, 0.161149f, -0.251835f, 0.097720f, 0.134867f, -0.016837f, -0.008855f, 0.170822f, -0.024561f, -0.182061f, -0.022999f, 0.026251f, 0.310221f, -0.071158f, -0.058400f, 0.108046f, -0.176955f, -0.140042f, 0.069963f, -0.307307f, -0.052654f, -0.168940f, -0.089929f, -0.177291f, 0.092787f, -0.005380f, -0.080262f, 0.119541f, -0.021596f, 0.045268f, -0.279546f, -0.228773f, -0.102568f, -0.038517f, -0.066560f, 0.034300f, 0.154880f, 0.059228f, 0.012982f, -0.169633f, -0.351583f, -0.138381f, -0.171861f, -0.148874f, -0.246388f, 0.035515f, 0.358577f, -0.120580f, -0.090899f, -0.149384f, 0.044632f, 0.179819f, 0.017467f, 0.031152f, -0.249202f, -0.060689f, -0.047944f, -0.180646f, -0.007963f, 0.171477f, -0.222519f, 0.197519f, 0.080343f, 0.201083f, -0.132414f, -0.248670f, -0.178003f, -0.008621f, 0.138115f, -0.008951f, -0.124641f, 0.010676f, -0.126032f, -0.060650f, 0.112779f, -0.190934f, 0.085371f, 0.378862f, 0.261149f, 0.303681f, -0.003667f, 0.082390f, 0.232081f, -0.093521f, 0.251412f, -0.019437f, -0.341939f, -0.032861f, -0.184428f, 0.041689f, -0.119083f, 0.215667f, -0.109817f, -0.187958f, 0.101127f, 0.044920f, 0.147996f, -0.243503f, 0.007763f, 0.029482f, -0.032899f, 0.054280f, -0.128710f, 0.201050f, 0.039219f, 0.153780f, 0.077404f, 0.175976f, 0.040021f, -0.333177f, 0.097778f, -0.376491f, -0.074644f, 0.066355f, -0.002142f, -0.165543f, 0.011583f, -0.082547f, 0.346464f, -0.247135f, 0.149982f, 0.117306f, -0.185897f, -0.158972f, 0.085267f, -0.281023f, 0.156151f, -0.085357f, 0.171713f, 0.045017f, 0.002692f, -0.090840f, 0.057574f, -0.333506f, 0.070108f, 0.154448f, -0.058296f, -0.085896f, 0.194104f, 0.076349f, -0.053024f, 0.111958f, 0.056969f, -0.188848f, 0.023880f, -0.082855f, -0.118307f, -0.146306f, 0.123363f, -0.137970f, -0.150258f, -0.015060f, -0.054087f, -0.204458f, 0.089010f, -0.014371f, -0.216053f, 0.071502f, 0.073550f, -0.193241f, -0.102954f, -0.137577f, -0.065798f, -0.177374f, 0.007466f, 0.365792f, -0.114814f, 0.264897f, -0.125502f, -0.101253f, -0.367004f, 0.160656f, 0.114510f, -0.028975f, -0.033494f, -0.017954f, 0.040684f, -0.140364f, -0.086002f, 0.119191f, -0.031448f, -0.168137f, -0.168688f, -0.026217f, 0.111331f, -0.249909f, 0.415080f, 0.136991f, 0.122522f, 0.036450f, 0.159121f, 0.219888f, -0.096740f, 0.055828f, -0.146122f, -0.020540f, 0.129096f, 0.062495f, 0.059948f, -0.179654f, -0.118617f, 0.158552f, -0.021995f, 0.068962f, 0.141338f, 0.233740f, 0.040217f, 0.092816f, 0.063535f, 0.294405f, -0.074259f, 0.331523f, 0.322503f, -0.041877f, 0.025056f, -0.345619f, -0.115408f, 0.005317f, 0.156563f, -0.213254f, -0.068194f, -0.063166f, -0.112951f, -0.093442f, -0.111581f, -0.310066f, -0.129228f, 0.070471f, -0.119942f, 0.028105f, -0.086501f, -0.005302f, -0.134860f, -0.056176f, 0.291349f, -0.023762f, 0.255282f, -0.031583f, 0.042033f, -0.278002f, -0.114896f, 0.071565f, -0.153690f, 0.096591f, 0.144909f, 0.135411f, -0.089056f, 0.142423f, -0.086966f, 0.107005f, -0.046328f, -0.175535f, -0.143525f, -0.146043f, 0.114773f, -0.108207f, 0.128893f, -0.006337f, -0.088421f, -0.159234f, 0.143938f, -0.152524f, -0.128164f, -0.081310f, 0.105612f, 0.089656f, 0.093483f, -0.079078f, 0.026745f, -0.156723f, -0.116767f, -0.184117f, 0.164297f, 0.184500f, -0.049111f, 0.163936f, -0.104537f, 0.007995f, 0.015286f, -0.186695f, -0.132968f, 0.143632f, 0.137975f, -0.158612f, 0.029450f, -0.064672f, -0.041210f, -0.151806f, 0.113294f, 0.129026f, -0.038556f, -0.019556f, -0.122826f, 0.100433f, 0.076866f, -0.147399f, 0.060419f, 0.019145f, 0.064490f, 0.117249f, 0.068562f, -0.104209f, -0.064976f, 0.065946f, -0.045912f, -0.106336f, 0.036722f, 0.152627f, -0.137909f, -0.141258f, -0.128607f, -0.111563f, 0.175058f, 0.005460f, -0.133924f, -0.160559f, 0.175546f, -0.015963f, -0.121259f, 0.131475f, 0.126110f, 0.058375f, 0.035567f, 0.171744f, 0.069716f, -0.110114f, -0.167398f, 0.022548f, 0.091265f, 0.145930f, 0.039107f, -0.064308f, 0.174259f, -0.157862f, 0.158525f, -0.046387f, 0.124634f, 0.182916f, -0.140539f, 0.148163f, -0.106240f, -0.070047f, 0.047126f, 0.052929f, 0.077866f, 0.077937f, -0.086582f, 0.108827f, -0.048619f, -0.038155f, -0.184257f, 0.179849f, -0.003777f, -0.003148f, -0.123558f, 0.142636f, -0.074239f, -0.144342f, -0.148343f, 0.109947f, -0.120156f, -0.000517f, 0.042885f, 0.149748f, 0.161127f, -0.158580f, 0.186970f, -0.046184f, 0.124239f, -0.187440f, -0.163919f, -0.089647f, 0.068469f, -0.036452f, 0.109861f, -0.096762f, -0.103554f, 0.115886f, -0.105437f, 0.141844f, 0.036022f, -0.101146f, 0.121680f, 0.129547f, -0.030265f, 0.040020f, 0.053004f, -0.078055f, 0.092343f, 0.023481f, -0.037028f, -0.168392f, -0.183808f, -0.155954f, 0.145226f, -0.152778f, -0.008574f, 0.161498f, -0.013284f, -0.126843f, 0.181037f, -0.150678f, -0.034878f, 0.148607f, -0.036339f, -0.042955f, 0.015855f, 0.010017f, 0.163939f, -0.037460f, 0.019859f, -0.167452f, -0.041822f, -0.133274f, -0.031753f, -0.127028f, -0.051334f, 0.015727f, 0.002835f, -0.174726f, 0.041537f, 0.000040f, 0.007667f, 0.141728f, -0.034794f, -0.187625f, -0.097691f, -0.023071f, -0.147052f, 0.039734f, -0.094690f, -0.100178f, -0.099808f, 0.112554f, -0.069278f, -0.073708f, -0.161509f, 0.093399f, 0.041574f, 0.176497f, -0.145434f, 0.012871f, -0.033826f, 0.076109f, 0.071432f, -0.117018f, 0.085800f, 0.081606f, 0.155880f, -0.112359f, 0.143928f, -0.184560f, 0.136597f, -0.050998f, -0.006267f, 0.140715f, 0.040720f, 0.072486f, 0.047819f, -0.025703f, 0.324549f, 0.016844f, -0.040990f, 0.187723f, -0.189212f, -0.024516f, 0.066556f, 0.000667f, 0.069420f, 0.341902f, -0.055993f, 0.307272f, 0.014507f, -0.119377f, -0.288516f, 0.169154f, 0.128190f, 0.068173f, -0.050931f, -0.068923f, -0.051447f, 0.072440f, -0.097767f, 0.059281f, 0.030259f, 0.043251f, -0.021702f, 0.119720f, 0.004666f, 0.006216f, -0.026770f, 0.049215f, -0.151016f, 0.017301f, 0.141056f, 0.028854f, -0.209245f, 0.147904f, 0.110450f, -0.042017f, -0.018032f, 0.000031f, -0.070545f, -0.126344f, 0.278181f, 0.008369f, 0.075783f, 0.042010f, -0.201392f, -0.009794f, -0.035788f, -0.083821f, 0.087443f, -0.132199f, -0.124951f, -0.075507f, -0.110895f, 0.272420f, -0.117479f, -0.114293f, 0.039855f, -0.087634f, -0.011438f, -0.183919f, 0.338246f, -0.145676f, 0.033986f, -0.227247f, -0.257665f, 0.198851f, 0.155293f, 0.143907f, -0.110944f, -0.237442f, -0.160392f, -0.093171f, -0.091290f, -0.063114f, -0.066753f, 0.006843f, -0.032654f, 0.117162f, -0.196245f, -0.158578f, -0.006413f, 0.020550f, 0.041841f, 0.010104f, 0.090661f, 0.143029f, -0.092942f, 0.013041f, 0.244017f, -0.084702f, 0.088207f, -0.157846f, 0.112972f, -0.029328f, 0.088042f, 0.027068f, -0.111216f, 0.015258f, -0.105081f, -0.006721f, 0.094726f, -0.143600f, 0.344271f, -0.091908f, -0.048937f, -0.112808f, -0.116065f, -0.146641f, -0.096286f, -0.135560f, -0.020244f, 0.189020f, 0.212117f, 0.123599f, -0.264491f, -0.111236f, -0.066158f, -0.054923f, -0.120613f, 0.064940f, -0.177656f, -0.209441f, -0.160700f, -0.092032f, -0.031360f, 0.250935f, 0.308933f, 0.122289f, -0.281157f, -0.036033f, 0.266044f, -0.312708f, -0.037255f, -0.067433f, 0.181299f, 0.032975f, 0.090414f, 0.036885f, -0.082469f, -0.011070f, 0.282040f, -0.189884f, 0.037730f, 0.135779f, 0.035382f, 0.317669f, 0.335775f, 0.009516f, -0.017333f, 0.052467f, 0.077924f, 0.025976f, -0.126837f, 0.181161f, -0.125372f, -0.007558f, -0.172563f, -0.144609f, -0.202998f, 0.338295f, -0.161494f, -0.224348f, 0.017646f, 0.044211f, -0.147348f, -0.185493f, 0.193927f, -0.074289f, 0.252975f, -0.034242f, -0.326206f, 0.267118f, 0.169300f, 0.192424f, -0.108578f, 0.011355f, -0.014838f, -0.175882f, -0.162108f, -0.331144f, 0.004116f, -0.147626f, -0.044601f, -0.190367f, 0.105238f, -0.152933f, 0.036889f, -0.118582f, 0.076469f, 0.094684f, -0.355885f, -0.178834f, -0.073847f, 0.082045f, 0.252957f, 0.088996f, 0.404404f, -0.232754f, -0.035186f, -0.310672f, 0.034515f, 0.120888f, -0.052405f, 0.168592f, -0.303202f, -0.095998f, -0.035197f, -0.102272f, -0.209967f, -0.235759f, 0.206840f, 0.036696f, -0.173069f, -0.076684f, -0.060582f, -0.058210f, 0.153697f, 0.003404f, 0.252521f, -0.001231f, 0.169801f, -0.116322f, -0.007005f, 0.057384f, 0.027810f, -0.256523f, -0.011818f, -0.208185f, -0.063233f, -0.091681f, 0.166368f, -0.176675f, 0.080647f, 0.184981f, 0.146548f, 0.035713f, 0.412391f, -0.167796f, 0.278947f, 0.015120f, -0.171860f, -0.076829f, -0.189245f, 0.201778f, 0.022062f, -0.091525f, 0.069710f, -0.139532f, -0.124593f, -0.006299f, -0.127997f, 0.125841f, -0.067399f, -0.137334f, 0.381215f, 0.188720f, -0.125776f, 0.219241f, 0.078950f, -0.164193f, 0.004476f, -0.139013f, -0.017113f, -0.103650f, -0.037136f, 0.220782f, -0.069315f, -0.143490f, 0.397230f, -0.358936f, -0.221527f, 0.034083f, 0.033123f, 0.116455f, -0.000590f, -0.221917f, 0.356475f, 0.053846f, 0.141796f, 0.132428f, 0.060363f, 0.091275f, 0.036437f, -0.110058f, -0.068580f, 0.057396f, -0.168908f, -0.091390f, -0.215069f, 0.069836f, 0.195147f, -0.159561f, -0.037883f, -0.105421f, -0.115870f, -0.037055f, -0.290558f, -0.095656f, -0.051972f, 0.083517f, 0.201836f, -0.136145f, 0.175342f, -0.162563f, -0.037993f, -0.049385f, -0.031265f, -0.084730f, -0.115307f, -0.031382f, -0.160409f, 0.146399f, 0.105514f, -0.011464f, -0.072209f, 0.090612f, -0.026088f, -0.027131f, -0.157331f, -0.077163f, 0.175078f, -0.383105f, 0.199462f, 0.215141f, 0.078917f, 0.139893f, 0.537195f, 0.100719f, -0.061346f, 0.165940f, -0.148624f, -0.069657f, 0.009344f, -0.114250f, 0.000066f, -0.015517f, -0.098538f, 0.282445f, 0.175838f, -0.018121f, -0.047341f, -0.006996f, 0.124108f, 0.128721f, -0.031796f, 0.009609f, 0.136963f, -0.046327f, -0.180704f, 0.076439f, 0.019738f, -0.064153f, -0.040605f, -0.231662f, -0.097792f, 0.173615f, 0.112733f, -0.475748f, -0.045275f, -0.070737f, 0.214065f, 0.222689f, 0.062330f, -0.051212f, 0.049282f, -0.105907f, 0.067396f, -0.180769f, -0.100682f, -0.195564f, 0.177532f, 0.253778f, 0.054119f, -0.153814f, 0.079008f, -0.184953f, -0.021842f, -0.226713f, -0.123819f, -0.079953f, -0.008277f, -0.333498f, 0.035221f, 0.007370f, 0.068140f, -0.097380f, -0.141125f, 0.210091f, 0.253506f, -0.062636f, -0.116137f, 0.227950f, -0.122467f, -0.128398f, 0.041881f, -0.162531f, -0.123250f, 0.075326f, -0.202508f, -0.047136f, -0.054786f, -0.017902f, 0.035088f, 0.067091f, -0.110614f, 0.156718f, 0.236851f, -0.076667f, -0.003604f, 0.033301f, 0.051721f, 0.400347f, 0.019591f, 0.012918f, -0.225436f, -0.251953f, -0.077995f, 0.235096f, -0.142182f, -0.158706f, 0.317425f, 0.139840f, 0.060953f, 0.119661f, 0.062231f, -0.087653f, 0.178268f, -0.165506f, -0.005929f, 0.093109f, 0.243303f, 0.381677f, 0.199668f, 0.019877f, -0.110967f, -0.100077f, -0.063237f, -0.230387f, 0.093644f, -0.160005f, 0.008694f, -0.166738f, -0.277730f, 0.071353f, 0.162002f, -0.134571f, 0.227893f, -0.197750f, -0.262102f, -0.078876f, -0.030852f, -0.111784f, 0.302932f, -0.091787f, -0.067677f, -0.253204f, -0.087273f, -0.211328f, 0.169366f, -0.237152f, -0.011852f, -0.051413f, 0.205139f, -0.132762f, 0.541811f, -0.074956f, 0.018261f, -0.167174f, 0.122922f, 0.077065f, -0.219562f, 0.092913f, -0.036795f, 0.165523f, -0.227592f, -0.052768f, -0.361934f, -0.222128f, -0.224641f, -0.140953f, 0.060130f, 0.032188f, 0.109062f, -0.171970f, 0.196942f, 0.016934f, -0.107036f, -0.022243f, -0.086991f, -0.048304f, -0.042275f, 0.067801f, -0.158943f, 0.147711f, 0.294432f, -0.227463f, -0.133780f, -0.167203f, 0.024339f, -0.106932f, -0.154819f, 0.047055f, -0.004191f, -0.168566f, 0.132822f, -0.155334f, -0.042026f, -0.073035f, -0.079849f, 0.143059f, 0.122227f, -0.024622f, 0.233727f, 0.086352f, -0.030074f, 0.013506f, 0.000318f, -0.045480f, 0.013159f, 0.186933f, 0.144766f, 0.012635f, 0.043091f, -0.072713f, -0.202598f, 0.165596f, 0.558066f, 0.000799f, 0.100372f, 0.044851f, -0.079370f, 0.141857f, -0.115641f, -0.007577f, 0.010767f, 0.053537f, 0.084807f, 0.052416f, 0.169936f, 0.054035f, 0.063955f, -0.156687f, 0.115128f, -0.074414f, 0.060395f, 0.146725f, -0.182266f, 0.108659f, -0.069938f, 0.099194f, 0.081838f, 0.132749f, 0.091512f, -0.144423f, 0.005848f, -0.048863f, 0.130373f, -0.136410f, 0.178275f, -0.146887f, -0.056949f, -0.111382f, 0.093428f, -0.054440f, -0.028731f, 0.022181f, -0.021483f, -0.078912f, 0.178077f, -0.275475f, 0.396791f, -0.080548f, 0.023749f, -0.060275f, -0.142779f, 0.047780f, -0.243884f, 0.178104f, -0.180620f, 0.146112f, -0.061318f, 0.183961f, -0.014546f, -0.040141f, -0.174800f, 0.101014f, -0.038742f, 0.070548f, 0.099567f, -0.024312f, 0.405104f, -0.079153f, -0.110261f, 0.133448f, -0.158556f, -0.099996f, 0.166660f, 0.088130f, -0.002634f, -0.047950f, 0.069533f, -0.117833f, -0.107750f, -0.182187f, -0.110777f, 0.051301f, -0.080646f, -0.011915f, -0.405591f, 0.015615f, -0.152872f, -0.123245f, 0.055717f, 0.060880f, -0.022213f, 0.068611f, -0.072644f, 0.001055f, 0.054810f, -0.152749f, 0.080069f, 0.129813f, -0.138368f, -0.063378f, -0.163635f, -0.028183f, 0.095541f, 0.045254f, 0.177603f, -0.042809f, 0.037660f, -0.089184f, 0.171086f, -0.109719f, -0.087545f, -0.013149f, -0.025833f, 0.100273f, 0.141564f, -0.094786f, -0.013437f, 0.141302f, 0.052399f, 0.132051f, -0.097548f, 0.086244f, -0.156513f, -0.167482f, -0.100174f, -0.110637f, -0.058086f, 0.082518f, -0.127578f, 0.051368f, -0.021007f, -0.149317f, -0.017529f, -0.160926f, 0.123429f, -0.088761f, -0.139135f, 0.122184f, 0.161915f, 0.092218f, -0.185968f, -0.004130f, -0.110483f, -0.151460f, -0.036193f, -0.146562f, -0.154770f, -0.167933f, 0.095279f, -0.037235f, 0.114129f, -0.170044f, -0.002712f, -0.174058f, 0.149010f, -0.098424f, 0.050495f, 0.123367f, -0.081332f, 0.075631f, 0.022265f, 0.015010f, -0.183434f, 0.139364f, -0.169927f, 0.112402f, -0.179369f, -0.183566f, -0.025110f, -0.147969f, -0.039954f, -0.055918f, 0.123249f, 0.013961f, 0.068589f, -0.036909f, -0.141992f, -0.186172f, -0.011491f, 0.073629f, -0.053039f, 0.167234f, -0.083805f, -0.068220f, -0.121283f, 0.113517f, 0.087448f, 0.166176f, -0.003385f, -0.067410f, 0.017225f, -0.155366f, -0.025997f, 0.081337f, 0.106978f, 0.033347f, -0.068975f, 0.149296f, -0.086492f, 0.057676f, 0.055753f, 0.052428f, 0.017977f, 0.087532f, 0.152053f, -0.166913f, 0.102709f, -0.021145f, -0.024465f, 0.086069f, -0.125311f, -0.136256f, 0.071735f, 0.092595f, -0.146499f, 0.111481f, 0.006321f, -0.007464f, 0.100525f, 0.129661f, 0.053369f, 0.085762f, -0.018760f, 0.011606f, 0.066467f, 0.103245f, -0.070634f, -0.163396f, -0.183227f, -0.126179f, -0.125271f, 0.119602f, 0.025207f, 0.047406f, 0.000292f, 0.136063f, -0.183460f, -0.038425f, -0.041959f, -0.166211f, -0.185480f, -0.050229f, -0.124635f, -0.099814f, 0.096235f, -0.135808f, 0.068937f, 0.000678f, -0.025547f, -0.046041f, -0.163825f, 0.158615f, 0.083619f, -0.120284f, -0.087504f, -0.145185f, 0.135349f, -0.183665f, -0.048994f, -0.106014f, -0.111455f, -0.132743f, 0.117303f, -0.058592f, -0.016556f, 0.032933f, -0.075755f, 0.017403f, -0.168615f, -0.069301f, 0.029749f, 0.148646f, 0.176610f, -0.048664f, -0.005503f, 0.169947f, -0.024576f, -0.009960f, 0.061069f, 0.032744f, -0.122506f, 0.162824f, -0.141876f, 0.118474f, -0.001496f, 0.172483f, -0.035427f, 0.057558f, 0.179431f, -0.005724f, -0.046297f, 0.044127f, 0.124751f, 0.013354f, 0.182891f, -0.170856f, 0.170179f, -0.011329f, 0.098984f, -0.093274f, 0.113227f, 0.049403f, 0.110109f, 0.085738f, -0.010877f, 0.040947f, 0.140668f, 0.021028f, 0.169099f, 0.044253f, -0.159527f, -0.047359f, 0.079918f, -0.161040f, 0.172166f, 0.139759f, -0.054129f, 0.032699f, -0.187577f, -0.153132f, 0.026168f, 0.229019f, -0.202348f, 0.148262f, -0.112165f, -0.105738f, -0.105332f, 0.187842f, -0.028260f, 0.000682f, -0.142478f, -0.094780f, 0.159329f, 0.001602f, 0.073887f, 0.137718f, -0.019721f, 0.031382f, -0.069845f, 0.055559f, -0.144850f, 0.018845f, 0.033640f, 0.109440f, -0.137269f, 0.140441f, -0.149419f, 0.148365f, -0.104200f, 0.061345f, 0.233051f, -0.029878f, -0.107222f, -0.099621f, 0.072734f, 0.024374f, -0.183937f, -0.157792f, 0.142987f, -0.109446f, 0.001455f, -0.082719f, -0.047638f, -0.157024f, -0.059147f, 0.142471f, 0.196920f, -0.153917f, -0.256565f, 0.016397f, -0.073613f, -0.177315f, -0.094996f, -0.073331f, 0.007610f, -0.108992f, -0.004817f, 0.038795f, 0.169307f, 0.147330f, 0.085991f, -0.172051f, -0.052270f, -0.037520f, -0.022227f, -0.157240f, -0.174647f, 0.073992f, -0.210630f, 0.359081f, 0.029867f, 0.005120f, -0.105271f, -0.231600f, -0.062070f, -0.019931f, -0.052261f, -0.189110f, 0.162310f, 0.046017f, 0.111728f, -0.030489f, -0.136223f, -0.141524f, 0.123008f, -0.082057f, -0.075071f, -0.163151f, -0.141643f, -0.171362f, 0.162700f, 0.107114f, 0.197943f, 0.165203f, -0.060343f, -0.037047f, 0.173424f, 0.042512f, 0.084728f, -0.004922f, 0.036809f, -0.136138f, -0.003810f, 0.150150f, 0.023219f, 0.132293f, 0.007150f, 0.173081f, -0.132311f, -0.128757f, -0.359872f, 0.179320f, -0.251070f, 0.202137f, -0.005031f, -0.052994f, 0.179386f, 0.111437f, -0.435368f, -0.092150f, -0.141918f, -0.111102f, 0.373459f, 0.025681f, -0.118192f, 0.022670f, -0.063270f, 0.068365f, -0.060951f, -0.008263f, -0.212026f, -0.003072f, -0.060202f, -0.213038f, 0.761270f, -0.203573f, 0.296633f, -0.103941f, -0.576957f, -0.197707f, -0.111770f, 0.388124f, 0.069816f, -0.148066f, 0.089269f, -0.073298f, -0.057097f, 0.350856f, -0.251441f, 0.251569f, -0.127568f, -0.206378f, 0.108525f, -0.083605f, -0.237818f, 0.159634f, -0.111788f, -0.443817f, -0.136212f, -0.087934f, 0.058154f, -0.147108f, 0.254617f, 0.243975f, -0.070539f, -0.021379f, -0.171796f, -0.047699f, 0.048056f, 0.036458f, 0.443777f, -0.049395f, -0.006081f, -0.315614f, -0.078424f, 0.479555f, 0.067781f, -0.075359f, -0.171571f, -0.050046f, 0.209261f, -0.096658f, 0.048981f, -0.081065f, 0.118108f, 0.038196f, 0.087281f, -0.023532f, -0.389923f, -0.075018f, 0.026742f, -0.028906f, -0.000265f, -0.109624f, -0.368704f, -0.040307f, -0.101530f, -0.033919f, 0.342714f, -0.002936f, 0.010480f, -0.139883f, 0.023556f, -0.294350f, 0.302903f, 0.055609f, -0.231610f, -0.056412f, -0.171982f, -0.041337f, -0.053158f, -0.199640f, -0.413957f, -0.011725f, 0.101221f, -0.120916f, -0.248185f, 0.006678f, -0.152923f, -0.251063f, -0.204339f, 0.080737f, 0.177311f, 0.269037f, -0.478911f, -0.099830f, -0.169505f, 0.103566f, 0.186195f, -0.311393f, 0.030853f, 0.159762f, 0.096181f, 0.104580f, -0.139354f, 0.132527f, -0.490837f, 0.305087f, -0.267036f, -0.177727f, 0.102551f, -0.128337f, -0.160040f, 0.078950f, -0.043146f, -0.050049f, -0.112999f, -0.298295f, 0.002502f, 0.003754f, 0.348518f, -0.314799f, 0.024954f, 0.077473f, -0.103490f, -0.200177f, 0.005809f, 0.033173f, 0.306080f, -0.051763f, -0.217775f, 0.022495f, 0.122727f, -0.058046f, 0.114683f, -0.130415f, 0.008997f, -0.109221f, 0.132985f, 0.622518f, -0.176667f, 0.116824f, 0.181298f, -0.043336f, -0.117905f, -0.305532f, 0.062836f, 0.206043f, -0.076842f, -0.132457f, -0.216543f, 0.717185f, 0.080952f, -0.014283f, -0.109036f, 0.259358f, 0.194376f, -0.237645f, -0.139661f, -0.075917f, 0.031277f, -0.120930f, -0.002142f, -0.129581f, -0.491642f, -0.120279f, 0.040238f, 0.237421f, 0.045649f, 0.127940f, -0.281076f, -0.282021f, -0.188666f, -0.074198f, 0.601140f, -0.079773f, -0.128212f, 0.019182f, 0.079941f, -0.222195f, 0.113023f, -0.163941f, -0.273347f, 0.261195f, 0.010812f, 0.127377f, 0.199243f, -0.077170f, -0.093871f, 0.450064f, -0.198861f, 0.036730f, -0.190348f, -0.109430f, 0.001119f, -0.217369f, 0.043689f, 0.161036f, 0.060360f, 0.119032f, 0.129293f, -0.126129f, -0.014855f, 0.028892f, 0.045141f, -0.086526f, 0.163625f, -0.037795f, -0.155397f, -0.127084f, 0.041484f, 0.289220f, -0.004753f, -0.013094f, 0.032965f, -0.208809f, 0.221871f, -0.082894f, 0.030761f, -0.181706f, -0.252164f, 0.113022f, -0.209444f, -0.024044f, -0.002314f, 0.086544f, 0.033900f, -0.138417f, -0.153022f, -0.045537f, 0.228222f, -0.346290f, 0.053154f, -0.205888f, 0.030193f, 0.173686f, 0.045478f, -0.018631f, 0.090711f, 0.023626f, -0.099848f, 0.015870f, -0.150104f, -0.202369f, -0.185279f, 0.153417f, -0.191492f, -0.192896f, -0.170380f, -0.153822f, -0.020213f, -0.105083f, -0.069489f, -0.199043f, 0.154326f, -0.329086f, 0.005209f, 0.197920f, 0.074843f, 0.028855f, -0.148876f, 0.117502f, -0.138875f, -0.083092f, 0.111055f, -0.156208f, -0.081736f, -0.104341f, -0.149480f, -0.157959f, -0.205495f, -0.332856f, 0.063881f, -0.016604f, 0.156862f, 0.160585f, 0.074649f, -0.058443f, -0.092740f, 0.021458f, 0.374003f, -0.155586f, 0.125256f, -0.257645f, 0.017174f, 0.094377f, -0.066778f, -0.106325f, -0.331101f, 0.080651f, -0.090864f, 0.049019f, 0.114452f, -0.145437f, 0.368098f, 0.137221f, -0.368583f, -0.085682f, -0.006878f, -0.151023f, -0.129889f, 0.003932f, 0.149231f, 0.199081f, -0.092688f, -0.106557f, 0.307390f, 0.105585f, -0.045882f, -0.165209f, 0.107403f, -0.228605f, -0.128057f, -0.203977f, 0.098048f, -0.055302f, 0.053023f, 0.097741f, 0.287023f, -0.099959f, 0.193330f, -0.141582f, -0.105660f, 0.243362f, 0.192289f, -0.287420f, -0.087594f, -0.121553f, 0.020279f, 0.002815f, -0.060591f, -0.054400f, -0.056599f, -0.119504f, 0.052997f, -0.040632f, -0.157865f, -0.104847f, 0.044456f, -0.128361f, 0.093016f, 0.182178f, -0.093027f, 0.194497f, -0.106973f, 0.058213f, -0.045714f, -0.172372f, -0.123263f, -0.178149f, -0.250285f, -0.091740f, -0.008328f, -0.033376f, 0.145876f, -0.243411f, 0.015813f, -0.171310f, 0.244742f, -0.017233f, -0.138516f, -0.044718f, -0.090952f, -0.240240f, 0.022966f, -0.140168f, 0.061727f, 0.308558f, -0.271468f, -0.120139f, -0.156870f, -0.060426f, -0.065066f, -0.011844f, 0.127565f, 0.118527f, -0.384463f, 0.078609f, -0.093149f, -0.163287f, 0.111242f, 0.026936f, 0.351211f, 0.093035f, 0.034999f, -0.033457f, 0.328011f, 0.156984f, 0.023662f, -0.117960f, 0.112468f, -0.003677f, 0.206845f, -0.174791f, 0.050827f, -0.068253f, -0.172272f, 0.255488f, -0.018759f, -0.087508f, 0.333734f, 0.326456f, -0.135274f, -0.075855f, 0.094752f, -0.095657f, 0.226290f, -0.058967f, 0.059946f, -0.108408f, -0.074055f, 0.172380f, -0.007990f, 0.047560f, 0.195975f, 0.168472f, -0.096010f, -0.072555f, -0.238582f, -0.101229f, 0.101065f, 0.039488f, -0.088027f, -0.115467f, 0.306342f, -0.066450f, 0.047710f, -0.158259f, 0.113900f, 0.224529f, 0.129648f, -0.108138f, -0.231759f, -0.075719f, -0.028565f, -0.060774f, -0.077024f, 0.031883f, -0.135375f, -0.068673f, -0.172339f, -0.167072f, -0.168759f, -0.052500f, -0.151967f, 0.067876f, 0.089261f, -0.142508f, 0.138780f, 0.187016f, -0.006399f, 0.005369f, 0.076421f, -0.163595f, 0.095114f, 0.124254f, 0.035226f, 0.032427f, -0.050536f, -0.095032f, 0.211600f, -0.119924f, -0.129958f, -0.150960f, 0.213082f, -0.196301f, -0.148182f, 0.044862f, 0.128487f, -0.022289f, 0.020418f, 0.032870f, 0.077021f, 0.066930f, -0.020155f, 0.123032f, -0.106759f, 0.019867f, -0.009087f, -0.026719f, -0.022234f, 0.102390f, -0.231180f, -0.072079f, 0.063904f, -0.285648f, 0.038757f, -0.042161f, -0.126112f, -0.089136f, -0.204062f, -0.024334f, 0.071996f, -0.198994f, 0.107489f, 0.135494f, -0.088288f, 0.124826f, -0.064370f, 0.166590f, 0.174299f, -0.159366f, 0.166617f, 0.139986f, 0.049369f, 0.113287f, 0.189189f, -0.138244f, -0.002230f, 0.178928f, -0.163431f, 0.172307f, 0.047232f, -0.107451f, -0.149609f, 0.104255f, 0.058204f, -0.130010f, -0.048331f, 0.034134f, 0.061884f, -0.175795f, -0.062434f, 0.079315f, 0.071791f, 0.001016f, 0.178233f, 0.076597f, -0.051350f, -0.019192f, 0.008244f, 0.151056f, 0.168577f, 0.048029f, 0.086493f, -0.115346f, -0.042518f, -0.094323f, 0.142567f, -0.084674f, -0.170279f, -0.011458f, -0.006855f, 0.131181f, -0.128094f, -0.151574f, 0.092222f, -0.080938f, 0.016894f, 0.081878f, -0.105702f, -0.182204f, -0.182349f, -0.175549f, 0.135758f, 0.053849f, -0.022377f, -0.023285f, 0.079861f, 0.094070f, -0.057522f, -0.059800f, 0.075063f, -0.174713f, 0.066659f, 0.099660f, -0.060009f, -0.172291f, 0.133326f, -0.122503f, -0.086355f, 0.122979f, -0.049439f, -0.058402f, -0.003370f, 0.095649f, -0.046302f, 0.070754f, 0.118228f, 0.080756f, 0.074311f, -0.002624f, 0.070238f, -0.127965f, -0.062678f, -0.180722f, -0.032063f, -0.027046f, -0.053396f, 0.053617f, -0.036469f, -0.099826f, 0.043811f, 0.096371f, 0.119703f, 0.146666f, 0.123038f, -0.144550f, 0.087583f, 0.042757f, -0.024351f, 0.001754f, -0.174894f, -0.010473f, -0.005247f, 0.163492f, -0.066346f, 0.096583f, -0.002664f, -0.119471f, -0.093607f, -0.051988f, 0.060435f, -0.082883f, -0.177300f, -0.107418f, 0.036589f, -0.000662f, -0.086241f, 0.184188f, -0.024304f, 0.120484f, 0.075633f, 0.146431f, 0.087207f, 0.054723f, 0.165695f, -0.092588f, -0.049696f, 0.135330f, 0.146005f, -0.108228f, -0.031809f, -0.002109f, 0.058156f, 0.142798f, -0.106267f, 0.121846f, 0.161230f, -0.043669f, -0.118904f, 0.012686f, 0.000234f, -0.105865f, -0.020039f, 0.015196f, 0.011058f, -0.055198f, 0.133841f, -0.090501f, -0.113553f, -0.125887f, 0.023223f, 0.184346f, -0.155613f, 0.049862f, -0.149516f, -0.095772f, -0.122801f, 0.035189f, -0.163810f, 0.148613f, -0.012209f, -0.118482f, 0.129190f, 0.170222f, -0.166106f, 0.081053f, -0.022480f, -0.126154f, 0.095903f, 0.131426f, 0.165757f, -0.045030f, 0.121062f, -0.121193f, 0.078217f, -0.174029f, 0.109794f, -0.107424f, 0.066332f, 0.073979f, -0.183899f, 0.013335f, 0.149431f, 0.055391f, 0.000312f, 0.053288f, 0.121945f, -0.146143f, 0.066291f, 0.120322f, 0.099625f, -0.013355f, 0.045707f, 0.091420f, -0.150357f, -0.109407f, 0.145687f, -0.056608f, -0.129128f, -0.006913f, 0.162592f, 0.075945f, -0.050669f, -0.139687f, -0.082493f, -0.151745f, 0.176526f, 0.016564f, 0.076086f, -0.029817f, -0.170423f, -0.139579f, -0.120499f, 0.031882f, -0.163838f, 0.064780f, -0.084456f, -0.139953f, 0.097209f, -0.150061f, 0.111692f, 0.066050f, -0.133946f, -0.085408f, 0.168544f, -0.034825f, -0.089403f, -0.065420f, 0.083059f, -0.051241f, -0.002626f, 0.174559f, 0.074090f, -0.023209f, -0.063234f, 0.080878f, -0.132980f, -0.156557f, 0.140498f, 0.091367f, -0.089827f, 0.040177f, 0.076974f, 0.022228f, 0.030890f, -0.070676f, 0.157633f, -0.192951f, 0.239894f, -0.168194f, -0.110389f, -0.260072f, -0.012693f, 0.132728f, 0.108772f, -0.086006f, 0.091214f, -0.113031f, -0.124953f, -0.212466f, 0.198891f, -0.018652f, 0.229723f, -0.069293f, -0.179959f, -0.201692f, -0.171583f, -0.040679f, 0.041650f, -0.096952f, 0.114002f, 0.001391f, 0.100315f, -0.092796f, -0.070497f, 0.096434f, -0.195106f, 0.027484f, 0.172530f, 0.058400f, -0.188749f, -0.101560f, 0.081205f, 0.012701f, -0.162028f, 0.071606f, -0.014282f, -0.075475f, 0.028348f, -0.253223f, -0.096170f, -0.149790f, -0.092374f, -0.142586f, 0.228971f, -0.002524f, 0.103157f, -0.013148f, 0.109758f, 0.100897f, 0.176052f, -0.041490f, -0.153127f, 0.059668f, 0.113049f, 0.186493f, 0.030471f, -0.021232f, 0.080561f, -0.121407f, -0.084610f, -0.128304f, -0.046562f, -0.042186f, 0.088494f, -0.098458f, -0.121936f, -0.120921f, 0.171630f, 0.114743f, 0.079349f, -0.164710f, 0.113912f, -0.307507f, -0.113909f, 0.048751f, -0.114253f, 0.065535f, -0.040116f, 0.476184f, -0.209786f, -0.259765f, 0.054171f, 0.436084f, -0.132573f, 0.161521f, 0.003546f, 0.051219f, 0.356409f, 0.068188f, 0.118266f, -0.102264f, -0.074558f, -0.087027f, -0.016836f, -0.076482f, -0.097881f, 0.074552f, 0.143563f, -0.130760f, 0.234850f, -0.080480f, 0.159971f, -0.011366f, -0.037623f, -0.146202f, 0.057269f, 0.069667f, -0.149410f, -0.187459f, -0.015940f, 0.016701f, -0.187334f, -0.045441f, -0.072980f, 0.298925f, -0.169802f, -0.122493f, 0.169927f, -0.066568f, 0.001849f, 0.266732f, -0.103140f, -0.103442f, -0.138273f, -0.072391f, 0.108326f, -0.288894f, 0.324023f, 0.210970f, -0.021317f, 0.129676f, 0.025614f, -0.189172f, 0.126253f, 0.311763f, 0.205620f, 0.026166f, -0.052343f, 0.050453f, -0.136645f, 0.372203f, 0.239716f, 0.084425f, 0.018882f, -0.017224f, 0.000838f, 0.142238f, 0.126747f, -0.053366f, 0.281806f, -0.183138f, -0.074482f, 0.077590f, -0.179463f, 0.289279f, -0.060517f, -0.107323f, -0.124561f, -0.016535f, -0.133748f, -0.019322f, 0.074960f, -0.153460f, 0.032511f, 0.084479f, -0.013868f, -0.067472f, 0.146297f, -0.075285f, -0.033320f, -0.018921f, 0.036699f, 0.188181f, -0.154126f, 0.214912f, -0.086874f, 0.073538f, 0.131717f, 0.281058f, 0.024476f, 0.124497f, -0.109534f, 0.074212f, 0.165041f, 0.155128f, -0.256476f, -0.145161f, 0.009209f, 0.412144f, -0.121407f, 0.207809f, 0.068503f, -0.141899f, -0.076748f, -0.081894f, -0.101807f, 0.039124f, 0.101249f, 0.007069f, -0.100651f, 0.245511f, -0.093984f, 0.173067f, -0.417619f, -0.062580f, -0.181484f, -0.066782f, -0.288109f, 0.211521f, 0.087265f, 0.099925f, 0.012016f, -0.193997f, 0.093142f, -0.132299f, 0.196984f, -0.059228f, -0.092670f, -0.254139f, -0.058070f, -0.042041f, -0.062526f, 0.083996f, -0.151059f, -0.046316f, -0.283223f, -0.126369f, -0.237602f, -0.099617f, -0.000450f, 0.169243f, -0.067919f, -0.059407f, 0.140411f, 0.055941f, -0.151664f, -0.046756f, -0.050579f, -0.001218f, -0.039753f, -0.246087f, 0.271347f, 0.330490f, 0.041008f, 0.271132f, -0.280753f, 0.616248f, 0.013539f, -0.074659f, -0.153900f, -0.397431f, 0.001729f, -0.054634f, -0.171516f, 0.312485f, -0.008123f, -0.391307f, -0.115164f, 0.034587f, -0.074700f, 0.179609f, -0.026504f, 0.022941f, -0.147624f, -0.062173f, -0.357081f, -0.016402f, -0.005381f, -0.088128f, 0.099146f, -0.038964f, -0.169749f, 0.057366f, -0.159862f, 0.105544f, -0.090147f, -0.060693f, -0.096075f, 0.036624f, -0.152655f, 0.493807f, -0.124251f, -0.096197f, -0.003702f, -0.163911f, -0.329369f, -0.090104f, 0.040385f, -0.124752f, -0.133959f, 0.079034f, 0.076816f, 0.162501f, -0.180148f, 0.234187f, -0.281295f, 0.059947f, 0.012226f, -0.045720f, 0.160722f, -0.016538f, 0.062228f, 0.174628f, 0.028746f, -0.126670f, -0.066031f, 0.321603f, -0.087406f, -0.201664f, -0.117500f, -0.195749f, 0.051659f, 0.119650f, 0.100214f, -0.255160f, 0.115447f, -0.214510f, -0.067786f, -0.037723f, -0.286924f, -0.164747f, 0.238236f, -0.248734f, -0.196947f, -0.193622f, 0.038602f, 0.173414f, -0.023776f, -0.164805f, -0.241932f, -0.189729f, 0.035920f, -0.120064f, 0.110512f, 0.269780f, -0.079887f, -0.053763f, 0.146716f, -0.108474f, 0.401422f, -0.044650f, -0.147791f, 0.141045f, -0.467007f, -0.264815f, 0.099642f, 0.067575f, 0.075647f, -0.103245f, -0.095170f, -0.356801f, -0.260636f, 0.411839f, 0.020181f, -0.187667f, -0.077357f, -0.215850f, -0.002053f, -0.179995f, -0.151881f, -0.073592f, 0.200547f, -0.260793f, -0.168802f, -0.146252f, -0.139106f, 0.092238f, -0.142023f, 0.093141f, 0.068117f, 0.036490f, 0.110761f, -0.220666f, 0.128930f, 0.125905f, -0.091687f, -0.200614f, -0.013624f, 0.048836f, 0.094703f, 0.544755f, -0.151232f, 0.073517f, -0.095904f, -0.102982f, -0.096101f, 0.216682f, -0.063250f, 0.088016f, -0.268260f, 0.113576f, -0.403541f, -0.168741f, -0.119184f, -0.022991f, -0.084139f, 0.096495f, 0.190128f, -0.064799f, -0.312989f, 0.320062f, -0.140456f, 0.193382f, -0.173460f, -0.127547f, 0.176815f, -0.225774f, -0.002083f, -0.179624f, 0.139498f, -0.064906f, -0.010641f, 0.037708f, -0.056652f, -0.186945f, 0.038714f, -0.043318f, 0.335781f, 0.174465f, -0.032171f, -0.131590f, -0.324395f, -0.011202f, 0.190397f, 0.061879f, -0.132715f, -0.006198f, 0.083227f, -0.181734f, -0.185220f, -0.006523f, -0.237131f, 0.213133f, -0.060784f, -0.065991f, -0.216723f, -0.073792f, 0.125301f, 0.035696f, 0.145412f, 0.039031f, 0.146224f, -0.047692f, 0.314817f, -0.118859f, 0.432580f, 0.092967f, -0.028172f, 0.175933f, -0.088540f, 0.065963f, -0.151275f, 0.192017f, 0.186764f, -0.216897f, -0.109897f, 0.179091f, 0.019201f, 0.156498f, -0.072014f, 0.037553f, 0.062388f, 0.226070f, -0.079310f, 0.104426f, 0.071084f, 0.208439f, 0.108652f, 0.036432f, -0.105482f, -0.066606f, -0.035511f, 0.157472f, -0.068040f, 0.174750f, -0.142017f, -0.174765f, 0.233440f, 0.068393f, -0.141238f, -0.005884f, -0.154708f, 0.098532f, -0.168845f, -0.096556f, 0.132285f, 0.405541f, 0.040948f, 0.106082f, -0.033272f, 0.029387f, -0.026220f, 0.266708f, 0.204594f, 0.105350f, -0.058354f, 0.123280f, -0.207388f, 0.062400f, 0.089086f, 0.032110f, 0.121931f, 0.168461f, 0.002193f, 0.052235f, -0.141570f, -0.145651f, 0.107397f, 0.083487f, 0.194359f, 0.168142f, -0.063425f, 0.101187f, 0.114894f, 0.087777f, 0.128551f, 0.113601f, 0.145398f, -0.151041f, 0.222283f, -0.137421f, -0.053740f, -0.075105f, 0.260104f, -0.179381f, -0.218595f, 0.016037f, -0.376722f, 0.031769f, 0.091929f, 0.211141f, -0.090366f, -0.117380f, -0.125505f, -0.154356f, -0.063037f, -0.017457f, 0.000038f, -0.049495f, -0.313636f, -0.188148f, 0.012994f, 0.172126f, -0.028197f, 0.125609f, 0.189937f, -0.101429f, 0.020334f, 0.081058f, 0.097007f, 0.125890f, 0.170278f, 0.018823f, -0.164386f, -0.011318f, 0.154882f, -0.117371f, 0.083681f, -0.207342f, -0.081832f, -0.013725f, 0.126149f, -0.002489f, 0.110357f, 0.070582f, -0.126477f, 0.153000f, 0.046621f, 0.029751f, -0.082021f, -0.127453f, -0.116964f, 0.424410f, 0.045982f, -0.108379f, -0.055100f, -0.085362f, -0.239064f, 0.023557f, 0.052068f, -0.118493f, 0.065559f, -0.070053f, -0.027680f, -0.038206f, -0.161133f, -0.079809f, -0.037861f, 0.130451f, 0.147028f, 0.114468f, -0.030069f, 0.121453f, -0.000749f, -0.085786f, 0.115563f, 0.163284f, -0.158134f, -0.080827f, -0.070574f, 0.058102f, -0.163044f, 0.101477f, -0.063234f, -0.035045f, 0.157301f, 0.060509f, -0.047054f, -0.147333f, 0.110363f, 0.014742f, -0.081705f, -0.047739f, 0.019603f, -0.188631f, 0.000225f, -0.081260f, 0.005967f, 0.084354f, -0.009351f, 0.146790f, -0.123090f, -0.019302f, -0.003723f, 0.057722f, -0.146777f, -0.119051f, -0.185676f, -0.039684f, -0.192873f, -0.084086f, 0.107169f, -0.063003f, -0.059075f, -0.142371f, 0.007945f, 0.009189f, 0.011186f, 0.081518f, 0.019998f, 0.051639f, 0.181058f, -0.095504f, -0.068222f, -0.183257f, 0.147704f, 0.084961f, 0.121156f, 0.184159f, -0.161669f, -0.151140f, -0.120025f, -0.051642f, -0.027825f, -0.046267f, -0.087299f, -0.029373f, -0.190089f, -0.115922f, -0.067272f, -0.178670f, 0.153415f, -0.186198f, -0.120348f, 0.021765f, 0.140428f, -0.129558f, -0.108653f, 0.179809f, 0.072651f, 0.025322f, 0.080242f, 0.026464f, -0.088117f, 0.003019f, 0.106685f, 0.096582f, 0.121714f, 0.122162f, -0.047308f, -0.180599f, 0.094715f, -0.087443f, 0.184447f, -0.026858f, 0.043682f, 0.095940f, -0.001845f, -0.139313f, 0.192617f, -0.157417f, -0.174331f, -0.053933f, 0.130610f, -0.176837f, -0.103444f, -0.095529f, -0.185508f, 0.107516f, 0.044915f, -0.182229f, -0.002092f, -0.079790f, 0.118894f, -0.146801f, -0.104289f, 0.084048f, 0.156918f, 0.186719f, 0.167312f, -0.072016f, -0.012223f, -0.136791f, 0.048238f, -0.003725f, 0.015626f, 0.156732f, 0.133174f, -0.132422f, -0.001576f, -0.004991f, -0.056878f, 0.161348f, -0.152699f, 0.067472f, -0.099533f, -0.042947f, 0.080296f, 0.073739f, -0.063936f, 0.074421f, 0.017768f, 0.082702f, 0.023497f, -0.166578f, 0.124982f, 0.044952f, -0.082553f, -0.089767f, -0.098259f, 0.012351f, 0.157080f, 0.093476f, 0.099973f, -0.033270f, 0.068624f, 0.180780f, 0.065704f, -0.182202f, 0.133346f, -0.046380f, 0.011688f, 0.074099f, 0.075667f, -0.158245f, 0.146467f, -0.072076f, 0.154008f, 0.047465f, 0.180832f, 0.007405f, -0.148168f, 0.054494f, 0.122154f, 0.159715f, -0.079928f, 0.144114f, -0.127100f, -0.039767f, 0.067732f, -0.094072f, 0.108286f, 0.170434f, -0.103230f, -0.108774f, 0.032322f, 0.042787f, 0.034264f, -0.117929f, -0.094514f, 0.047033f, 0.007695f, 0.123624f, 0.109073f, -0.134920f, -0.156747f, -0.057990f, -0.164177f, -0.087529f, -0.170783f, -0.062259f, -0.129047f, 0.014895f, -0.042610f, 0.128668f, -0.102764f, -0.049883f, -0.148493f, -0.107068f, -0.084719f, -0.055802f, 0.143969f, 0.136916f, -0.144691f, -0.158929f, 0.045239f, 0.019881f, 0.099289f, 0.143079f, 0.090946f, -0.023486f, -0.019152f, -0.068198f, 0.057427f, 0.016088f, 0.008251f, 0.176938f, -0.183205f, -0.170315f, -0.062685f, -0.118045f, 0.010106f, 0.104339f, -0.178058f, 0.020765f, 0.012072f, 0.104555f, 0.181028f, 0.122422f, 0.154898f, -0.114122f, 0.008794f, 0.096131f, 0.119074f, 0.025998f, 0.132745f, 0.159447f, 0.157404f, -0.091229f, 0.033925f, -0.160370f, 0.140484f, -0.015858f, 0.157599f, -0.088854f, 0.161994f, -0.052790f, -0.086823f, -0.045156f, -0.183158f, 0.161630f, 0.119576f, -0.174470f, -0.118398f, 0.018438f, -0.210165f, -0.017332f, -0.100899f, -0.167683f, -0.180833f, -0.170421f, 0.059210f, -0.014817f, 0.130803f, -0.129718f, -0.105279f, 0.184793f, 0.010963f, -0.152200f, 0.153550f, 0.017277f, -0.060482f, -0.038659f, -0.118634f, -0.063693f, -0.059278f, 0.100886f, 0.140907f, 0.117783f, -0.134756f, 0.153319f, 0.126179f, -0.189052f, -0.065151f, 0.091231f, 0.181195f, 0.177625f, 0.071455f, -0.091126f, 0.144286f, 0.072090f, 0.097336f, 0.177747f, -0.184808f, -0.163097f, -0.158644f, -0.056930f, -0.042945f, -0.087610f, -0.062672f, 0.178591f, -0.149338f, -0.152651f, -0.168428f, -0.156150f, -0.044621f, 0.136044f, -0.022007f, -0.022579f, 0.008917f, -0.016497f, -0.104602f, -0.020542f, 0.043304f, 0.000315f, 0.078982f, -0.137933f, 0.106065f, -0.039359f, 0.183490f, -0.143733f, 0.044194f, -0.206379f, -0.007310f, -0.180597f, 0.291492f, 0.208304f, 0.017004f, 0.004822f, -0.076071f, 0.213160f, 0.040163f, -0.021462f, 0.136416f, -0.013365f, -0.004689f, -0.209210f, 0.165853f, 0.218029f, -0.078944f, -0.187832f, -0.124218f, 0.035665f, -0.015187f, 0.166655f, 0.211959f, 0.013928f, -0.374514f, 0.137110f, 0.038826f, 0.183249f, 0.156129f, -0.045802f, -0.001130f, -0.159143f, -0.019894f, -0.005980f, 0.005006f, -0.029405f, 0.002201f, -0.112809f, -0.030776f, 0.023976f, 0.319844f, -0.049111f, -0.011574f, 0.092120f, 0.111184f, -0.245355f, -0.201548f, 0.292818f, 0.024816f, -0.145808f, 0.112460f, -0.216059f, 0.220646f, 0.087834f, -0.253325f, 0.005942f, -0.173732f, -0.199914f, 0.123372f, -0.041011f, 0.017288f, 0.316273f, 0.064274f, 0.245819f, 0.194311f, -0.018631f, -0.055252f, -0.008527f, -0.191255f, -0.194630f, -0.086019f, -0.242160f, -0.005220f, 0.029638f, 0.159343f, -0.188547f, -0.055152f, 0.033592f, -0.255825f, -0.011600f, 0.040009f, -0.305600f, 0.154908f, 0.020786f, -0.207034f, 0.157953f, -0.079845f, 0.200524f, -0.266902f, 0.011574f, -0.280155f, 0.072532f, -0.184163f, 0.191676f, -0.213325f, 0.050998f, -0.207004f, 0.086967f, -0.050742f, -0.320235f, -0.164688f, -0.117069f, 0.253837f, -0.300481f, -0.164584f, -0.041213f, -0.149490f, -0.110763f, 0.134669f, 0.145929f, 0.062557f, -0.080195f, -0.027848f, 0.198848f, -0.058011f, -0.018896f, 0.154970f, -0.058046f, 0.148053f, -0.156917f, 0.028911f, -0.192302f, -0.129606f, -0.189496f, -0.072500f, -0.113184f, 0.242689f, -0.139142f, 0.378939f, -0.239570f, 0.290739f, 0.059758f, -0.206602f, -0.241959f, 0.161486f, -0.055058f, -0.110553f, 0.273473f, -0.200009f, -0.209981f, -0.000546f, -0.428955f, 0.066619f, -0.065047f, 0.051853f, 0.169914f, -0.027474f, -0.210839f, -0.004617f, -0.044236f, -0.198266f, 0.257388f, -0.041894f, 0.174063f, -0.076455f, -0.024293f, 0.130304f, -0.086272f, 0.064888f, -0.021674f, -0.138012f, 0.253533f, -0.068942f, -0.171705f, -0.123879f, 0.174330f, 0.150836f, -0.117470f, 0.095701f, 0.189227f, 0.316733f, 0.122096f, -0.009406f, -0.109308f, -0.114424f, 0.017413f, -0.187757f, -0.223885f, -0.112663f, 0.167328f, -0.026703f, -0.090089f, -0.220924f, -0.070534f, 0.118817f, 0.019536f, 0.069033f, -0.011385f, -0.057240f, 0.032864f, -0.319132f, -0.262001f, 0.091342f, -0.046733f, -0.033098f, -0.153486f, -0.262310f, -0.291702f, -0.135126f, 0.041474f, 0.037287f, -0.130741f, 0.082253f, 0.034138f, -0.060121f, 0.233645f, -0.026869f, -0.174857f, -0.134079f, 0.207108f, -0.363936f, 0.090750f, 0.068471f, 0.006887f, -0.159503f, 0.259642f, -0.149154f, 0.032018f, -0.032523f, 0.219797f, -0.033048f, 0.085403f, 0.365087f, -0.026144f, -0.071452f, -0.040772f, 0.119832f, 0.044330f, -0.184240f, 0.069478f, -0.040275f, -0.002749f, -0.158063f, -0.351507f, -0.093441f, 0.043069f, 0.337334f, 0.234854f, 0.304956f, -0.005647f, -0.073681f, 0.080563f, 0.044077f, 0.051614f, -0.209004f, -0.044837f, -0.061660f, -0.040617f, -0.153945f, 0.032764f, -0.145056f, 0.143413f, -0.058912f, -0.163175f, 0.101189f, 0.130758f, -0.093849f, 0.057812f, -0.093202f, -0.306857f, -0.032236f, 0.154745f, 0.031654f, -0.054401f, 0.183883f, 0.221655f, -0.117797f, -0.104253f, 0.079454f, 0.034890f, -0.150100f, -0.217450f, -0.128886f, -0.310643f, 0.005412f, 0.060286f, -0.015831f, 0.189594f, -0.094824f, -0.099045f, -0.042559f, 0.093110f, -0.210867f, -0.065564f, 0.033842f, 0.199786f, -0.022247f, -0.203601f, -0.149931f, -0.127076f, 0.166621f, 0.263051f, -0.064600f, -0.020291f, 0.075212f, -0.080343f, -0.037351f, -0.081561f, 0.048761f, 0.023609f, 0.179351f, 0.093330f, -0.113692f, -0.178381f, 0.088634f, -0.090971f, 0.107364f, 0.014175f, 0.105592f, 0.092877f, 0.056384f, 0.448091f, 0.177673f, -0.181213f, -0.185710f, 0.189137f, -0.209106f, 0.098942f, -0.164218f, 0.101480f, -0.067520f, 0.120430f, 0.015950f, -0.031146f, -0.216458f, 0.080360f, -0.183459f, -0.073610f, 0.059767f, -0.011822f, -0.037266f, -0.033996f, 0.082801f, 0.216912f, -0.117186f, 0.044022f, -0.050747f, 0.033357f, -0.330533f, -0.160203f, -0.081068f, -0.051488f, 0.003117f, -0.249466f, -0.013581f, 0.208851f, 0.046074f, -0.200520f, -0.028875f, 0.325120f, 0.192804f, -0.152435f, -0.203371f, -0.139778f, -0.077304f, 0.050404f, -0.107287f, 0.273118f, -0.146291f, 0.041235f, 0.003089f, -0.084906f, 0.007310f, -0.238607f, 0.128766f, 0.025560f, -0.101561f, -0.031965f, -0.013282f, -0.015914f, 0.221608f, -0.088893f, 0.047629f, 0.357369f, 0.152282f, -0.189823f, -0.100075f, -0.176075f, 0.031711f, -0.173738f, -0.219270f, 0.013552f, -0.211583f, 0.124599f, 0.043370f, -0.154675f, 0.023333f, 0.293138f, -0.079660f, -0.067626f, 0.080632f, 0.115585f, 0.073173f, -0.039559f, -0.054012f, 0.183753f, 0.164140f, 0.188193f, -0.141171f, 0.134137f, -0.149471f, -0.029862f, 0.262978f, -0.290779f, -0.091642f, -0.128035f, -0.170309f, 0.162353f, 0.016466f, -0.170004f, -0.034707f, 0.383808f, 0.279823f, 0.043321f, 0.118413f, 0.027413f, 0.086329f, 0.042379f, 0.218114f, -0.166282f, -0.087692f, -0.192493f, 0.090058f, -0.080780f, 0.074915f, 0.107786f, -0.064853f, -0.072293f, -0.084365f, -0.215923f, 0.036068f, 0.114609f, -0.094676f, -0.124695f, 0.135968f, 0.081473f, -0.128490f, -0.113485f, 0.241962f, -0.003893f, -0.065510f, 0.189164f, -0.076633f, 0.095617f, -0.319944f, 0.025576f, -0.164104f, -0.144794f, -0.161395f, -0.055254f, -0.207344f, 0.000167f, 0.187554f, 0.168432f, 0.207888f, -0.001226f, -0.082067f, 0.134537f, -0.078770f, -0.019504f, -0.129635f, 0.087113f, -0.131114f, 0.130027f, -0.040218f, -0.029856f, -0.129820f, 0.006740f, 0.003152f, -0.131895f, 0.026366f, -0.068829f, -0.029938f, -0.091616f, -0.123414f, 0.026022f, 0.284148f, -0.074613f, 0.113348f, 0.087057f, 0.163691f, -0.178730f, 0.086815f, -0.129604f, -0.027046f, 0.160708f, -0.132058f, 0.178156f, -0.026309f, 0.324155f, 0.138544f, -0.159635f, -0.055232f, -0.128324f, -0.067596f, 0.099506f, -0.110637f, 0.060842f, -0.014696f, 0.049840f, 0.058298f, -0.149212f, 0.280485f, 0.190450f, -0.021274f, 0.385190f, -0.164459f, -0.200452f, 0.084919f, -0.089915f, 0.073202f, -0.026116f, -0.208409f, 0.080560f, -0.138539f, 0.069010f, 0.107597f, 0.227162f, 0.227866f, 0.046895f, 0.050240f, 0.083312f, -0.107497f, 0.099949f, 0.160265f, 0.019020f, -0.180548f, -0.132755f, 0.021556f, 0.105291f, 0.145430f, 0.100106f, -0.120705f, -0.040372f, 0.180251f, -0.095576f, 0.008399f, 0.205532f, 0.153326f, -0.175273f, 0.083022f, -0.083406f, 0.113046f, 0.120307f, 0.206273f, 0.128236f, 0.090481f, 0.078266f, -0.015307f, -0.136344f, -0.122304f, -0.121620f, -0.030210f, -0.054802f, 0.001743f, -0.205205f, -0.023903f, 0.183497f, 0.221298f, -0.180639f, -0.097631f, -0.035391f, 0.065579f, 0.176624f, -0.032348f, 0.174143f, -0.000490f, 0.176311f, 0.065189f, 0.173257f, 0.039745f, -0.144450f, 0.014540f, -0.100318f, -0.013972f, -0.012569f, 0.031229f, -0.135935f, -0.187732f, -0.011080f, 0.188657f, -0.150929f, -0.092893f, 0.127786f, 0.012466f, 0.047972f, -0.199782f, -0.041814f, 0.041444f, -0.155690f, -0.027067f, 0.112557f, -0.065465f, -0.025471f, -0.016773f, 0.055752f, -0.127977f, 0.025908f, 0.173158f, 0.141387f, 0.070684f, -0.134260f, 0.185720f, 0.102541f, -0.128550f, -0.184507f, -0.116764f, 0.066344f, 0.053392f, -0.089621f, -0.050616f, 0.291880f, -0.064062f, -0.055753f, 0.074122f, 0.047705f, 0.122883f, -0.153044f, -0.042052f, -0.145426f, 0.066670f, -0.173007f, 0.110261f, 0.157630f, 0.113803f, 0.169476f, 0.083981f };
static const float rede_neural_layer_1_biases[10] = { 0.198221f, 0.083401f, 0.185595f, -0.003801f, -0.032969f, 0.048148f, 0.047625f, 0.209669f, -0.157812f, 0.202721f };
static const float rede_neural_layer_1_weights[1060] = { 0.009499f, 0.211467f, -0.131218f, 0.230979f, 0.100549f, -0.011324f, -0.147056f, 0.041306f, 0.123259f, -0.119829f, 0.179117f, 0.025804f, 0.053042f, 0.070457f, 0.092278f, 0.114195f, -0.195807f, 0.042721f, -0.243626f, -0.055718f, -0.210133f, 0.121346f, -0.068755f, 0.032903f, 0.453263f, -0.408591f, 0.090383f, -0.195720f, -0.148016f, -0.511840f, -0.087239f, -0.009442f, -0.315763f, -0.071859f, -0.052103f, -0.180622f, 0.234061f, 0.124078f, -0.002211f, 0.006401f, -0.136388f, -0.076658f, 0.180317f, 0.138863f, 0.146533f, -0.050883f, 0.004675f, -0.166062f, 0.162663f, 0.090573f, 0.268191f, -0.033366f, -0.692571f, 0.231118f, 0.151961f, 0.352844f, 0.368150f, -0.084853f, -0.219097f, -0.024903f, 0.215445f, -0.444207f, -0.062706f, -0.227545f, 0.252035f, -0.136686f, 0.295085f, 0.215536f, 0.114187f, -0.324832f, -0.000967f, -0.060579f, -0.055359f, -0.216469f, 0.077578f, 0.113077f, -0.038710f, 0.224402f, -0.207789f, -0.109309f, 0.107804f, -0.169694f, -0.150429f, -0.014339f, 0.045802f, -0.143512f, 0.189544f, 0.063025f, -0.135264f, -0.185355f, -0.073315f, 0.207109f, 0.048759f, 0.209185f, -0.135924f, 0.032777f, -0.257128f, 0.173716f, -0.058464f, 0.119922f, -0.097826f, -0.042076f, 0.141088f, 0.122874f, 0.093326f, 0.182258f, -0.101943f, -0.151462f, 0.023101f, 0.144319f, -0.277559f, -0.217125f, -0.106839f, 0.519920f, 0.319893f, -0.060821f, -0.024399f, 0.444400f, -0.116151f, -0.165828f, 0.328629f, -0.257637f, 0.151611f, 0.175490f, 0.089641f, 0.080047f, 0.043035f, -0.206182f, -0.088986f, 0.158398f, -0.264990f, 0.086591f, 0.102995f, 0.312512f, 0.104743f, 0.325742f, -0.060319f, -0.160146f, -0.032049f, -0.038014f, -0.218065f, -0.058182f, -0.175230f, 0.032431f, 0.378028f, 0.150382f, -0.192479f, 0.232884f, 0.025568f, -0.179157f, -0.136730f, 0.378523f, -0.192738f, -0.113699f, -0.159441f, -0.279504f, -0.043858f, 0.626888f, -0.012177f, 0.128096f, -0.444211f, 0.288324f, 0.282468f, 0.132578f, 0.009903f, 0.122886f, 0.314700f, 0.263335f, 0.068055f, -0.299170f, -0.417438f, 0.327609f, -0.194281f, 0.046526f, 0.267154f, -0.302063f, -0.197357f, -0.026808f, -0.143344f, 0.259788f, 0.195094f, 0.032374f, 0.138966f, 0.385506f, 0.016433f, 0.010062f, -0.044626f, -0.097092f, 0.000544f, -0.095419f, -0.093370f, 0.067028f, 0.037670f, 0.060183f, -0.014393f, 0.375441f, -0.154161f, 0.121684f, 0.143920f, -0.068434f, -0.110394f, -0.109219f, 0.086873f, 0.001198f, -0.150452f, -0.142079f, -0.120509f, 0.115488f, 0.136682f, -0.087261f, 0.436162f, -0.366763f, -0.100605f, -0.071350f, 0.374886f, -0.008223f, -0.093288f, -0.058570f, 0.064440f, -0.069622f, -0.094820f, 0.020999f, -0.182279f, -0.008288f, -0.100323f, 0.174885f, 0.004606f, 0.213978f, 0.017058f, -0.176056f, 0.150488f, 0.243846f, -0.208234f, 0.045188f, -0.167674f, -0.219272f, -0.160734f, -0.075456f, -0.080670f, 0.206334f, -0.198859f, 0.180034f, 0.351019f, -0.229978f, 0.150026f, -0.053893f, -0.191017f, 0.175827f, -0.176264f, -0.148454f, 0.003576f, -0.168030f, -0.022249f, -0.137818f, -0.033151f, -0.015536f, -0.047144f, -0.159407f, -0.132919f, -0.026882f, 0.081145f, -0.170844f, 0.017309f, -0.058811f, 0.086724f, -0.209378f, 0.202097f, 0.036789f, 0.173246f, 0.041688f, -0.214053f, 0.144281f, -0.029670f, 0.091824f, 0.080940f, -0.004539f, -0.028433f, 0.041026f, 0.065191f, 0.043235f, 0.043862f, 0.159162f, 0.536507f, -0.029037f, 0.171247f, -0.125106f, -0.051929f, 0.114437f, -0.289685f, -0.361043f, -0.128706f, -0.289196f, -0.306682f, 0.617243f, -0.317288f, -0.197800f, -0.152403f, 0.049951f, 0.449612f, 0.180925f, -0.199074f, 0.045760f, -0.001676f, 0.002370f, 0.042023f, -0.182330f, -0.216394f, 0.249470f, -0.136045f, -0.328203f, -0.088623f, -0.295917f, -0.284769f, 0.127673f, -0.269363f, 0.366414f, 0.017181f, 0.110639f, 0.017717f, -0.064583f, 0.140883f, 0.012128f, -0.231445f, -0.161228f, 0.020600f, -0.035945f, 0.062196f, -0.140536f, 0.174205f, 0.176721f, -0.234273f, 0.082551f, -0.233536f, 0.214115f, -0.166654f, -0.134919f, 0.426784f, -0.789214f, 0.592175f, 0.031197f, -0.031452f, -0.110804f, 0.248171f, 0.149549f, 0.185165f, 0.478922f, -0.263183f, 0.015023f, -0.051748f, 0.040438f, 0.065132f, -0.491071f, -0.149224f, 0.012494f, 0.327477f, -0.059427f, 0.133795f, -0.211530f, 0.076100f, 0.099384f, 0.029718f, -0.086578f, 0.220807f, -0.144855f, -0.072112f, -0.054588f, -0.042419f, 0.147176f, -0.189814f, -0.132411f, -0.277045f, 0.314706f, 0.021354f, -0.013915f, -0.004066f, 0.309862f, -0.364688f, 0.046697f, -0.303122f, 0.203632f, 0.029211f, -0.069968f, 0.028386f, -0.090025f, -0.131736f, 0.052140f, -0.200334f, 0.075792f, -0.090769f, 0.164764f, 0.158083f, -0.202008f, -0.056686f, 0.110704f, -0.063467f, 0.351867f, -0.056582f, -0.255601f, -0.288936f, -0.148733f, 0.449226f, -0.227443f, -0.296014f, 0.231084f, -0.377243f, -0.116009f, 0.043457f, -0.259321f, 0.180329f, 0.297528f, 0.014457f, -0.076685f, -0.152695f, -0.175055f, -0.121756f, -0.208133f, 0.130364f, 0.041361f, -0.160895f, -0.211865f, -0.209329f, -0.008202f, 0.010454f, 0.135583f, -0.056003f, -0.150983f, 0.022546f, -0.020095f, -0.195730f, -0.106528f, 0.142191f, 0.332149f, 0.063537f, -0.166869f, 0.298881f, 0.109361f, 0.015918f, 0.063169f, 0.076208f, -0.145159f, 0.116995f, -0.013444f, -0.098733f, -0.113226f, -0.034026f, -0.108629f, 0.047324f, -0.266742f, -0.075529f, 0.038788f, -0.107614f, -0.066262f, 0.037252f, -0.128208f, -0.012118f, 0.044110f, 0.057225f, 0.057887f, -0.000654f, 0.161056f, -0.302552f, 0.356824f, -0.364138f, -0.112877f, -0.053067f, -0.298666f, -0.142218f, 0.166031f, 0.273776f, 0.193054f, 0.142280f, -0.093731f, 0.192940f, -0.162837f, 0.006539f, -0.116962f, 0.150028f, 0.481570f, -0.080327f, 0.111866f, 0.056244f, -0.134835f, 0.115277f, 0.059311f, -0.521953f, 0.368626f, 0.107114f, 0.104891f, -0.163556f, 0.291954f, 0.309448f, 0.029101f, -0.401303f, -0.403850f, 0.242040f, 0.146746f, -0.187726f, 0.021697f, -0.213953f, 0.416496f, -0.217441f, -0.093171f, 0.164116f, 0.182655f, -0.179759f, -0.144291f, -0.123536f, 0.219395f, 0.179604f, -0.096942f, -0.321234f, 0.108479f, -0.091065f, -0.235917f, 0.353161f, -0.067263f, 0.055550f, 0.281010f, 0.123607f, 0.135266f, -0.194009f, -0.214366f, 0.007592f, -0.039985f, -0.176086f, -0.099405f, -0.087400f, -0.158672f, -0.118394f, 0.027655f, 0.025633f, 0.345475f, 0.094764f, -0.194999f, 0.008466f, -0.267541f, -0.047137f, 0.060280f, -0.139154f, -0.007147f, 0.098665f, -0.132690f, -0.004202f, -0.001037f, -0.212640f, -0.321513f, -0.216328f, 0.281931f, 0.307987f, 0.123875f, -0.133523f, -0.140511f, 0.238727f, 0.333151f, -0.178475f, 0.019368f, 0.045612f, -0.080998f, -0.238394f, -0.221292f, 0.178308f, 0.110383f, -0.202206f, 0.183522f, 0.265470f, 0.428446f, 0.019656f, -0.245043f, 0.004835f, -0.153482f, -0.130518f, -0.153706f, -0.108700f, -0.194977f, -0.204531f, -0.154988f, 0.079609f, 0.018594f, -0.020131f, 0.057125f, 0.197514f, -0.139510f, 0.175941f, -0.109566f, 0.095356f, -0.215279f, -0.085427f, 0.181072f, -0.226420f, 0.164971f, 0.122560f, 0.088544f, 0.313915f, 0.167011f, -0.233418f, -0.167674f, 0.184250f, -0.180150f, -0.019775f, -0.143078f, 0.019055f, -0.020833f, -0.160710f, 0.084545f, 0.019482f, -0.191954f, 0.014943f, 0.027044f, -0.148864f, 0.128038f, -0.272747f, -0.228255f, 0.922491f, -0.055695f, -0.375576f, -0.317453f, -0.449903f, -0.136727f, -0.083581f, 0.120870f, -0.401183f, 0.197489f, -0.103334f, -0.110501f, 0.533363f, 0.665048f, 0.400171f, -0.038175f, 0.060181f, -0.335648f, -0.081363f, 0.123800f, 0.076932f, 0.042872f, -0.006503f, -0.012068f, 0.118716f, -0.176344f, 0.154873f, 0.083134f, 0.149864f, -0.254882f, 0.298255f, -0.068990f, -0.107413f, -0.067768f, 0.015740f, -0.013572f, -0.121035f, 0.050497f, -0.032328f, -0.406793f, -0.006065f, -0.028431f, -0.266553f, -0.146359f, 0.052032f, 0.073849f, 0.164725f, 0.076804f, 0.162646f, -0.003317f, -0.093418f, 0.044624f, -0.030427f, 0.044840f, -0.204316f, -0.089135f, 0.000018f, 0.067137f, 0.216307f, -0.056326f, -0.202928f, 0.201610f, -0.038480f, 0.008624f, 0.144194f, -0.137405f, -0.121200f, 0.003848f, 0.073503f, -0.412042f, -0.085185f, -0.143839f, 0.172602f, -0.206695f, -0.040828f, -0.088537f, 0.343628f, 0.438737f, 0.771066f, -0.180346f, -0.015785f, -0.280052f, -0.104200f, 0.212515f, 0.169850f, 0.045507f, -0.422583f, -0.453207f, -0.057786f, -0.207138f, 0.176826f, -0.001835f, 0.353081f, 0.190450f, -0.248901f, 0.405052f, -0.360628f, 0.392381f, -0.218312f, -0.095586f, -0.179115f, -0.032553f, 0.027114f, 0.337330f, -0.136450f, -0.055802f, -0.070699f, -0.033680f, 0.076989f, -0.405171f, 0.010524f, -0.266295f, 0.300407f, 0.317605f, -0.261134f, -0.235796f, -0.393711f, 0.350207f, -0.185707f, -0.418892f, -0.100288f, 0.124510f, -0.297368f, 0.301663f, -0.378161f, -0.041022f, 0.139038f, 0.209882f, 0.224614f, 0.111251f, 0.578411f, -0.265797f, 0.012917f, -0.469968f, 0.067642f, -0.106988f, -0.027005f, -0.180379f, -0.280765f, -0.115771f, -0.517940f, 0.039706f, 0.051201f, -0.102410f, 0.047483f, -0.041966f, -0.002450f, 0.099139f, 0.146578f, 0.088499f, -0.156794f, -0.163699f, -0.218604f, 0.000896f, 0.066652f, 0.208882f, -0.110070f, 0.159552f, -0.043826f, 0.102915f, 0.164223f, -0.104520f, -0.084478f, -0.120260f, 0.093657f, -0.017091f, -0.102910f, -0.198588f, -0.069995f, 0.018855f, -0.468467f, -0.048718f, -0.239824f, 0.796831f, 0.152897f, -0.224360f, 0.186335f, -0.047305f, -0.348391f, 0.056217f, 0.024688f, 0.014147f, 0.083264f, -0.265956f, -0.005338f, 0.324793f, -0.087322f, -0.063219f, -0.422894f, -0.087001f, -0.131225f, 0.086185f, 0.011833f, -0.149950f, -0.040147f, 0.145663f, -0.141931f, 0.154888f, -0.091754f, 0.021903f, -0.143335f, 0.008040f, 0.208452f, -0.015293f, -0.115388f, -0.137003f, 0.117379f, 0.044658f, -0.127529f, -0.004061f, 0.230729f, 0.163501f, -0.304938f, -0.008022f, 0.071133f, -0.105846f, 0.457552f, 0.159124f, -0.158225f, 0.076862f, 0.151414f, 0.138739f, 0.199229f, -0.106373f, -0.208883f, -0.227144f, 0.030507f, -0.252909f, -0.290800f, -0.042748f, 0.058992f, -0.036925f, 0.136510f, 0.065719f, -0.274313f, 0.040961f, 0.119533f, -0.068406f, -0.055086f, -0.071432f, 0.183909f, -0.020253f, 0.007534f, -0.006152f, -0.142294f, -0.030130f, 0.114300f, -0.001202f, 0.059539f, 0.156970f, 0.036582f, 0.177605f, 0.187817f, -0.177089f, -0.109681f, -0.143897f, 0.162943f, -0.058927f, -0.575145f, 0.368639f, -0.031390f, 0.078995f, 0.174419f, -0.261239f, -0.378652f, -0.299979f, 0.161873f, 0.568890f, -0.220006f, -0.000076f, -0.113820f, 0.313236f, -0.155184f, -0.162189f, -0.078125f, -0.250026f, -0.412735f, 0.254026f, 0.079268f, -0.186617f, -0.215906f, 0.104102f, -0.011451f, 0.238351f, 0.104859f, 0.014048f, -0.074920f, -0.031835f, -0.068545f, 0.312259f, -0.104216f, -0.255252f, 0.385576f, -0.202616f, -0.203715f, -0.323641f, 0.012070f, -0.107416f, 0.167148f, -0.166151f, -0.186411f, 0.144279f, -0.206190f, -0.163656f, -0.100035f, -0.008074f, 0.061763f, -0.016969f, -0.214583f, 0.005140f, 0.107750f, 0.041696f, 0.148384f, 0.411092f, -0.141718f, -0.149165f, 0.020741f, 0.132510f, -0.285485f, 0.522590f, -0.218168f, 0.012290f, 0.021960f, 0.053024f, -0.127084f, -0.178911f, 0.013986f, -0.252104f, 0.112437f, -0.049858f, -0.040136f, 0.132409f, -0.115108f, 0.129042f, 0.088800f, 0.158231f, -0.257508f, -0.027999f, 0.090245f, -0.101947f, 0.000350f, -0.137758f, -0.090647f, -0.047303f, 0.143231f, 0.095869f, -0.192311f, 0.019679f, -0.088052f, -0.121707f, 0.021749f, 0.152340f, -0.104165f, 0.219236f, -0.240988f, 0.226659f, 0.067655f, -0.085742f, 0.162533f, 0.227968f, -0.254326f, -0.641405f, 0.848277f, -0.240622f, 0.076119f, 0.252029f, 0.296440f, -0.031151f, 0.028961f, 0.139295f, -0.081291f, 0.078037f, 0.106460f, -0.153506f, 0.099053f, -0.152882f, 0.028900f, -0.179619f, -0.179275f, -0.257554f, -0.166681f, -0.017615f, 0.296164f, 0.130485f, 0.187383f, -0.189890f, 0.115436f, 0.149962f, -0.072195f, -0.004503f, 0.064199f, 0.022501f, -0.132385f, -0.093999f, -0.096410f, 0.087241f, 0.103494f, 0.061244f, 0.103196f, 0.132947f, 0.117579f, 0.083035f, -0.019002f, -0.077735f, -0.144532f, 0.125380f, -0.096831f, 0.194370f, -0.113798f, 0.062594f, 0.216467f, 0.928573f, -0.401350f, -0.284371f, -0.139182f, -0.206769f, -0.522979f, 0.091226f, 0.069148f, 0.523397f, -0.037028f, -0.098421f, 0.109182f, -0.239761f, 0.389668f, -0.225458f, 0.044239f, 0.249412f, -0.182907f, 0.021518f, -0.100347f, 0.068145f, -0.015622f, 0.148316f, -0.120496f, 0.072072f, -0.228674f, -0.225417f, 0.290143f, 0.004982f, 0.092508f, -0.005408f, -0.205785f, 0.387283f, 0.095466f, -0.041181f, -0.334171f, -0.044619f };
static float rede_neural_buf1[106];
static float rede_neural_buf2[106];
static const EmlNetLayer rede_neural_layers[2] = { 
{ 106, 64, rede_neural_layer_0_weights, rede_neural_layer_0_biases, EmlNetActivationRelu }, 
{ 10, 106, rede_neural_layer_1_weights, rede_neural_layer_1_biases, EmlNetActivationSoftmax } };
static EmlNet rede_neural = { 2, rede_neural_layers, rede_neural_buf1, rede_neural_buf2, 106 };

    int32_t
    rede_neural_predict(const float *features, int32_t n_features)
    {
        return eml_net_predict(&rede_neural, features, n_features);
    }
    

    int32_t
    rede_neural_regress(const float *features, int32_t n_features, float *out, int32_t out_length)
    {
        return eml_net_regress(&rede_neural, features, n_features, out, out_length);
    }
    

    float
    rede_neural_regress1(const float *features, int32_t n_features)
    {
        return eml_net_regress1(&rede_neural, features, n_features);
    }
    