
#include <eml_net.h>
static const float rede_neural_layer_0_biases[195] = { 0.156650f, 0.176847f, -0.081207f, 0.063858f, 0.125161f, -0.040209f, -0.019644f, -0.041675f, -0.118542f, -0.008219f, 0.031096f, 0.013098f, -0.011218f, 0.000812f, 0.009312f, -0.141344f, 0.194732f, -0.085642f, 0.012121f, 0.009434f, -0.055835f, 0.049364f, 0.095336f, -0.061947f, -0.086697f, 0.053779f, 0.329134f, 0.169922f, -0.117899f, 0.065622f, 0.122592f, -0.043642f, 0.176994f, 0.224707f, 0.179070f, 0.041308f, 0.099849f, 0.232944f, 0.024874f, 0.034432f, 0.267609f, 0.047510f, 0.008596f, 0.118437f, 0.079347f, 0.227016f, -0.031223f, -0.094834f, 0.095662f, 0.027412f, 0.189619f, 0.127850f, -0.065999f, 0.080559f, -0.017233f, -0.171291f, -0.027035f, 0.161918f, -0.128542f, -0.123466f, 0.084328f, -0.141921f, 0.074688f, 0.000699f, 0.081521f, 0.106631f, -0.074795f, -0.015070f, 0.158603f, 0.154104f, -0.115195f, 0.040865f, -0.095370f, 0.077391f, -0.044476f, -0.084036f, 0.065218f, -0.030924f, -0.043160f, 0.236598f, 0.104094f, 0.040721f, 0.005039f, -0.077086f, 0.096357f, 0.289339f, 0.033562f, 0.190917f, 0.112796f, -0.122145f, -0.029466f, -0.035842f, 0.139103f, 0.079516f, -0.122943f, 0.069265f, -0.024889f, 0.111625f, 0.179954f, -0.039731f, 0.253226f, -0.146051f, -0.026538f, -0.053688f, 0.025981f, -0.134569f, 0.082421f, 0.106066f, -0.185373f, 0.000491f, 0.150743f, -0.172613f, 0.146755f, 0.173044f, -0.062676f, 0.090267f, -0.045602f, 0.132391f, 0.204172f, 0.034972f, 0.087291f, 0.207555f, 0.031205f, -0.111603f, 0.143079f, -0.045164f, -0.127091f, 0.041239f, 0.193425f, -0.099143f, 0.082767f, 0.251969f, 0.109044f, -0.012035f, -0.033870f, 0.078951f, 0.170278f, 0.139770f, 0.096592f, 0.018204f, -0.017896f, 0.209459f, -0.016060f, -0.095703f, 0.111244f, -0.172900f, 0.186738f, -0.047502f, 0.135049f, -0.014189f, 0.039043f, 0.193569f, -0.147150f, 0.107795f, 0.029049f, 0.259415f, 0.122202f, -0.159247f, 0.123011f, -0.083515f, 0.157793f, 0.216786f, 0.163469f, 0.082249f, -0.122987f, -0.005422f, -0.133037f, 0.048360f, 0.181669f, -0.083725f, -0.158667f, 0.212953f, 0.213529f, -0.011438f, 0.187774f, 0.130861f, 0.170167f, 0.043200f, 0.109503f, -0.054988f, 0.081365f, 0.277922f, -0.005259f, -0.174199f, -0.123700f, 0.072072f, 0.189298f, 0.065025f, 0.069273f, 0.207835f, -0.064120f, 0.270134f, -0.111651f, -0.089200f, 0.063275f };
static const float rede_neural_layer_0_weights[12480] = { -0.019482f, -0.144298f, 0.015116f, -0.019687f, -0.024238f, -0.051643f, -0.089899f, 0.036304f, -0.060981f, -0.070973f, 0.036871f, 0.008870f, -0.111226f, 0.004133f, -0.096050f, 0.086850f, 0.107743f, -0.001754f, 0.105486f, -0.127947f, 0.001597f, -0.132318f, -0.021878f, -0.122808f, -0.113485f, 0.029447f, -0.083396f, -0.119638f, -0.085133f, -0.045710f, -0.009805f, -0.090783f, 0.042737f, -0.005153f, 0.001594f, -0.034428f, 0.089377f, 0.024352f, -0.102789f, 0.061105f, 0.141400f, 0.000003f, 0.118562f, -0.048210f, 0.020437f, -0.022054f, -0.019253f, 0.084179f, 0.010837f, 0.138110f, 0.013456f, -0.127202f, -0.040683f, 0.106792f, -0.028528f, -0.143910f, -0.076954f, -0.131752f, 0.150318f, 0.143235f, 0.091392f, 0.030991f, 0.080648f, -0.100681f, -0.062999f, 0.007325f, -0.043641f, -0.138286f, 0.147062f, -0.017850f, 0.001218f, -0.053710f, -0.073129f, -0.034428f, 0.101059f, 0.072061f, -0.036766f, -0.148227f, 0.090524f, -0.070193f, 0.025168f, -0.144412f, 0.049371f, -0.034236f, -0.000891f, -0.025901f, -0.045391f, 0.015517f, 0.143944f, -0.117863f, -0.056840f, -0.139467f, 0.072564f, 0.047943f, -0.086859f, -0.025339f, 0.043782f, 0.049152f, -0.100300f, 0.116167f, 0.084620f, -0.111417f, 0.112291f, 0.075723f, 0.090883f, 0.013193f, -0.084971f, 0.127370f, 0.028029f, -0.046802f, -0.071901f, 0.125987f, -0.024431f, 0.012233f, 0.033008f, 0.099304f, 0.037610f, -0.098402f, 0.027777f, -0.003267f, 0.014582f, 0.060730f, -0.077370f, -0.095384f, -0.118530f, -0.068772f, -0.149070f, 0.039374f, -0.062345f, -0.095183f, -0.123186f, -0.065820f, -0.086771f, -0.065258f, -0.008702f, 0.015066f, 0.105045f, 0.148692f, -0.137315f, -0.081538f, 0.043621f, -0.103043f, 0.112665f, -0.086017f, 0.073585f, 0.046576f, 0.090975f, -0.142678f, -0.082312f, 0.062284f, -0.125537f, -0.142879f, -0.043485f, 0.027328f, -0.136294f, -0.132203f, -0.138949f, -0.031914f, 0.051266f, -0.091914f, 0.114528f, -0.020579f, 0.036416f, -0.063790f, 0.035081f, 0.138085f, -0.015823f, -0.089168f, -0.022717f, -0.016870f, 0.002319f, 0.007833f, -0.139275f, -0.102144f, -0.015150f, 0.063302f, 0.084492f, 0.084344f, 0.000846f, 0.139024f, -0.051174f, -0.005644f, 0.075600f, 0.108919f, -0.026037f, 0.106132f, -0.016871f, 0.065669f, -0.149618f, -0.144519f, 0.134064f, -0.121101f, 0.049300f, -0.065972f, -0.091057f, -0.057529f, 0.044170f, 0.031983f, 0.176698f, 0.019213f, -0.024112f, 0.003072f, -0.084405f, -0.080349f, -0.035897f, -0.038836f, 0.068453f, 0.017542f, 0.166806f, 0.006455f, 0.180806f, 0.012592f, -0.054528f, -0.081291f, -0.080294f, 0.060960f, 0.067303f, -0.015364f, 0.031139f, 0.077189f, 0.092166f, -0.155426f, 0.068217f, 0.038528f, -0.098729f, -0.171205f, -0.005703f, -0.101429f, 0.033597f, 0.030211f, -0.014662f, 0.027592f, -0.055239f, -0.097405f, 0.071945f, -0.084254f, 0.040265f, 0.031979f, -0.073165f, 0.166199f, -0.031629f, -0.044412f, 0.123096f, -0.048973f, -0.040880f, 0.055046f, 0.197842f, -0.064829f, 0.065856f, 0.026295f, -0.043277f, 0.095617f, -0.045713f, -0.043640f, 0.021640f, -0.096700f, -0.110241f, -0.116111f, -0.099823f, 0.044963f, 0.002932f, -0.108781f, -0.001578f, -0.083968f, -0.088418f, 0.041353f, 0.097085f, 0.163369f, 0.049611f, -0.044825f, -0.082780f, 0.017571f, -0.117016f, 0.036815f, 0.009406f, 0.036105f, -0.129153f, 0.133525f, 0.090814f, 0.061910f, 0.025495f, 0.118649f, 0.168283f, 0.190761f, 0.182670f, 0.063936f, -0.139849f, 0.074545f, -0.010172f, -0.091238f, 0.093470f, 0.055311f, 0.014191f, 0.059804f, -0.015137f, -0.038578f, -0.095706f, 0.073147f, -0.120489f, 0.174930f, -0.071443f, -0.041376f, -0.133680f, -0.090528f, 0.107441f, -0.007446f, 0.050947f, -0.137910f, -0.108369f, 0.108616f, 0.093432f, -0.082390f, 0.148287f, 0.001773f, 0.060180f, -0.062397f, -0.014529f, 0.123731f, 0.016180f, -0.012301f, -0.179532f, -0.066449f, 0.158130f, -0.058153f, -0.045919f, -0.149458f, -0.171023f, -0.061402f, -0.159694f, -0.030383f, -0.099766f, -0.124559f, -0.121241f, 0.007131f, -0.147942f, 0.166364f, -0.064874f, -0.003876f, -0.041301f, -0.064424f, -0.098326f, -0.078167f, -0.063948f, -0.156039f, -0.033140f, 0.019873f, -0.041009f, 0.150687f, -0.052368f, -0.032822f, 0.022520f, -0.073945f, 0.155522f, 0.158288f, 0.079540f, 0.083210f, -0.138215f, 0.024761f, 0.150810f, -0.135957f, -0.110957f, 0.076915f, 0.110976f, -0.055443f, -0.049649f, 0.089632f, -0.152723f, 0.027025f, -0.016294f, -0.030882f, 0.035122f, -0.192821f, 0.119479f, 0.091929f, 0.025414f, -0.113652f, -0.217880f, -0.035814f, 0.078244f, 0.147715f, -0.058302f, -0.094299f, -0.005185f, 0.132593f, -0.078630f, -0.078532f, 0.030529f, -0.103008f, -0.050173f, 0.119388f, -0.045600f, 0.058361f, 0.022322f, 0.017922f, -0.159977f, -0.082284f, 0.103033f, -0.211453f, -0.018583f, -0.159268f, -0.105135f, -0.054949f, -0.091672f, 0.048694f, -0.249986f, 0.038190f, -0.043562f, 0.162467f, 0.083103f, 0.108704f, -0.156729f, -0.071164f, 0.093037f, -0.057632f, -0.101616f, 0.039007f, -0.031145f, 0.056836f, -0.081903f, 0.082426f, -0.041468f, 0.082997f, -0.070737f, -0.008882f, 0.073728f, -0.369840f, 0.051174f, 0.193329f, -0.147092f, 0.224077f, 0.057232f, 0.071909f, -0.185173f, 0.141045f, 0.036915f, 0.079474f, 0.155176f, -0.005985f, -0.068953f, -0.097118f, -0.104584f, 0.153185f, -0.063976f, 0.053006f, 0.041742f, -0.110299f, 0.076551f, -0.011908f, 0.118129f, 0.119233f, -0.165355f, -0.100872f, 0.056974f, 0.079828f, 0.153416f, 0.087663f, -0.091748f, -0.111493f, 0.011742f, 0.201392f, -0.038355f, 0.062113f, 0.093083f, 0.153187f, -0.264056f, 0.202360f, 0.248194f, -0.147076f, 0.002275f, -0.093402f, -0.013766f, -0.089744f, -0.026835f, 0.014525f, -0.030774f, 0.085200f, 0.059818f, -0.121355f, 0.170125f, 0.290255f, 0.024648f, 0.110497f, 0.151958f, 0.020180f, 0.030201f, 0.026350f, -0.015895f, 0.072529f, 0.105322f, 0.115785f, 0.027378f, -0.185870f, 0.206831f, 0.059385f, 0.171107f, 0.114535f, -0.152806f, 0.076544f, -0.042828f, -0.030827f, 0.005466f, -0.012356f, -0.145724f, 0.086900f, 0.128701f, 0.272950f, -0.105279f, 0.075295f, -0.174473f, 0.144695f, 0.011236f, 0.106997f, -0.157340f, 0.061972f, -0.127333f, 0.061684f, 0.005102f, -0.111899f, -0.102641f, -0.001642f, -0.073763f, -0.183297f, -0.016158f, 0.066784f, 0.053693f, -0.153256f, 0.080591f, -0.146515f, -0.003079f, -0.207799f, 0.085668f, 0.263808f, 0.119088f, -0.067537f, -0.070690f, 0.035035f, 0.016115f, 0.033437f, -0.089913f, -0.002996f, -0.155755f, -0.165442f, 0.026775f, 0.158749f, -0.036578f, 0.070570f, 0.078392f, -0.051418f, -0.014738f, -0.019378f, -0.101557f, -0.009518f, -0.033147f, -0.094469f, 0.026127f, -0.072875f, 0.024424f, 0.122902f, 0.259240f, -0.083355f, -0.032121f, 0.024766f, -0.177673f, -0.070941f, -0.142283f, -0.030427f, -0.127788f, -0.035294f, -0.083639f, 0.039816f, -0.024945f, -0.034120f, -0.083038f, 0.056505f, 0.158778f, 0.061767f, 0.156437f, 0.135809f, 0.051157f, -0.155972f, -0.155223f, 0.047491f, -0.065859f, 0.014048f, 0.227056f, 0.229957f, 0.327342f, 0.088504f, 0.039577f, -0.185377f, -0.167823f, 0.175845f, 0.106900f, 0.227298f, -0.002073f, 0.003147f, -0.041046f, 0.025413f, 0.073062f, -0.150812f, -0.018659f, -0.092396f, 0.085470f, -0.010974f, -0.146161f, -0.018630f, -0.019100f, 0.140273f, 0.043551f, -0.083931f, 0.241076f, -0.020992f, 0.127595f, -0.062939f, -0.099562f, -0.227750f, 0.050022f, -0.165972f, -0.197606f, -0.108351f, -0.083831f, 0.048521f, -0.228781f, -0.083060f, -0.052053f, -0.048010f, 0.197987f, -0.078022f, -0.071405f, -0.044142f, 0.424037f, -0.072620f, 0.005715f, -0.004693f, -0.169617f, 0.023232f, -0.045225f, 0.139626f, 0.010703f, -0.110760f, -0.012958f, -0.066629f, 0.194906f, 0.185794f, -0.031683f, -0.011695f, -0.231234f, 0.092098f, 0.014046f, -0.048292f, 0.007659f, 0.115977f, -0.056442f, 0.022004f, 0.005102f, 0.083309f, -0.169752f, 0.010986f, -0.069331f, -0.183804f, 0.148408f, -0.020987f, -0.108886f, 0.071877f, -0.013786f, -0.106807f, -0.047472f, -0.049472f, -0.248175f, -0.071006f, 0.113003f, 0.091222f, -0.153557f, 0.212324f, -0.127627f, 0.078965f, 0.206896f, 0.249316f, 0.095490f, -0.097411f, -0.076746f, -0.169543f, 0.201241f, 0.053024f, 0.151791f, 0.065616f, -0.175789f, 0.077769f, 0.053397f, -0.006528f, 0.058558f, -0.109800f, 0.023785f, -0.149758f, 0.050201f, 0.003836f, -0.087197f, 0.006517f, -0.099770f, -0.249684f, -0.031072f, -0.057787f, -0.070964f, -0.096329f, -0.089358f, -0.011277f, 0.100370f, -0.202650f, -0.027417f, 0.153766f, 0.052797f, 0.126515f, 0.069076f, -0.085358f, 0.052886f, -0.092094f, 0.227291f, 0.137740f, 0.013374f, 0.083355f, -0.067079f, 0.095519f, -0.015457f, 0.049950f, 0.029318f, 0.247226f, 0.005973f, -0.123260f, 0.016473f, -0.094729f, 0.206043f, -0.099118f, 0.129857f, 0.027805f, -0.118055f, 0.055271f, 0.015301f, -0.074063f, -0.053099f, -0.101716f, -0.163731f, 0.073170f, 0.098581f, 0.099728f, -0.099982f, -0.016582f, 0.038588f, 0.167202f, 0.060383f, -0.136021f, 0.121283f, 0.034697f, 0.001186f, 0.202066f, 0.022390f, 0.010650f, 0.245226f, -0.000148f, -0.118883f, 0.141989f, -0.208753f, 0.295694f, -0.141422f, -0.172305f, 0.179777f, 0.015562f, -0.091851f, 0.118344f, 0.046207f, 0.132142f, -0.047868f, -0.041814f, 0.158655f, 0.125183f, 0.357189f, 0.071644f, -0.068331f, 0.156761f, 0.128537f, 0.146697f, 0.110984f, 0.121337f, 0.081607f, 0.043205f, -0.108696f, -0.154955f, 0.007271f, -0.030051f, -0.069184f, 0.073884f, 0.008152f, -0.158092f, -0.035075f, 0.101187f, -0.088112f, -0.045716f, 0.159001f, -0.055719f, -0.123172f, -0.071482f, 0.018901f, 0.072430f, -0.116811f, 0.141672f, 0.032447f, 0.024106f, 0.002529f, -0.083630f, -0.040370f, -0.009869f, 0.028734f, -0.007359f, -0.000713f, 0.092040f, -0.176095f, 0.021378f, -0.005486f, 0.097414f, 0.072101f, -0.121874f, -0.229844f, -0.110424f, 0.027037f, -0.274240f, 0.181717f, 0.199923f, 0.136435f, 0.152956f, 0.071738f, -0.083836f, 0.005063f, -0.058568f, 0.137182f, 0.151621f, -0.086629f, 0.126613f, 0.013190f, -0.038514f, -0.108964f, -0.161831f, -0.123291f, -0.009777f, 0.114889f, 0.113698f, 0.227497f, -0.098514f, -0.071128f, -0.110716f, 0.013382f, -0.142217f, 0.051640f, 0.089958f, 0.110510f, 0.001516f, -0.113024f, -0.150758f, 0.001633f, -0.128598f, 0.055095f, 0.151286f, -0.136051f, -0.016145f, -0.088404f, -0.121928f, 0.075356f, 0.027894f, 0.002894f, 0.162333f, 0.057698f, -0.020640f, 0.061098f, 0.124645f, -0.104071f, -0.195260f, 0.039796f, 0.033828f, -0.055113f, -0.139302f, 0.115725f, -0.017744f, 0.204597f, -0.366137f, -0.026912f, 0.071962f, -0.147679f, -0.287870f, 0.030236f, 0.061396f, -0.013649f, -0.127753f, -0.094175f, -0.092330f, -0.096904f, -0.105396f, 0.001357f, -0.236812f, 0.007150f, 0.167054f, -0.105042f, -0.042370f, -0.076635f, 0.189121f, 0.032935f, -0.051508f, 0.156973f, 0.031986f, -0.091287f, 0.112570f, -0.125145f, 0.109002f, -0.036822f, 0.080206f, 0.218311f, 0.163632f, 0.134661f, -0.007060f, 0.038069f, -0.089633f, -0.101478f, 0.092308f, 0.126994f, 0.006098f, 0.217535f, 0.093295f, -0.176205f, -0.107390f, -0.034726f, -0.036531f, 0.005986f, 0.022679f, -0.025992f, 0.194014f, -0.011432f, -0.267293f, 0.068627f, -0.006361f, -0.239912f, 0.090494f, 0.063982f, 0.177934f, -0.245957f, 0.036164f, 0.163308f, 0.123546f, -0.111551f, -0.063692f, -0.006505f, 0.205861f, 0.168483f, 0.044110f, 0.042606f, 0.252136f, 0.107891f, 0.122269f, 0.105138f, -0.159288f, 0.070418f, 0.061589f, -0.000900f, 0.068659f, -0.046956f, 0.062699f, -0.003586f, -0.061266f, 0.098693f, -0.149629f, 0.100003f, 0.209914f, 0.047239f, 0.133301f, 0.111883f, 0.127238f, -0.082786f, 0.131247f, 0.146782f, -0.107914f, -0.149434f, -0.133359f, 0.079149f, 0.114770f, -0.231030f, -0.087408f, -0.034975f, -0.022308f, -0.119966f, -0.058206f, -0.312426f, -0.066361f, 0.068637f, -0.119236f, 0.027308f, 0.139334f, -0.060823f, 0.221948f, -0.135420f, 0.036100f, 0.034044f, 0.027786f, 0.135327f, 0.155757f, 0.026667f, -0.082839f, -0.285562f, 0.129177f, 0.194760f, 0.107787f, 0.143830f, -0.168041f, -0.131507f, 0.006180f, -0.059323f, 0.255349f, 0.070411f, -0.018296f, -0.116581f, -0.193593f, -0.223448f, -0.167196f, -0.211182f, 0.010019f, -0.093998f, 0.010706f, 0.152150f, -0.197456f, 0.060151f, -0.052048f, 0.145291f, -0.080428f, 0.045954f, -0.080924f, 0.186570f, -0.067191f, -0.209921f, -0.113481f, 0.023377f, 0.056345f, 0.085607f, 0.028085f, 0.246461f, 0.123826f, -0.138706f, -0.087071f, -0.005734f, 0.077166f, -0.106829f, 0.096519f, 0.051802f, -0.017249f, 0.132976f, -0.187808f, -0.100903f, 0.049616f, -0.047397f, 0.281849f, 0.079842f, 0.200989f, -0.062423f, -0.026003f, 0.127088f, -0.153457f, -0.062280f, 0.120369f, 0.120829f, -0.144113f, 0.265172f, 0.006339f, 0.049767f, 0.044562f, 0.056489f, 0.032994f, -0.042102f, 0.182175f, -0.017501f, 0.335014f, -0.073560f, -0.174145f, -0.271506f, -0.003706f, 0.187695f, 0.047395f, 0.051242f, 0.143383f, -0.034325f, 0.047808f, -0.036542f, 0.160562f, -0.170728f, 0.096773f, -0.103837f, 0.175401f, -0.039724f, -0.080106f, 0.081624f, -0.014958f, 0.029319f, -0.073089f, 0.013473f, 0.157054f, -0.014659f, 0.125352f, 0.066844f, 0.011633f, 0.178367f, -0.076104f, 0.040160f, -0.185734f, -0.292965f, -0.029658f, -0.037845f, 0.191605f, 0.145215f, -0.127584f, -0.081687f, -0.063054f, -0.100546f, 0.102854f, 0.259458f, -0.052598f, 0.018166f, 0.122510f, -0.011255f, 0.185737f, 0.201733f, -0.016251f, 0.206213f, -0.126737f, 0.131382f, -0.143625f, -0.303198f, 0.179528f, -0.053451f, -0.116603f, -0.054720f, 0.043078f, 0.011327f, -0.108992f, 0.137615f, 0.218846f, 0.135549f, 0.044428f, -0.051507f, 0.017551f, 0.077144f, 0.002273f, 0.077894f, 0.079812f, -0.080687f, 0.093306f, 0.163965f, -0.150606f, 0.204020f, -0.274150f, 0.086156f, -0.093332f, -0.019341f, 0.163438f, -0.173166f, 0.042576f, -0.127790f, 0.226407f, -0.144497f, -0.213789f, -0.071773f, 0.145392f, -0.231643f, 0.236619f, 0.186682f, -0.014963f, -0.045440f, 0.052541f, -0.173165f, -0.270717f, 0.105050f, -0.003564f, -0.029166f, -0.078002f, -0.082653f, 0.051838f, -0.081471f, 0.037738f, -0.109494f, -0.105760f, -0.019196f, -0.179131f, -0.164741f, -0.092370f, -0.093866f, 0.043392f, 0.229547f, -0.072645f, -0.055997f, 0.196652f, 0.013518f, 0.152759f, 0.017096f, -0.204747f, -0.181385f, 0.027294f, -0.065707f, 0.007129f, 0.144926f, -0.039186f, -0.014888f, -0.274927f, -0.020612f, -0.151612f, 0.209238f, -0.010210f, -0.028852f, 0.141588f, -0.144366f, -0.088409f, -0.008748f, -0.008618f, 0.262766f, -0.293126f, 0.128668f, 0.150002f, -0.154929f, -0.004290f, -0.163290f, 0.212946f, -0.145668f, -0.099975f, 0.088026f, 0.174934f, -0.082245f, -0.219926f, -0.165260f, -0.141026f, 0.087399f, -0.124127f, 0.013055f, 0.145430f, 0.253891f, -0.016861f, 0.177176f, 0.034759f, -0.091631f, 0.049233f, 0.085051f, -0.000139f, 0.084855f, 0.244939f, -0.114149f, 0.120595f, 0.206082f, -0.030854f, 0.168048f, 0.073143f, 0.164411f, -0.160553f, 0.021728f, -0.072508f, 0.051379f, -0.147911f, 0.258557f, -0.081000f, 0.108849f, 0.240882f, -0.073874f, -0.184277f, 0.171180f, 0.120893f, -0.105632f, 0.031181f, 0.005288f, -0.096521f, 0.178807f, -0.031876f, -0.254363f, -0.063854f, 0.021059f, 0.232736f, 0.169056f, -0.005818f, 0.135922f, 0.095914f, -0.005305f, 0.071640f, 0.010557f, -0.138610f, 0.026251f, 0.071495f, 0.232882f, 0.060154f, -0.101690f, 0.122439f, -0.102627f, -0.150446f, -0.088482f, 0.132694f, -0.027733f, 0.160019f, -0.108211f, -0.184320f, 0.143131f, -0.139292f, -0.059106f, -0.145931f, 0.032711f, -0.068875f, -0.012222f, -0.155706f, 0.131791f, -0.099459f, -0.066036f, -0.077307f, 0.173040f, 0.140908f, 0.043739f, 0.062091f, -0.002390f, -0.025035f, -0.010594f, -0.152319f, -0.088155f, 0.126551f, 0.132630f, 0.113152f, 0.059282f, -0.051920f, -0.118210f, -0.242222f, -0.058303f, 0.086022f, -0.140791f, 0.011668f, -0.055497f, -0.074476f, 0.006408f, 0.027522f, 0.272528f, -0.088157f, -0.059840f, 0.235473f, 0.154909f, 0.194030f, 0.027040f, -0.037322f, -0.114350f, 0.076398f, 0.125257f, 0.004369f, -0.001240f, 0.151553f, -0.190746f, 0.019956f, -0.047104f, 0.180057f, -0.058279f, -0.284458f, -0.065263f, -0.122134f, -0.049619f, -0.046597f, -0.004934f, 0.030299f, 0.085054f, -0.071809f, 0.185277f, 0.103993f, 0.025247f, 0.041802f, 0.126107f, 0.071094f, 0.101771f, -0.124050f, 0.093249f, -0.174756f, -0.038302f, 0.026236f, -0.146073f, -0.141136f, -0.054949f, -0.028183f, 0.036826f, -0.084450f, -0.046939f, 0.109099f, -0.049947f, 0.134479f, 0.023660f, -0.141391f, 0.128607f, -0.119943f, -0.107135f, 0.195889f, -0.097797f, 0.126510f, 0.027970f, -0.129585f, -0.130162f, 0.173685f, 0.032250f, 0.042347f, -0.115996f, -0.023782f, -0.161860f, -0.047849f, -0.159930f, -0.136521f, 0.045769f, 0.068069f, 0.088263f, -0.038138f, -0.110594f, 0.071524f, -0.105026f, -0.113262f, -0.086429f, 0.024952f, 0.092272f, 0.163194f, -0.043057f, -0.116664f, -0.136847f, -0.094190f, 0.123354f, -0.145424f, 0.139773f, -0.020554f, -0.117220f, -0.015632f, 0.023171f, -0.127142f, 0.046511f, -0.107273f, -0.055549f, 0.031716f, 0.015984f, 0.069393f, 0.100343f, 0.028858f, 0.091816f, -0.076380f, 0.151950f, -0.123640f, -0.097651f, -0.084635f, -0.114406f, 0.060221f, -0.177282f, 0.083223f, 0.063425f, -0.059773f, 0.113347f, 0.075785f, 0.033589f, -0.145141f, 0.159903f, 0.062614f, 0.072486f, -0.102777f, -0.135992f, -0.060464f, 0.086699f, 0.103715f, 0.022430f, -0.059989f, 0.071290f, -0.104266f, 0.015135f, -0.112804f, 0.052016f, -0.070669f, -0.117345f, 0.056299f, -0.075282f, -0.145413f, -0.041335f, 0.084550f, 0.023416f, 0.078830f, -0.096914f, -0.057418f, 0.121974f, 0.023863f, 0.075912f, 0.097748f, -0.028452f, -0.069355f, -0.055687f, -0.062998f, -0.124191f, 0.029269f, -0.049976f, 0.120935f, 0.018498f, 0.137056f, 0.081512f, 0.060923f, 0.077041f, 0.077117f, 0.004738f, -0.080919f, -0.042422f, -0.081554f, -0.014313f, -0.032796f, -0.056026f, -0.125459f, -0.027130f, -0.111339f, -0.024544f, -0.132947f, -0.039619f, 0.033560f, -0.158178f, -0.083447f, -0.026763f, -0.070920f, 0.007594f, 0.089461f, 0.083873f, -0.080135f, -0.066260f, 0.020566f, -0.050263f, -0.099011f, -0.108791f, 0.122731f, 0.139876f, -0.035882f, -0.145411f, 0.129551f, -0.080299f, -0.120740f, -0.062216f, -0.085078f, 0.131501f, -0.080691f, 0.070788f, -0.101238f, -0.108313f, -0.032573f, 0.086648f, 0.031667f, 0.086890f, -0.055272f, 0.021879f, -0.141689f, 0.053648f, 0.047636f, 0.148044f, -0.120611f, -0.034379f, 0.042467f, -0.150738f, 0.106808f, 0.069528f, 0.005370f, -0.027117f, 0.090449f, 0.190985f, 0.055103f, 0.137216f, -0.115020f, -0.063401f, 0.113643f, -0.054172f, -0.015972f, 0.006764f, -0.001064f, -0.027832f, -0.109171f, -0.024434f, -0.084395f, 0.080139f, 0.058263f, -0.088580f, 0.021305f, 0.020987f, -0.025778f, -0.131818f, 0.061013f, -0.129383f, 0.046104f, -0.132686f, 0.033948f, -0.070152f, -0.021854f, 0.136460f, 0.107145f, 0.024605f, 0.053778f, 0.113957f, 0.047197f, -0.112484f, -0.014899f, 0.103710f, 0.085302f, -0.087243f, 0.109829f, 0.034390f, -0.082440f, -0.138310f, 0.075167f, -0.018591f, 0.165148f, -0.085972f, -0.137052f, -0.075413f, -0.032279f, -0.143774f, -0.042400f, -0.081477f, 0.110850f, -0.100300f, 0.075186f, -0.104608f, -0.007972f, 0.020360f, 0.012448f, 0.146633f, -0.026896f, 0.047617f, 0.142373f, -0.074388f, 0.014883f, 0.118449f, 0.084158f, 0.058170f, -0.031815f, 0.121537f, 0.111137f, -0.009810f, 0.020107f, 0.042723f, 0.046956f, -0.031509f, -0.053740f, -0.109154f, 0.063274f, 0.087354f, -0.092900f, 0.082511f, -0.103876f, 0.137194f, -0.122733f, 0.043326f, -0.009337f, -0.108708f, 0.031026f, 0.042734f, 0.102536f, 0.000726f, 0.020191f, 0.043123f, 0.153149f, -0.037200f, 0.061659f, 0.044914f, -0.095495f, 0.066872f, 0.119627f, -0.022218f, 0.110774f, 0.028063f, 0.128474f, 0.065621f, -0.033534f, -0.058984f, -0.021023f, -0.049374f, -0.138271f, -0.151342f, -0.031150f, -0.088554f, 0.093387f, 0.144540f, -0.062485f, 0.071090f, -0.027978f, 0.103188f, -0.013275f, 0.108083f, 0.049172f, -0.124830f, -0.113242f, -0.025723f, 0.005292f, 0.002201f, 0.081396f, -0.151879f, -0.120287f, -0.054204f, 0.135720f, -0.153306f, 0.009283f, -0.151973f, 0.026984f, 0.015241f, -0.115380f, 0.013291f, 0.017298f, -0.010210f, 0.085923f, -0.131333f, -0.053593f, -0.011183f, -0.062586f, -0.121296f, -0.119278f, 0.083052f, -0.069223f, 0.042134f, 0.132257f, -0.067604f, -0.099313f, 0.025232f, 0.085778f, -0.043962f, 0.092129f, 0.153338f, 0.078758f, 0.147920f, -0.122400f, -0.035867f, 0.129248f, 0.045256f, -0.125892f, -0.082741f, -0.048238f, 0.038075f, 0.082037f, -0.004289f, -0.147659f, 0.127136f, 0.124678f, -0.040617f, 0.091983f, 0.001616f, -0.007473f, 0.119737f, -0.150152f, -0.027908f, -0.078369f, 0.004646f, -0.010387f, -0.094390f, 0.035472f, -0.035722f, 0.121168f, 0.147768f, -0.022162f, 0.078046f, 0.024364f, -0.013762f, -0.075508f, 0.125247f, -0.102623f, 0.109183f, 0.087927f, -0.093755f, 0.054568f, 0.105842f, 0.025255f, 0.062918f, -0.124888f, -0.044351f, -0.054303f, 0.082609f, 0.207979f, 0.122229f, -0.011966f, -0.177220f, 0.000583f, 0.163154f, -0.004756f, 0.038773f, 0.096107f, 0.099018f, -0.145452f, 0.151721f, 0.090699f, 0.013336f, 0.159780f, 0.156763f, -0.143920f, 0.140986f, -0.103332f, -0.089920f, -0.091841f, 0.019386f, -0.192707f, 0.052913f, -0.174613f, 0.202095f, -0.063983f, -0.016129f, -0.027002f, 0.108943f, -0.155706f, -0.123598f, -0.126982f, -0.014129f, 0.065722f, -0.199342f, 0.025401f, -0.010716f, 0.146803f, -0.126355f, -0.202382f, 0.084641f, -0.007774f, -0.057045f, 0.156391f, 0.061825f, -0.152659f, 0.048796f, 0.101823f, -0.022709f, -0.154672f, -0.100982f, -0.123769f, -0.001620f, 0.181324f, -0.028951f, 0.022912f, 0.039578f, 0.203898f, -0.165614f, 0.099048f, 0.024947f, 0.080674f, -0.160664f, -0.059056f, 0.119925f, -0.190609f, 0.019584f, 0.175800f, -0.029660f, -0.074027f, -0.183689f, 0.018527f, -0.013714f, -0.081661f, -0.003715f, 0.064971f, -0.128849f, -0.064619f, -0.151733f, 0.003617f, 0.064052f, -0.014866f, 0.117709f, 0.058487f, 0.141698f, 0.083994f, -0.148794f, 0.053138f, 0.060048f, 0.063599f, -0.137937f, 0.118557f, -0.030176f, -0.006912f, -0.078804f, 0.229938f, -0.148790f, 0.097078f, -0.083607f, -0.083893f, -0.224514f, -0.081727f, 0.014962f, -0.083426f, 0.142894f, -0.104412f, -0.018816f, 0.031258f, -0.069650f, 0.042798f, -0.134047f, 0.127346f, -0.117527f, -0.068576f, -0.025972f, 0.000992f, -0.124552f, 0.033180f, -0.080147f, -0.162535f, -0.158553f, 0.031114f, -0.034227f, 0.184065f, 0.082847f, 0.040422f, -0.099729f, -0.047568f, 0.005693f, -0.113508f, -0.147482f, -0.041116f, 0.008579f, -0.094387f, -0.140865f, 0.127022f, -0.075123f, -0.151415f, -0.039885f, -0.205170f, -0.166891f, -0.026218f, -0.086954f, 0.199552f, -0.053294f, 0.060819f, 0.164475f, -0.144534f, -0.122873f, 0.119896f, -0.217551f, 0.065971f, -0.057086f, -0.020312f, -0.050823f, -0.058902f, 0.024873f, -0.075323f, -0.011308f, 0.032444f, -0.140780f, 0.104628f, -0.101553f, -0.194589f, -0.100335f, -0.102519f, -0.078949f, -0.061383f, 0.085645f, -0.006910f, 0.010619f, 0.021043f, -0.080179f, 0.086838f, -0.124862f, -0.018788f, -0.033415f, 0.012310f, -0.110752f, 0.039541f, 0.195181f, 0.080131f, -0.060035f, -0.064387f, -0.012506f, 0.115430f, 0.134108f, 0.210993f, 0.006037f, -0.075976f, -0.255338f, -0.011194f, -0.081074f, -0.036628f, 0.209588f, -0.145752f, -0.146051f, -0.081266f, -0.086846f, 0.062981f, -0.124646f, -0.021850f, -0.089601f, -0.003938f, -0.285433f, -0.122351f, 0.067450f, -0.137288f, -0.082516f, -0.022303f, -0.106589f, 0.109309f, 0.079233f, -0.020831f, 0.066026f, -0.032560f, 0.040003f, 0.027940f, -0.013562f, 0.160880f, -0.035251f, 0.004066f, 0.012010f, -0.058019f, -0.133565f, 0.057628f, -0.046611f, -0.126574f, -0.214516f, 0.085934f, 0.099798f, 0.115274f, 0.162941f, 0.024104f, -0.038373f, -0.145912f, 0.065840f, -0.048457f, 0.074307f, 0.169143f, 0.099309f, 0.047794f, 0.002228f, 0.177317f, -0.157642f, -0.118566f, -0.094526f, -0.106379f, 0.123617f, 0.043587f, 0.050311f, 0.120054f, 0.209207f, -0.073916f, -0.069289f, -0.016520f, 0.084324f, -0.106300f, -0.087776f, 0.052738f, -0.009702f, 0.057839f, 0.109526f, -0.110839f, 0.248354f, 0.118722f, 0.009356f, -0.019268f, -0.026839f, -0.206572f, -0.175873f, -0.212039f, -0.074808f, -0.151947f, 0.079182f, 0.229829f, 0.035077f, 0.235635f, 0.030505f, -0.116847f, -0.074865f, 0.123942f, 0.031653f, -0.067756f, 0.305365f, -0.047172f, 0.113917f, 0.003872f, 0.186775f, -0.223585f, 0.005744f, 0.122785f, 0.156506f, 0.055241f, -0.191766f, -0.036841f, 0.190486f, -0.099838f, -0.236286f, 0.093936f, 0.120144f, 0.023040f, -0.155328f, -0.015046f, -0.030168f, -0.107404f, 0.135442f, 0.119853f, -0.166262f, -0.209542f, 0.129410f, 0.021428f, -0.067339f, -0.072128f, -0.193426f, -0.129985f, -0.089222f, -0.098020f, 0.052034f, 0.062599f, -0.057570f, -0.200526f, 0.047423f, -0.131860f, -0.003666f, -0.166845f, 0.217934f, 0.323682f, 0.109171f, -0.200062f, 0.006330f, -0.001216f, 0.103077f, 0.224282f, -0.211492f, -0.125162f, 0.054170f, 0.174945f, 0.107923f, -0.076929f, -0.060410f, -0.060593f, -0.001708f, 0.069713f, 0.098035f, 0.112337f, -0.137810f, -0.042019f, 0.046836f, -0.118425f, -0.068838f, -0.068287f, 0.002669f, 0.220915f, 0.140600f, 0.080792f, 0.142885f, 0.029231f, 0.074718f, 0.025551f, 0.002447f, 0.080005f, 0.044877f, -0.050963f, 0.070785f, 0.134243f, -0.027584f, 0.186602f, -0.120200f, -0.085352f, -0.084884f, -0.080855f, 0.118437f, 0.088939f, 0.206680f, 0.153935f, 0.026639f, -0.043845f, 0.110380f, 0.134427f, 0.057142f, -0.109692f, -0.076346f, -0.161534f, 0.015845f, -0.118247f, -0.278793f, -0.044124f, 0.009896f, 0.001443f, -0.144497f, 0.060850f, -0.145819f, -0.222800f, 0.098114f, 0.131771f, 0.083874f, 0.191905f, -0.024295f, 0.105096f, -0.065822f, 0.111749f, 0.105882f, -0.185188f, -0.043803f, -0.036418f, -0.040838f, 0.133893f, -0.049176f, -0.089888f, 0.052365f, 0.112074f, 0.003500f, -0.148052f, 0.131753f, -0.157617f, 0.019510f, 0.140612f, -0.026247f, 0.048826f, 0.179022f, -0.092119f, -0.036893f, 0.190680f, -0.033522f, -0.058701f, 0.039755f, 0.047264f, 0.059211f, -0.036591f, -0.130342f, -0.010918f, 0.027046f, 0.140547f, -0.120480f, 0.161418f, -0.133438f, 0.019806f, 0.120897f, 0.077411f, 0.121964f, 0.093016f, 0.037809f, 0.035945f, 0.017662f, -0.074799f, -0.209343f, -0.002307f, -0.085492f, -0.203155f, 0.068592f, 0.048272f, -0.036580f, 0.101301f, 0.039355f, 0.172886f, -0.094374f, 0.088321f, 0.047405f, 0.134247f, 0.059263f, 0.208895f, 0.025428f, -0.222644f, -0.097226f, -0.126250f, 0.146957f, -0.063978f, -0.042443f, 0.135781f, 0.128564f, -0.096952f, -0.015540f, 0.136858f, -0.205990f, 0.128563f, 0.113919f, -0.020163f, -0.059481f, 0.101068f, 0.146528f, 0.112796f, -0.167224f, 0.039631f, -0.066665f, -0.095580f, 0.190243f, 0.080495f, 0.134470f, -0.044927f, 0.027123f, 0.213098f, 0.142396f, -0.128731f, -0.086330f, -0.109819f, 0.010736f, -0.117503f, 0.108367f, 0.174180f, -0.074305f, 0.087697f, 0.249778f, -0.292543f, 0.037594f, 0.133149f, 0.138096f, -0.118964f, 0.022329f, 0.038693f, 0.032531f, 0.095626f, -0.052278f, -0.134598f, -0.168921f, 0.196551f, 0.052827f, -0.008743f, 0.104303f, 0.020101f, 0.009955f, 0.025158f, -0.062384f, 0.071196f, 0.036357f, -0.265695f, 0.063707f, -0.018473f, -0.138910f, -0.047970f, 0.032264f, -0.001309f, -0.078834f, 0.041856f, -0.103951f, -0.018459f, -0.003272f, -0.235738f, -0.105484f, 0.030547f, -0.046417f, 0.040784f, 0.043432f, 0.166350f, 0.104123f, -0.002625f, 0.142187f, 0.119652f, -0.078812f, 0.097491f, 0.055853f, -0.136891f, 0.014674f, -0.170442f, -0.135279f, -0.004172f, -0.081033f, -0.045750f, 0.019148f, 0.090312f, 0.069050f, -0.207799f, -0.052062f, -0.076858f, 0.090332f, -0.117975f, -0.170089f, -0.089463f, -0.170087f, 0.070634f, -0.095039f, 0.181555f, -0.079342f, 0.047114f, 0.020238f, 0.088887f, -0.003271f, 0.216774f, 0.002946f, 0.069895f, 0.167675f, -0.035750f, 0.024561f, -0.043268f, -0.001272f, 0.158977f, -0.204024f, -0.299042f, 0.175646f, 0.075457f, -0.043982f, 0.061939f, -0.177019f, 0.177851f, 0.021023f, -0.195152f, 0.145914f, 0.034926f, -0.101906f, -0.036975f, 0.140307f, -0.040827f, -0.028674f, -0.116067f, 0.138039f, -0.150111f, -0.112928f, 0.106771f, -0.282525f, -0.028877f, -0.073869f, -0.087268f, -0.007888f, 0.054472f, 0.106467f, -0.049382f, -0.149694f, 0.133162f, -0.109400f, -0.209891f, 0.107376f, 0.078719f, -0.040820f, 0.364853f, 0.084920f, 0.163532f, 0.103019f, 0.060184f, 0.248489f, 0.132173f, -0.123178f, 0.099217f, -0.098530f, 0.057187f, 0.071012f, -0.153501f, 0.122484f, -0.165594f, 0.231110f, 0.234543f, -0.172173f, -0.260885f, 0.061582f, -0.127072f, -0.149572f, 0.221009f, 0.059548f, 0.053122f, 0.006828f, 0.179092f, -0.051101f, -0.030900f, 0.256946f, 0.132149f, -0.016821f, -0.022834f, 0.105933f, -0.111893f, -0.158230f, 0.132186f, 0.109391f, -0.157740f, 0.274396f, -0.278819f, -0.041751f, -0.111896f, 0.008026f, -0.045833f, 0.240620f, -0.084556f, -0.125339f, -0.118054f, 0.197242f, 0.130901f, -0.005985f, 0.165763f, 0.246625f, -0.296134f, 0.103042f, 0.031730f, 0.116771f, -0.298505f, 0.005695f, -0.098276f, 0.094378f, -0.200302f, 0.251869f, -0.018520f, 0.087890f, 0.098494f, -0.028351f, 0.103472f, -0.021610f, 0.082319f, 0.034141f, 0.121859f, 0.058066f, 0.145046f, 0.086281f, 0.055449f, 0.112393f, -0.186038f, -0.019724f, -0.176467f, 0.160214f, 0.251587f, -0.167878f, 0.121006f, -0.050260f, 0.124972f, -0.161426f, 0.196452f, 0.067932f, -0.103566f, -0.100477f, 0.202843f, -0.029670f, -0.072455f, -0.115772f, 0.079778f, 0.056203f, 0.128853f, -0.003701f, -0.081115f, -0.066661f, 0.092550f, -0.052558f, -0.099436f, -0.087626f, -0.052436f, 0.090805f, -0.310304f, -0.356311f, 0.208586f, -0.045204f, -0.206849f, -0.097285f, 0.043222f, -0.056785f, 0.136416f, -0.009852f, 0.212348f, 0.059586f, 0.020652f, -0.167266f, -0.050376f, 0.179750f, 0.233887f, -0.169172f, -0.232861f, -0.092792f, 0.051107f, 0.024718f, 0.271086f, -0.192710f, 0.011995f, -0.050383f, 0.011965f, -0.015998f, 0.133124f, -0.264673f, -0.058708f, 0.000397f, 0.302128f, 0.097064f, 0.011451f, -0.008231f, 0.049853f, -0.147769f, -0.146841f, 0.161854f, 0.217958f, -0.106766f, 0.053407f, 0.119675f, 0.215229f, 0.015573f, 0.137819f, 0.100850f, -0.063588f, 0.215032f, 0.015261f, -0.065884f, 0.120171f, 0.111662f, 0.111824f, 0.051366f, 0.110792f, -0.047101f, 0.066802f, -0.103845f, 0.210714f, -0.136998f, 0.056059f, 0.083430f, 0.134729f, 0.008689f, 0.140515f, 0.040444f, 0.080880f, -0.062997f, -0.128760f, 0.099738f, 0.069873f, 0.076658f, -0.052107f, 0.100739f, -0.207311f, -0.331266f, -0.104911f, 0.166985f, 0.065235f, 0.020155f, -0.014165f, 0.157677f, -0.069639f, 0.235723f, 0.090396f, 0.172939f, -0.031581f, -0.105246f, -0.122410f, -0.035415f, -0.143094f, -0.003592f, 0.105733f, 0.210531f, 0.057868f, 0.043116f, -0.009735f, -0.060541f, 0.242868f, -0.272320f, 0.045724f, 0.278018f, 0.023697f, 0.237087f, -0.041246f, -0.238245f, 0.159642f, 0.021245f, 0.054917f, 0.071293f, 0.046376f, -0.091139f, -0.113879f, 0.111532f, 0.117404f, -0.064770f, -0.042055f, 0.036410f, 0.110918f, -0.190836f, -0.055412f, 0.009874f, 0.169872f, -0.070295f, 0.118907f, -0.365177f, 0.061323f, -0.066810f, 0.052252f, 0.168389f, 0.051299f, -0.059009f, 0.030753f, -0.087948f, 0.152160f, -0.197313f, 0.016996f, -0.078556f, 0.062442f, -0.052398f, -0.011024f, -0.074943f, 0.113931f, -0.080559f, -0.257660f, 0.023681f, 0.043251f, -0.214812f, 0.082014f, -0.194320f, -0.019175f, 0.200407f, 0.086369f, 0.122982f, 0.102082f, -0.153938f, 0.132129f, 0.128323f, 0.024204f, -0.174713f, 0.263674f, -0.153284f, 0.179152f, 0.026587f, -0.062759f, -0.040361f, 0.175564f, -0.034273f, -0.068447f, 0.063600f, 0.242995f, 0.062005f, 0.041072f, 0.206888f, 0.006861f, -0.086832f, -0.103805f, 0.083647f, 0.085938f, 0.211325f, 0.142187f, 0.048700f, 0.190723f, -0.171492f, 0.053161f, 0.067386f, 0.080624f, 0.101185f, -0.211505f, 0.160094f, -0.080835f, -0.078609f, 0.246252f, -0.117916f, -0.128584f, 0.014119f, -0.006967f, 0.108397f, 0.092009f, -0.161507f, -0.243003f, 0.034152f, -0.013118f, 0.065230f, -0.085873f, 0.056191f, -0.048639f, -0.130108f, -0.033563f, -0.014661f, -0.083755f, -0.069555f, 0.016627f, -0.008299f, 0.213841f, 0.096222f, 0.127271f, 0.133649f, -0.000493f, 0.218227f, -0.101292f, -0.084694f, -0.072210f, -0.085237f, -0.047487f, 0.012621f, 0.179755f, 0.029033f, 0.013422f, 0.023756f, -0.116491f, -0.201515f, 0.177966f, -0.110743f, 0.093654f, 0.067424f, 0.024145f, -0.035513f, -0.148114f, -0.130149f, -0.130869f, 0.074616f, 0.144162f, 0.035225f, -0.107475f, -0.036249f, 0.052907f, 0.145382f, -0.024442f, -0.005096f, 0.002541f, -0.156836f, -0.017894f, -0.030603f, 0.035649f, -0.063567f, 0.181601f, -0.093018f, 0.082807f, -0.161621f, -0.159947f, 0.034430f, 0.233535f, -0.072321f, 0.222436f, 0.065704f, 0.049582f, -0.186485f, 0.074323f, -0.073920f, -0.212727f, 0.042688f, 0.067336f, -0.108417f, -0.066786f, -0.075516f, -0.179867f, 0.017989f, -0.245059f, -0.077038f, 0.122329f, -0.033285f, 0.140098f, 0.210104f, -0.119456f, 0.023320f, -0.123256f, -0.110903f, -0.051067f, -0.106565f, 0.044190f, -0.030922f, -0.066088f, 0.081890f, -0.062742f, 0.130045f, 0.126991f, 0.098177f, 0.136408f, 0.183662f, -0.004748f, -0.024730f, -0.164821f, 0.146332f, 0.109571f, 0.215373f, 0.098899f, 0.010640f, 0.164915f, -0.039180f, 0.004239f, 0.169840f, 0.109588f, 0.060487f, 0.037927f, 0.034340f, -0.063125f, -0.111557f, -0.150236f, 0.057812f, -0.225182f, 0.129686f, 0.011887f, 0.068453f, -0.109606f, 0.049072f, -0.063391f, -0.045760f, 0.007764f, -0.033858f, 0.050048f, 0.212571f, -0.052164f, -0.255218f, -0.117690f, -0.063821f, -0.026630f, 0.220841f, 0.086472f, -0.048196f, 0.029919f, -0.017858f, 0.035781f, -0.051213f, 0.004803f, -0.115043f, 0.034345f, 0.030557f, -0.001106f, 0.221278f, -0.123013f, -0.084706f, -0.121177f, -0.065072f, 0.053326f, -0.029950f, 0.153809f, -0.063027f, 0.138619f, 0.029660f, -0.080170f, -0.161398f, -0.142793f, -0.158470f, -0.216394f, 0.081629f, -0.076116f, 0.046910f, -0.008027f, -0.055740f, -0.036899f, -0.017642f, -0.080683f, -0.075602f, 0.013784f, -0.083653f, 0.118917f, -0.046707f, -0.078192f, -0.111853f, 0.074345f, 0.165767f, 0.039380f, 0.146737f, 0.091370f, -0.068359f, -0.062949f, 0.065667f, -0.092664f, -0.020795f, -0.095285f, 0.114861f, 0.083098f, -0.101139f, -0.066009f, -0.098258f, 0.160891f, 0.075792f, 0.153287f, -0.021823f, 0.015333f, -0.057104f, 0.045007f, -0.148794f, 0.024510f, 0.115062f, -0.109168f, 0.059289f, 0.021615f, -0.028509f, 0.100251f, 0.102153f, -0.084170f, -0.059193f, 0.040596f, 0.160572f, -0.109129f, -0.099958f, -0.121066f, 0.051286f, -0.115333f, 0.204222f, 0.144864f, 0.093807f, 0.201972f, 0.104395f, -0.054417f, 0.125033f, 0.056325f, 0.077025f, -0.060636f, -0.004015f, 0.034808f, -0.012488f, -0.138894f, -0.065000f, -0.119245f, 0.032399f, 0.089993f, -0.143015f, 0.138033f, -0.109022f, -0.096443f, 0.055115f, -0.068564f, 0.142040f, -0.155224f, -0.001177f, -0.131651f, 0.078745f, 0.096308f, -0.121972f, 0.087696f, -0.086873f, -0.040996f, 0.109275f, -0.066478f, 0.164364f, -0.173770f, 0.089991f, -0.135271f, -0.049991f, -0.052438f, -0.163622f, 0.017961f, 0.053390f, 0.000464f, -0.062280f, 0.089386f, 0.141930f, -0.065914f, 0.134767f, -0.020682f, -0.072596f, 0.006223f, 0.125193f, 0.198939f, -0.052167f, -0.134256f, -0.054584f, 0.078195f, 0.081113f, 0.085776f, 0.023849f, -0.051225f, -0.147506f, 0.084737f, -0.057217f, 0.091897f, 0.014302f, 0.139914f, -0.030155f, -0.017479f, -0.056899f, 0.035000f, 0.002673f, -0.130061f, 0.001939f, 0.086992f, -0.047036f, 0.035900f, 0.076657f, 0.046536f, -0.021718f, -0.054127f, 0.101118f, -0.153837f, 0.092516f, 0.010302f, -0.084201f, 0.042530f, -0.079017f, -0.132007f, 0.031281f, 0.022020f, -0.111316f, -0.082656f, -0.004011f, -0.069206f, 0.075402f, -0.012910f, -0.074850f, 0.087388f, 0.021506f, 0.023400f, -0.058928f, -0.074972f, -0.153780f, -0.104323f, -0.057292f, 0.108046f, -0.157501f, -0.016756f, 0.081932f, 0.109615f, -0.062570f, -0.062658f, 0.030073f, 0.120018f, 0.068949f, -0.074280f, 0.143456f, -0.131375f, 0.018090f, -0.006021f, 0.036867f, 0.090782f, 0.083608f, -0.136645f, -0.027135f, 0.051031f, 0.164613f, 0.026758f, -0.071181f, -0.034924f, -0.011713f, 0.065216f, 0.022706f, 0.038990f, -0.021763f, -0.031139f, 0.029016f, -0.143613f, -0.094665f, 0.131055f, -0.139669f, 0.013403f, -0.078027f, -0.023984f, -0.048998f, 0.062185f, 0.113781f, -0.077583f, 0.040296f, -0.136396f, 0.001932f, -0.125367f, -0.066839f, 0.026707f, -0.028944f, -0.050778f, 0.091428f, 0.123030f, 0.051271f, 0.028911f, -0.143083f, -0.100537f, -0.118624f, 0.006181f, 0.089463f, -0.065320f, 0.002436f, 0.165309f, -0.109709f, 0.099210f, -0.068040f, 0.139640f, 0.153816f, 0.075462f, 0.099230f, -0.125945f, 0.015606f, -0.047367f, -0.150529f, 0.026077f, 0.038708f, -0.010325f, 0.170693f, 0.038056f, 0.106209f, -0.092008f, -0.094442f, -0.099183f, -0.066971f, -0.120499f, 0.020487f, -0.018003f, -0.061335f, 0.045470f, -0.024624f, 0.102103f, -0.023823f, 0.141049f, 0.152276f, 0.138016f, 0.146993f, 0.014567f, 0.173805f, 0.182887f, -0.089464f, 0.056878f, 0.060510f, -0.134282f, -0.114254f, -0.146367f, 0.013721f, -0.023501f, 0.116475f, -0.065379f, -0.013099f, 0.108380f, 0.046921f, 0.061417f, -0.137672f, 0.024114f, -0.002978f, -0.119714f, 0.010485f, -0.104103f, -0.112961f, 0.085514f, -0.050729f, 0.071959f, 0.105898f, 0.040323f, -0.151727f, -0.098914f, -0.000723f, -0.072491f, 0.060093f, -0.006761f, -0.030423f, 0.065790f, -0.094795f, 0.022693f, 0.004883f, 0.096059f, -0.093467f, -0.156984f, -0.070320f, 0.044746f, -0.142563f, 0.124022f, 0.002333f, 0.112260f, 0.066591f, -0.076248f, 0.003201f, 0.061085f, -0.077892f, -0.011673f, 0.111379f, -0.022326f, -0.050863f, 0.114077f, 0.090066f, -0.039425f, 0.091576f, -0.106577f, -0.149978f, 0.057452f, -0.075477f, -0.023148f, -0.118795f, 0.114873f, -0.110597f, -0.061536f, -0.079788f, -0.089469f, -0.055691f, 0.036688f, -0.027775f, -0.129086f, 0.041268f, 0.116752f, -0.131911f, -0.073897f, -0.126625f, -0.063533f, -0.138757f, -0.008280f, 0.120492f, -0.032702f, 0.179825f, -0.028487f, -0.065692f, -0.117174f, 0.138737f, -0.000765f, -0.056645f, -0.063046f, 0.003595f, 0.078022f, -0.067602f, -0.021627f, 0.069491f, -0.030029f, -0.065869f, -0.138436f, -0.051460f, 0.018111f, -0.049274f, 0.116559f, 0.119042f, 0.043744f, 0.014235f, 0.126244f, 0.150733f, 0.038778f, 0.077684f, -0.119466f, -0.059203f, 0.099880f, 0.043896f, 0.033737f, -0.097254f, -0.096651f, 0.107944f, 0.094137f, 0.062302f, 0.094723f, 0.069575f, 0.015198f, 0.007926f, 0.012572f, 0.062627f, 0.101375f, 0.005576f, 0.120448f, -0.056464f, 0.010297f, -0.102837f, -0.121536f, 0.077025f, 0.076258f, -0.084387f, -0.088761f, -0.003022f, -0.073774f, -0.096581f, -0.062404f, -0.121656f, -0.114822f, 0.052498f, -0.102809f, 0.044468f, -0.104264f, 0.018231f, -0.132182f, -0.039293f, -0.024196f, -0.027050f, 0.144159f, 0.032521f, 0.013444f, -0.148225f, -0.075001f, 0.059169f, -0.150349f, 0.089857f, 0.104515f, 0.088995f, -0.072928f, 0.120366f, -0.083076f, 0.053566f, -0.037628f, -0.145876f, -0.118303f, -0.116127f, 0.112675f, -0.102772f, 0.110101f, -0.010351f, -0.100627f, -0.131622f, 0.179735f, -0.124539f, -0.105341f, -0.071949f, 0.123379f, -0.002796f, 0.055189f, -0.065687f, -0.033264f, -0.127125f, -0.103795f, -0.154947f, 0.191293f, 0.221572f, 0.005254f, 0.169389f, 0.092377f, -0.080910f, 0.037951f, -0.263723f, -0.131272f, 0.352578f, 0.127213f, -0.146495f, 0.106804f, -0.075425f, -0.083938f, -0.138259f, 0.164253f, 0.228465f, -0.023719f, -0.052178f, -0.094297f, 0.057788f, 0.093598f, -0.142887f, 0.113604f, 0.044854f, 0.152091f, 0.038410f, 0.004679f, -0.105955f, -0.085074f, -0.000721f, 0.016039f, 0.042848f, 0.088263f, 0.259984f, -0.099274f, -0.133054f, -0.095732f, -0.108782f, 0.176180f, -0.110086f, -0.153342f, -0.181920f, 0.134140f, 0.093375f, -0.155304f, 0.007917f, -0.034082f, 0.003433f, 0.027268f, 0.105143f, -0.047594f, -0.075546f, -0.117814f, 0.014398f, 0.064629f, 0.177567f, -0.114061f, -0.044976f, 0.152659f, -0.150490f, 0.176039f, -0.107186f, 0.218593f, 0.252425f, 0.054746f, 0.042526f, -0.063931f, -0.108917f, 0.025679f, 0.019700f, 0.040992f, 0.179404f, -0.089841f, 0.220810f, -0.019982f, 0.017379f, -0.077215f, 0.162678f, -0.080261f, -0.119425f, -0.091401f, 0.081112f, -0.077217f, -0.176230f, -0.105509f, 0.017928f, -0.094570f, 0.084330f, 0.057964f, 0.258470f, 0.179820f, -0.153298f, 0.147408f, 0.019837f, 0.136252f, -0.227531f, -0.165991f, -0.071521f, 0.099906f, -0.160906f, 0.115400f, -0.059750f, 0.063473f, -0.059459f, -0.104341f, 0.105946f, 0.059734f, -0.280080f, 0.031021f, 0.135652f, -0.000244f, 0.173785f, 0.140431f, 0.064810f, 0.050471f, -0.082340f, -0.076275f, -0.220721f, -0.160842f, -0.174528f, 0.080294f, -0.164613f, -0.019240f, 0.105085f, -0.014783f, -0.078601f, 0.147717f, -0.091526f, -0.072513f, 0.107130f, -0.112940f, -0.074211f, 0.047283f, 0.099266f, 0.110659f, -0.146311f, -0.020702f, -0.181848f, -0.091849f, -0.081501f, -0.034480f, -0.110827f, 0.062047f, -0.001499f, 0.038810f, -0.120580f, 0.068989f, 0.117594f, -0.006990f, 0.237131f, -0.046039f, -0.235831f, 0.009588f, 0.109956f, -0.171515f, 0.001456f, -0.058335f, -0.117110f, -0.159775f, -0.028456f, -0.139173f, -0.064793f, -0.112090f, 0.118830f, -0.018499f, 0.155008f, -0.009978f, 0.023336f, 0.022518f, 0.098645f, 0.014302f, -0.093499f, 0.025441f, 0.069731f, 0.065835f, -0.018174f, 0.176535f, -0.137873f, 0.107162f, 0.079082f, -0.071504f, 0.136171f, 0.226200f, 0.028599f, -0.054747f, -0.043633f, -0.023743f, -0.127027f, 0.145835f, 0.121187f, -0.174960f, 0.026919f, -0.117145f, -0.105086f, 0.034743f, 0.126462f, -0.132078f, 0.042672f, 0.110056f, -0.142172f, -0.036386f, 0.036735f, 0.253667f, 0.116406f, 0.115698f, -0.068804f, -0.175473f, 0.132524f, -0.162637f, 0.131927f, 0.020217f, -0.010888f, 0.015771f, 0.140013f, -0.076223f, 0.117665f, -0.173482f, 0.058133f, -0.104099f, 0.151208f, 0.074776f, 0.130548f, -0.142181f, 0.237158f, -0.166176f, 0.131117f, 0.050238f, 0.106695f, 0.034972f, -0.184175f, 0.115042f, 0.097686f, 0.187059f, 0.097432f, -0.185849f, -0.028530f, 0.052669f, -0.069607f, 0.162268f, -0.270932f, -0.238907f, -0.063812f, -0.191965f, 0.065004f, -0.137755f, -0.133308f, 0.105612f, -0.042199f, -0.113816f, -0.134882f, 0.163409f, -0.211906f, -0.017911f, -0.064555f, -0.051676f, -0.005631f, -0.128598f, 0.242308f, -0.195850f, 0.148163f, -0.063951f, -0.115609f, -0.100358f, 0.104589f, -0.063965f, -0.083114f, 0.181848f, 0.135342f, 0.116885f, -0.119174f, 0.064152f, 0.233245f, 0.170502f, 0.050409f, 0.141813f, 0.099517f, -0.136134f, -0.129294f, 0.265788f, -0.195499f, 0.106245f, -0.216954f, 0.127037f, -0.205434f, 0.114175f, 0.004001f, -0.127600f, 0.033069f, 0.033382f, 0.066484f, -0.001785f, -0.185071f, 0.118769f, -0.307133f, 0.172660f, -0.125706f, 0.014615f, -0.154512f, 0.217384f, -0.067151f, -0.084886f, 0.088094f, 0.056522f, -0.125457f, -0.079575f, -0.047849f, 0.310901f, 0.079152f, -0.027124f, 0.138685f, -0.176120f, 0.049476f, -0.175960f, 0.006514f, 0.080227f, -0.064416f, 0.102552f, 0.021595f, 0.017362f, -0.004044f, -0.075777f, -0.144257f, -0.016580f, 0.097441f, 0.069581f, -0.133532f, 0.141536f, 0.032628f, 0.028247f, 0.031203f, 0.102751f, 0.094610f, -0.068828f, -0.184503f, 0.170330f, -0.050470f, 0.000782f, 0.082721f, -0.041948f, -0.098729f, 0.085324f, 0.253785f, -0.131638f, -0.024068f, -0.125709f, -0.047063f, -0.105071f, 0.078389f, 0.248839f, 0.048340f, -0.221011f, -0.169527f, -0.015858f, 0.125972f, -0.193410f, -0.092277f, -0.057093f, -0.071788f, 0.222171f, 0.083863f, -0.110411f, 0.211188f, -0.022526f, 0.151517f, -0.260604f, -0.017981f, -0.002243f, -0.012735f, 0.017457f, -0.126541f, -0.026672f, -0.100472f, -0.144172f, -0.146373f, 0.284821f, -0.098426f, -0.006086f, 0.170588f, 0.091562f, -0.020493f, -0.150877f, -0.245685f, -0.246985f, 0.013708f, -0.104070f, -0.003276f, 0.178728f, -0.339677f, -0.187701f, -0.097033f, -0.031102f, 0.122603f, 0.347328f, 0.093554f, -0.158887f, -0.004751f, -0.303682f, -0.067066f, 0.051375f, -0.010409f, 0.069685f, -0.163150f, 0.101882f, -0.171531f, -0.013905f, 0.044848f, 0.450423f, 0.131902f, 0.025229f, 0.085950f, 0.024175f, -0.184365f, -0.194898f, 0.001220f, -0.051134f, -0.147268f, -0.049646f, -0.039419f, -0.061605f, -0.162981f, 0.127648f, -0.237209f, 0.295236f, -0.010459f, 0.125552f, 0.113122f, 0.310693f, -0.015015f, 0.288614f, -0.042766f, -0.087140f, 0.096662f, -0.145818f, 0.042517f, -0.170861f, 0.029608f, 0.158278f, 0.094135f, -0.291238f, -0.156728f, -0.186308f, 0.110897f, 0.236386f, -0.103583f, 0.012744f, 0.139093f, 0.103445f, 0.128867f, -0.023268f, -0.057753f, -0.065707f, -0.182622f, -0.121994f, -0.044704f, -0.001603f, 0.059465f, -0.114418f, -0.053633f, 0.022004f, -0.079502f, -0.031762f, 0.106667f, -0.013266f, -0.125504f, -0.086991f, 0.046538f, -0.005884f, -0.192493f, 0.072398f, 0.227142f, 0.054796f, -0.000456f, -0.084201f, 0.125078f, 0.018826f, -0.077131f, -0.398105f, -0.008259f, -0.241633f, 0.118678f, -0.047752f, -0.032600f, 0.044293f, 0.002456f, 0.030987f, -0.060347f, -0.221045f, 0.046687f, -0.176091f, 0.123371f, -0.231122f, 0.201260f, -0.071589f, 0.068956f, -0.092397f, 0.046543f, 0.164210f, 0.021840f, 0.009252f, -0.009392f, 0.109384f, -0.005453f, 0.143671f, 0.185943f, 0.166335f, -0.098811f, -0.073878f, 0.118735f, -0.053066f, -0.112606f, 0.039382f, 0.008933f, 0.044220f, 0.184626f, -0.137435f, -0.028450f, 0.251583f, 0.143136f, -0.145130f, 0.121818f, -0.292646f, 0.242843f, -0.098707f, 0.230864f, -0.076749f, 0.045658f, 0.066661f, 0.088350f, 0.036516f, -0.243442f, -0.124470f, 0.056092f, 0.161042f, 0.119607f, 0.086403f, -0.066020f, 0.279116f, 0.236396f, -0.050785f, -0.069407f, -0.007454f, 0.148622f, -0.122077f, -0.152960f, -0.120888f, 0.171950f, -0.152195f, 0.103640f, -0.003477f, 0.000878f, -0.043465f, 0.080695f, 0.161991f, -0.118201f, 0.012017f, -0.211772f, 0.093766f, -0.127045f, -0.150941f, -0.364730f, -0.011721f, 0.097364f, 0.274307f, -0.055409f, -0.262732f, 0.103150f, -0.112354f, -0.047378f, -0.159830f, -0.051932f, -0.133101f, 0.079715f, -0.099835f, 0.020987f, -0.003953f, -0.076882f, -0.262944f, -0.258622f, 0.029538f, -0.053346f, -0.036446f, -0.000769f, -0.424637f, 0.250605f, 0.239400f, -0.085386f, 0.198774f, 0.402922f, 0.020335f, 0.016874f, -0.279285f, 0.101434f, -0.005812f, 0.230586f, -0.089048f, 0.094406f, 0.033056f, -0.102086f, -0.029597f, 0.180781f, -0.006144f, 0.363901f, 0.010384f, 0.010956f, -0.205243f, -0.140978f, 0.172888f, 0.111511f, -0.009760f, -0.292688f, -0.069117f, -0.050774f, 0.101889f, -0.220330f, 0.090936f, -0.155700f, 0.125876f, -0.017318f, -0.032701f, 0.006995f, -0.175388f, 0.160461f, -0.031420f, 0.036573f, 0.220273f, -0.212084f, 0.135728f, -0.150879f, -0.029561f, 0.093626f, 0.294066f, -0.166572f, -0.038288f, -0.208687f, -0.034181f, -0.099017f, 0.029678f, -0.002095f, 0.117773f, -0.067690f, -0.065326f, 0.093946f, -0.063678f, -0.004234f, -0.046750f, -0.141050f, 0.163989f, -0.362859f, -0.028001f, -0.130899f, -0.055800f, -0.036121f, 0.226323f, -0.101080f, 0.200486f, 0.046990f, -0.045368f, -0.229443f, -0.094962f, 0.024985f, -0.036461f, -0.299210f, -0.213374f, 0.003448f, -0.268552f, -0.051525f, -0.017960f, -0.035286f, -0.292929f, 0.063825f, -0.282289f, 0.122533f, -0.083345f, 0.127207f, -0.085471f, -0.119602f, 0.145254f, -0.266024f, 0.041091f, 0.212864f, 0.178032f, -0.052523f, -0.109689f, 0.296521f, 0.078856f, 0.065180f, -0.021013f, 0.039570f, -0.141821f, -0.119443f, -0.049594f, 0.139485f, -0.097046f, 0.089866f, 0.155587f, 0.018290f, -0.116958f, -0.008984f, 0.038705f, 0.107825f, 0.058500f, -0.148926f, 0.135828f, 0.009075f, -0.312283f, 0.232505f, -0.016731f, -0.059727f, -0.050838f, 0.251273f, 0.023503f, 0.127903f, 0.088035f, -0.151922f, -0.165666f, 0.174233f, 0.207726f, -0.245133f, 0.343266f, -0.035582f, -0.195902f, 0.028960f, -0.066338f, -0.055982f, -0.159888f, 0.100598f, -0.010036f, 0.237873f, 0.247604f, 0.127540f, 0.120274f, -0.140640f, 0.441764f, -0.046221f, 0.067698f, 0.115499f, 0.151747f, 0.032957f, -0.260717f, -0.074546f, 0.113593f, 0.114411f, 0.012282f, 0.041715f, 0.155110f, -0.110751f, 0.164846f, -0.095026f, 0.075948f, -0.219700f, -0.095008f, -0.017176f, 0.131398f, 0.017429f, 0.015512f, 0.141344f, 0.006195f, 0.012987f, -0.025156f, -0.086185f, 0.358629f, -0.122410f, 0.054660f, -0.057172f, -0.229415f, -0.095847f, 0.157403f, -0.061065f, -0.060553f, 0.126149f, 0.176819f, 0.068265f, 0.250588f, -0.089463f, -0.032708f, 0.138000f, -0.086759f, 0.033029f, 0.232660f, 0.194937f, 0.148876f, -0.063968f, -0.119814f, 0.025033f, 0.002980f, -0.255052f, -0.017107f, 0.389898f, 0.119992f, -0.000728f, 0.276611f, -0.163541f, 0.072458f, -0.092749f, 0.229616f, -0.075808f, -0.225218f, -0.085409f, 0.061356f, -0.036018f, 0.079573f, -0.080905f, 0.078307f, 0.204732f, 0.071109f, 0.080863f, 0.002876f, 0.212500f, -0.297566f, -0.125791f, 0.201282f, 0.342356f, -0.129420f, 0.034447f, -0.224901f, -0.303751f, -0.024278f, 0.020272f, 0.468891f, -0.038759f, 0.056684f, 0.031464f, 0.038695f, 0.321703f, -0.206858f, -0.022899f, 0.017898f, 0.081214f, -0.036598f, -0.411463f, -0.075081f, 0.203803f, 0.016450f, 0.301682f, 0.074713f, 0.316035f, -0.255506f, -0.241086f, 0.123614f, -0.244207f, -0.021926f, 0.239823f, -0.182565f, 0.241844f, 0.147271f, -0.182483f, 0.145977f, -0.345767f, 0.020103f, -0.088945f, -0.129874f, 0.043254f, 0.317960f, -0.003924f, -0.048291f, 0.147252f, -0.137942f, -0.084484f, -0.079173f, -0.220636f, -0.057769f, -0.141416f, -0.049284f, 0.013287f, -0.028816f, -0.453747f, 0.002251f, -0.373146f, 0.136832f, 0.012857f, 0.029539f, 0.107880f, -0.188607f, 0.114286f, -0.005402f, -0.176127f, -0.243252f, 0.114292f, -0.121028f, 0.072025f, -0.300848f, -0.293874f, -0.085811f, -0.453959f, -0.070171f, 0.117705f, 0.081240f, -0.168048f, -0.038799f, -0.100877f, -0.212900f, 0.037854f, -0.088158f, 0.020886f, 0.252312f, 0.048209f, 0.139488f, -0.056937f, -0.174979f, -0.038445f, 0.127673f, 0.104152f, 0.144515f, -0.067521f, -0.104168f, -0.203764f, 0.100719f, 0.011814f, -0.024360f, 0.200200f, -0.009477f, 0.306289f, -0.196607f, 0.086569f, 0.173430f, -0.072220f, -0.102888f, 0.039330f, 0.127005f, -0.165722f, 0.086292f, -0.105983f, 0.161652f, -0.035782f, -0.054143f, -0.200345f, 0.046771f, 0.183271f, -0.246306f, 0.441560f, -0.115165f, 0.015439f, 0.167273f, 0.071279f, 0.109682f, -0.017148f, -0.126318f, 0.162509f, 0.125514f, -0.010901f, -0.389241f, -0.095844f, -0.150364f, -0.097000f, -0.318585f, 0.018844f, 0.033532f, 0.130796f, 0.073845f, 0.255771f, -0.088313f, 0.100021f, -0.162747f, -0.104583f, 0.062962f, -0.046202f, 0.047448f, -0.106167f, 0.210382f, 0.275730f, -0.105685f, -0.145970f, -0.046338f, -0.152594f, -0.156897f, 0.135224f, 0.062578f, 0.107868f, -0.096902f, -0.205714f, 0.157436f, -0.262115f, 0.028797f, -0.082253f, 0.027897f, -0.091542f, 0.066485f, -0.030483f, 0.021163f, -0.002047f, -0.101272f, 0.054567f, 0.058057f, -0.078685f, 0.023452f, 0.178008f, 0.048415f, 0.039427f, 0.060932f, 0.229840f, -0.078306f, -0.092515f, 0.032539f, 0.024458f, -0.130757f, 0.242424f, -0.102025f, 0.099816f, 0.067601f, 0.161312f, -0.006055f, 0.117799f, 0.259674f, -0.064524f, -0.004311f, 0.133206f, 0.202967f, -0.014587f, 0.200822f, -0.192654f, -0.020656f, -0.041161f, 0.036905f, -0.066111f, 0.141073f, 0.133883f, 0.149036f, -0.053099f, 0.054403f, -0.043429f, 0.090172f, 0.050591f, 0.155662f, 0.091371f, -0.207460f, -0.035276f, 0.103776f, -0.153166f, 0.154010f, 0.123306f, 0.006568f, -0.077076f, -0.140124f, -0.068896f, -0.106516f, 0.193280f, -0.007596f, 0.005162f, 0.101682f, -0.044131f, -0.079724f, 0.178240f, -0.154799f, -0.108301f, -0.044245f, -0.106728f, 0.055830f, 0.013384f, 0.050601f, 0.169200f, 0.096916f, 0.016797f, -0.079728f, 0.030444f, -0.098414f, 0.060928f, 0.044416f, 0.022989f, -0.130441f, 0.021945f, -0.147579f, 0.169339f, -0.192268f, 0.090815f, 0.084291f, -0.085154f, -0.015243f, -0.144140f, 0.101912f, 0.131148f, -0.032133f, -0.157799f, 0.028129f, -0.086403f, 0.037468f, -0.098585f, -0.103851f, 0.003417f, -0.273423f, 0.058411f, 0.094707f, -0.117777f, -0.162011f, -0.110315f, -0.025273f, -0.139401f, -0.017005f, -0.157478f, -0.083699f, 0.055138f, -0.064474f, 0.031578f, 0.103441f, 0.089914f, 0.058049f, -0.123876f, -0.018321f, 0.002890f, 0.048055f, -0.188200f, -0.222301f, 0.209367f, -0.100852f, 0.073622f, -0.127211f, 0.023007f, -0.079201f, -0.174870f, -0.031827f, -0.005358f, -0.096420f, -0.096511f, 0.051564f, -0.030460f, -0.025011f, -0.045665f, 0.136894f, -0.137321f, 0.006218f, 0.077618f, -0.106813f, -0.051429f, 0.014338f, -0.161369f, 0.203690f, 0.034042f, 0.011311f, 0.133538f, -0.121631f, 0.038338f, 0.086651f, -0.003702f, 0.048075f, -0.004344f, -0.053239f, -0.245332f, -0.003882f, 0.144067f, -0.055427f, 0.011591f, -0.011609f, -0.014719f, 0.157153f, -0.104537f, -0.072428f, 0.121920f, 0.038527f, 0.034796f, 0.095878f, 0.078657f, -0.059033f, 0.071759f, 0.118808f, -0.016139f, 0.201387f, -0.124922f, 0.082570f, 0.086615f, -0.116155f, 0.041706f, -0.057097f, -0.079664f, -0.033039f, -0.066423f, -0.054967f, 0.041244f, 0.050818f, -0.017873f, -0.094601f, 0.054808f, 0.057991f, -0.037455f, -0.112474f, -0.114481f, -0.057146f, 0.084138f, 0.126721f, -0.028762f, -0.102478f, 0.149053f, -0.025822f, 0.122811f, -0.137565f, -0.097688f, -0.008867f, -0.153338f, 0.061228f, -0.048747f, -0.078806f, -0.097787f, -0.047245f, -0.003533f, -0.132724f, -0.092483f, 0.052432f, 0.072017f, 0.019132f, -0.039163f, -0.085593f, 0.023684f, -0.077762f, -0.059155f, 0.087553f, -0.002886f, 0.179531f, -0.097815f, -0.050369f, -0.127406f, 0.046164f, -0.086555f, -0.070604f, -0.070765f, -0.120365f, -0.126157f, 0.073013f, -0.079816f, 0.060319f, 0.185622f, 0.048532f, 0.071473f, 0.033035f, 0.030240f, -0.152392f, -0.068798f, -0.024221f, -0.032648f, 0.051700f, 0.032513f, -0.098316f, 0.031832f, -0.090557f, -0.047380f, 0.032840f, -0.058101f, -0.062480f, -0.105117f, -0.006051f, -0.095073f, -0.004619f, 0.090110f, -0.028885f, -0.039814f, -0.109817f, -0.062902f, -0.099043f, -0.096050f, -0.154901f, -0.070426f, 0.073281f, -0.086931f, 0.050572f, 0.008935f, -0.129630f, -0.148274f, -0.092457f, 0.170036f, -0.014931f, 0.072651f, -0.128335f, -0.127858f, 0.006809f, 0.082617f, 0.062877f, -0.154182f, 0.067858f, 0.123866f, 0.088747f, 0.106880f, -0.130220f, 0.042757f, -0.148096f, 0.058132f, -0.153294f, -0.111884f, -0.085096f, 0.007790f, -0.124636f, -0.026870f, 0.037655f, 0.019067f, -0.013962f, -0.074834f, 0.056910f, -0.006587f, 0.034461f, -0.060407f, 0.020063f, -0.060473f, -0.041418f, -0.007191f, -0.128119f, 0.068860f, 0.081559f, -0.076321f, 0.044187f, -0.021607f, 0.110179f, 0.090528f, 0.128104f, -0.137904f, -0.056212f, 0.053981f, -0.064552f, 0.133950f, -0.161093f, 0.121203f, 0.048745f, 0.114516f, -0.085517f, -0.040504f, -0.036868f, -0.050132f, -0.106163f, -0.090273f, -0.090935f, -0.022199f, -0.140884f, -0.018096f, -0.084495f, 0.086225f, 0.025138f, -0.014221f, -0.110420f, 0.098739f, 0.054042f, 0.061595f, 0.030538f, -0.049985f, 0.013859f, -0.065127f, 0.010119f, 0.120118f, 0.122784f, 0.042561f, 0.006776f, -0.085132f, -0.110667f, -0.086807f, 0.101447f, -0.063936f, -0.116506f, 0.094184f, 0.073895f, -0.096122f, -0.015507f, -0.126502f, -0.121183f, 0.072012f, 0.102217f, 0.031922f, 0.136936f, -0.032001f, -0.134419f, 0.148715f, -0.127072f, 0.059167f, -0.053806f, -0.084643f, 0.090408f, -0.108483f, 0.008260f, 0.046443f, 0.021036f, 0.097961f, 0.029312f, -0.097057f, 0.072512f, 0.086032f, 0.125261f, 0.059865f, 0.036061f, 0.080847f, -0.137939f, -0.039954f, -0.008126f, 0.090694f, 0.033708f, 0.054541f, 0.074980f, -0.133520f, -0.123182f, -0.117271f, -0.122711f, -0.051749f, -0.043523f, 0.154565f, -0.100513f, -0.150995f, 0.088948f, 0.093154f, 0.001140f, 0.108489f, -0.117172f, -0.141695f, 0.076354f, -0.132280f, 0.000263f, -0.114854f, -0.074247f, 0.135797f, 0.054530f, 0.079932f, -0.041462f, -0.028054f, -0.046486f, -0.017643f, -0.012878f, -0.100380f, -0.118725f, -0.015339f, -0.145375f, -0.011735f, -0.051613f, -0.012307f, -0.016209f, -0.031813f, -0.109655f, -0.047097f, 0.131289f, 0.023138f, 0.006707f, 0.082306f, -0.031859f, 0.108399f, -0.142050f, -0.117706f, -0.032117f, 0.075731f, 0.088754f, -0.122238f, -0.100361f, 0.061650f, -0.098713f, -0.116710f, 0.159766f, -0.150311f, 0.057652f, 0.061604f, 0.106658f, 0.097250f, -0.083670f, 0.055248f, -0.115359f, 0.028413f, 0.105272f, -0.138955f, 0.123639f, -0.142005f, 0.013847f, -0.148095f, -0.084557f, -0.114888f, 0.005133f, 0.061184f, 0.057464f, -0.043506f, 0.072453f, -0.117093f, 0.030932f, -0.059215f, -0.133862f, -0.059811f, -0.011403f, -0.129650f, -0.124998f, 0.012197f, 0.131537f, 0.132210f, -0.000603f, -0.114225f, 0.077525f, 0.125580f, 0.042868f, -0.140646f, 0.143027f, -0.132581f, -0.129217f, 0.043529f, 0.145231f, -0.057480f, 0.096565f, -0.059773f, 0.111155f, -0.103516f, 0.047598f, -0.018162f, -0.094969f, -0.014941f, 0.029755f, -0.066382f, -0.138983f, -0.024375f, 0.113737f, 0.031752f, -0.017676f, -0.031972f, -0.082810f, 0.032505f, 0.103279f, 0.060553f, -0.102283f, -0.051914f, -0.102049f, -0.074044f, -0.076324f, 0.133634f, -0.078968f, 0.052918f, -0.047662f, 0.039550f, -0.039116f, -0.150346f, -0.104394f, -0.151300f, -0.107398f, 0.011711f, 0.085459f, -0.089310f, 0.000102f, -0.144917f, 0.008889f, -0.101421f, 0.164618f, 0.139236f, -0.115993f, 0.020751f, -0.031629f, -0.079950f, 0.097338f, -0.097656f, 0.022937f, 0.107353f, -0.136637f, -0.088650f, -0.130765f, 0.100837f, -0.076779f, -0.039496f, 0.138471f, 0.090744f, -0.127756f, 0.133102f, -0.095448f, 0.116823f, 0.069640f, 0.059150f, 0.196811f, 0.007951f, 0.000580f, -0.023411f, 0.089259f, 0.053569f, -0.056190f, -0.071803f, 0.105514f, -0.027187f, 0.087300f, -0.147951f, 0.006131f, -0.049682f, -0.058173f, 0.138701f, 0.055873f, -0.096919f, 0.178061f, 0.021808f, -0.132823f, 0.076905f, 0.049689f, -0.007545f, 0.121351f, -0.139298f, 0.070891f, -0.144183f, -0.043959f, 0.197271f, -0.076858f, -0.009424f, 0.024578f, 0.122645f, -0.135947f, -0.033631f, -0.005163f, -0.084182f, 0.145061f, -0.026269f, -0.033334f, -0.227671f, 0.233039f, -0.142330f, -0.171640f, -0.108948f, 0.113483f, 0.109702f, 0.179780f, 0.079118f, 0.105326f, -0.035189f, -0.005230f, -0.172367f, -0.052721f, 0.056525f, 0.031609f, 0.038450f, -0.207297f, 0.053666f, -0.105767f, 0.102185f, -0.163759f, 0.144302f, -0.081743f, -0.137040f, 0.174912f, -0.058706f, -0.029386f, 0.128438f, 0.011744f, -0.109217f, 0.074395f, 0.089594f, -0.072350f, 0.024602f, 0.101175f, -0.242154f, 0.318912f, -0.068200f, -0.144986f, -0.184715f, 0.127573f, -0.137834f, -0.036516f, 0.125340f, 0.116893f, 0.058847f, 0.062550f, 0.127910f, 0.045700f, -0.104159f, 0.049151f, 0.098745f, -0.028774f, 0.040381f, -0.010762f, 0.000085f, 0.012227f, 0.220619f, 0.066310f, 0.075175f, -0.105655f, -0.055454f, 0.024489f, -0.002719f, -0.007024f, -0.100135f, -0.056106f, -0.135017f, -0.199092f, -0.137868f, -0.081970f, 0.094146f, -0.063661f, 0.199378f, 0.014754f, 0.078172f, 0.054219f, -0.150413f, 0.172258f, 0.101873f, 0.003269f, 0.115891f, 0.136376f, -0.024831f, 0.109848f, 0.216032f, -0.139662f, 0.117862f, 0.042007f, -0.125716f, -0.067677f, 0.179255f, -0.050323f, -0.160844f, -0.131362f, -0.048555f, -0.020295f, -0.152182f, 0.028382f, 0.066324f, 0.026858f, -0.005024f, -0.003793f, -0.003530f, 0.037133f, 0.094318f, -0.031805f, 0.057321f, 0.176750f, 0.058699f, 0.057529f, -0.187423f, -0.116830f, -0.040279f, 0.118448f, -0.084462f, -0.150797f, -0.041757f, 0.057082f, 0.213356f, -0.210685f, -0.191761f, 0.002748f, -0.092435f, 0.026321f, 0.195577f, -0.126759f, -0.147003f, -0.224194f, -0.174593f, 0.054070f, -0.002161f, -0.018888f, -0.072595f, 0.158883f, 0.143366f, -0.102932f, -0.153799f, 0.174978f, -0.083603f, -0.003138f, 0.034183f, -0.062534f, -0.171898f, 0.100915f, -0.045759f, -0.192285f, 0.124294f, -0.152805f, -0.085339f, -0.079762f, 0.073859f, -0.103200f, 0.081783f, 0.308372f, 0.180474f, 0.050911f, -0.077090f, -0.028547f, -0.257918f, 0.026571f, -0.101793f, -0.111208f, 0.095203f, -0.226005f, -0.129555f, -0.199484f, -0.055794f, 0.038514f, 0.102411f, 0.100652f, 0.113603f, 0.152531f, -0.338637f, 0.163870f, 0.085452f, 0.143996f, 0.097235f, -0.269293f, 0.041270f, -0.142774f, 0.187816f, -0.064535f, 0.189505f, -0.030734f, -0.165421f, -0.095923f, -0.023716f, -0.010337f, -0.075123f, -0.242720f, 0.003817f, -0.058458f, 0.023710f, -0.207954f, 0.327721f, -0.138274f, -0.009923f, 0.036707f, 0.314660f, 0.195392f, 0.224887f, 0.286587f, 0.027903f, 0.007618f, 0.199078f, -0.004856f, -0.031915f, -0.046606f, -0.003007f, 0.195315f, -0.066168f, -0.046613f, 0.082363f, 0.061659f, -0.209728f, -0.143814f, -0.115899f, -0.045961f, -0.057279f, -0.126150f, -0.118714f, 0.039840f, 0.007706f, 0.135274f, -0.043804f, -0.075978f, -0.254453f, -0.108118f, 0.291546f, -0.351431f, 0.291509f, -0.046395f, -0.170467f, -0.163778f, 0.093130f, -0.108778f, 0.164559f, 0.181925f, -0.071818f, 0.060059f, 0.004894f, -0.040082f, 0.044078f, 0.035124f, -0.083212f, 0.194392f, 0.154972f, 0.103420f, -0.195195f, 0.239659f, -0.156353f, 0.263466f, -0.298483f, 0.129272f, -0.404037f, 0.101537f, 0.009568f, -0.158223f, 0.113420f, 0.172690f, 0.147051f, -0.133314f, -0.073024f, 0.148659f, -0.426696f, 0.119622f, -0.015893f, 0.189853f, -0.127781f, 0.104669f, 0.187991f, -0.171027f, 0.039117f, 0.243008f, -0.146390f, -0.048260f, 0.056600f, 0.258344f, 0.190179f, 0.018517f, -0.134271f, -0.067328f, 0.037800f, 0.152635f, 0.094716f, 0.179086f, -0.126808f, -0.039758f, -0.123298f, -0.090646f, -0.167095f, -0.130415f, 0.114493f, -0.086847f, -0.099919f, 0.110857f, -0.406410f, 0.156230f, 0.149838f, -0.107636f, -0.186499f, 0.163040f, 0.080924f, -0.001775f, -0.094244f, -0.031236f, -0.208150f, -0.025868f, 0.130986f, 0.028155f, -0.139005f, -0.099544f, 0.217716f, -0.026609f, -0.278726f, 0.054645f, -0.114613f, -0.059743f, 0.124442f, 0.366115f, -0.012777f, 0.132026f, -0.283177f, 0.100757f, -0.117634f, 0.037410f, -0.146370f, -0.170870f, 0.030002f, 0.046320f, 0.077982f, -0.032439f, 0.007901f, 0.119270f, -0.105244f, -0.358165f, -0.184643f, 0.030786f, 0.035119f, 0.338131f, -0.347301f, -0.163178f, -0.257235f, -0.262608f, -0.244793f, 0.228988f, -0.185871f, 0.033657f, 0.219367f, 0.170845f, -0.196629f, -0.140789f, -0.005380f, -0.398205f, 0.131320f, 0.074197f, -0.080026f, 0.043756f, -0.346279f, -0.032260f, -0.056217f, -0.164227f, 0.159809f, 0.141594f, -0.001065f, -0.036613f, -0.176113f, -0.251118f, -0.043182f, 0.219386f, -0.042709f, 0.215966f, -0.155484f, 0.209658f, -0.175633f, 0.352583f, -0.038743f, 0.351188f, -0.027436f, -0.249983f, -0.023626f, 0.203618f, 0.134020f, -0.209508f, 0.046905f, 0.038701f, -0.283527f, -0.201096f, 0.041778f, -0.135817f, -0.067055f, 0.173268f, -0.026270f, 0.121813f, 0.158340f, 0.141225f, -0.188379f, 0.092893f, -0.113992f, 0.238050f, -0.195307f, -0.016081f, 0.159897f, -0.042422f, 0.087874f, -0.199606f, 0.189639f, -0.218433f, -0.237475f, -0.021685f, 0.063026f, -0.111809f, 0.072581f, 0.199988f, 0.117990f, 0.168075f, 0.135279f, 0.376262f, -0.115818f, -0.252804f, -0.168658f, -0.174052f, -0.181179f, 0.162375f, 0.025805f, 0.291623f, 0.050006f, 0.087725f, -0.054166f, -0.029747f, -0.116242f, 0.293021f, 0.006800f, 0.011875f, 0.110733f, -0.199050f, -0.016527f, -0.152234f, 0.222972f, -0.242560f, -0.017850f, -0.017883f, 0.016152f, -0.283203f, -0.217786f, 0.136729f, -0.090893f, -0.007165f, 0.076213f, -0.098741f, 0.188272f, -0.144513f, -0.135577f, 0.257841f, 0.053809f, 0.241986f, -0.179481f, -0.077231f, 0.007241f, 0.066758f, -0.040520f, 0.084549f, 0.367675f, 0.050279f, -0.014215f, -0.062756f, 0.215787f, 0.096952f, 0.071015f, 0.085494f, 0.018115f, 0.220951f, 0.269988f, 0.037295f, 0.220502f, 0.132384f, -0.193310f, 0.189406f, 0.067237f, -0.077748f, -0.119201f, 0.131453f, 0.215334f, -0.068028f, 0.121603f, -0.075840f, 0.124971f, 0.007868f, 0.108802f, 0.064627f, -0.113182f, -0.171827f, 0.275118f, -0.021522f, -0.062831f, 0.090533f, -0.066508f, 0.109891f, -0.327770f, 0.188149f, 0.211494f, -0.095216f, -0.119566f, 0.131829f, 0.052689f, 0.008535f, 0.154573f, 0.405652f, 0.338503f, 0.073813f, 0.231201f, -0.112388f, 0.107689f, -0.089887f, 0.034719f, 0.089263f, 0.179674f, -0.085251f, 0.336061f, -0.115488f, -0.035624f, -0.069475f, 0.043074f, -0.166663f, -0.153139f, 0.036297f, -0.038042f, -0.109637f, 0.190562f, -0.089214f, -0.038132f, -0.002545f, 0.157684f, 0.144281f, 0.248178f, -0.436999f, 0.140024f, -0.200968f, 0.014992f, -0.037656f, 0.270815f, 0.035211f, 0.000701f, 0.183908f, 0.179149f, -0.261802f, -0.052551f, -0.142802f, 0.110978f, -0.099323f, 0.184979f, -0.045386f, -0.081152f, -0.482337f, 0.087970f, -0.080573f, -0.013711f, 0.224361f, 0.229037f, -0.083318f, 0.073814f, -0.200216f, 0.048041f, -0.172389f, 0.013288f, -0.001216f, 0.202340f, 0.008206f, -0.147059f, 0.000627f, 0.245536f, 0.015662f, 0.223190f, -0.006010f, 0.031154f, -0.207520f, -0.014283f, -0.002317f, -0.260655f, 0.101770f, -0.152564f, -0.222743f, -0.071156f, 0.130926f, -0.301653f, 0.021531f, 0.201414f, 0.120439f, 0.260686f, 0.039348f, 0.059872f, -0.182175f, -0.217671f, -0.162601f, 0.124796f, 0.149164f, -0.287857f, -0.008884f, 0.076302f, -0.312240f, 0.236187f, -0.035677f, -0.338394f, -0.126238f, -0.071332f, 0.023736f, -0.096560f, -0.077688f, 0.179803f, 0.095747f, -0.007289f, -0.205328f, 0.141157f, -0.057962f, -0.157459f, 0.064254f, -0.071549f, 0.033162f, 0.023554f, 0.032119f, 0.170671f, -0.136328f, -0.193802f, -0.012334f, -0.003161f, -0.015661f, 0.033449f, 0.195566f, 0.096961f, 0.009947f, 0.155354f, -0.003970f, -0.040699f, -0.085899f, -0.041868f, -0.143081f, 0.057215f, -0.094966f, -0.253211f, -0.239680f, 0.061232f, -0.118595f, -0.020988f, 0.139869f, -0.038764f, -0.049456f, -0.071095f, -0.023229f, -0.026632f, 0.219945f, 0.096921f, -0.089379f, -0.055484f, -0.076160f, 0.222774f, -0.088362f, 0.036911f, 0.269629f, -0.050842f, 0.168039f, 0.128345f, 0.270763f, 0.139979f, -0.152350f, -0.051454f, 0.177645f, -0.096689f, 0.097298f, 0.140163f, 0.071639f, 0.108058f, -0.211495f, -0.214682f, 0.078124f, 0.076335f, -0.305992f, 0.087236f, 0.005733f, -0.208955f, 0.001802f, 0.113140f, 0.064811f, -0.165856f, -0.116607f, -0.125363f, -0.166171f, 0.007265f, -0.176052f, -0.150871f, 0.108639f, -0.076723f, -0.204011f, -0.091235f, -0.007726f, 0.170126f, -0.005366f, 0.035771f, -0.048544f, 0.291203f, 0.139134f, -0.058087f, 0.083785f, 0.149215f, 0.212874f, -0.200790f, 0.238874f, 0.039084f, 0.307190f, -0.056541f, 0.132995f, 0.070361f, 0.155477f, 0.010475f, 0.061932f, -0.018506f, 0.093647f, 0.188447f, -0.031931f, 0.042160f, -0.139836f, -0.187289f, -0.057875f, -0.022790f, -0.016252f, 0.074845f, 0.228924f, 0.104531f, 0.075599f, 0.045735f, 0.151279f, -0.062734f, -0.006999f, -0.135422f, 0.075572f, -0.126580f, -0.059374f, -0.155716f, 0.332384f, 0.030322f, 0.193050f, -0.037790f, 0.236360f, -0.134485f, 0.090256f, 0.095585f, 0.421861f, 0.136218f, -0.023777f, -0.113346f, -0.195230f, 0.208843f, 0.098114f, 0.216330f, -0.115788f, 0.016434f, 0.123044f, -0.176655f, -0.192263f, 0.480552f, -0.113176f, -0.034435f, 0.467700f, -0.203549f, -0.085081f, 0.033415f, 0.091188f, 0.025806f, 0.115870f, 0.099564f, 0.337707f, -0.149060f, 0.406870f, -0.100655f, 0.098313f, 0.135458f, 0.004814f, 0.029809f, 0.014925f, 0.292588f, -0.155929f, 0.019067f, 0.215828f, -0.110219f, 0.019324f, 0.032342f, 0.173074f, -0.174027f, 0.041824f, -0.017945f, 0.132299f, 0.120850f, 0.003345f, -0.018195f, 0.075550f, 0.413609f, -0.116476f, 0.224715f, -0.038893f, 0.054296f, -0.032615f, -0.198453f, -0.048244f, 0.040182f, -0.146536f, 0.008437f, 0.005904f, 0.178609f, -0.153355f, -0.055850f, 0.081672f, -0.001178f, 0.052606f, 0.039067f, 0.091210f, 0.114659f, 0.359823f, 0.018969f, -0.094827f, -0.019586f, -0.022114f, 0.234782f, 0.060696f, 0.187952f, 0.040934f, -0.139534f, -0.071420f, 0.237716f, 0.103181f, -0.014909f, 0.016804f, 0.122881f, 0.112394f, 0.235531f, -0.241058f, -0.007391f, -0.039621f, -0.084961f, -0.070962f, 0.017053f, -0.049346f, 0.125405f, 0.057525f, 0.079995f, 0.007560f, 0.127668f, 0.186527f, -0.124433f, -0.031843f, -0.099675f, -0.071567f, -0.088650f, -0.006790f, -0.089746f, -0.253382f, -0.172287f, -0.042947f, 0.114099f, 0.114579f, -0.051607f, -0.158279f, -0.028766f, -0.081433f, -0.013918f, -0.014499f, 0.166022f, 0.276281f, 0.055995f, 0.078090f, -0.169426f, -0.086483f, 0.145311f, -0.091593f, 0.155670f, 0.230962f, -0.024926f, -0.085221f, -0.055397f, 0.120346f, 0.060688f, -0.144837f, 0.011655f, -0.355961f, -0.015572f, -0.020353f, 0.024156f, 0.191388f, -0.213316f, -0.203793f, 0.048425f, 0.089192f, -0.143691f, -0.168617f, 0.088932f, -0.034193f, 0.119899f, 0.054756f, -0.206406f, 0.074463f, -0.052483f, -0.257762f, 0.275492f, -0.041639f, -0.024958f, 0.119079f, 0.030268f, -0.104662f, -0.089262f, -0.021584f, -0.066162f, 0.213165f, -0.058855f, 0.043308f, 0.044693f, 0.058178f, -0.032731f, -0.267100f, 0.167565f, 0.084892f, 0.191828f, -0.071726f, -0.039325f, -0.135879f, -0.109601f, -0.162691f, 0.223237f, -0.088581f, -0.069201f, -0.007540f, 0.091986f, -0.080076f, 0.275960f, -0.231353f, -0.103273f, 0.169727f, 0.077405f, -0.075769f, -0.011451f, -0.073123f, -0.016041f, -0.087711f, -0.156392f, -0.008238f, -0.227139f, 0.185753f, -0.143690f, 0.107929f, 0.059290f, -0.002737f, 0.022842f, -0.104086f, 0.067306f, -0.093581f, -0.022456f, 0.104180f, -0.134713f, -0.092352f, 0.175445f, -0.187622f, -0.155767f, 0.255692f, -0.065436f, -0.105669f, -0.212092f, 0.024541f, 0.051671f, -0.084680f, 0.193582f, -0.141706f, 0.082296f, 0.057845f, -0.162394f, 0.028726f, -0.092908f, 0.159570f, 0.121589f, 0.025393f, 0.148499f, -0.267903f, -0.085661f, -0.234798f, 0.024345f, 0.038111f, -0.092084f, -0.133853f, -0.014466f, -0.121534f, 0.040840f, -0.131652f, -0.095298f, 0.474155f, -0.266798f, 0.006746f, 0.145453f, 0.198897f, -0.278358f, -0.165627f, 0.164380f, 0.117442f, -0.060136f, 0.115519f, -0.035271f, 0.003479f, -0.042955f, 0.064474f, 0.340909f, 0.151199f, 0.129063f, 0.033524f, -0.250462f, -0.078611f, 0.136994f, 0.052770f, -0.080098f, -0.071382f, 0.043604f, 0.083921f, -0.165324f, 0.203145f, -0.051062f, -0.275475f, -0.022403f, 0.202777f, -0.258699f, -0.135553f, -0.117802f, -0.082244f, 0.213073f, 0.115632f, -0.211027f, 0.085333f, -0.029865f, 0.043312f, -0.166952f, -0.180226f, -0.024325f, 0.105540f, 0.136623f, 0.061607f, -0.179458f, -0.040831f, -0.097841f, 0.028323f, -0.063206f, -0.013097f, 0.032084f, 0.134630f, -0.184122f, -0.037402f, -0.157362f, -0.201717f, 0.166481f, -0.131922f, 0.000161f, -0.058443f, -0.099466f, 0.143432f, 0.023564f, -0.020823f, -0.005200f, -0.096202f, 0.208032f, 0.099956f, -0.008803f, 0.005962f, 0.046622f, 0.108170f, -0.157388f, -0.018932f, 0.119425f, 0.001948f, -0.031901f, -0.060371f, 0.058837f, -0.002152f, -0.008362f, 0.048003f, -0.346570f, 0.135386f, -0.026864f, 0.070624f, 0.166703f, 0.013175f, -0.147047f, 0.232236f, -0.105132f, -0.029145f, -0.083007f, 0.223187f, -0.082161f, -0.098507f, 0.021582f, -0.044898f, 0.058318f, -0.144018f, -0.033092f, -0.117947f, -0.092780f, 0.122458f, 0.022014f, 0.107740f, 0.200814f, -0.138450f, -0.168553f, -0.014160f, 0.181323f, -0.026241f, -0.071284f, -0.081429f, 0.235809f, -0.033541f, -0.044034f, 0.105225f, -0.090485f, -0.072475f, -0.053466f, -0.154361f, -0.071920f, -0.188867f, -0.197220f, -0.036544f, 0.118902f, -0.074989f, 0.101581f, 0.006569f, 0.004600f, -0.107983f, -0.225228f, -0.102637f, -0.101321f, 0.181712f, 0.226002f, -0.067531f, -0.253343f, 0.012200f, 0.018798f, -0.066900f, 0.091587f, 0.066258f, 0.225442f, 0.012379f, -0.047028f, 0.039055f, 0.015637f, 0.007504f, 0.179391f, -0.146943f, -0.139133f, -0.054770f, -0.122233f, -0.001004f, 0.103721f, -0.127085f, -0.003769f, 0.014719f, 0.046809f, 0.126525f, 0.080789f, 0.101102f, -0.089391f, 0.015381f, 0.033156f, 0.082424f, 0.019860f, 0.077919f, 0.134254f, 0.111858f, -0.054279f, 0.010019f, -0.124998f, 0.085293f, -0.040304f, 0.151535f, -0.071345f, 0.137320f, -0.048380f, -0.076845f, 0.007025f, -0.146672f, 0.128182f, 0.102101f, -0.141272f, -0.094456f, 0.038210f, -0.147051f, -0.048291f, -0.098775f, -0.136504f, -0.124011f, -0.110181f, 0.048303f, 0.031779f, 0.075107f, -0.142972f, -0.081774f, 0.125753f, -0.021957f, -0.123351f, 0.140474f, -0.017908f, -0.045532f, -0.041201f, -0.090548f, -0.034593f, -0.089525f, 0.082529f, 0.137287f, 0.126480f, -0.139587f, 0.125226f, 0.133432f, -0.143786f, -0.049306f, 0.048267f, 0.160332f, 0.165800f, 0.044566f, -0.076684f, 0.108118f, 0.020016f, 0.039794f, 0.161382f, -0.146588f, -0.135199f, -0.107997f, -0.074964f, -0.032409f, -0.032350f, -0.050788f, 0.088516f, -0.123078f, -0.127701f, -0.135033f, -0.130066f, -0.009971f, 0.107917f, -0.016500f, -0.013724f, 0.000627f, -0.048269f, -0.085640f, -0.014840f, 0.050435f, 0.078822f, 0.143595f, 0.010552f, 0.149660f, -0.016278f, -0.073606f, 0.090765f, 0.013413f, -0.148852f, -0.015996f, -0.149194f, 0.111104f, -0.025393f, -0.024821f, 0.031432f, -0.005200f, 0.056412f, 0.096162f, -0.022022f, 0.081607f, -0.009153f, -0.030342f, -0.133122f, 0.121623f, 0.047028f, -0.077104f, -0.137169f, -0.035304f, -0.031795f, -0.106746f, -0.003040f, -0.112525f, 0.051551f, -0.118646f, -0.009018f, 0.116762f, 0.112094f, -0.085595f, -0.048281f, 0.009919f, 0.174619f, -0.014066f, 0.037535f, -0.026517f, 0.063014f, -0.002687f, -0.036757f, -0.029210f, -0.084367f, 0.051855f, 0.009605f, 0.063157f, 0.071656f, 0.052742f, -0.101493f, -0.149260f, 0.025024f, 0.124573f, -0.115134f, 0.046875f, -0.140480f, 0.166129f, 0.049812f, -0.111630f, -0.115702f, -0.132985f, -0.024419f, 0.093313f, -0.021268f, 0.015931f, 0.150651f, 0.012550f, 0.118427f, 0.074347f, -0.078735f, -0.037507f, -0.095824f, -0.118233f, 0.055969f, -0.083490f, -0.141992f, 0.009261f, -0.000657f, 0.122015f, -0.072065f, 0.004836f, 0.068453f, -0.119747f, -0.044244f, 0.063023f, -0.128343f, 0.128023f, -0.024143f, -0.070322f, 0.143406f, -0.100672f, 0.138113f, -0.114123f, 0.063412f, -0.115586f, 0.131509f, -0.145447f, 0.135542f, -0.117016f, 0.051130f, -0.074475f, 0.099803f, 0.106786f, 0.022336f, -0.150489f, -0.067379f, 0.097718f, -0.133200f, 0.041993f, 0.001160f, -0.045069f, -0.089730f, 0.019900f, -0.110002f, 0.104346f, -0.046547f, -0.054417f, 0.114100f, -0.040010f, -0.026214f, -0.122523f, -0.047019f, 0.043761f, -0.020514f, 0.014168f, -0.143663f, -0.114651f, -0.104454f, 0.007293f, -0.050399f, -0.019377f, -0.098697f, 0.092628f, -0.101096f, 0.077058f, -0.078066f, -0.042742f, -0.115225f, 0.101924f, -0.028808f, -0.058134f, 0.087069f, -0.123234f, -0.101583f, 0.020503f, -0.151495f, 0.070421f, 0.030477f, -0.019830f, 0.096932f, 0.030657f, -0.073035f, 0.138812f, -0.064047f, -0.120050f, 0.021681f, 0.046054f, 0.132598f, 0.036013f, -0.063480f, 0.104547f, 0.013779f, -0.102887f, 0.015924f, 0.025666f, 0.127198f, -0.088390f, 0.033594f, -0.104545f, 0.050658f, 0.001617f, -0.065008f, 0.094075f, 0.127144f, 0.076016f, 0.138872f, 0.142132f, -0.066978f, 0.005388f, 0.032956f, -0.011284f, -0.048864f, -0.074259f, -0.044130f, 0.059772f, 0.002796f, -0.124729f, -0.009027f, 0.028054f, 0.021637f, 0.070068f, -0.076130f, -0.020167f, 0.044840f, -0.060327f, -0.145802f, 0.040517f, -0.114579f, 0.044046f, -0.025440f, -0.132883f, -0.145609f, -0.100249f, 0.106948f, 0.073965f, -0.086889f, 0.147921f, 0.008318f, 0.025211f, 0.003135f, -0.037505f, -0.141300f, -0.004060f, 0.035989f, -0.046853f, 0.107238f, 0.148065f, 0.005579f, -0.093731f, 0.139571f, -0.137449f, -0.036641f, -0.012074f, -0.014297f, 0.106242f, 0.071826f, 0.120974f, -0.021173f, -0.138432f, 0.104479f, 0.077911f, 0.105376f, -0.132575f, 0.106441f, 0.009117f, 0.038196f, -0.058050f, -0.139976f, -0.129655f, 0.146495f, 0.078985f, 0.101364f, 0.130267f, 0.080448f, -0.033952f, 0.121664f, 0.021444f, -0.118752f, -0.130200f, 0.061696f, -0.069391f, 0.146307f, -0.106612f, 0.067772f, -0.075066f, -0.044644f, 0.098540f, -0.063179f, 0.100105f, 0.082925f, 0.037884f, -0.070222f, -0.065064f, -0.144595f, 0.037383f, 0.099130f, 0.018360f, 0.076808f, -0.088493f, 0.036470f, 0.015843f, -0.129290f, 0.055848f, 0.106845f, -0.120684f, -0.123817f, -0.141931f, -0.128071f, 0.031520f, -0.000440f, -0.142473f, 0.097472f, -0.136789f, -0.144761f, -0.001955f, -0.105849f, -0.113887f, 0.050661f, 0.027769f, 0.157113f, -0.082267f, -0.217141f, -0.179633f, 0.033230f, 0.039991f, 0.175191f, -0.095509f, -0.042342f, -0.110099f, -0.053220f, 0.046258f, 0.149444f, -0.053351f, -0.059396f, 0.005632f, 0.140636f, -0.000969f, -0.257884f, 0.121138f, -0.062035f, 0.076413f, -0.123319f, 0.332611f, 0.002609f, -0.000121f, -0.084234f, 0.152812f, -0.220534f, 0.196608f, 0.344112f, -0.055399f, 0.100457f, -0.196763f, 0.043966f, 0.115094f, 0.166819f, -0.003928f, -0.048552f, -0.150959f, -0.055026f, 0.175542f, 0.034617f, -0.011622f, 0.034297f, -0.083267f, 0.023117f, -0.026746f, -0.013007f, -0.165821f, 0.046579f, -0.011919f, 0.084592f, 0.129381f, 0.110262f, -0.149698f, -0.023342f, -0.198260f, -0.183676f, 0.007384f, 0.173268f, 0.009121f, -0.166152f, -0.019987f, 0.173090f, 0.089490f, -0.132948f, -0.094292f, -0.147292f, -0.178908f, 0.142059f, -0.089211f, -0.007566f, 0.131610f, 0.215188f, 0.174386f, -0.001749f, -0.051693f, -0.059876f, 0.019390f, 0.244908f, -0.138501f, 0.009401f, -0.278634f, 0.031098f, -0.064688f, -0.124918f, 0.057574f, 0.073380f, 0.192144f, -0.117567f, -0.107300f, -0.116246f, -0.143582f, 0.042424f, -0.166170f, -0.061238f, -0.165308f, -0.076357f, 0.148019f, -0.278491f, -0.060999f, 0.279351f, -0.112171f, 0.036511f, 0.133205f, -0.095814f, 0.026469f, -0.006993f, -0.104039f, 0.230795f, 0.069133f, -0.070321f, -0.037590f, 0.040500f, -0.202921f, -0.002885f, 0.041387f, -0.073009f, -0.063650f, -0.118882f, -0.037844f, 0.101871f, 0.138322f, -0.115900f, -0.102070f, 0.034822f, 0.140531f, 0.051096f, 0.074837f, 0.077183f, 0.041562f, -0.014040f, 0.017543f, -0.293388f, -0.190833f, 0.019582f, -0.052364f, 0.046153f, 0.053086f, -0.008176f, -0.086218f, -0.098997f, -0.063444f, -0.289826f, 0.069107f, 0.197933f, -0.027131f, -0.024175f, 0.133237f, 0.050911f, -0.197078f, -0.054790f, 0.118670f, -0.124463f, 0.000714f, 0.045753f, 0.096940f, -0.081219f, -0.127480f, 0.032753f, -0.111503f, -0.160605f, -0.134846f, -0.021564f, -0.193236f, -0.133198f, 0.110193f, 0.154353f, 0.108348f, -0.126675f, -0.136867f, 0.123124f, -0.132018f, -0.138276f, -0.136950f, 0.039492f, -0.137410f, 0.132210f, 0.088263f, -0.088445f, -0.078745f, -0.193019f, -0.040173f, -0.193119f, -0.059741f, 0.002387f, -0.028801f, -0.256311f, -0.356928f, -0.029845f, 0.117393f, -0.160284f, 0.093715f, -0.060466f, 0.279480f, -0.291187f, 0.134402f, -0.077402f, 0.029928f, 0.071157f, -0.090031f, 0.044366f, 0.081045f, 0.040709f, -0.024276f, -0.064767f, -0.077910f, -0.113803f, -0.067267f, 0.049888f, -0.134138f, 0.061284f, -0.140409f, 0.072638f, 0.002483f, -0.096168f, -0.017998f, 0.234646f, -0.011638f, -0.041771f, -0.263938f, -0.111369f, 0.030159f, 0.310126f, 0.281010f, 0.115790f, -0.171653f, 0.087798f, -0.115083f, 0.200056f, 0.091041f, 0.101080f, 0.036389f, -0.034099f, 0.250687f, 0.046785f, -0.110931f, -0.092839f, 0.041167f, 0.003048f, -0.202451f, -0.049220f, -0.029142f, 0.038061f, 0.131614f, 0.099808f, -0.069722f, 0.043243f, 0.207677f, -0.222903f, -0.035191f, 0.141067f, 0.048962f, -0.064485f, 0.185925f, -0.233067f, 0.030156f, 0.142331f, 0.163950f, 0.054285f, 0.090513f, 0.112966f, -0.108840f, -0.311638f, -0.046566f, -0.204535f, 0.070702f, -0.060704f, 0.224906f, -0.117898f, 0.022455f, 0.062250f, 0.213374f, -0.070668f, 0.103796f, -0.101583f, 0.060275f, -0.059740f, -0.110170f, 0.135035f, -0.130199f, 0.098546f, 0.027461f, 0.191136f, -0.013864f, -0.135888f, 0.153626f, -0.105505f, 0.023682f, -0.145970f, 0.085663f, -0.359627f, -0.117074f, 0.119594f, 0.081702f, -0.132358f, 0.167152f, 0.077957f, 0.022213f, 0.042266f, -0.145870f, -0.041084f, -0.023036f, -0.113229f, 0.068303f, 0.138302f, -0.010105f, 0.022149f, 0.206446f, -0.092707f, -0.036804f, -0.000289f, 0.152898f, 0.100324f, -0.039357f, -0.009216f, 0.219753f, 0.096551f, -0.025531f, -0.236342f, -0.062688f, 0.096527f, 0.026960f, -0.069247f, 0.082843f, 0.242500f, 0.030582f, -0.102024f, -0.070178f, 0.025987f, 0.131215f, -0.187027f, 0.028069f, -0.217905f, 0.033451f, -0.118785f, 0.132752f, 0.180823f, 0.061725f, 0.057134f, 0.135083f, 0.106725f, 0.136255f, 0.130372f, 0.160212f, -0.209750f, -0.031121f, 0.111986f, 0.134160f, 0.272615f, -0.143049f, 0.089116f, -0.199035f, -0.063059f, -0.017805f, -0.164378f, -0.094712f, 0.073348f, -0.031632f, -0.083491f, 0.025795f, 0.082394f, 0.081010f, -0.103343f, -0.053147f, -0.190991f, 0.122098f, 0.032177f, -0.007858f, -0.067541f, 0.051030f, 0.043430f, -0.070565f, -0.016348f, 0.115970f, 0.050565f, -0.142026f, 0.020447f, -0.181849f, 0.106240f, -0.067760f, -0.007396f, 0.068262f, -0.157327f, -0.097766f, -0.040103f, 0.018849f, 0.067444f, -0.094268f, 0.090466f, -0.086344f, -0.158431f, -0.029004f, -0.101757f, 0.087406f, -0.117772f, 0.220246f, 0.027676f, 0.053049f, 0.025641f, 0.026159f, -0.063885f, -0.002710f, -0.061267f, 0.149683f, 0.003081f, -0.146840f, 0.000695f, 0.105648f, -0.041436f, -0.096257f, 0.078986f, -0.003721f, -0.008165f, 0.236432f, 0.282776f, -0.194337f, 0.178840f, -0.050012f, -0.229515f, 0.069174f, -0.098364f, -0.016233f, 0.000746f, -0.097184f, 0.161995f, 0.042692f, -0.274980f, 0.021462f, 0.144843f, -0.102783f, 0.056404f, 0.007960f, 0.023826f, 0.009369f, -0.203144f, -0.004242f, -0.178262f, -0.033406f, -0.086515f, 0.067612f, -0.102254f, -0.052451f, -0.068137f, 0.071510f, 0.013184f, 0.189339f, 0.203052f, -0.019668f, -0.072560f, 0.120515f, 0.061708f, -0.170498f, -0.051706f, 0.016703f, 0.012736f, 0.008769f, 0.200886f, -0.117740f, 0.074948f, 0.139991f, 0.352635f, -0.190791f, -0.023532f, -0.154259f, -0.198352f, -0.088666f, -0.272366f, 0.076032f, -0.035417f, 0.014645f, -0.005196f, -0.171202f, 0.018788f, -0.163676f, -0.241018f, 0.017962f, 0.047009f, 0.016964f, -0.086725f, -0.016642f, 0.032159f, 0.160306f, 0.160618f, -0.069637f, -0.082056f, -0.078716f, -0.054718f, -0.009544f, 0.149842f, 0.090574f, 0.148992f, 0.005996f, -0.063564f, -0.012222f, 0.137317f, 0.019098f, 0.076654f, -0.157669f, 0.002663f, -0.123670f, 0.255887f, 0.098872f, -0.037725f, 0.125877f, -0.138017f, 0.132411f, 0.230855f, -0.039464f, -0.148699f, -0.165697f, 0.101241f, 0.014753f, 0.153448f, 0.194386f, 0.172003f, -0.245721f, -0.250131f, 0.045920f, 0.042610f, -0.017641f, -0.111888f, -0.139176f, 0.317426f, 0.092871f, -0.159026f, 0.202017f, 0.225381f, -0.190486f, -0.077746f, 0.081897f, 0.127224f, 0.037707f, 0.351149f, -0.025293f, 0.017980f, 0.008750f, 0.236605f, 0.208461f, 0.024170f, 0.157472f, 0.008439f, 0.150770f, -0.152000f, 0.217782f, 0.001953f, -0.134583f, -0.095177f, 0.034678f, 0.219454f, -0.012140f, -0.039979f, 0.149415f, -0.098211f, -0.161934f, 0.040319f, 0.219476f, -0.121650f, -0.386529f, 0.090824f, 0.242609f, 0.097728f, -0.004462f, 0.208536f, 0.131780f, 0.046128f, -0.116558f, 0.026809f, -0.193039f, 0.209821f, 0.223599f, 0.085298f, 0.190357f, -0.176156f, 0.046656f, -0.123502f, 0.003218f, -0.163243f, -0.053090f, 0.160420f, 0.120313f, 0.360788f, 0.152156f, -0.088194f, -0.185997f, 0.048059f, -0.362611f, -0.112120f, 0.155499f, -0.128554f, 0.120360f, 0.138435f, -0.006008f, -0.188749f, -0.142639f, 0.129126f, 0.065706f, 0.130027f, 0.080924f, -0.173584f, 0.028801f, -0.117729f, -0.139700f, -0.232923f, 0.032368f, 0.106748f, 0.024351f, -0.192072f, 0.238150f, 0.277768f, 0.081084f, 0.095682f, 0.227206f, 0.271243f, -0.072433f, -0.068740f, -0.107429f, -0.107600f, 0.059802f, -0.343925f, 0.080207f, 0.115332f, -0.387362f, -0.074769f, 0.156123f, -0.248183f, 0.072997f, 0.402270f, -0.039047f, 0.123266f, 0.045542f, -0.003684f, -0.003392f, -0.113349f, -0.293628f, 0.183014f, -0.031537f, -0.138623f, 0.021768f, 0.165973f, 0.158654f, -0.052140f, -0.094805f, -0.198098f, 0.053637f, -0.072303f, 0.169866f, -0.090965f, 0.054698f, 0.094458f, -0.075207f, -0.082202f, 0.083865f, -0.116100f, 0.074197f, 0.215575f, 0.022580f, 0.059933f, -0.135521f, 0.029113f, 0.071188f, -0.138046f, -0.412745f, 0.157729f, -0.013518f, 0.047251f, 0.016632f, 0.035021f, -0.097073f, -0.207998f, 0.153949f, -0.053775f, 0.170771f, 0.071757f, 0.266140f, 0.106108f, -0.140672f, 0.190142f, 0.149187f, -0.198324f, 0.165131f, -0.137845f, 0.022927f, 0.021632f, -0.053627f, -0.019354f, 0.061191f, 0.143417f, -0.058263f, 0.170503f, -0.127631f, 0.011498f, 0.012766f, -0.129577f, -0.009066f, -0.369105f, 0.053652f, 0.046574f, -0.295907f, 0.103350f, -0.031101f, -0.073372f, -0.011995f, 0.125247f, -0.101236f, -0.160654f, -0.034810f, 0.251505f, -0.166131f, -0.046838f, -0.078156f, -0.061616f, -0.177061f, 0.122762f, 0.003968f, 0.087328f, 0.165333f, -0.202637f, 0.251936f, 0.098396f, 0.232776f, 0.155265f, 0.074760f, -0.053543f, 0.063345f, 0.124089f, 0.047510f, 0.113727f, 0.056049f, 0.079962f, 0.349466f, 0.117462f, 0.017091f, -0.017858f, 0.060704f, -0.038309f, -0.022808f, 0.282803f, -0.129671f, -0.003710f, 0.049519f, -0.073216f, 0.097677f, -0.030542f, 0.179560f, -0.271818f, -0.110641f, -0.123295f, 0.051309f, -0.127260f, -0.053687f, 0.205565f, -0.196100f, -0.274383f, 0.071586f, -0.103217f, -0.141506f, -0.021223f, -0.352885f, -0.027061f, 0.204846f, -0.146791f, 0.173910f, -0.252176f, 0.143938f, 0.287934f, -0.048432f, 0.140112f, 0.029539f, -0.094866f, -0.229815f, 0.133391f, -0.133002f, -0.118712f, -0.127837f, 0.133360f, 0.134755f, -0.067226f, 0.021375f, -0.035706f, -0.194426f, 0.013136f, -0.047360f, 0.083598f, 0.067561f, 0.185297f, -0.145109f, 0.018466f, -0.073636f, 0.010393f, 0.168478f, 0.080126f, 0.196270f, -0.214383f, 0.056125f, 0.102445f, 0.138105f, -0.090071f, -0.308753f, -0.063808f, -0.078576f, 0.066041f, 0.144875f, 0.157091f, -0.140674f, -0.198618f, 0.158612f, -0.107766f, 0.181316f, 0.228957f, -0.080039f, -0.138791f, -0.207711f, -0.147415f, 0.112710f, -0.305524f, 0.171312f, -0.084211f, 0.040208f, 0.085191f, 0.009808f, 0.143922f, 0.064091f, -0.081808f, -0.070449f, -0.170131f, 0.028110f, 0.098198f, -0.233907f, -0.076806f, -0.065029f, -0.095736f, 0.162746f, -0.032478f, 0.007124f, 0.045671f, 0.084887f, -0.244010f, 0.083137f, 0.043830f, -0.222751f, -0.137427f, 0.076810f, 0.172495f, -0.158674f, 0.017095f, -0.046051f, -0.037923f, 0.054335f, -0.042039f, -0.038354f, -0.187570f, -0.072076f, 0.113939f, -0.002889f, 0.196928f, -0.002166f, 0.033675f, 0.040930f, 0.036367f, -0.193495f, -0.098006f, -0.235367f, 0.104035f, -0.165540f, -0.105962f, -0.163183f, -0.108128f, 0.031361f, -0.168908f, 0.215640f, -0.166878f, -0.217424f, 0.007486f, -0.020417f, -0.035161f, -0.209666f, 0.152264f, 0.324214f, 0.070077f, 0.032517f, 0.174044f, 0.212104f, 0.086454f, 0.101332f, 0.018372f, 0.049042f, -0.079745f, 0.101308f, 0.024907f, -0.052423f, -0.195964f, -0.107194f, 0.173984f, -0.114057f, 0.036953f, 0.113113f, -0.176864f, -0.066398f, 0.082757f, -0.029707f, -0.054161f, -0.067150f, -0.103244f, -0.265027f, -0.010202f, 0.162338f, 0.069553f, 0.204936f, -0.092405f, -0.209362f, 0.082971f, 0.066515f, 0.034707f, -0.001709f, 0.123906f, -0.164635f, 0.006134f, -0.096393f, 0.121083f, 0.043667f, -0.029255f, -0.040662f, 0.077715f, 0.129442f, -0.084211f, 0.181010f, 0.207686f, 0.050146f, -0.041801f, -0.179253f, -0.130500f, 0.269897f, 0.188533f, -0.097624f, 0.096426f, 0.240482f, -0.067512f, -0.042908f, 0.016999f, -0.061172f, 0.163914f, -0.047315f, -0.087912f, 0.238448f, -0.215803f, -0.125602f, -0.065703f, -0.171420f, -0.009248f, 0.002953f, -0.083503f, -0.083752f, -0.285899f, 0.115884f, 0.002694f, 0.028076f, 0.076246f, -0.147633f, 0.043621f, 0.044263f, 0.018136f, 0.031479f, 0.268374f, -0.118329f, -0.028506f, 0.230373f, -0.259900f, -0.113500f, -0.033925f, -0.052909f, -0.206578f, -0.102730f, 0.011682f, -0.097676f, -0.160368f, 0.102689f, -0.031260f, 0.119753f, 0.031135f, 0.005841f, -0.230498f, -0.005749f, -0.097698f, 0.017835f, -0.226602f, 0.100643f, 0.174352f, -0.166478f, -0.082431f, 0.041374f, 0.031465f, -0.270721f, -0.070390f, 0.166835f, 0.191522f, -0.130976f, 0.062359f, 0.017264f, -0.131174f, -0.190190f, -0.038386f, -0.273720f, 0.241541f, 0.180930f, -0.103372f, -0.155934f, -0.086542f, 0.035707f, 0.040626f, 0.039300f, 0.179847f, 0.303370f, -0.089981f, 0.163737f, 0.058501f, 0.133691f, -0.308906f, -0.058805f, -0.155461f, -0.159840f, -0.197734f, -0.094730f, -0.032443f, 0.052706f, -0.000381f, 0.047665f, 0.393386f, -0.047747f, 0.044306f, -0.021921f, 0.023689f, -0.325979f, 0.096085f, 0.151614f, -0.241848f, 0.039826f, 0.169540f, 0.204186f, 0.123388f, 0.183497f, -0.118645f, -0.257958f, 0.138265f, 0.040044f, -0.153792f, -0.203561f, -0.010167f, 0.071404f, -0.044536f, 0.160829f, -0.070287f, 0.058143f, -0.061884f, 0.104194f, -0.142908f, 0.172713f, -0.175618f, -0.136171f, -0.012861f, -0.155375f, -0.234686f, -0.127833f, -0.157297f, -0.212727f, 0.104141f, -0.102922f, -0.214483f, 0.134608f, 0.134106f, -0.042391f, -0.073193f, 0.113403f, 0.178832f, 0.016296f, 0.109595f, 0.070499f, -0.018771f, 0.072561f, 0.049829f, -0.095599f, 0.034071f, -0.063182f, 0.078024f, -0.073522f, 0.238314f, -0.016008f, 0.130736f, 0.035342f, 0.052042f, 0.043365f, -0.003990f, -0.151544f, -0.129707f, -0.043390f, -0.095665f, 0.031074f, -0.266135f, -0.224291f, -0.352301f, -0.114594f, -0.097519f, 0.065496f, 0.150916f, 0.012276f, 0.053444f, 0.112912f, 0.107423f, 0.020024f, -0.135482f, 0.093084f, -0.084513f, -0.151331f, -0.118339f, -0.088966f, -0.088325f, -0.097777f, 0.024686f, -0.176130f, -0.121085f, 0.137369f, 0.038198f, 0.090938f, 0.104147f, -0.146458f, -0.164570f, -0.093529f, 0.181869f, -0.044920f, 0.067760f, -0.110367f, 0.313584f, -0.067493f, -0.109240f, -0.129640f, 0.136217f, 0.177534f, 0.064243f, -0.013785f, -0.042274f, -0.039421f, -0.270325f, -0.006877f, 0.073962f, 0.045392f, -0.247101f, -0.017132f, 0.169889f, -0.086581f, 0.027089f, -0.198674f, 0.177208f, 0.231407f, -0.091244f, 0.098932f, 0.105149f, -0.103307f, -0.115861f, -0.085409f, -0.183055f, -0.014922f, 0.166417f, 0.137652f, -0.082264f, 0.005669f, -0.026991f, -0.019586f, 0.057076f, -0.132930f, 0.083469f, -0.139984f, -0.124586f, -0.036357f, -0.068530f, 0.102649f, -0.076444f, -0.003223f, -0.123227f, -0.150956f, 0.049932f, -0.027877f, -0.091159f, -0.065954f, -0.139268f, 0.012739f, 0.098086f, 0.005159f, 0.103740f, 0.031979f, 0.148850f, -0.125478f, 0.057860f, -0.147927f, 0.043374f, -0.045782f, 0.006098f, -0.109720f, 0.030865f, -0.105768f, 0.031893f, -0.147500f, 0.110021f, -0.115760f, -0.075110f, -0.103795f, -0.090357f, -0.085750f, 0.099952f, 0.071115f, -0.101409f, -0.106902f, -0.151649f, 0.003505f, 0.046864f, 0.119839f, -0.072723f, 0.106057f, -0.038527f, 0.029125f, 0.122304f, -0.049918f, -0.052335f, -0.080537f, 0.078429f, -0.003256f, -0.062978f, -0.150342f, -0.074286f, 0.079696f, -0.093855f, 0.028100f, -0.007991f, -0.063765f, 0.039834f, 0.077668f, 0.127428f, -0.075187f, -0.126739f, 0.088799f, 0.018715f, -0.006567f, -0.109633f, -0.068694f, 0.084640f, 0.110395f, -0.050749f, -0.118917f, -0.078262f, -0.078720f, -0.109784f, 0.097626f, 0.084034f, -0.095178f, 0.012567f, -0.143694f, 0.076653f, -0.149742f, -0.063209f, 0.015021f, -0.101455f, 0.010088f, 0.139500f, -0.010228f, -0.077158f, -0.091572f, 0.078805f, 0.031722f, -0.016500f, 0.006342f, 0.113191f, 0.133735f, -0.071639f, 0.002054f, 0.077258f, 0.046891f, -0.025953f, 0.090389f, -0.147646f, 0.101070f, 0.045641f, 0.087727f, 0.083073f, -0.094345f, -0.096754f, -0.137757f, 0.060159f, -0.139923f, -0.138612f, -0.144256f, -0.046541f, 0.022566f, 0.049530f, 0.128784f, -0.145255f, -0.097652f, 0.085421f, 0.090961f, -0.018370f, -0.030847f, 0.148991f, 0.001031f, -0.016365f, 0.007637f, -0.093178f, -0.028143f, 0.069362f, -0.054041f, 0.060477f, 0.079458f, 0.029933f, 0.101689f, 0.129510f, -0.120093f, -0.097010f, -0.105508f, 0.126187f, -0.009332f, 0.026510f, 0.125489f, -0.079103f, -0.077085f, -0.118508f, -0.014628f, -0.088863f, -0.114544f, 0.081952f, 0.129230f, -0.099101f, -0.057065f, 0.068754f, 0.004132f, -0.119558f, -0.042622f, 0.051953f, -0.104421f, -0.102502f, -0.151583f, 0.052633f, -0.103839f, -0.133383f, 0.109520f, 0.035160f, -0.015770f, 0.073740f, 0.054262f, -0.046580f, -0.012428f, 0.039721f, 0.092927f, 0.146164f, -0.107806f, -0.130681f, -0.122297f, -0.102280f, -0.138251f, -0.024417f, -0.024810f, 0.119560f, -0.111765f, -0.118996f, 0.112072f, -0.133603f, -0.136138f, -0.087598f, -0.008614f, 0.072356f, -0.036707f, -0.153618f, 0.050910f, 0.091664f, 0.077815f, 0.049167f, 0.087560f, -0.121780f, -0.065158f, -0.007191f, 0.165825f, -0.138376f, 0.062987f, -0.098854f, 0.016749f, -0.064539f, 0.109943f, -0.098417f, -0.098822f, 0.096368f, -0.145914f, 0.121381f, -0.144524f, -0.126322f, 0.075601f, -0.066103f, 0.070190f, 0.095336f, 0.130832f, -0.126538f, 0.033139f, 0.054413f, -0.058164f, -0.015807f, -0.116838f, -0.064256f, -0.061987f, 0.104020f, 0.049337f, -0.066902f, 0.001828f, -0.044661f, -0.084061f, 0.004543f, 0.125575f, -0.015845f, 0.119900f, -0.150758f, 0.001125f, 0.061540f, -0.005361f, 0.140785f, 0.066691f, -0.019773f, 0.017743f, 0.062899f, -0.128494f, 0.101578f, 0.155761f, 0.079062f, -0.047888f, 0.054726f, 0.090029f, -0.054290f, -0.027183f, 0.085150f, -0.095525f, 0.088941f, -0.082112f, 0.036386f, -0.146461f, 0.013695f, -0.123917f, -0.100642f, 0.002388f, 0.119224f, -0.046695f, 0.108428f, -0.117063f, 0.020677f, 0.112656f, -0.045313f, -0.001942f, 0.020196f, 0.012463f, -0.091430f, -0.073823f, -0.061243f, -0.003293f, 0.139506f, 0.042334f, 0.064520f, 0.053540f, 0.077622f, 0.078456f, -0.020697f, -0.051773f, -0.100626f, 0.078897f, -0.050382f, 0.143373f, 0.024892f, -0.020857f, 0.134457f, 0.041504f, -0.147597f, -0.056139f, 0.041770f, -0.037881f, -0.150993f, -0.135803f, 0.050701f, -0.003985f, 0.104993f, -0.001408f, 0.103748f, -0.026729f, 0.141891f, -0.142077f, 0.146017f, 0.122362f, -0.124619f, -0.018093f, -0.077376f, 0.041283f, -0.028995f, 0.093799f, -0.087606f, 0.026189f, -0.134981f, -0.118811f, 0.067323f, -0.127715f, 0.065298f, 0.139718f, -0.036319f, -0.090150f, 0.010394f, 0.145262f, -0.144782f, 0.125672f, 0.132982f, 0.059869f, 0.107497f, 0.033560f, -0.047800f, 0.043851f, 0.050356f, 0.114456f, -0.117035f, 0.134051f, -0.108214f, 0.129853f, -0.039943f, 0.028053f, -0.066547f, 0.090390f, -0.121154f, 0.003183f, -0.010350f, -0.069351f, -0.048868f, 0.065579f, 0.048761f, 0.111198f, -0.009199f, -0.128353f, 0.019845f, 0.035662f, 0.132181f, 0.072510f, 0.068517f, 0.025484f, -0.054061f, -0.124162f, 0.126266f, -0.137918f, -0.125816f, -0.000713f, -0.004815f, -0.112597f, 0.123693f, -0.046001f, 0.029886f, -0.139571f, -0.039820f, 0.077332f, -0.161947f, -0.196294f, -0.008766f, -0.125574f, 0.248869f, 0.011710f, -0.158146f, -0.038698f, 0.071433f, -0.091784f, -0.003339f, -0.098205f, -0.109204f, -0.135101f, 0.051415f, -0.082545f, -0.116721f, -0.134637f, 0.044788f, -0.117097f, -0.162707f, -0.038628f, -0.139001f, 0.100998f, -0.123267f, 0.119983f, 0.188791f, 0.019165f, -0.168575f, 0.236594f, -0.038341f, 0.055125f, -0.217692f, 0.068932f, -0.137655f, 0.218333f, 0.082579f, 0.058065f, -0.174124f, -0.163974f, 0.121649f, 0.024065f, 0.110185f, -0.080607f, 0.012679f, -0.137221f, 0.004705f, 0.195228f, 0.167074f, -0.136514f, -0.048575f, -0.116016f, 0.036685f, -0.206424f, 0.020897f, 0.054857f, -0.113843f, -0.005651f, -0.102506f, 0.039025f, 0.076848f, -0.196540f, 0.071829f, -0.264757f, 0.111794f, -0.126589f, 0.070463f, -0.045407f, 0.061053f, -0.074616f, 0.081014f, -0.105026f, -0.084146f, 0.076485f, -0.033764f, -0.022824f, 0.163980f, 0.029043f, 0.031886f, -0.086793f, 0.203898f, -0.019764f, 0.201635f, -0.182736f, 0.048078f, -0.031831f, 0.051602f, -0.179908f, -0.186403f, 0.080860f, -0.172535f, -0.111393f, 0.100651f, 0.056932f, 0.042869f, 0.002360f, 0.013237f, -0.065490f, -0.024884f, -0.151167f, 0.063659f, -0.202912f, -0.120120f, -0.087567f, 0.033712f, 0.220675f, 0.026091f, -0.044962f, -0.043678f, -0.060857f, 0.065275f, -0.129185f, -0.081254f, -0.056197f, -0.114730f, -0.044143f, 0.096053f, 0.008496f, -0.161796f, -0.121161f, -0.104926f, -0.010777f, -0.135505f, 0.039163f, 0.104488f, -0.005469f, -0.068195f, -0.032087f, -0.005114f, 0.007649f, -0.052040f, -0.002664f, -0.037825f, -0.143261f, 0.064860f, -0.141457f, -0.076572f, -0.094033f, 0.266798f, -0.119164f, -0.140754f, -0.110775f, 0.328358f, 0.082449f, 0.044157f, 0.044385f, 0.041724f, 0.042725f, -0.032140f, 0.012194f, -0.000880f, 0.041060f, 0.064866f, -0.115486f, 0.118295f, 0.246797f, -0.058016f, -0.073952f, -0.041263f, -0.044508f, 0.076583f, -0.072554f, 0.059758f, 0.219445f, -0.141411f, 0.002374f, -0.042991f, 0.099099f, -0.040633f, -0.010028f, -0.148563f, -0.063462f, 0.141151f, 0.118604f, 0.046287f, 0.064891f, -0.019108f, -0.061435f, -0.019204f, 0.033017f, -0.003536f, -0.059231f, -0.049692f, -0.076621f, 0.014753f, 0.182340f, 0.058793f, -0.083956f, -0.156026f, 0.039666f, -0.120690f, 0.014864f, -0.114853f, 0.028540f, -0.178585f, -0.142248f, -0.255448f, -0.070780f, -0.077060f, -0.039050f, -0.009904f, 0.272859f, -0.135116f, -0.151669f, 0.086822f, 0.192309f, -0.353284f, -0.295685f, 0.183928f, 0.076260f, 0.225103f, -0.009248f, 0.021946f, -0.134547f, 0.004606f, 0.113017f, -0.177752f, -0.194338f, 0.156615f, -0.122449f, 0.173274f, 0.126002f, 0.095169f, -0.025257f, 0.129362f, 0.001787f, 0.140564f, 0.035697f, -0.034053f, 0.052794f, 0.025401f, -0.091596f, 0.086807f, 0.092818f, 0.068642f, -0.043296f, 0.150399f, 0.278694f, -0.320990f, 0.007624f, -0.262626f, -0.154807f, 0.290277f, -0.182757f, 0.101246f, -0.216905f, 0.258197f, 0.133463f, -0.033844f, -0.298224f, 0.169334f, 0.262850f, -0.283700f, -0.104501f, 0.044669f, 0.205157f, -0.021528f, -0.028885f, -0.242981f, 0.351648f, -0.329585f, 0.273385f, 0.172772f, 0.013359f, 0.013818f, -0.004887f, -0.174642f, -0.115915f, 0.003423f, -0.168507f, -0.237733f, 0.141456f, 0.103601f, 0.242794f, -0.161750f, 0.336112f, 0.078133f, -0.084759f, -0.016067f, 0.154725f, -0.216726f, 0.171495f, -0.257064f, -0.015573f, -0.191648f, -0.145618f, 0.127870f, -0.044006f, -0.054803f, -0.143851f, 0.133929f, -0.057345f, -0.193231f, 0.250257f, 0.116151f, -0.029026f, -0.280183f, -0.169184f, -0.097262f, 0.004435f, -0.047739f, -0.189571f, -0.171797f, 0.252670f, 0.081458f, 0.108653f, 0.272703f, 0.049901f, -0.068955f, -0.197932f, -0.094144f, 0.187484f, 0.031550f, 0.039685f, 0.048735f, 0.100767f, -0.208246f, -0.022329f, 0.005842f, 0.237469f, 0.009302f, -0.140560f, 0.040268f, -0.054715f, 0.175460f, 0.225653f, 0.203251f, 0.109152f, -0.004516f, -0.085997f, 0.080793f, 0.045553f, -0.027349f, 0.002294f, -0.191777f, 0.101952f, -0.306631f, 0.239730f, -0.157006f, -0.013769f, 0.074814f, -0.062036f, 0.010948f, -0.130038f, 0.182735f, 0.112145f, -0.012529f, -0.011380f, 0.032599f, -0.226555f, 0.137964f, 0.090574f, -0.257745f, 0.154380f, -0.115451f, -0.153020f, 0.139219f, -0.065751f, 0.097819f, 0.073235f, 0.180729f, 0.175620f, -0.041255f, -0.194675f, -0.004322f, -0.211488f, -0.295393f, -0.098004f, 0.222028f, 0.054374f, -0.017493f, -0.035491f, 0.236738f, 0.066604f, 0.091572f, 0.085116f, -0.009223f, -0.055598f, -0.168312f, -0.294787f, 0.252797f, 0.012389f, -0.112059f, -0.326339f, 0.067614f, -0.497405f, 0.229940f, -0.123848f, -0.058770f, -0.214703f, -0.065174f, -0.085224f, 0.075914f, 0.333153f, 0.134704f, -0.250876f, -0.116385f, -0.018439f, -0.193634f, 0.047492f, 0.181406f, 0.078395f, -0.259634f, -0.079937f, 0.305503f, -0.207045f, -0.033496f, -0.051199f, 0.109646f, 0.144177f, 0.189281f, 0.151312f, -0.345273f, -0.127143f, -0.163404f, 0.032705f, -0.014181f, 0.126223f, -0.089700f, -0.072886f, -0.051828f, -0.053510f, 0.046252f, 0.128976f, 0.022704f, 0.197078f, -0.018829f, 0.236747f, 0.034955f, -0.178774f, 0.394277f, 0.194641f, -0.175347f, -0.042877f, -0.310966f, -0.276373f, 0.213920f, 0.076650f, -0.031009f, 0.270067f, -0.158676f, 0.081845f, -0.108286f, 0.047708f, -0.191615f, -0.138218f, -0.056256f, 0.133009f, 0.030861f, -0.070880f, 0.059928f, 0.301803f, -0.113113f, -0.105656f, 0.165024f, -0.296957f, 0.167523f, -0.178252f, 0.342212f, -0.256899f, 0.297738f, -0.060017f, -0.161207f, 0.097302f, 0.043231f, 0.103310f, -0.122382f, -0.056117f, -0.042430f, 0.009984f, -0.004802f, 0.109840f, 0.106293f, -0.090048f, -0.081657f, 0.081248f, -0.109960f, -0.179812f, -0.139327f, 0.096046f, 0.003569f, 0.108392f, 0.265055f, -0.110747f, -0.025751f, 0.004506f, 0.384655f, 